{"data":"[{\"input\":\"Hello\",\"output\":\"Hi\"},{\"input\":\"Hi\",\"output\":\"Hello! What can I do for you today!\"},{\"input\":\"What is the scratch for discord site?\",\"output\":\"https://scratch-for-discord.com\"},{\"input\":\"What is the s4d site?\",\"output\":\"https://scratch-for-discord.com\"}]","model":{"type":"LSTM","options":{"inputSize":31,"inputRange":31,"hiddenLayers":[20,20],"outputSize":31,"decayRate":0.999,"smoothEps":1e-8,"regc":0.000001,"clipval":5,"maxPredictionLength":100,"dataFormatter":{"indexTable":{"4":27,"H":0,"e":1,"l":2,"o":3,"i":4,"!":5," ":6,"W":7,"h":8,"a":9,"t":10,"c":11,"n":12,"I":13,"d":14,"f":15,"r":16,"y":17,"u":18,"s":19,"?":20,"p":21,":":22,"/":23,"-":24,".":25,"m":26,"stop-input":28,"start-output":29,"unrecognized":30},"characterTable":{"0":"H","1":"e","2":"l","3":"o","4":"i","5":"!","6":" ","7":"W","8":"h","9":"a","10":"t","11":"c","12":"n","13":"I","14":"d","15":"f","16":"r","17":"y","18":"u","19":"s","20":"?","21":"p","22":":","23":"/","24":"-","25":".","26":"m","27":"4","28":null,"29":null,"30":null},"values":[{"input":"Hello","output":"Hi"},{"input":"Hi","output":"Hello! What can I do for you today!"},{"input":"What is the scratch for discord site?","output":"https://scratch-for-discord.com"},{"input":"What is the s4d site?","output":"https://scratch-for-discord.com"}],"characters":["H","e","l","o","i","!"," ","W","h","a","t","c","n","I","d","f","r","y","u","s","?","p",":","/","-",".","m","4","stop-input","start-output","unrecognized"],"specialIndexes":[28,29,30]}},"trainOpts":{"iterations":20000,"errorThresh":0.005,"logPeriod":10,"learningRate":0.01,"callbackPeriod":10,"timeout":"Infinity"},"input":{"rows":32,"columns":31,"weights":[-0.17335322499275208,-0.9487115144729614,0.700621485710144,-0.01811155676841736,-2.2600345611572266,-1.2673170566558838,-1.0372693538665771,-1.3695188760757446,-1.4477142095565796,2.022212028503418,-0.692793071269989,-2.5896036624908447,1.932460904121399,-0.06607883423566818,-1.3861069679260254,1.1403106451034546,0.836758017539978,1.3496003150939941,0.20749208331108093,0.8856016993522644,-0.5307210087776184,-0.8823568820953369,-0.9063855409622192,-0.1493699848651886,0.9611726999282837,0.8932358622550964,1.9574005603790283,0.6800619959831238,-0.0031024091877043247,0.36297062039375305,-0.8632585406303406,1.1330088376998901,2.8557488918304443,2.474043846130371,2.0262997150421143,6.164421081542969,0.830956220626831,0.4762921929359436,-0.9961774945259094,2.6646625995635986,-1.1159545183181763,-3.45448637008667,-3.8393681049346924,-0.27759501338005066,3.581698417663574,-1.5823777914047241,-1.180204153060913,1.3124425411224365,2.5149850845336914,1.2695865631103516,-1.2553415298461914,-2.89988374710083,0.3080434203147888,-3.0850963592529297,3.089151382446289,0.14528582990169525,0.41841810941696167,2.202714443206787,-2.1695828437805176,6.6462321281433105,-2.9664430618286133,1.8753196001052856,-0.547138512134552,-1.1567198038101196,1.032853364944458,-1.4060567617416382,0.2785228490829468,-1.6801650524139404,0.23813287913799286,-0.2721516489982605,2.9060661792755127,0.5941286683082581,-0.18017852306365967,-0.47887125611305237,-2.71100115776062,1.4737969636917114,0.9255719780921936,1.1771034002304077,-0.686206579208374,-1.337512493133545,1.5651037693023682,0.09145162254571915,0.15732766687870026,-1.4036577939987183,2.064558267593384,-0.4427102506160736,-3.153775691986084,-4.022891521453857,1.675288200378418,-1.3670933246612549,-0.9128760695457458,0.5344715118408203,-1.9269052743911743,-1.7915853261947632,0.9316338300704956,-4.438748359680176,-0.44177916646003723,2.0628678798675537,-0.7176454067230225,1.4819138050079346,0.7011238932609558,5.447231292724609,0.9390745759010315,0.0908065214753151,1.7754755020141602,-5.913149356842041,-2.0389509201049805,-0.1192602813243866,0.32122287154197693,-0.21217046678066254,-1.330619215965271,-0.7425174713134766,-4.346970558166504,0.9038225412368774,-2.1209495067596436,6.478287220001221,-0.7877199649810791,-1.608444094657898,-2.6007750034332275,-0.1657644510269165,0.8065693378448486,-1.7240803241729736,-2.2701048851013184,1.7901802062988281,-1.338414192199707,0.13934141397476196,-0.015797439962625504,2.3832926750183105,0.5683014392852783,-0.8786606788635254,0.8399167656898499,-0.7301308512687683,0.9094838500022888,2.6022732257843018,3.703948974609375,-0.40846192836761475,-2.4642903804779053,-0.2756880223751068,-1.4906295537948608,-1.0972822904586792,-0.2254006415605545,-0.47937390208244324,0.24339276552200317,-0.35741767287254333,-3.01885724067688,-2.3984410762786865,0.7911306619644165,2.054966688156128,-1.0082391500473022,-1.3202323913574219,1.7078652381896973,1.3255163431167603,0.00800678413361311,-0.46567025780677795,0.8786649107933044,-0.9534777402877808,1.8393855094909668,-1.2172753810882568,0.8967944383621216,1.696022629737854,0.43216103315353394,-0.05307929962873459,1.9698063135147095,2.6510181427001953,-1.1040250062942505,-3.074769973754883,0.8090647459030151,-0.2573292553424835,0.7510213851928711,1.894891619682312,2.1430280208587646,-3.1481845378875732,2.140000581741333,0.7254847288131714,-1.715446949005127,2.652676820755005,1.6712751388549805,-0.28070399165153503,-0.9755731821060181,-0.38355472683906555,0.024214377626776695,-2.3795933723449707,-2.475883722305298,1.50271475315094,-1.6303327083587646,1.9026564359664917,-1.1024584770202637,-6.13781213760376,0.9322993755340576,-5.274265766143799,1.2657948732376099,4.0105509757995605,1.8179097175598145,-0.5530880093574524,-1.9835491180419922,-5.01650333404541,-0.4695371985435486,1.6499714851379395,1.8926314115524292,2.255662202835083,3.29579758644104,-7.739208221435547,0.8115500807762146,-0.5076686143875122,3.3725125789642334,2.826582908630371,-1.0438261032104492,4.989042282104492,-1.7669825553894043,-3.145869255065918,-4.6090312004089355,-1.1961736679077148,0.049538105726242065,-0.6201635003089905,4.828958988189697,-6.608646869659424,-5.82161808013916,1.6438920497894287,2.786210060119629,-0.8680934906005859,1.075269103050232,-1.1737651824951172,1.5305888652801514,-0.17978417873382568,-0.6963164806365967,1.431477665901184,-2.0058393478393555,-0.16312415897846222,0.5929386615753174,-1.1609724760055542,0.4764135777950287,2.2310807704925537,0.16772650182247162,-1.010838270187378,-1.0588579177856445,1.2542980909347534,-0.8402842879295349,3.1332685947418213,0.1744731366634369,0.6498358845710754,0.11415474861860275,-1.5538934469223022,-0.9504218101501465,-0.4080885648727417,-0.2149481326341629,2.0458106994628906,0.7597700953483582,1.3479998111724854,-2.334446430206299,-2.0951907634735107,-0.9932644963264465,0.9267818927764893,2.4751622676849365,-1.143311858177185,-2.532646656036377,2.2502639293670654,1.7456904649734497,1.7076548337936401,0.29451844096183777,-1.1403361558914185,-1.3093843460083008,-1.2823848724365234,-1.436500906944275,3.6097965240478516,-1.8201661109924316,-2.2789525985717773,-1.9938024282455444,-0.9597235321998596,0.6566008925437927,-1.2704585790634155,1.8404182195663452,1.291092038154602,0.3375776410102844,-1.4574123620986938,-0.0682990774512291,1.346333384513855,1.282397985458374,1.49423348903656,2.8344695568084717,0.5472992658615112,1.1372594833374023,1.1872007846832275,-0.4297117292881012,-2.985973358154297,0.11846423149108887,2.024749755859375,-4.679310321807861,-2.8281466960906982,-0.6603468060493469,0.22094418108463287,1.198923110961914,0.7960755825042725,-1.7515989542007446,-1.9978573322296143,0.854337751865387,0.006877404171973467,2.4169695377349854,0.45825812220573425,1.5974175930023193,-2.3514254093170166,0.6242842078208923,-3.0928454399108887,-0.03562041372060776,-0.366963654756546,0.7083290219306946,0.7975276112556458,0.9558095335960388,-2.815438747406006,4.055866718292236,-2.0234904289245605,-2.9990599155426025,1.4590641260147095,-0.7257615327835083,0.7088369727134705,4.495220184326172,1.207520842552185,-1.9580780267715454,3.465794563293457,-0.39163681864738464,-0.0006103612831793725,0.7679537534713745,-0.47645848989486694,0.08797284215688705,1.9120891094207764,6.397506237030029,-2.3900997638702393,1.2238794565200806,-1.5345286130905151,2.7430670261383057,-2.2173819541931152,1.1684197187423706,-0.6552062034606934,0.3667430877685547,0.04618348181247711,-2.001710891723633,-0.29964396357536316,-2.368548631668091,-1.0438079833984375,2.728661298751831,-0.32004261016845703,1.3580241203308105,1.337270975112915,1.6031016111373901,-1.5447330474853516,2.7514100074768066,1.783980131149292,3.7279226779937744,0.04869047924876213,1.6706453561782837,-0.970263659954071,-2.3692495822906494,-1.2040343284606934,3.5018653869628906,-0.5372956991195679,2.2317728996276855,0.2946753203868866,-1.0395468473434448,1.4072296619415283,-1.402184247970581,1.120100736618042,-3.472139596939087,0.5539141297340393,1.5920106172561646,1.2439836263656616,1.7138243913650513,-0.560226321220398,-1.0327210426330566,-1.9288183450698853,0.17466460168361664,0.02566993050277233,-2.560774326324463,0.8318701982498169,3.128952741622925,0.35800397396087646,-1.4750399589538574,-0.23563352227210999,-2.1818459033966064,0.9154707193374634,0.149170383810997,-1.9420241117477417,-1.7088451385498047,-1.3469125032424927,-0.8026903867721558,-0.9109755158424377,3.136836528778076,-2.958970785140991,-4.080815315246582,1.6187244653701782,-0.5553525686264038,-0.42088136076927185,-1.1259968280792236,1.2215602397918701,0.8761889934539795,1.4306491613388062,1.4330135583877563,-1.4849936962127686,3.991276502609253,-1.9011175632476807,0.20417214930057526,0.8555910587310791,-3.6947896480560303,-1.8154997825622559,-0.5219409465789795,-1.8312652111053467,5.663634777069092,1.2247012853622437,-2.809518814086914,-1.6554815769195557,4.5352935791015625,2.568289041519165,3.6963047981262207,-3.2973556518554688,-1.8625966310501099,2.1770474910736084,2.152255058288574,3.913316488265991,-0.5296709537506104,-0.483911395072937,-5.437746524810791,8.364835739135742,-2.1204380989074707,-2.2579851150512695,2.21663236618042,2.4045050144195557,5.536860466003418,1.4157849550247192,1.7654508352279663,-0.3050128221511841,0.8686385750770569,-2.811713457107544,1.4620990753173828,1.2677286863327026,-3.258755683898926,-3.131481885910034,-3.4937779903411865,0.14220799505710602,3.9907031059265137,-1.897271990776062,-1.3911364078521729,-2.5192928314208984,-4.0402421951293945,-3.2033581733703613,-1.8226100206375122,1.233620285987854,-1.705167531967163,1.396023154258728,2.8505942821502686,1.5046228170394897,-1.0761724710464478,0.8010568022727966,-1.436025857925415,6.342442989349365,1.2854931354522705,2.4079551696777344,-0.45716992020606995,-0.38118860125541687,-3.373790740966797,-3.118415355682373,0.24438431859016418,8.734116554260254,1.3661303520202637,0.7875728011131287,2.046036720275879,4.27621603012085,-2.995230197906494,0.05403510853648186,0.06763934344053268,-1.5660535097122192,1.4765950441360474,3.7727675437927246,-0.13029628992080688,-0.09811998903751373,-0.7493281960487366,-0.010727652348577976,-0.9037046432495117,0.6397721767425537,-1.291412115097046,-1.2237352132797241,3.413611650466919,2.696779727935791,-1.3157140016555786,-0.36560478806495667,-1.0171642303466797,2.089506149291992,-0.4791264832019806,-0.3777396082878113,-0.7578353881835938,0.5965913534164429,1.5399888753890991,-4.558407783508301,-0.7910476326942444,-0.25302764773368835,0.67403244972229,3.6827213764190674,-0.13922721147537231,-0.10074799507856369,1.871029019355774,-0.8356954455375671,1.3253796100616455,-0.4157131314277649,-0.9380671977996826,-0.09529992938041687,-0.26579713821411133,-1.0385656356811523,-0.5960180163383484,-2.493720531463623,-4.044742584228516,-0.4891778528690338,2.666194438934326,-0.6247901916503906,-0.583702564239502,4.689897537231445,-0.8650515079498291,-0.8678221106529236,-1.8341115713119507,0.815459668636322,0.7470675706863403,-0.5616558194160461,0.5876128673553467,-1.1985363960266113,4.213076114654541,0.8819295763969421,0.7232010364532471,0.17660018801689148,-0.9580909609794617,2.3510172367095947,-0.06845556944608688,-1.7495557069778442,0.7385168671607971,-3.195195198059082,-0.8656038045883179,2.400285243988037,2.569843053817749,1.349452257156372,2.5397846698760986,0.9269148707389832,-0.89774090051651,1.988437294960022,1.7808523178100586,-2.8177099227905273,-0.021093636751174927,0.4956352114677429,-2.37583327293396,1.180817723274231,-1.5064454078674316,0.3577541708946228,-4.250837802886963,-1.7830901145935059,0.01765071041882038,0.3048563599586487,1.7202177047729492,-2.6174683570861816,-3.8421642780303955,-2.5945723056793213,-0.1542969048023224,0.8492568135261536,-0.14872275292873383,1.3657525777816772,-4.786840915679932,0.15777023136615753,-0.4174390137195587,-1.3812274932861328,-2.9927432537078857,3.752103567123413,4.1590728759765625,-4.715179920196533,-2.84946608543396,-4.464236736297607,5.959050178527832,-4.225937843322754,-0.8310500383377075,0.599669337272644,-1.087485909461975,-1.42669677734375,4.698025703430176,-5.487379550933838,4.6952996253967285,0.3204965889453888,-6.885572910308838,4.820777416229248,-1.3603841066360474,5.373874187469482,-0.2742038667201996,0.03494677320122719,-1.2326018810272217,2.756542921066284,0.959566056728363,-2.368666172027588,-3.1226298809051514,4.094043254852295,-3.7231531143188477,4.194334983825684,0.3511641025543213,-4.201931476593018,-1.1050165891647339,-3.8356761932373047,-1.7678837776184082,-1.2016102075576782,-0.4246000349521637,-4.098996162414551,-1.4613697528839111,-0.4351400136947632,2.154841184616089,1.2611680030822754,2.620185136795044,-2.5332329273223877,2.5702874660491943,-6.017033576965332,-0.08683259785175323,5.682755947113037,2.4501566886901855,-2.8891656398773193,-4.279398441314697,1.129411220550537,1.2227988243103027,3.98697566986084,0.24795296788215637,3.8791756629943848,3.259955406188965,-0.46581393480300903,-3.751805067062378,-2.2659056186676025,-3.9170145988464355,1.8492285013198853,0.7879074811935425,4.200559139251709,-0.07559985667467117,4.652780055999756,-1.239474892616272,-3.4207613468170166,-3.2386043071746826,0.22968919575214386,0.5746214985847473,-4.539966106414795,0.3981558382511139,-0.9707807898521423,0.7451289892196655,-4.485789775848389,-0.7952392101287842,-4.204716205596924,0.7320844531059265,2.120440721511841,2.0610249042510986,-0.1961473971605301,-0.036990687251091,-1.9471309185028076,0.8677371144294739,-1.1871594190597534,3.2071480751037598,-1.187981367111206,7.909424304962158,-0.2138805091381073,-4.268866062164307,-0.7064707279205322,-3.665048599243164,1.4491914510726929,-2.8307220935821533,0.47808077931404114,0.8994864821434021,1.9035395383834839,2.405691623687744,-3.213042974472046,-2.3998818397521973,0.504565417766571,2.1967079639434814,4.5631022453308105,1.9605293273925781,-2.241076946258545,0.7437776923179626,1.6571784019470215,2.150278329849243,-3.180098056793213,-0.7197621464729309,2.277803659439087,-1.358502745628357,-2.7613606452941895,-0.8292888402938843,2.2697043418884277,-0.7818895578384399,0.3028353452682495,2.8981354236602783,-1.8558820486068726,-0.19206276535987854,0.8974838852882385,0.680984377861023,-2.6977758407592773,-0.30436164140701294,1.1288483142852783,-1.0315619707107544,0.7136314511299133,0.9181520938873291,-2.669893264770508,1.0742136240005493,1.796877145767212,0.7341618537902832,4.1456451416015625,2.4739959239959717,0.5597680807113647,1.0445932149887085,1.2191317081451416,-3.3235931396484375,2.5689804553985596,-0.0938488319516182,3.590143918991089,-0.1231393814086914,-3.812243938446045,2.174738645553589,1.2337721586227417,-0.15240618586540222,-0.0708996132016182,0.8109537959098816,-1.6000275611877441,-2.938509464263916,-0.9886768460273743,4.042697906494141,0.28285014629364014,0.1715255081653595,-1.9951286315917969,-0.30075308680534363,3.297008752822876,1.0750941038131714,-0.6345129013061523,-1.5171082019805908,-0.9666200280189514,0.26930806040763855,4.22283411026001,-0.7665631175041199,-1.0338624715805054,-2.013245105743408,1.8235363960266113,0.6116751432418823,-2.0385584831237793,-0.2532390058040619,-0.38081854581832886,1.8805798292160034,-0.46273091435432434,0.45268651843070984,2.000086545944214,1.4316325187683105,-3.428271770477295,-2.1660547256469727,1.748611569404602,-0.8298923969268799,-1.818981409072876,-3.757547616958618,-1.7042732238769531,-1.8827228546142578,2.8428432941436768,4.333946228027344,3.6873185634613037,0.6845600605010986,1.081484317779541,1.6311063766479492,-1.3885831832885742,-2.0874602794647217,3.9271793365478516,-3.8111984729766846,2.549281358718872,-3.9332621097564697,-4.860079765319824,3.1477224826812744,-2.849870204925537,1.60542631149292,-4.766018867492676,-1.7796581983566284,3.687575340270996,1.609371304512024,5.520413398742676,-4.228034496307373,-1.6617622375488281,0.29412776231765747,-0.8708063960075378,5.301492691040039,-2.814972400665283,4.04105281829834,-2.0847864151000977,-1.1665549278259277,1.3821147680282593,-0.03587358444929123,1.5662193298339844,1.928251028060913,-2.228442668914795,0.476924866437912,-1.1209089756011963,-0.3641301393508911,-3.0209286212921143,1.9644477367401123,3.1491498947143555,-0.6175209879875183,0.2705806791782379,-0.4488770365715027,0.09816078841686249,-0.6778486967086792,-0.5867239832878113,-0.07569261640310287,2.8675060272216797,3.2682900428771973,-3.5777790546417236,2.1262996196746826,3.7139084339141846,3.0844106674194336,-4.089671611785889,1.5273082256317139,-0.4435589015483856,-2.91347074508667,4.1361589431762695,-0.21270619332790375,0.023291220888495445,0.1544647067785263,-4.741219520568848,3.6929805278778076,0.7085517644882202,1.8603030443191528,3.9997756481170654,4.49628210067749,-3.3177833557128906,6.214961051940918,0.8773987293243408,-3.511986494064331,0.9362736344337463,5.882861614227295,2.457794189453125,1.7455040216445923,-1.8632540702819824,-0.06210754066705704,-0.5252800583839417,-2.491138219833374,1.5855839252471924,1.1166346073150635,3.471010208129883,-0.13026173412799835,3.7435784339904785,-0.05981788784265518,-4.4836883544921875,0.8927630186080933,1.9584194421768188,1.8064990043640137,-0.9152100682258606,-0.14646834135055542,-0.9403095245361328,-1.1748313903808594,0.26091238856315613,-1.1580171585083008,-0.5288991332054138,-0.17700490355491638,5.032108306884766,-0.013546892441809177,-2.842346429824829,0.8055111765861511,-3.2265586853027344,2.794076919555664,2.531719923019409,3.136949062347412,-4.383342266082764,3.2699971199035645,1.3645713329315186,0.4462301731109619,1.5419141054153442,-0.22311924397945404,0.06660371273756027,-3.8045127391815186,-3.208069086074829,-0.7807756066322327,1.3654953241348267,-3.2969536781311035,1.7044326066970825,-2.0452423095703125,-1.0031626224517822,0.6068218350410461,2.926074743270874,-1.6347438097000122,2.4908952713012695,4.606842041015625,7.502776622772217,1.2490546703338623,-0.015895862132310867,-0.694757878780365,0.1679869443178177,2.700073003768921,5.195887088775635,-1.2077419757843018,2.7072229385375977,-2.3939712047576904,-7.615567207336426,2.9956374168395996,-3.598254919052124,-1.1024025678634644,-0.07284973561763763,1.285064935684204,5.411423683166504,-3.3661913871765137,8.165546417236328,-2.8799099922180176,-2.1682732105255127,-12.06995964050293,4.73091459274292,-0.48537933826446533,-5.573324203491211,1.5526427030563354,0.017348745837807655,-2.470444679260254,4.027027130126953,-3.122349500656128,-0.3439145088195801,-0.022368013858795166,1.262537956237793,-0.7258521914482117,-0.28610193729400635,0.6861178874969482,1.8507674932479858,-2.9799723625183105,0.46156713366508484,-1.1435368061065674,0.8669026494026184,-1.1905308961868286,-0.7073910236358643,0.4808031916618347,-0.12243559211492538,1.184172511100769,-0.5341224074363708,-2.262932300567627,-2.908507823944092,-1.8670908212661743,0.5396744012832642,0.5959969758987427,1.0368205308914185,1.3445919752120972,-3.3029842376708984,-0.8341864943504333,-1.5092979669570923,2.0133402347564697,-2.7620837688446045,0.8620808124542236,-0.6463363766670227,-0.5598691701889038,-1.1038739681243896,0.5821020603179932,-0.1715221107006073,0.7603997588157654,0.9949482679367065,1.2960618734359741,-1.9645520448684692,-0.024458298459649086,-3.3616440296173096,1.4587007761001587,-0.7665789723396301,-1.2642649412155151,0.0005864304257556796,-0.5830584168434143,0.17247770726680756,0.3823322653770447,-3.2667272090911865,-0.8297359347343445,-2.406601905822754,2.513099193572998,-0.11615129560232162,0.778214156627655,-0.28653523325920105,-2.207095146179199,0.3876224756240845,-1.027714729309082,0.017391832545399666,0.07023521512746811,0.04981512948870659,-0.004221441689878702,-0.021579239517450333,-0.06401651352643967,0.0635538250207901,0.06985483318567276,0.05376572161912918,0.013069171458482742,-0.01714424043893814,0.02858491986989975,-0.02345934696495533,-0.020010145381093025,0.04176722839474678,0.05145025998353958,0.06118665635585785,0.06616724282503128,0.03009685128927231,-0.06433241814374924,-0.004883498419076204,0.04435355216264725,-0.009635074064135551,0.04744713380932808,-0.046494487673044205,-0.04488317668437958,-0.03797713294625282,-0.05362417921423912,-0.05324973911046982,-0.013770109042525291,0.025313055142760277]},"hiddenLayers":[{"inputMatrix":{"rows":20,"columns":31,"weights":[-1.3219019174575806,0.8179880976676941,-0.5240567922592163,0.2539287805557251,1.123326301574707,1.3971290588378906,2.500483751296997,1.4613085985183716,1.443928837776184,-1.7520567178726196,0.6703818440437317,-0.2862991690635681,0.5012659430503845,1.1127593517303467,0.20445533096790314,3.2189416885375977,3.0713346004486084,-0.696319043636322,-2.296663284301758,-0.4662303328514099,0.732293963432312,2.688181161880493,0.06711834669113159,2.6979360580444336,2.622262477874756,1.3460174798965454,-2.7532827854156494,-0.3013207018375397,-0.7806795239448547,-1.8560482263565063,0.79534912109375,1.5928910970687866,1.599889874458313,-1.684531331062317,0.04329049587249756,1.2129199504852295,0.9371593594551086,2.0469467639923096,2.511314630508423,2.6499521732330322,-2.898481845855713,0.36367371678352356,2.6908464431762695,-1.9464340209960938,2.331610918045044,2.2251064777374268,0.35512575507164,0.2322755753993988,0.8551196455955505,0.8667945265769958,-0.6172711253166199,-0.8399565815925598,2.517878293991089,0.5806834697723389,-0.330348402261734,-1.299340009689331,-2.4879026412963867,-0.6210330128669739,-2.9250407218933105,2.1877377033233643,-2.970309019088745,0.6189141273498535,-0.3987254500389099,0.9572170972824097,-1.8158971071243286,0.7562621235847473,1.848639965057373,-0.0647692158818245,1.4007422924041748,1.5164943933486938,1.2318699359893799,0.21282503008842468,2.2341344356536865,0.45676442980766296,-2.0918755531311035,-0.12138835340738297,-0.9398626685142517,-0.9188991189002991,1.4250825643539429,-1.9525487422943115,-0.20756003260612488,-0.34423524141311646,-0.769352912902832,-0.12971271574497223,1.7692149877548218,3.4133853912353516,-0.6927710175514221,-0.9867693185806274,-2.421992778778076,0.9025223255157471,1.1100355386734009,1.394433617591858,0.05285252630710602,0.5012860894203186,1.5730935335159302,-0.11198025196790695,0.7721262574195862,-0.4178377091884613,1.4591127634048462,2.8081178665161133,0.7265728712081909,-0.8500771522521973,-1.9418613910675049,0.847160279750824,1.5388094186782837,-0.18140706419944763,-1.8283722400665283,-1.479628324508667,-1.3588249683380127,2.3023388385772705,-1.483519196510315,-0.2671818137168884,-0.7621685266494751,-1.6064589023590088,2.8105132579803467,-0.2029774934053421,3.35794997215271,0.01628083363175392,0.5830541253089905,-1.983527660369873,-0.13965970277786255,-1.362228274345398,-0.7982734441757202,0.288146048784256,0.26021456718444824,-2.216235399246216,0.668714702129364,-1.2069134712219238,-0.9170969724655151,-0.6384077668190002,-1.9396275281906128,-0.14207951724529266,-0.9929528832435608,0.9463679194450378,-0.5782642364501953,-1.5328704118728638,0.8813722729682922,-1.0265319347381592,-2.3887901306152344,-0.6859718561172485,-1.9952892065048218,0.5168405771255493,-2.3831191062927246,1.1043856143951416,-0.0554715096950531,-1.2692430019378662,-0.18749040365219116,0.6961151361465454,1.6559364795684814,1.0902832746505737,0.07380514591932297,2.175553798675537,-1.0473520755767822,1.1319875717163086,-0.3104328513145447,-0.10221001505851746,2.9382474422454834,-0.4635220468044281,0.2215963751077652,0.17878644168376923,2.4881749153137207,1.2030142545700073,-0.8870857357978821,-0.030298694968223572,-2.726367950439453,-0.47514793276786804,2.9659247398376465,0.3609873652458191,-0.19362904131412506,-0.5032241344451904,0.2872028946876526,1.1310771703720093,-0.42269131541252136,0.9737048149108887,-0.557316780090332,0.3136696219444275,2.9754269123077393,0.5891081690788269,0.6830732226371765,-0.15739692747592926,0.03340708464384079,-1.903002381324768,-0.3858347535133362,-0.4340355098247528,0.039446547627449036,0.6231860518455505,1.8685113191604614,-1.4905704259872437,-0.035645660012960434,1.2873190641403198,-0.011709785088896751,-0.3667258024215698,0.7420373558998108,3.3639943599700928,-0.8320856094360352,1.7823197841644287,0.7213390469551086,0.6454964280128479,-1.7324637174606323,-0.7451167702674866,0.7438802719116211,-3.3147146701812744,1.3850210905075073,-1.0208364725112915,1.046057105064392,0.01292471494525671,0.7025399208068848,-2.147915840148926,0.3913708031177521,0.9115229845046997,-2.9487369060516357,-1.8270124197006226,0.4005061388015747,-1.9758561849594116,2.754913568496704,0.19268251955509186,0.8833708167076111,0.7983482480049133,2.4016265869140625,-0.7198717594146729,2.241422653198242,0.7987458109855652,0.7917624115943909,-1.4811266660690308,3.3310086727142334,-0.08657924830913544,-0.3611758053302765,-0.3102398216724396,-0.7021512985229492,0.22322294116020203,-0.7813794612884521,-1.466194987297058,-0.22351831197738647,-0.7001988291740417,-1.6658241748809814,-2.140556573867798,-1.5710492134094238,-0.8476712703704834,-1.2610996961593628,2.6889681816101074,0.962000846862793,1.7735129594802856,-0.2232317179441452,-1.5269362926483154,0.5317301154136658,0.057923462241888046,-0.3348785936832428,2.7101728916168213,-1.187540888786316,0.1336362212896347,0.19047509133815765,-1.51710045337677,2.852886915206909,0.7873648405075073,2.001667022705078,-1.4427828788757324,1.8922592401504517,-1.0832563638687134,0.2915128469467163,1.868221402168274,-1.5382615327835083,0.36020034551620483,1.0812358856201172,-0.3910757303237915,1.05472731590271,1.01364004611969,4.7457756996154785,0.21343179047107697,-1.346377968788147,0.5500529408454895,-1.242949366569519,0.5562711954116821,-4.136072635650635,0.7572871446609497,0.7493969202041626,0.11344931274652481,-0.1677408367395401,1.0514090061187744,-1.3731751441955566,-1.0770957469940186,-0.48074015974998474,1.2630072832107544,0.7109337449073792,-0.321006178855896,0.6340955495834351,0.3816912770271301,4.113429546356201,-0.609271228313446,0.47165098786354065,-1.906203031539917,1.5850601196289062,0.34640106558799744,-1.0434671640396118,0.26608341932296753,-0.1846923679113388,0.2551341950893402,-0.4433206617832184,-1.1067602634429932,-1.6285184621810913,4.00565242767334,0.06599485129117966,1.9441782236099243,2.4788818359375,1.4046664237976074,1.013914942741394,-1.800359845161438,-1.5429294109344482,-0.0499989278614521,0.48478734493255615,1.4669781923294067,1.3298563957214355,0.36376550793647766,-1.243431806564331,-0.8383909463882446,1.2971293926239014,-0.04957916960120201,-0.47954440116882324,0.7579519152641296,0.1600484997034073,-1.2199673652648926,-2.8614695072174072,1.3282058238983154,2.234553813934326,2.0440101623535156,0.16027136147022247,-0.16918961703777313,0.9581825733184814,-1.3328090906143188,-0.548999011516571,-0.3176604211330414,2.194658041000366,1.917740821838379,1.90523362159729,-0.8609367609024048,0.5525839924812317,-1.5311203002929688,-0.7061676979064941,-0.7465724945068359,0.8210262060165405,-3.058582305908203,0.3995319604873657,-0.0972854271531105,2.182992696762085,-0.217787504196167,-0.2309839427471161,0.18295438587665558,3.331674337387085,1.1110477447509766,0.6917316913604736,1.333370327949524,-3.154592514038086,-0.8097691535949707,1.8787593841552734,1.2196787595748901,0.9263297915458679,0.030825300142169,0.12509527802467346,1.4181241989135742,0.16835172474384308,-1.4999314546585083,-1.4183580875396729,0.5656307935714722,3.4177355766296387,1.5936362743377686,0.7396930456161499,1.6977263689041138,-0.3172566294670105,-3.6192538738250732,-1.0690462589263916,-0.203383207321167,-0.36075904965400696,0.7871952652931213,-1.3321563005447388,0.31924760341644287,-0.370205283164978,-0.477787584066391,0.5900993943214417,1.2801487445831299,0.6720593571662903,1.1723171472549438,-0.2126382291316986,-2.5290043354034424,0.16412344574928284,1.1026989221572876,0.193366140127182,1.112647533416748,1.9530478715896606,-1.718935251235962,1.6331650018692017,-0.8569898009300232,1.039689064025879,-0.1694004088640213,-0.5972833633422852,0.8634321093559265,0.710094690322876,-0.12417411059141159,-1.5764366388320923,-1.4789679050445557,0.12123657017946243,-2.567746877670288,2.0275511741638184,-1.56734037399292,-0.5155620574951172,0.2712252140045166,-1.924763798713684,0.45122548937797546,-1.2237653732299805,1.1258939504623413,-0.012793129310011864,-0.9218593239784241,0.4465607702732086,-1.1467829942703247,-0.4516582489013672,-2.7305376529693604,0.43993496894836426,0.8702487945556641,-0.04250394180417061,2.7802894115448,0.775172233581543,-0.5961307287216187,-0.931027352809906,2.284438133239746,0.25156325101852417,2.625704765319824,-0.22373606264591217,0.7138280272483826,-0.2924884557723999,0.899174153804779,0.30755993723869324,0.6047161817550659,-0.9664406776428223,0.2929533123970032,2.0880789756774902,-0.5222628712654114,-1.164427399635315,2.893129587173462,-2.0759289264678955,0.6232951283454895,-1.54766845703125,2.8973958492279053,0.1778297871351242,-2.0520119667053223,-3.7492613792419434,-2.1696572303771973,0.5072870254516602,8.008152961730957,1.534307599067688,-1.1559370756149292,0.8847258687019348,-0.057358674705028534,-2.672675371170044,-2.005974531173706,1.5174403190612793,0.12867450714111328,1.4676905870437622,2.2811872959136963,-0.4416365623474121,-1.2126238346099854,-2.7384886741638184,-1.62236487865448,-2.0648114681243896,1.9571573734283447,0.9306538701057434,1.016120195388794,1.035762071609497,-1.7910341024398804,1.174009084701538,-1.1159250736236572,2.084398031234741,2.5647366046905518,-0.930351972579956,-1.0170890092849731,0.41877976059913635,1.4171735048294067,0.7483813166618347,1.9131574630737305,-0.43076568841934204,-0.08751974254846573,0.06872149556875229,0.12214242666959763,0.903302013874054,2.6328845024108887,-2.339231252670288,2.593690872192383,-0.2431773841381073,-1.5928126573562622,-1.2031478881835938,1.0821291208267212,2.0684926509857178,-3.2041804790496826,-3.0104870796203613,0.06757529824972153,1.8453704118728638,0.3419845402240753,3.166212320327759,0.14065486192703247,0.8204267024993896,-0.8895589709281921,-1.7820653915405273,1.8865278959274292,0.4047183096408844,-0.7360391616821289,-0.5105156302452087,-0.5034228563308716,1.5528020858764648,-0.3387426435947418,-0.06383208185434341,-0.7878862023353577,-2.9415886402130127,-1.6135900020599365,-2.521364450454712,-0.49222686886787415,-0.47886359691619873,-0.8932991027832031,0.8534987568855286,-0.6803560256958008,-1.5630079507827759,-0.8258954882621765,1.9129496812820435,0.43338555097579956,0.7943319082260132,-1.925751805305481,-0.3789650797843933,1.1997357606887817,0.38106679916381836,-2.051776647567749,-0.24219603836536407,-2.060265302658081,-0.006107728462666273,1.2116822004318237,-1.5007702112197876,1.0753827095031738,1.0570710897445679,0.9565048217773438,2.239380121231079,-0.25645068287849426,-0.6203070282936096,2.5179104804992676,1.8891395330429077,0.9831796288490295,-0.4451945424079895,1.4891680479049683,-2.4283556938171387,2.386171579360962,-1.869450569152832,0.41269293427467346,0.5504429340362549,-0.3609658479690552,0.39599156379699707,-0.6785745620727539,1.9665615558624268,0.07321763783693314,-0.12689384818077087,-1.3307338953018188,0.4161374568939209,-0.025450056418776512,-1.7594256401062012,-0.3187122642993927,-0.8913450837135315,0.3254249393939972,-2.4783942699432373,1.7303882837295532,2.1908836364746094,0.11700683832168579,0.26156067848205566,-0.06663096696138382,2.5676028728485107,-0.31449249386787415,1.912143349647522,-0.021424084901809692,-2.450822353363037,-0.3667784631252289,-0.8531787395477295,0.6052336096763611,0.24390088021755219,-1.7449220418930054,2.504211902618408,-3.1046619415283203,-1.9409066438674927,0.4621301293373108,0.8166356086730957,0.5583652853965759,-0.6782528758049011,-3.084177255630493,-0.5121760964393616,-0.6363932490348816,0.8127961754798889,0.5568556785583496,1.194786548614502,1.0389958620071411,0.6989701986312866,-0.3115209639072418,0.8357154130935669,-1.504591464996338,1.3034294843673706,-1.0576889514923096,-0.3727599084377289,-1.220698595046997,-1.7370266914367676,-1.579661250114441,1.2869880199432373,1.784593939781189,-0.8038499355316162,0.08645319193601608,0.421712726354599,-0.7495270371437073,0.15280823409557343,0.18747903406620026,-0.2014545351266861,1.6323086023330688,1.5604348182678223,0.20547735691070557,-1.7789599895477295,1.002209186553955,0.518059492111206,-1.8439980745315552,-2.5998010635375977,-0.43850353360176086,0.07783525437116623,0.21241310238838196]},"inputHidden":{"rows":20,"columns":20,"weights":[0.3612438440322876,0.21951843798160553,2.4054765701293945,-1.6934210062026978,2.5813443660736084,-7.404139995574951,-0.8518082499504089,0.9301065802574158,-1.2934064865112305,-2.280996799468994,0.5628824234008789,-1.4356595277786255,1.2245304584503174,-0.5978003740310669,-0.3062411844730377,0.9537607431411743,-1.0065850019454956,-1.5111427307128906,-0.5989155173301697,0.4026445746421814,-2.2214155197143555,-0.1796557754278183,0.8483223915100098,0.395498663187027,-0.9944771528244019,1.2609697580337524,-1.2466202974319458,1.1002064943313599,1.5193188190460205,0.7348906993865967,-1.122558832168579,-0.30758023262023926,0.3343782424926758,0.40676310658454895,-1.1890698671340942,-0.1497630625963211,2.2467739582061768,1.0077409744262695,-0.8587436079978943,1.5518947839736938,-0.2216426283121109,-0.06791649758815765,0.5810925960540771,1.8918883800506592,1.1954221725463867,-0.44793573021888733,-0.7785767316818237,2.1922390460968018,1.3750345706939697,-0.49576935172080994,-0.8502638339996338,-0.020087413489818573,1.6665780544281006,-1.8746448755264282,-2.97924542427063,-1.8680446147918701,0.6738825440406799,0.34702035784721375,-1.9243112802505493,1.6540241241455078,-0.38998183608055115,-0.5032684803009033,0.6943147778511047,0.044147126376628876,-0.9434754848480225,-1.2229489088058472,-0.9892256259918213,-3.308131456375122,-0.5988590717315674,-0.6652979254722595,0.969677746295929,0.006209788378328085,0.42232751846313477,-0.5405539870262146,-1.5051367282867432,-2.470414161682129,-0.4283653497695923,0.8809663653373718,-0.5412341952323914,-0.6831886768341064,-2.529520273208618,-0.6294773817062378,2.4299793243408203,-2.9207255840301514,1.9637095928192139,2.9252045154571533,0.5101258158683777,1.2838635444641113,-0.11653169989585876,1.4473860263824463,-0.17668358981609344,2.696269989013672,1.0431174039840698,-0.9991734623908997,-0.21353337168693542,-0.16503643989562988,2.52006459236145,1.8583757877349854,1.0205262899398804,0.8744338154792786,-1.2689058780670166,2.8482697010040283,0.6498817205429077,0.505154550075531,1.1931451559066772,0.4203857183456421,-1.1901026964187622,-0.14206355810165405,-2.991746425628662,-3.284134864807129,0.3997586965560913,1.2327810525894165,3.2357373237609863,-2.7460460662841797,-1.9931845664978027,-1.8927710056304932,-0.6389189958572388,1.1006944179534912,-1.750715732574463,0.6479530930519104,-2.0147697925567627,-0.5725817680358887,1.4016791582107544,-0.6766241192817688,1.5869807004928589,-0.1787494421005249,-0.37203606963157654,0.32764729857444763,0.38102400302886963,0.5045955777168274,2.7394661903381348,0.7348434329032898,-1.067030668258667,-0.8752528429031372,-1.0010069608688354,1.2495226860046387,0.5690100789070129,0.9802607893943787,0.5528628826141357,-0.5340667963027954,1.304024338722229,3.818528652191162,-1.2872470617294312,-3.2593064308166504,3.207676410675049,0.8567414879798889,-3.2314255237579346,1.9157369136810303,0.28336575627326965,-2.0996179580688477,2.6670098304748535,-1.0591784715652466,3.079911947250366,-2.6775412559509277,-1.5974806547164917,-2.505305051803589,0.6905401945114136,2.2547607421875,-0.7848514318466187,0.3797367811203003,-1.915775179862976,1.170904517173767,-0.785240650177002,2.743849515914917,2.5971994400024414,-1.0479456186294556,0.3391577899456024,-1.742516040802002,3.0234179496765137,-1.903308391571045,2.3647475242614746,0.21837681531906128,0.07116822153329849,-1.4734114408493042,-4.259331703186035,-2.863203287124634,-1.9695065021514893,2.3049209117889404,-0.945045530796051,-0.02365882508456707,1.036967158317566,1.7190302610397339,-0.164362832903862,1.4397788047790527,0.51271653175354,-1.5172175168991089,-0.6934014558792114,-0.1633356213569641,0.8806450963020325,-1.109000563621521,-1.756712555885315,-1.5789265632629395,1.5806264877319336,-0.5865236520767212,1.4263945817947388,-0.408192902803421,-1.2010852098464966,2.2560598850250244,-1.3570873737335205,-1.0793890953063965,1.4326462745666504,2.10465145111084,-3.9438860416412354,2.1783063411712646,0.5809423327445984,-0.34070250391960144,-1.0236377716064453,2.12671160697937,0.690498948097229,-1.588065505027771,-1.290018916130066,-2.6923813819885254,0.7123437523841858,-1.116026520729065,0.7582592964172363,-0.5056280493736267,0.1025579497218132,-0.3594565987586975,-0.5551168322563171,0.09591445326805115,-2.1031525135040283,0.13378506898880005,2.0558278560638428,-2.9542222023010254,1.4083735942840576,-1.7790559530258179,-0.5049886107444763,0.48370078206062317,-0.623141348361969,1.3808128833770752,2.507779598236084,0.7518969774246216,-0.006054551340639591,0.5600389242172241,1.741008996963501,2.350943088531494,-2.247877597808838,1.8827989101409912,-1.562020182609558,1.2234671115875244,0.035570982843637466,-0.3526712656021118,-0.4558102488517761,0.8826568126678467,4.1802449226379395,0.6267929077148438,-0.7173682451248169,0.2930759787559509,0.9606693387031555,1.4430525302886963,-1.305793285369873,-0.8856569528579712,-0.4906730055809021,-0.5065768957138062,-1.7541612386703491,-0.16757455468177795,-0.3120690584182739,-1.1694962978363037,1.8875987529754639,1.6159833669662476,-2.699735641479492,2.629037857055664,-0.6473255157470703,0.6692026257514954,2.897730588912964,1.0946146249771118,-0.13064904510974884,1.988166093826294,0.6951159238815308,1.3525753021240234,-2.494492530822754,3.6909732818603516,0.5437088012695312,-0.008063230663537979,-1.5048896074295044,-0.09070318937301636,2.219003438949585,-1.1134324073791504,-1.5481548309326172,0.6480064988136292,1.1669800281524658,2.280074119567871,0.7304478287696838,0.9832274317741394,2.0910401344299316,-0.023272082209587097,-0.06609061360359192,0.4808160364627838,8.606642723083496,-1.8734709024429321,0.5803238749504089,-0.9397465586662292,0.12180038541555405,-1.4103977680206299,1.8147029876708984,-6.795354843139648,1.0664699077606201,1.8201309442520142,-1.7790453433990479,2.637216091156006,1.0126487016677856,-0.16190655529499054,0.08509815484285355,4.1944499015808105,1.8924510478973389,-0.24483604729175568,-2.7716786861419678,1.3409863710403442,0.08913078904151917,1.8853071928024292,-0.7314040660858154,-0.39885661005973816,1.1910219192504883,-0.814989447593689,-1.03182053565979,0.4363522231578827,-1.245743751525879,0.47200319170951843,-0.5726354122161865,-3.0859525203704834,-1.7424564361572266,1.7584630250930786,2.314765453338623,-1.8715497255325317,-2.5815038681030273,1.3730789422988892,-2.6396844387054443,-1.4216625690460205,-1.1125462055206299,-2.3040528297424316,1.4262304306030273,2.5418810844421387,2.1505606174468994,-4.428837299346924,0.361959844827652,-3.9610846042633057,1.1690301895141602,0.10443761199712753,-0.8391379714012146,1.5306285619735718,-1.4734066724777222,-0.595451295375824,4.973634719848633,0.6199674010276794,-3.9688103199005127,-0.27441874146461487,1.9843778610229492,-0.7311685085296631,0.6311090588569641,-4.131629467010498,-0.6449000835418701,1.0846492052078247,0.5328549146652222,1.4017910957336426,0.7327117323875427,-0.10641508549451828,2.095632314682007,3.2931652069091797,1.5696262121200562,-0.7485073208808899,-1.0687185525894165,-0.7487720251083374,1.0774341821670532,0.163021981716156,-1.0480259656906128,-0.6743040084838867,0.7280124425888062,-0.7037538290023804,0.6319777369499207,1.2755858898162842,1.1198031902313232,0.23753735423088074,-1.0589420795440674,1.1869877576828003,-3.9048495292663574,2.054948329925537,-0.2352026253938675,2.3407232761383057,0.9843924045562744,-2.1517322063446045,0.5953530669212341,1.0033711194992065,1.0953514575958252,0.7702778577804565,2.635096311569214,1.123862385749817,-0.6908776164054871,1.978904366493225,-0.017971962690353394,-1.5211191177368164,1.5644317865371704,-1.954615831375122,3.9048585891723633,-3.633305549621582,-2.4705893993377686,-1.691088318824768,2.149379014968872,0.3981245458126068,-3.7095179557800293,1.1854784488677979]},"inputBias":{"rows":20,"columns":1,"weights":[-0.2183554768562317,-0.26036813855171204,-0.25784486532211304,-0.27082177996635437,-0.4771478772163391,-0.30757054686546326,-0.8010561466217041,-1.4030653238296509,-0.6244679689407349,-0.7908609509468079,0.20685969293117523,-0.26818960905075073,-0.2794097661972046,-0.32444196939468384,-2.2199277877807617,-0.5592406392097473,-0.31330403685569763,-1.2327499389648438,-1.3002740144729614,-0.8759408593177795]},"forgetMatrix":{"rows":20,"columns":31,"weights":[0.6262959241867065,-0.5252446532249451,1.6965364217758179,-1.4963405132293701,-1.738553524017334,0.13919614255428314,-0.08177608996629715,-1.9133933782577515,-2.876173257827759,-0.6534996628761292,-0.32705485820770264,-0.04356951639056206,2.630035161972046,0.504711925983429,-0.2749057710170746,0.3674609959125519,-0.4966464340686798,0.3323720097541809,-1.840566873550415,2.4484801292419434,-1.3515416383743286,0.5173080563545227,-1.794700264930725,-1.2858494520187378,1.4754616022109985,2.5128355026245117,0.029507560655474663,0.5860862135887146,-0.5186797380447388,-0.10443057864904404,-1.738629937171936,-0.02731955610215664,-1.9200531244277954,2.036728858947754,-2.8984832763671875,-0.35899895429611206,-0.8060111999511719,1.5629814863204956,-0.7532462477684021,1.3591915369033813,0.30065828561782837,1.7231134176254272,-0.6658138632774353,0.04917379468679428,0.33039379119873047,0.043023962527513504,0.7672643065452576,2.3156983852386475,0.7217596173286438,-0.7408837676048279,3.0136899948120117,-0.5782247185707092,0.027329016476869583,-1.2133216857910156,-1.711472511291504,1.0954772233963013,1.3352820873260498,2.032787322998047,-0.15754477679729462,-0.20495077967643738,0.8858373165130615,-2.737694501876831,1.6372385025024414,1.4299745559692383,-1.21555757522583,-0.4514344334602356,0.8655596971511841,1.2139043807983398,1.4498989582061768,1.4676828384399414,-0.19634483754634857,-0.6495289206504822,1.2311115264892578,1.3129743337631226,-0.1444084346294403,0.25953346490859985,-0.32336530089378357,-1.9861432313919067,1.8398150205612183,-2.1885595321655273,-1.7547376155853271,-0.9041299819946289,-0.5082710385322571,0.9640058279037476,0.9791667461395264,1.2361737489700317,0.062105339020490646,-1.1338706016540527,-1.9712393283843994,-0.5403768420219421,-0.1079803928732872,-1.5057393312454224,-0.21813571453094482,0.6207804679870605,0.8996174931526184,-0.4491845369338989,-0.45673760771751404,-1.742167592048645,-0.13957729935646057,0.6102450489997864,-0.29892852902412415,-2.5332300662994385,-1.236101508140564,-1.7961463928222656,0.02475079707801342,2.9215481281280518,0.5685257315635681,-0.4127247631549835,1.25273859500885,-1.0389251708984375,0.704550564289093,-1.6922274827957153,0.8370571136474609,-0.6960479021072388,0.9366330504417419,0.21837320923805237,-0.32642072439193726,1.3692106008529663,2.5456533432006836,-0.10587392747402191,0.895520806312561,1.380689024925232,0.5174511075019836,-0.21207395195960999,2.284543037414551,0.019638193771243095,-0.012542529962956905,-0.26773500442504883,0.876949667930603,1.6273295879364014,-0.1373015195131302,1.64960515499115,-1.1329902410507202,-2.521359920501709,-1.278348445892334,0.9951703548431396,0.14062748849391937,1.4588717222213745,3.2387797832489014,-0.8086481094360352,1.8108606338500977,-0.8493887186050415,-0.7166922092437744,-0.1572176069021225,2.059994697570801,1.5869953632354736,1.0501742362976074,-0.3804970383644104,0.35452955961227417,-0.09334751963615417,0.11914040148258209,-1.9395520687103271,1.3600552082061768,-0.40739843249320984,-0.011924095451831818,-0.232534259557724,-1.1878424882888794,0.7110840082168579,-0.8028188943862915,-1.017709493637085,-0.2321818619966507,0.9730055332183838,-0.36804255843162537,0.6274898648262024,0.596953272819519,2.7264389991760254,-0.42812302708625793,0.04555724188685417,-0.9582290053367615,-0.7163586616516113,-0.8620350956916809,0.2515931725502014,-0.6530528664588928,0.5624094605445862,0.9419098496437073,-2.1262667179107666,-0.8058053851127625,-0.28383389115333557,0.057814959436655045,-0.5338053107261658,-1.0740883350372314,0.6654455065727234,0.514613687992096,-1.5698788166046143,-0.004867265000939369,-1.0962445735931396,1.0227925777435303,0.08574267476797104,-0.10616251081228256,-0.9586178064346313,4.129642486572266,1.5354965925216675,0.12454088032245636,2.845843553543091,-0.6081821918487549,-0.4913537800312042,-3.155956745147705,2.925149440765381,0.6395869255065918,0.34030812978744507,1.5689953565597534,-1.5647424459457397,0.2213173359632492,-1.3831051588058472,-1.3283342123031616,-0.0864875465631485,2.1596577167510986,0.6478105187416077,0.4933745861053467,0.08568186312913895,-0.17368975281715393,-0.4240596890449524,-1.981935977935791,-0.9635233879089355,2.3858535289764404,-0.7729896903038025,1.3128961324691772,1.5141112804412842,-0.9541832208633423,0.2933788597583771,0.1836458295583725,-0.36941730976104736,3.0404930114746094,0.03443028777837753,2.0351169109344482,-1.9048810005187988,-0.7209455966949463,-3.1365058422088623,-0.28227514028549194,3.269972562789917,1.9336992502212524,0.9925997257232666,1.275053858757019,0.7953802347183228,0.5899360775947571,-0.6458442211151123,0.38858023285865784,3.2213943004608154,1.9984416961669922,-1.5625195503234863,-0.8014092445373535,1.093206763267517,0.987999439239502,-1.9720436334609985,0.1388845294713974,0.1822919398546219,-0.78544020652771,1.4044110774993896,-1.8297624588012695,0.2299109548330307,-1.8029603958129883,0.3917962610721588,2.896148443222046,-0.517254650592804,-0.7349744439125061,2.509753465652466,2.0875484943389893,0.6578673720359802,-0.5117641091346741,2.0742850303649902,-2.1526527404785156,2.4590981006622314,0.3480834662914276,0.6209827065467834,0.35521751642227173,-0.6539067029953003,1.1102195978164673,0.5144860148429871,-1.0074057579040527,-0.7138237953186035,2.5101799964904785,0.6436413526535034,-1.9239155054092407,-0.6581081748008728,-0.9396448135375977,-0.89992755651474,0.8777351379394531,-0.0002259047469124198,1.8213435411453247,-0.7522072792053223,-0.7090988755226135,0.39670315384864807,-0.15327712893486023,1.010905146598816,0.49546924233436584,-0.8128193616867065,3.5954809188842773,0.09262578189373016,-0.801538348197937,-0.14377929270267487,0.19229044020175934,1.643679141998291,1.2503602504730225,1.3841822147369385,-0.10833439230918884,1.5984867811203003,-0.31758561730384827,-0.8856455683708191,-0.7502865791320801,3.1765620708465576,0.21806098520755768,1.355819821357727,1.4527279138565063,0.04460306093096733,1.0923517942428589,-0.03112754411995411,-0.3091776669025421,2.2398078441619873,0.7628462910652161,0.664236307144165,-0.29846468567848206,0.6011984348297119,-0.47615647315979004,2.1579461097717285,1.1391128301620483,-0.32042935490608215,-0.41899803280830383,1.543113350868225,1.2306594848632812,0.2971639931201935,0.22379028797149658,0.5019097328186035,-1.8017960786819458,0.6183682084083557,-0.5787883400917053,0.42288628220558167,-0.0018190467962995172,-1.0687408447265625,0.674369752407074,-2.599538803100586,1.3389650583267212,-0.5480249524116516,0.31795409321784973,1.538128137588501,-1.3282124996185303,-1.2486412525177002,0.17327316105365753,-0.7987157702445984,0.38446059823036194,-1.405633807182312,2.1839025020599365,1.4732117652893066,-0.891393780708313,1.1507757902145386,-0.24546681344509125,-0.561180830001831,-0.7120639085769653,-0.13649354875087738,-0.6820185780525208,1.0048454999923706,0.8766356110572815,-0.7259920835494995,-0.2267121970653534,-0.3868538439273834,-2.095075845718384,0.19732090830802917,0.8471879959106445,0.0324753001332283,0.7346315979957581,1.3089045286178589,1.3957874774932861,-1.0102680921554565,-0.6240705847740173,-2.0134265422821045,-1.4519264698028564,0.8787767291069031,0.804162859916687,0.09184139221906662,-0.7968937754631042,-4.118150234222412,2.1321918964385986,-3.215437173843384,0.0569138303399086,2.3608314990997314,-0.6572450399398804,0.13729487359523773,-0.3387981951236725,-2.0463829040527344,0.3329680263996124,-0.28742942214012146,2.1897366046905518,0.16853711009025574,-0.7862781882286072,2.357272148132324,-0.44031670689582825,-0.1465313732624054,-1.469421148300171,4.137652397155762,-0.16045138239860535,2.452493190765381,-0.6372883319854736,0.5150831937789917,-0.06492145359516144,-0.8212465643882751,1.167802333831787,-1.8442145586013794,0.7230260968208313,0.26284512877464294,1.5443992614746094,-1.1558281183242798,-0.46100813150405884,1.0792031288146973,-1.010142207145691,-0.7324991822242737,0.7320502996444702,-2.118534564971924,-0.23460173606872559,-0.05724016949534416,-0.5523838996887207,-2.4289679527282715,-1.1815400123596191,-0.6161062121391296,0.5624713897705078,-2.8957810401916504,0.16379205882549286,1.1892669200897217,2.9288439750671387,1.1626590490341187,1.8036895990371704,-1.4585424661636353,1.5038732290267944,1.179661512374878,-1.2243642807006836,2.8912549018859863,0.07718583196401596,1.8091682195663452,-2.124361753463745,-1.126624584197998,0.15591157972812653,0.17033159732818604,-0.7214754819869995,1.3482321500778198,0.10824158042669296,2.0110974311828613,-0.6532700657844543,0.95710688829422,-2.4230458736419678,0.053661931306123734,-0.44850364327430725,0.42518097162246704,0.32694926857948303,0.27957281470298767,0.8341881036758423,-0.8110784888267517,0.6044564843177795,-0.5398421287536621,-1.8179539442062378,1.6621860265731812,-1.0985782146453857,0.09816619008779526,2.291714906692505,-3.723029613494873,0.8454988598823547,-1.001984715461731,0.5568347573280334,0.7279999852180481,2.6205222606658936,1.1537595987319946,-0.9851570129394531,-3.2085351943969727,-1.3334978818893433,1.1654530763626099,0.5692591071128845,-2.643150806427002,0.73557448387146,0.8560693860054016,-0.752382755279541,1.387058138847351,0.06976067274808884,-1.1285247802734375,-1.3164647817611694,-1.52191960811615,-2.0434975624084473,-1.368261456489563,1.4828121662139893,-0.6443772912025452,0.34575778245925903,0.672656774520874,-2.0606918334960938,-2.045302391052246,1.9880189895629883,-0.4963187277317047,-1.0545153617858887,-2.7937521934509277,0.8596627116203308,1.3451998233795166,-0.9218511581420898,-1.2897052764892578,-1.0052061080932617,2.3274588584899902,1.3451454639434814,-0.4404146075248718,2.0523369312286377,-1.3695403337478638,0.2567134201526642,-0.20635579526424408,-0.30671632289886475,-1.8089816570281982,2.2029969692230225,-0.6900277137756348,-0.7100110650062561,-1.2523174285888672,-1.7436845302581787,-1.515110731124878,-1.123076319694519,1.8659000396728516,-0.5706749558448792,-0.5080690383911133,-0.14323432743549347,-2.138770818710327,-0.44658684730529785,-0.6691843867301941,-0.9095119833946228,0.031918302178382874,-1.116342544555664,0.07929113507270813,0.2802150547504425,-1.0548903942108154,-2.247936248779297,-1.346321940422058,0.9887984395027161,2.424915313720703,1.4969894886016846,0.03910239785909653,-1.7061858177185059,3.0344557762145996,-0.04917221888899803,-0.7000465393066406,0.9370543956756592,-0.5146790742874146,1.0173776149749756,0.31267085671424866,0.08997591584920883,0.49176979064941406,0.8614530563354492,0.6970974802970886,-0.48600077629089355,1.3487497568130493,1.3184846639633179,-1.073991298675537,1.6668047904968262,0.4283505380153656,-0.9994887113571167,0.9477308392524719,-0.11634752154350281,1.1048394441604614,-0.8623746037483215,-0.9090247750282288,0.30028820037841797,0.4454326629638672,0.7934656143188477,-1.2910391092300415,-0.8085731267929077,-0.7193889021873474,-0.7136358618736267,1.3856016397476196,-1.9618277549743652,0.8625044822692871,-1.0353500843048096,0.7365953326225281,-0.8437460660934448,0.8582872748374939,0.08970009535551071,1.3070422410964966,0.9501047134399414,2.999150276184082,-0.6861793994903564,0.8557215332984924,1.0713204145431519,1.1437427997589111,0.05081891268491745,0.659713089466095,-0.30141589045524597,-3.395148754119873,1.801387906074524,-0.3429853618144989,-0.5814429521560669,-0.4718047082424164,-2.7250025272369385,-0.2848247289657593,0.4166495203971863,2.838756799697876,-0.513705313205719,0.8148009777069092,-2.9782464504241943,1.7430760860443115,0.3189062476158142,-1.5373499393463135,1.0800747871398926,1.9461917877197266,0.2598001956939697,-0.4015396237373352,-1.349364161491394,1.9092868566513062,-0.12187644094228745,3.325254201889038,-0.6403053402900696,0.37772172689437866,-0.3126521110534668,1.1610664129257202,-0.3616730570793152,-0.1173737645149231,0.20924291014671326,-0.6057090163230896,-1.9126429557800293,-1.079596996307373,-2.445746421813965,1.1510875225067139,0.425633043050766,-3.581136465072632,0.036350928246974945,0.567833423614502,1.5936261415481567,-1.7205883264541626,-1.7581756114959717,-0.48241254687309265,0.6529557108879089,-1.12163245677948,-2.6740548610687256,-1.603982925415039]},"forgetHidden":{"rows":20,"columns":20,"weights":[0.6670636534690857,1.3768203258514404,-1.161698579788208,0.6041233539581299,-0.8585202097892761,0.5499900579452515,0.09733583778142929,-2.1336400508880615,0.471081405878067,-0.22852890193462372,0.3574928939342499,-1.0937718152999878,0.6514215469360352,-1.4501969814300537,-0.7838570475578308,-0.41029778122901917,-0.25223323702812195,-0.08644895255565643,-0.2045661360025406,0.7177237868309021,-0.9196808338165283,-0.3103581964969635,0.052665192633867264,-0.8358993530273438,-0.613898754119873,-0.051328811794519424,-0.06817428022623062,1.6490503549575806,-0.2193506807088852,2.0018796920776367,1.4451626539230347,1.0572618246078491,-0.42590975761413574,-1.521763801574707,0.401006817817688,2.3607308864593506,0.2109292894601822,-1.2105233669281006,1.2647655010223389,2.5850281715393066,-0.0007489579147659242,0.1553199738264084,0.657012939453125,0.04408738762140274,0.602075457572937,0.44104325771331787,-1.9754031896591187,1.311630129814148,0.18615928292274475,-0.2818346321582794,-1.5816820859909058,-0.7496473789215088,0.7056393027305603,-0.8351362347602844,-1.3905965089797974,-1.8197993040084839,-0.2606595754623413,-0.08561012893915176,-1.016644835472107,0.9517861604690552,-0.6776423454284668,0.5863621234893799,-0.5386500954627991,-1.3278188705444336,1.8918184041976929,-0.4664490818977356,-1.9656919240951538,1.6956264972686768,-0.4915521740913391,-0.9072137475013733,1.3234959840774536,0.2496074140071869,-0.7858430743217468,-1.761582374572754,-0.21688677370548248,-2.353367328643799,-0.46214431524276733,-0.4539450407028198,0.14205680787563324,0.32223743200302124,1.1205016374588013,1.1787235736846924,-2.567375898361206,-0.8512482047080994,0.5691187977790833,-0.468899667263031,-0.2105814814567566,-2.6464955806732178,0.34943875670433044,-1.986178994178772,1.2238246202468872,-2.0105679035186768,0.16366228461265564,-0.628608226776123,1.9544340372085571,-0.5487584471702576,0.9990000128746033,0.4369231164455414,-1.8747144937515259,1.2341643571853638,1.198492407798767,-1.0693323612213135,-0.43594422936439514,1.1539440155029297,0.0021497178822755814,-0.05021250247955322,-0.27704882621765137,-0.5696110725402832,0.3028714060783386,0.9515408277511597,0.23205262422561646,-0.33727818727493286,-0.5845540761947632,0.9236933588981628,-0.3992132246494293,1.2312880754470825,-2.3798041343688965,-0.19513331353664398,0.39196181297302246,-1.2124038934707642,0.6435139775276184,0.5774610638618469,-0.631644606590271,-1.0500423908233643,3.1898889541625977,1.8720207214355469,0.973595142364502,-2.6921474933624268,0.4058070182800293,-0.7560548186302185,0.3083786964416504,-1.3570398092269897,0.16056835651397705,-0.2928211987018585,1.3879590034484863,-0.2318546175956726,1.7664109468460083,0.898664653301239,-1.7508175373077393,2.5655343532562256,0.22889189422130585,-0.002433977322652936,2.7358860969543457,-2.177755832672119,3.288177490234375,1.5725951194763184,-1.0865427255630493,1.6640056371688843,-0.762237012386322,2.15045166015625,-0.5262124538421631,-0.2233956903219223,0.6813064217567444,-1.2692761421203613,-0.439138263463974,0.22355122864246368,-5.0987348556518555,1.4979735612869263,0.07685074210166931,0.9182800054550171,0.29185694456100464,1.578542947769165,1.0366138219833374,1.4612709283828735,1.5228464603424072,1.138660192489624,-1.5743755102157593,0.5264565348625183,0.29771292209625244,-1.5350617170333862,0.3521890342235565,-1.3038626909255981,1.179788589477539,-0.6442233920097351,0.6209960579872131,-1.5376309156417847,-0.21256795525550842,0.1933477520942688,-0.9340477585792542,1.2087489366531372,0.18492169678211212,0.07137816399335861,-1.5105280876159668,0.332402765750885,-0.5799572467803955,-0.4291326701641083,-0.5663421750068665,0.43328094482421875,1.127248764038086,0.24980998039245605,0.4073215126991272,0.09480388462543488,0.2928788363933563,-0.5147572755813599,2.0372657775878906,-0.013686129823327065,1.0269137620925903,0.1554109752178192,-0.04614115506410599,-0.3838482201099396,-0.769521951675415,-2.1540067195892334,-1.641897439956665,-0.2593088150024414,-1.3144136667251587,-0.6925243139266968,0.749740719795227,-1.513780117034912,-0.7197914719581604,0.2705601751804352,-0.49595606327056885,0.11987793445587158,-0.35869425535202026,1.228013277053833,1.8152669668197632,0.8552890419960022,0.6551355719566345,0.15110301971435547,0.39932170510292053,0.2986123561859131,-1.7446237802505493,-3.3249409198760986,2.127312421798706,-1.7296746969223022,-1.6297881603240967,2.5046701431274414,2.086303949356079,-1.9666192531585693,-1.3068283796310425,2.4679887294769287,1.6513721942901611,1.079892635345459,-2.324575901031494,2.4348063468933105,-0.17737379670143127,2.1204066276550293,-1.276768445968628,-1.3242895603179932,2.586632490158081,-2.5210471153259277,3.3385026454925537,0.945794403553009,-1.4339431524276733,3.1170313358306885,2.0076546669006348,-0.5798391103744507,-1.2515205144882202,-1.9222911596298218,1.424275279045105,-3.1688103675842285,2.545414686203003,-3.496948480606079,2.750354051589966,-2.0360939502716064,2.8652968406677246,0.34321582317352295,0.008806277066469193,-0.12008427828550339,-3.622196674346924,2.332714080810547,1.8157306909561157,-0.09508254379034042,-0.7003117203712463,2.869281768798828,0.8685510754585266,-0.44162511825561523,-0.20773845911026,-0.670527458190918,1.8171364068984985,-1.1680407524108887,-0.6156377792358398,-2.742297410964966,1.1611450910568237,-1.0734813213348389,-0.6034127473831177,-1.4651033878326416,-0.5049746632575989,1.7000617980957031,-2.4969851970672607,-0.48832863569259644,1.29843008518219,2.215826988220215,0.4034939706325531,-0.3246053457260132,0.08546838164329529,-1.3587357997894287,-1.6321337223052979,0.06324877589941025,0.42176613211631775,-1.5378214120864868,0.5226446390151978,0.4424733519554138,2.801034450531006,-2.0951647758483887,-1.517065405845642,-2.9009063243865967,0.8850703835487366,-0.835595428943634,-4.918118000030518,1.4648983478546143,-2.0162711143493652,-1.161844253540039,0.2490404099225998,0.7437312602996826,-1.4514793157577515,-0.047262512147426605,0.3997901380062103,-0.19488975405693054,-1.053966760635376,2.8700201511383057,-0.7177042365074158,2.5178141593933105,-1.3021419048309326,-0.020076127722859383,-0.49788692593574524,1.0120867490768433,-0.6618188619613647,-0.8181374669075012,1.8466051816940308,0.199739009141922,-3.4856019020080566,-1.601702332496643,-1.2908765077590942,-0.11596570163965225,1.5681990385055542,0.5163604021072388,3.3522260189056396,0.551609992980957,-3.5715019702911377,1.9652549028396606,0.40904700756073,3.300938129425049,-2.8599441051483154,2.5208075046539307,-0.9566532373428345,2.7386763095855713,3.8304367065429688,-0.4061216115951538,4.027026653289795,-0.15970444679260254,0.6763043403625488,-0.586140513420105,-0.4767405390739441,0.972763180732727,-0.1650267243385315,-0.40333735942840576,0.38460591435432434,-0.6747602224349976,1.0812417268753052,-0.35101354122161865,-0.356168657541275,-0.802586555480957,-0.26403793692588806,0.3250996172428131,0.8027487397193909,-0.0682443231344223,-0.05824149399995804,-0.16783034801483154,-0.8958936929702759,-0.24602104723453522,-0.7929350733757019,-1.8600921630859375,-0.5837472677230835,-0.7871122360229492,0.9881656765937805,-1.2334818840026855,-0.5161900520324707,1.6349784135818481,0.7784312963485718,-1.4314982891082764,-1.4536787271499634,0.7476916909217834,0.6899062991142273,-0.7043963074684143,-0.3204604387283325,-0.28887349367141724,1.2163760662078857,-1.7198432683944702,-0.8804841041564941,0.834352433681488,0.8281345963478088,-0.34994545578956604,-1.050780177116394,0.720953106880188,-2.009387969970703,1.220868706703186,0.5724338889122009,0.8663936257362366,-2.857339382171631,2.3725085258483887,-1.5020859241485596,-0.6062703132629395,1.2263747453689575,0.5103842616081238,2.437642812728882,0.40819117426872253,0.04123374819755554,-1.4204338788986206,0.5309397578239441,-0.12354587018489838]},"forgetBias":{"rows":20,"columns":1,"weights":[0,0,0,0,0,0,0,0,0,0,0,0,0,0,0,0,0,0,0,0]},"outputMatrix":{"rows":20,"columns":31,"weights":[2.384082555770874,2.0332305431365967,1.8054769039154053,-0.5478439927101135,0.5350908637046814,4.423404693603516,1.0246704816818237,-0.7138199806213379,1.1380648612976074,-3.764092445373535,0.7503763437271118,1.6371357440948486,0.7311162948608398,0.40805351734161377,-0.49561068415641785,1.700827956199646,1.488905429840088,-2.0698750019073486,-1.3014211654663086,0.1889273077249527,-0.7823120951652527,3.7246005535125732,-0.6809515953063965,1.9901849031448364,1.043636679649353,1.7332699298858643,-1.5938987731933594,-1.9703596830368042,0.07240790873765945,1.8864737749099731,0.45440831780433655,2.4977221488952637,-1.0296013355255127,-0.22789660096168518,-0.26616767048835754,2.102369785308838,0.6690720915794373,-0.31712234020233154,1.3145939111709595,1.160380244255066,-0.7656747698783875,-0.7871461510658264,0.8847848176956177,-2.259150266647339,-0.1972997635602951,0.5552672147750854,-0.2913662791252136,-1.7541269063949585,-0.17895381152629852,-0.9263254404067993,-0.2446330040693283,0.8997546434402466,2.1467387676239014,-1.3215663433074951,-0.6852806210517883,-0.2289191633462906,-0.13000072538852692,-0.6569858193397522,-0.24444298446178436,0.5453583002090454,-3.2249186038970947,0.6778179407119751,-1.654783844947815,-0.5255138874053955,0.07697582244873047,-2.4995317459106445,-0.6421263217926025,0.855952262878418,-0.17152833938598633,-0.6677494645118713,0.14378513395786285,-1.343245506286621,2.4259493350982666,0.7079747915267944,-0.1525067836046219,1.326103925704956,-1.1534957885742188,0.24648994207382202,0.26132601499557495,0.8398726582527161,-4.824947834014893,1.1396397352218628,-1.347923994064331,3.306774377822876,-1.6605123281478882,-0.691617488861084,2.165422201156616,2.995924711227417,-1.1982395648956299,0.5883920788764954,-2.3282742500305176,-2.105877161026001,-2.2858853340148926,2.367748737335205,0.5725438594818115,1.6139384508132935,-0.4692818224430084,-3.0839860439300537,-1.2780296802520752,0.2712126076221466,-0.7972361445426941,-0.8165693283081055,1.3430781364440918,-0.7551702260971069,0.38503071665763855,1.7628719806671143,-1.2312077283859253,-0.9916343092918396,1.2527731657028198,-1.0903407335281372,1.6300630569458008,-2.5662214756011963,0.5174092650413513,0.17654773592948914,-0.4868340492248535,-2.738051176071167,-0.5975679755210876,1.9413790702819824,2.556992292404175,-0.41024795174598694,-0.34412679076194763,-2.749423027038574,1.4490751028060913,-0.6683709621429443,-0.5601071119308472,-1.8005378246307373,-0.6047870516777039,-0.16537737846374512,0.8308690786361694,1.1403377056121826,-2.306741714477539,-0.8106968402862549,0.16232149302959442,-2.6895017623901367,-2.491008996963501,1.086753249168396,-0.40791916847229004,4.006597518920898,2.3944027423858643,0.8356326222419739,-0.5621653199195862,-3.7905685901641846,0.21296757459640503,0.46146824955940247,2.78045392036438,1.9590556621551514,1.6188093423843384,-0.027535447850823402,-1.6411014795303345,-1.980827808380127,-0.758758008480072,-1.139397382736206,1.6776403188705444,2.739948034286499,1.1314902305603027,-2.4811160564422607,-1.49117112159729,1.9408440589904785,-1.1535382270812988,-1.057022213935852,-0.9090433716773987,0.5320346355438232,-3.6905529499053955,0.23902030289173126,1.342562198638916,2.0348784923553467,1.0246769189834595,-1.059695839881897,2.3322501182556152,-0.22749564051628113,-1.4009675979614258,-1.2699952125549316,1.0002204179763794,-0.47362691164016724,1.9821548461914062,-0.8350750803947449,-1.2366883754730225,-3.2207589149475098,0.5612161159515381,-0.46144968271255493,0.04998135194182396,0.17798933386802673,1.8296107053756714,-0.5807258486747742,-0.30418816208839417,-1.1854737997055054,-1.831071376800537,0.403501033782959,0.05145790055394173,0.8765687942504883,0.503771960735321,1.5849194526672363,-1.39586341381073,2.815991163253784,3.085272789001465,-0.9273615479469299,1.9675850868225098,1.7204358577728271,-1.1533806324005127,2.3536763191223145,-1.1547008752822876,-1.1204944849014282,0.5913512706756592,-1.479156732559204,-1.196118950843811,0.2702804505825043,0.1341223567724228,1.6377226114273071,1.0519604682922363,2.5298705101013184,-1.0492768287658691,-1.6876884698867798,-2.144571304321289,0.3149474263191223,1.1272611618041992,-1.6565641164779663,-0.23882825672626495,0.4787488281726837,1.291056513786316,-2.6300034523010254,2.8805625438690186,2.4288251399993896,1.1710093021392822,-0.41781821846961975,2.0838770866394043,2.362387180328369,-0.1477816253900528,0.46927696466445923,0.0636635571718216,-3.2625296115875244,-0.8843340277671814,0.36035746335983276,-0.1282312572002411,1.1570852994918823,0.021003346890211105,-0.12139985710382462,-2.7140603065490723,-0.5894028544425964,0.0552387535572052,2.370999813079834,0.5436505675315857,-0.3810717761516571,-3.942244052886963,-0.8118022680282593,-2.027933120727539,1.571290373802185,0.06629243493080139,1.8285112380981445,-0.6561779379844666,-1.4458240270614624,-0.3333856761455536,-0.6466075778007507,0.763518750667572,-1.754833698272705,0.6995110511779785,-0.7542980313301086,1.3943356275558472,0.3784545958042145,0.41512781381607056,-0.49375808238983154,-0.9808121919631958,0.05060683935880661,-0.1296098381280899,1.9456294775009155,-2.5333328247070312,0.3647254705429077,-0.6717613935470581,-0.1936071217060089,0.35422471165657043,-0.34874776005744934,0.36231568455696106,-1.3390841484069824,1.5091288089752197,0.21723690629005432,1.9533982276916504,-0.8439168930053711,-0.1523885875940323,-1.0514999628067017,1.277653455734253,-1.416587233543396,0.3875359296798706,-0.7655835747718811,-1.1171376705169678,0.6475840210914612,1.6417211294174194,0.09441982209682465,2.122765302658081,-2.4343457221984863,-1.3341498374938965,0.12910901010036469,0.43265026807785034,2.1358542442321777,-0.2568694055080414,0.7573779821395874,-2.8614978790283203,4.129154205322266,-1.1798875331878662,-0.4382631182670593,0.4064246416091919,-0.6804394125938416,1.5158661603927612,-0.038840390741825104,0.8847569227218628,0.8554731607437134,0.9894415140151978,-2.3967487812042236,0.3313002288341522,0.8565295934677124,0.021683065220713615,-0.4809392988681793,2.5137832164764404,1.8223323822021484,0.26296696066856384,-0.05857863277196884,0.19596019387245178,0.8580898642539978,2.304750680923462,-1.183699131011963,-1.0099611282348633,-1.6502841711044312,-0.8037686347961426,-0.03520037233829498,2.676652669906616,0.8824298977851868,-1.6464818716049194,-0.11807212978601456,1.4430168867111206,1.2702069282531738,0.7052944302558899,0.4117211699485779,-2.152069330215454,2.397855758666992,-0.40042033791542053,-0.3242367208003998,2.6828484535217285,1.1180275678634644,-1.8404333591461182,0.7213882803916931,-1.444830298423767,-1.2455356121063232,-0.3598182201385498,-3.005239486694336,0.5286991596221924,-1.6729193925857544,2.860025405883789,-0.503754198551178,1.3665636777877808,0.4392654299736023,1.3268307447433472,1.2407190799713135,-1.8995161056518555,1.9942084550857544,4.124475955963135,-0.8267683386802673,0.44315558671951294,0.039241962134838104,-2.5792040824890137,0.5748236775398254,-1.1647768020629883,0.6863589882850647,-1.257213830947876,-0.2145988941192627,1.6573470830917358,0.45700711011886597,1.7108056545257568,-1.323349118232727,0.6220670342445374,-1.2742140293121338,0.04358870908617973,-0.31729599833488464,-0.6998711228370667,0.6576206684112549,-0.7475013732910156,2.024524450302124,1.6666909456253052,-0.5197545289993286,-0.3176382780075073,1.120080590248108,1.5175729990005493,-1.1461734771728516,0.9502947330474854,-4.426592826843262,1.2405656576156616,2.195333480834961,-0.07943161576986313,0.03465285897254944,0.8659926056861877,-1.0259774923324585,-0.8070996403694153,0.7290371060371399,1.7365137338638306,-0.177101731300354,-0.9218268990516663,3.5966055393218994,-2.1287529468536377,1.9384046792984009,0.2752284109592438,1.7450168132781982,-0.6038107872009277,0.6404728293418884,1.3225005865097046,0.3070034384727478,-1.4471453428268433,-1.341396689414978,0.9450423717498779,0.2575396001338959,-0.49035048484802246,0.2814103066921234,3.5696475505828857,1.7069389820098877,1.3923602104187012,0.14152590930461884,-2.580265760421753,-0.05641009286046028,4.225220203399658,0.6972578763961792,-0.8931303024291992,1.9466701745986938,-2.8440301418304443,0.19841377437114716,0.3101275861263275,1.8045471906661987,-1.371224284172058,0.05939337611198425,1.6974568367004395,-0.9496931433677673,0.022778702899813652,-1.1887439489364624,0.4188643991947174,-0.9434023499488831,-1.876726746559143,2.5578012466430664,-0.870795726776123,-0.41442635655403137,2.4911954402923584,2.145153284072876,-1.3988964557647705,0.28774043917655945,-0.8157715797424316,1.3035951852798462,1.1102789640426636,-2.399667501449585,1.0593332052230835,-1.863703966140747,2.6189026832580566,1.357506513595581,-1.6491053104400635,-0.7584762573242188,-0.5424062013626099,1.1505000591278076,1.1556581258773804,-2.396754503250122,1.56514310836792,-0.22560016810894012,-1.9818474054336548,-0.48708397150039673,1.5805085897445679,1.6126980781555176,-2.6683285236358643,-1.4514191150665283,-1.028495192527771,1.719549536705017,-1.8270959854125977,1.4231338500976562,-0.3844834268093109,-1.4702486991882324,-2.076474666595459,0.2004723846912384,-3.851142406463623,1.6805509328842163,-1.006309986114502,-1.0466891527175903,3.0753793716430664,0.822641909122467,-0.9713488221168518,0.7279369831085205,-1.5271363258361816,-0.4577273726463318,-1.580080270767212,1.303299903869629,1.287397861480713,-0.5018808245658875,-0.17257431149482727,-0.47616514563560486,-0.11988130211830139,0.24226905405521393,-0.5612993240356445,1.947058081626892,-2.842360258102417,0.5812358856201172,0.1306605339050293,-0.023998066782951355,-0.4179462790489197,-1.517250657081604,-0.8406751155853271,-0.6009073257446289,0.22806650400161743,1.8226326704025269,-2.4353160858154297,2.0481414794921875,-0.4034018814563751,1.228224277496338,2.6067731380462646,0.050156909972429276,-0.5662010312080383,-1.521398901939392,4.2779388427734375,-0.5257851481437683,-1.545609951019287,1.9443541765213013,-1.0880173444747925,-1.0838268995285034,1.2565412521362305,-0.5405451059341431,-0.24836528301239014,-0.5721316933631897,-3.7289023399353027,1.746900200843811,0.5807496309280396,2.0920259952545166,-0.0871090441942215,-0.7697412967681885,-0.27409884333610535,1.0276379585266113,-0.8921298980712891,-0.5904848575592041,0.024186430498957634,-1.8501665592193604,-0.23025962710380554,-0.04429402947425842,0.8573068380355835,-0.5000240802764893,0.5375807881355286,-1.0393941402435303,0.07722079753875732,1.2938828468322754,0.09591138362884521,1.331276774406433,-0.9207580089569092,-1.001541018486023,1.3187390565872192,-2.1971914768218994,0.10084754973649979,0.6756925582885742,-0.10811751335859299,1.2513725757598877,-0.43409305810928345,-1.0903522968292236,1.5094918012619019,-1.3163295984268188,1.4504737854003906,0.604052722454071,-0.07686777412891388,-0.14051412045955658,1.2128832340240479,-1.354341983795166,-0.25291916728019714,0.551206111907959,-2.801616907119751,-2.9446253776550293,-0.34675371646881104,-2.152348041534424,1.9363884925842285,0.2934848964214325,0.7581306099891663,-0.33034124970436096,-0.04507982358336449,1.5113800764083862,0.24500562250614166,-2.131442070007324,-0.02246522158384323,-0.06950411200523376,-1.2874865531921387,-1.1973042488098145,0.8284547924995422,-1.3384952545166016,-0.7311960458755493,-0.1635303944349289,0.08800126612186432,-1.757551670074463,-0.10765962302684784,-0.6036508083343506,-0.3065056800842285,-0.6628643870353699,0.4004817605018616,1.506752848625183,0.10990004986524582,-3.8611960411071777,-0.621825635433197,0.46027353405952454,0.1203959733247757,-2.2807390689849854,1.5042585134506226,1.54155433177948,-0.3292316496372223,-1.0586999654769897,1.4823408126831055,4.070614814758301,-0.27670976519584656,-0.6171655058860779,0.12191282957792282,-3.4368250370025635,2.8324379920959473,1.802401065826416,2.2079720497131348,-0.930608332157135,0.23924021422863007,-1.2670683860778809,-0.8132390379905701,-0.16328786313533783,-0.12541638314723969,2.8236570358276367,-0.5038676261901855,-1.5399795770645142,-3.108856678009033,0.6682832837104797,-0.8101931810379028,3.100893497467041,0.7942625880241394,0.7874251008033752]},"outputHidden":{"rows":20,"columns":20,"weights":[1.4428014755249023,-0.8625481128692627,1.889508843421936,0.2935256361961365,-0.9274076223373413,0.29636284708976746,-0.5373297929763794,-0.32354816794395447,-0.8411433696746826,-1.067984938621521,0.7034875750541687,-1.7057596445083618,0.35469064116477966,-1.9869003295898438,0.4524631202220917,0.9603297710418701,-0.5178910493850708,2.0110275745391846,-0.7746484875679016,1.3340332508087158,-3.5919055938720703,-1.5573921203613281,0.9798728227615356,-2.6388792991638184,-2.1979641914367676,0.6226165294647217,2.778376340866089,0.36912739276885986,-0.005309948232024908,4.589918613433838,-2.0034193992614746,3.669301986694336,-1.9707244634628296,2.7211666107177734,-0.21018074452877045,1.0180481672286987,4.021321773529053,-1.7397069931030273,2.508138656616211,-1.892977237701416,1.113157868385315,0.4318638741970062,-0.9622433185577393,-0.2864607274532318,-2.314667224884033,2.593914031982422,1.6826013326644897,-2.427468776702881,-0.2030583769083023,-0.49192506074905396,1.1309285163879395,-0.622981607913971,-0.5566595792770386,1.245068073272705,1.3312935829162598,1.3950235843658447,-1.0717681646347046,0.3368222415447235,0.01513475738465786,-1.6342393159866333,0.2538434863090515,0.6760951280593872,-0.5630565881729126,-0.47673195600509644,-1.603347897529602,0.5442110896110535,0.8541439771652222,-1.2796012163162231,-3.167680025100708,1.211019515991211,0.8890828490257263,-0.3832886517047882,-0.30465400218963623,1.348840594291687,-1.641983985900879,0.7180648446083069,-0.04002145305275917,1.4344165325164795,-0.6009402871131897,-0.2115730196237564,-0.29095086455345154,-0.5503177046775818,-0.29766425490379333,-1.4573663473129272,-0.7046568989753723,-1.0681368112564087,1.9187092781066895,-2.838045358657837,-1.0639044046401978,-0.45714306831359863,-0.31832778453826904,0.065127894282341,-1.1843079328536987,1.2151955366134644,0.5691453814506531,-0.4227888286113739,2.063974380493164,1.729739785194397,0.7080100178718567,0.3558542728424072,-1.2358907461166382,0.9750954508781433,0.32440999150276184,0.7337741255760193,-2.0381505489349365,-2.5982484817504883,-1.993209719657898,-1.0617400407791138,-0.27946025133132935,-1.4024860858917236,2.8499579429626465,2.3909544944763184,0.058854103088378906,-1.0013893842697144,-0.03503211587667465,-2.497007131576538,1.8166695833206177,-2.914302110671997,0.1354060173034668,1.4166017770767212,2.2143971920013428,2.229526996612549,-0.12468350678682327,-2.8012428283691406,-3.8007383346557617,-0.4620557725429535,-0.482365220785141,-2.2401487827301025,1.2648009061813354,-3.2039477825164795,2.1776537895202637,1.9442063570022583,1.8353557586669922,-1.511928915977478,-2.1248557567596436,-1.4575875997543335,0.9689667224884033,2.660036087036133,-0.7999041676521301,-0.6012819409370422,-2.1912760734558105,1.0341421365737915,4.863551139831543,-1.7165544033050537,-0.01903286948800087,2.881465435028076,-0.896435022354126,0.9645604491233826,1.7229158878326416,0.6408790946006775,3.763338804244995,-1.1276001930236816,1.6615790128707886,0.3042745292186737,-2.5703811645507812,-0.10881919413805008,0.4174971282482147,-1.7112454175949097,0.39670124650001526,3.032930612564087,1.3779029846191406,2.4850568771362305,2.4222941398620605,-2.9184491634368896,4.501347064971924,1.5818359851837158,-2.3740460872650146,1.9403527975082397,1.8743882179260254,-2.177426815032959,4.336958408355713,-3.190242052078247,2.149961471557617,-3.0780105590820312,-3.313837766647339,-2.2716681957244873,-0.4700758159160614,0.37579771876335144,-2.191226005554199,4.022543430328369,-2.6012940406799316,1.025147557258606,0.3100891709327698,0.843826949596405,-2.8400089740753174,-1.7003705501556396,0.3787648677825928,1.5310711860656738,-2.185145616531372,0.9736095666885376,-0.9788353443145752,2.9954657554626465,0.729081928730011,-0.1355753242969513,0.7483518123626709,0.7331390976905823,0.2836592197418213,0.7923916578292847,1.1348668336868286,-0.9527665972709656,-1.1614990234375,-0.13881364464759827,-0.10713286697864532,-0.5991992354393005,-0.32786595821380615,-1.375943899154663,1.4304388761520386,2.343013048171997,-0.9212745428085327,1.1412683725357056,-3.120776891708374,1.5345009565353394,-1.3156170845031738,0.327460914850235,-0.07827869057655334,0.8050592541694641,1.300279140472412,-1.7176704406738281,2.7316579818725586,0.02859783172607422,-0.2947807013988495,2.8900258541107178,0.23836758732795715,0.19700081646442413,0.06046019867062569,-2.2170069217681885,-1.3641819953918457,0.5587217807769775,0.807992160320282,-0.16146376729011536,1.7443211078643799,-0.6124241948127747,0.005164934787899256,1.0842901468276978,-4.473310947418213,1.7318394184112549,-2.994490146636963,1.282734990119934,-0.20125779509544373,1.6681851148605347,-2.793633222579956,2.159350872039795,-2.330758571624756,1.1466631889343262,0.25796884298324585,-0.09249822050333023,1.382341742515564,-0.20005792379379272,0.20067833364009857,1.7306379079818726,-0.35505929589271545,-1.233225703239441,-0.9128822684288025,-0.5965549349784851,-2.312908172607422,0.7043908834457397,-1.042404294013977,2.3068325519561768,0.9176974296569824,-1.096358060836792,1.0095831155776978,-0.36294928193092346,0.1718832403421402,0.09614977240562439,-2.9356040954589844,0.6943603157997131,1.3663276433944702,0.49606043100357056,1.113317608833313,0.019595645368099213,0.8388602137565613,-0.3725615441799164,-0.11559933423995972,1.3267266750335693,-0.6813221573829651,0.9219861626625061,2.277930736541748,0.6531466245651245,0.44609951972961426,0.40565335750579834,3.951425790786743,-1.540439248085022,-0.7430374026298523,-0.08534621447324753,-0.8532100319862366,1.7917039394378662,-2.1774682998657227,0.8882444500923157,4.214552879333496,-0.9299116134643555,4.172407150268555,-3.824984550476074,0.6405301690101624,-0.9145463109016418,0.386701375246048,-0.5381633639335632,0.6842586994171143,1.1086881160736084,-0.24828866124153137,1.8637824058532715,0.4618103802204132,-3.113466501235962,2.0152835845947266,-2.6961371898651123,0.3267556130886078,0.25462454557418823,2.893989324569702,-1.4439798593521118,-0.22455236315727234,3.449535608291626,-0.4882521331310272,1.202673077583313,-1.4681739807128906,1.7041703462600708,2.4329206943511963,3.1516025066375732,1.3955472707748413,-2.121626853942871,3.4897735118865967,-1.8402904272079468,-0.3153955042362213,1.4168410301208496,1.4231370687484741,0.5591952204704285,2.399427652359009,0.3165355324745178,-4.0442986488342285,1.901423692703247,0.1987399458885193,-1.7485700845718384,1.280967116355896,-1.8321901559829712,2.8476932048797607,-2.6131019592285156,1.7661011219024658,0.3454934060573578,0.23958344757556915,0.30115941166877747,-2.0042662620544434,1.420332908630371,-1.953081727027893,-5.236924171447754,2.0693562030792236,0.678780198097229,-2.1584510803222656,0.9508447647094727,3.2553086280822754,2.1231045722961426,-0.7594563364982605,5.918234348297119,0.12061233073472977,2.111536979675293,-2.4015650749206543,3.23886775970459,1.1739369630813599,1.9669996500015259,0.2624184787273407,-3.2939112186431885,3.8085107803344727,-0.34137335419654846,-0.8474511504173279,3.9557909965515137,-0.8736346364021301,-0.27992215752601624,-1.3994140625,-1.036184549331665,0.8505432605743408,-0.21623651683330536,-0.8694801926612854,-2.7030277252197266,3.433579444885254,0.3766811192035675,0.7518134713172913,-0.37848541140556335,0.9196136593818665,-0.7080569267272949,0.5744572281837463,-0.5875420570373535,-1.1469882726669312,1.3643115758895874,0.2862573266029358,0.25947514176368713,-0.32164499163627625,0.3104477524757385,0.7249095439910889,-0.8181629180908203,-0.31869539618492126,-1.0432504415512085,0.8270401358604431,0.4098564684391022,0.8624228835105896,0.5619182586669922,0.16235078871250153,0.2636129856109619,1.684109091758728,1.1727957725524902,2.7896459102630615,0.2813069820404053,-0.44675660133361816,0.8465868234634399]},"outputBias":{"rows":20,"columns":1,"weights":[-0.21400587260723114,-0.2596375048160553,-0.25410890579223633,-0.24935396015644073,-0.43482884764671326,-0.24304603040218353,-0.989046037197113,-1.490495204925537,-1.809667706489563,-0.9160671830177307,-0.3662697374820709,-0.2645454406738281,-0.2776208221912384,-0.3586571216583252,-2.4365925788879395,-1.2482942342758179,-0.32361873984336853,-1.1240830421447754,-1.3254303932189941,-0.8213722705841064]},"cellActivationMatrix":{"rows":20,"columns":31,"weights":[0.7951832413673401,1.0401990413665771,-2.632643938064575,1.1681522130966187,0.6508244276046753,2.764598846435547,0.7180190682411194,0.41717472672462463,1.1546921730041504,-1.4088555574417114,1.270073413848877,1.2969166040420532,0.12956665456295013,1.090399980545044,-0.34999844431877136,0.2480335384607315,2.3443238735198975,-1.6038424968719482,0.21213389933109283,-0.8193118572235107,-0.16262204945087433,1.7604680061340332,0.6686041951179504,1.9083935022354126,-1.0027742385864258,-0.2364405393600464,-3.3195536136627197,0.46603602170944214,1.1015100479125977,-0.8959206938743591,2.0062901973724365,-0.3735477030277252,2.8723928928375244,-2.5354526042938232,2.3524084091186523,1.6222929954528809,1.3760991096496582,-0.8165936470031738,0.0316459983587265,1.6061885356903076,-2.149749517440796,1.2939088344573975,1.5399266481399536,-1.236411452293396,0.27278152108192444,-0.402864933013916,0.3350023627281189,1.1410812139511108,-0.007004104554653168,-0.2975925803184509,-0.8025398254394531,0.2703445553779602,0.9587392210960388,1.3665605783462524,0.7760822772979736,1.1996912956237793,0.519927978515625,-2.6020472049713135,-0.1713065356016159,0.9216278195381165,0.26473385095596313,0.5189791917800903,0.4503247141838074,-1.4921454191207886,0.46089068055152893,-1.566451907157898,0.6343425512313843,-1.7986434698104858,-1.6171672344207764,-0.32863348722457886,-0.9669369459152222,2.242530107498169,-2.300964593887329,-0.8095926642417908,-0.18487927317619324,0.3148369789123535,1.8392314910888672,-0.05031300708651543,-1.057134985923767,0.7888749241828918,1.0512815713882446,-0.32304584980010986,2.1738481521606445,-1.3031301498413086,0.3561716675758362,-2.1260323524475098,-0.665285587310791,-0.183282271027565,0.908483624458313,0.07584011554718018,1.7289466857910156,0.14982490241527557,0.18197160959243774,-2.6909608840942383,-1.6989715099334717,2.315638780593872,-1.8452359437942505,-0.005884429905563593,-0.018731722608208656,-1.0882580280303955,-0.8660542368888855,-0.32837700843811035,1.2607918977737427,-0.8715581893920898,-1.1433351039886475,-0.1716659516096115,-0.5113353133201599,1.1437996625900269,-3.2288818359375,1.3197879791259766,-0.8632965087890625,0.32732996344566345,0.31039345264434814,0.005983988754451275,-0.5880917310714722,-1.0224062204360962,1.567894458770752,-0.058390747755765915,-0.5049058794975281,-0.4250084161758423,-1.42189359664917,0.28752899169921875,-0.7153581380844116,1.1292614936828613,0.2719547748565674,0.49721759557724,-0.480746328830719,-0.09533237665891647,0.47009390592575073,0.715399980545044,2.7615749835968018,2.514376640319824,0.8011249899864197,0.6956385970115662,-0.2623089849948883,0.26378133893013,0.16799300909042358,0.21434316039085388,0.6567744016647339,-2.1537275314331055,1.837314248085022,0.847411572933197,1.3945714235305786,0.22381256520748138,-1.520860195159912,-0.4457521438598633,0.7291929721832275,0.47731107473373413,-1.7242621183395386,-0.8004786372184753,0.2450246959924698,-0.8505619764328003,1.7774089574813843,-1.001107096672058,-0.5303472876548767,0.07632145285606384,0.41989532113075256,-2.258873701095581,0.7939910888671875,2.645824432373047,-0.7171501517295837,0.17358388006687164,1.251196026802063,1.0321742296218872,0.4938797354698181,0.7495745420455933,0.255232572555542,-1.5064796209335327,0.5935648083686829,-0.1425819844007492,-0.06410720944404602,0.2787278890609741,-1.2503522634506226,0.5773762464523315,-2.4966890811920166,-0.8273720741271973,-0.687677800655365,1.485594630241394,0.16094636917114258,-0.3501882553100586,-1.9833077192306519,0.11476141214370728,-0.8025000095367432,-0.3755400478839874,-1.112783432006836,0.997764527797699,0.8427830338478088,-0.6231012344360352,0.6940625309944153,-0.7821107506752014,-0.7643082141876221,-1.416379690170288,1.6738835573196411,-0.41940242052078247,-1.7538447380065918,1.193936824798584,1.2633455991744995,-0.8818792700767517,1.309277057647705,-1.8461968898773193,0.26212888956069946,-2.0382211208343506,-0.282694011926651,-0.247568279504776,-0.9006119966506958,0.7189011573791504,-3.0484507083892822,-1.0074399709701538,-0.7768402695655823,-0.5040543079376221,0.5104963779449463,-0.11224934458732605,-0.28079405426979065,0.411303848028183,-0.3664548397064209,-1.3693310022354126,-0.8800150156021118,2.4320225715637207,1.0581774711608887,-0.5028887987136841,0.23214608430862427,0.5690955519676208,0.49364346265792847,0.3680887222290039,0.6295531392097473,-2.350074529647827,-1.2540122270584106,-1.9543007612228394,0.654768168926239,1.22183096408844,0.13277284801006317,1.480705738067627,-1.5887701511383057,0.8379080295562744,-0.24339094758033752,0.6752467155456543,0.21960917115211487,1.091694712638855,0.39957836270332336,0.8466984033584595,-0.46968874335289,-1.3989735841751099,-1.005622148513794,-0.4881727993488312,-0.34278059005737305,2.0855374336242676,0.4563027024269104,-0.43013739585876465,0.1901743859052658,0.3252498209476471,-2.665402889251709,-0.3576539158821106,1.5041649341583252,-0.5420310497283936,0.5674445033073425,0.7462918162345886,1.9148906469345093,0.7618285417556763,-1.1409058570861816,-0.6950398683547974,-1.659601092338562,0.7872310280799866,0.7219417095184326,1.0306814908981323,-0.8369265198707581,-0.24479086697101593,0.20907345414161682,-1.9303513765335083,-0.884946882724762,-0.14912258088588715,2.9305596351623535,0.051893796771764755,-1.99961256980896,-1.4856266975402832,-0.7494007349014282,-1.1689362525939941,0.7956151366233826,0.4209716320037842,1.291664719581604,-0.33086976408958435,-1.7065790891647339,1.5631381273269653,0.2858789563179016,0.04058581963181496,-1.9429484605789185,-0.5244513154029846,-2.257697343826294,-0.2027205377817154,2.077641487121582,-0.19194595515727997,-2.0272140502929688,0.11552315205335617,0.7798929810523987,0.6236276030540466,0.5402171015739441,-1.8770041465759277,1.106372356414795,-0.02072064019739628,1.0204200744628906,-0.09704352915287018,-2.3571856021881104,-0.7704459428787231,-1.0551426410675049,-0.683218777179718,0.1681053638458252,1.2661443948745728,2.2017738819122314,0.7715020179748535,-0.021059811115264893,0.2852623760700226,-0.12424762547016144,0.227251797914505,-0.8109824061393738,1.1463505029678345,-0.13353630900382996,-0.0912315770983696,-1.0864243507385254,0.6990225315093994,0.5278162360191345,-1.0716711282730103,-1.1151736974716187,-0.8169305324554443,-0.02516794763505459,-0.8388738036155701,-0.4686002731323242,0.7451027631759644,-0.29549285769462585,-0.2581603229045868,0.38552045822143555,-1.2732793092727661,-0.7511451840400696,-0.9217602610588074,3.1050164699554443,-0.24436503648757935,0.9139440059661865,-1.3214088678359985,0.4104732573032379,-1.8653526306152344,-0.007474340498447418,-0.6295499801635742,0.010269097052514553,-0.6591048836708069,-1.0253771543502808,-0.4472554624080658,-1.1616441011428833,0.9708725810050964,-1.6832551956176758,0.4491596221923828,-0.315707802772522,0.4558984339237213,0.44518762826919556,-0.9738555550575256,-1.4709231853485107,0.08410776406526566,0.2684445381164551,1.1558747291564941,-0.843953549861908,-1.6863996982574463,0.5494630932807922,0.9549353718757629,-1.0735650062561035,0.8776562213897705,-1.1902536153793335,0.3939545750617981,-2.329577684402466,-0.765754759311676,-0.9762305617332458,0.11492110043764114,-0.9761122465133667,0.13651232421398163,0.8122209906578064,0.9906027913093567,0.8059719800949097,0.7354294061660767,-1.9289942979812622,1.946899175643921,1.2414658069610596,-0.1365644335746765,-0.6909063458442688,0.9032620191574097,2.6878974437713623,-0.5394846200942993,0.9073783159255981,1.0356101989746094,-2.0653316974639893,0.015366142615675926,-0.052076857537031174,-0.11904407292604446,0.01950545236468315,-0.4118357002735138,0.22144848108291626,-2.7749006748199463,0.044680722057819366,-0.7290126085281372,0.7641569375991821,0.014678976498544216,-0.5651902556419373,-1.2413634061813354,-0.03631456196308136,-2.0859134197235107,1.2214604616165161,-1.1344754695892334,2.16300106048584,0.7716318368911743,-0.2132016271352768,1.2952804565429688,-4.498588562011719,-0.5395539402961731,-0.1946655660867691,0.7770141959190369,0.3548392355442047,-0.6888325810432434,-0.46017611026763916,0.4383271038532257,-1.258217453956604,1.8347713947296143,-2.9824161529541016,1.2407910823822021,0.4107208549976349,1.2087767124176025,-0.9291454553604126,-0.3663243055343628,2.1782431602478027,-1.23936927318573,-0.40175342559814453,-0.21220183372497559,-0.05483294278383255,2.0582425594329834,0.9420402646064758,0.9872550368309021,0.5209498405456543,1.545387625694275,0.1013055369257927,-2.1978209018707275,-1.532740592956543,1.1168478727340698,0.8770880103111267,0.43680262565612793,-1.7044775485992432,0.5609834790229797,1.009864091873169,-1.174702763557434,-0.9935272932052612,-1.2932121753692627,-0.6787623763084412,0.9089861512184143,1.1625670194625854,-0.6591458916664124,-2.7358248233795166,-0.9143997430801392,1.1762895584106445,0.09431304037570953,-0.35035744309425354,1.4664928913116455,-0.5972026586532593,2.44937801361084,-0.8361293077468872,0.3552178740501404,0.11813325434923172,0.8695474863052368,-0.6220307350158691,0.6761230826377869,-0.715211033821106,-1.9737308025360107,-0.7950221300125122,-0.5456782579421997,0.11149200052022934,1.5294163227081299,-0.758644700050354,-0.2588125467300415,-0.6444111466407776,0.41070640087127686,-2.4701144695281982,0.10208280384540558,-0.35286009311676025,1.5632052421569824,-0.7134926915168762,0.4342093765735626,-1.102724552154541,-1.883317232131958,-0.929520845413208,0.6823561191558838,1.1295007467269897,-0.13547955453395844,0.577487587928772,-2.204148769378662,0.2686329782009125,-1.89353346824646,1.823583722114563,0.10601320117712021,0.3869362771511078,1.1901416778564453,2.9423718452453613,-0.34176769852638245,-0.8770869374275208,-2.045809507369995,-0.6293312311172485,0.8195285797119141,0.20732253789901733,0.44369715452194214,-0.9317189455032349,-0.8288903832435608,1.6298357248306274,0.0853295624256134,0.16208720207214355,0.6492489576339722,0.9061684608459473,1.5152758359909058,-0.6032856702804565,-0.3123612403869629,-1.1455358266830444,0.5609185099601746,-0.8347731828689575,0.3305044174194336,-0.38116633892059326,-0.048223771154880524,-0.49088066816329956,-0.4954507648944855,-0.3949616849422455,-1.3358279466629028,-1.0280282497406006,0.06890664994716644,0.18287025392055511,0.10958433151245117,0.39539504051208496,1.2148593664169312,0.760772168636322,-1.285025715827942,-2.1075658798217773,0.21649664640426636,3.4338016510009766,0.16672614216804504,-0.48704883456230164,-0.9225707650184631,0.9914097189903259,-0.4234738349914551,1.4577540159225464,-1.4689048528671265,0.014859753660857677,-0.9890302419662476,-0.9865332841873169,-0.6541779637336731,-0.6034725904464722,-0.9637337923049927,-0.9342187643051147,0.5368776321411133,0.6576405167579651,1.3522082567214966,-0.827400803565979,-0.670460045337677,0.38467633724212646,-0.2098805010318756,0.2442537099123001,-0.4073771834373474,0.024682098999619484,-1.4177438020706177,-0.55195152759552,1.3010649681091309,-0.01658279076218605,-0.7553523182868958,1.953642725944519,-1.4364219903945923,-1.5851895809173584,0.11370192468166351,-0.33599331974983215,-1.0024930238723755,-1.7127054929733276,0.011665011756122112,0.219892218708992,-1.4167717695236206,0.8049257397651672,-0.04978332668542862,0.11317574232816696,-0.35446813702583313,-0.5324220061302185,0.2782832682132721,-0.9661738276481628,2.2613816261291504,0.5937381982803345,0.32894468307495117,-1.4282628297805786,-0.8648570775985718,0.7173213958740234,1.0115716457366943,0.524911642074585,1.3713126182556152,-0.1637934446334839,-0.5619494318962097,-2.015467405319214,-0.07462137937545776,1.6345815658569336,-0.38183459639549255,0.8678968548774719,1.809635043144226,-1.116261601448059,-0.7699064612388611,0.09874355047941208,1.8970571756362915,1.1177581548690796,0.8041494488716125,0.09963564574718475,-2.051175355911255,1.7763241529464722,-0.004167424514889717,0.84902024269104,-0.9692589640617371,0.28173336386680603,1.123206615447998,-1.7862900495529175,-0.38397449254989624,-0.8184106945991516,0.11708148568868637,0.7428142428398132,-0.14512291550636292,-0.39932504296302795,-1.0911014080047607,-0.568465530872345,-2.0403270721435547,-0.9451329708099365,-0.43757179379463196]},"cellActivationHidden":{"rows":20,"columns":20,"weights":[2.0416171550750732,2.2092652320861816,0.454109787940979,2.232799530029297,2.3731489181518555,0.6317141652107239,-2.173778772354126,3.115471363067627,1.1589795351028442,-1.9188722372055054,-0.7948009967803955,-3.0604746341705322,1.485036015510559,-2.7226502895355225,-1.545987844467163,-1.551270842552185,0.7959251999855042,1.1441221237182617,-2.003462791442871,0.974223792552948,-0.22053466737270355,-0.015518954955041409,0.14289641380310059,-0.9566064476966858,-0.8702260255813599,-0.6655378341674805,-0.8830223679542542,0.25596490502357483,1.7350319623947144,-1.475744605064392,0.3774488568305969,0.5441628694534302,1.1644023656845093,-1.5828949213027954,-0.03511664643883705,-0.6218500137329102,-0.12234870344400406,-0.40301474928855896,-0.8046994805335999,1.5552316904067993,-0.5539303421974182,-1.0331462621688843,1.3396309614181519,2.1753761768341064,-0.474322646856308,-0.5465984344482422,1.141995906829834,-2.428694009780884,-0.8921907544136047,-0.21469946205615997,-0.04403345659375191,0.29546090960502625,0.2286197394132614,1.4451769590377808,0.012382959946990013,0.05695009604096413,-1.3042323589324951,-0.5914801359176636,0.6951303482055664,0.1840500682592392,-3.4533205032348633,-0.7494773268699646,0.7958793044090271,-0.8046454787254333,0.8619052171707153,0.2292279452085495,0.17243468761444092,0.8361795544624329,-0.4284183979034424,1.7095175981521606,-4.076911449432373,2.8898677825927734,-0.6111080050468445,1.0086957216262817,-0.6183100342750549,-0.672540545463562,1.8663583993911743,-2.442523241043091,2.4157798290252686,0.9514256715774536,-1.4784843921661377,0.7240750193595886,0.023217611014842987,-0.03428589180111885,-1.8143383264541626,1.6177102327346802,1.3412998914718628,0.012219279073178768,-0.26981982588768005,1.119110107421875,-0.3959213197231293,1.0535190105438232,-0.3845842778682709,0.1451558917760849,0.5474480986595154,-0.04234965890645981,0.5509615540504456,0.6192805171012878,0.30998221039772034,0.15666677057743073,-0.2443387359380722,-0.2055300772190094,-0.12116573005914688,-1.041641354560852,-0.2880491018295288,-0.1746901273727417,0.5038046836853027,-0.165988489985466,-0.6567530035972595,-0.4795486032962799,0.5376565456390381,0.5761116743087769,-0.6382376551628113,0.5202122926712036,1.11318838596344,0.6166816353797913,0.8512147068977356,0.34784749150276184,0.5501927733421326,-0.5598672032356262,-0.8109124302864075,-1.1391535997390747,-0.26225152611732483,0.6347067952156067,0.8585113286972046,0.006456685718148947,0.11631099879741669,0.1699846386909485,0.042351238429546356,1.8842047452926636,0.5016787052154541,-1.326486349105835,-1.187246561050415,-1.086570143699646,0.9147180914878845,-0.20043382048606873,-2.7343854904174805,-0.41759544610977173,1.6465250253677368,-1.6005401611328125,0.6985925436019897,1.057180643081665,-0.23454906046390533,-0.3154115378856659,2.7077038288116455,-0.26512613892555237,-0.9249053597450256,-0.7388892769813538,0.8757675886154175,-1.9625791311264038,-0.0040473127737641335,-1.3519394397735596,0.9897052645683289,-2.984527587890625,-0.3716419041156769,0.15699128806591034,1.0515556335449219,2.0775787830352783,-1.8588296175003052,1.935691475868225,-0.17500673234462738,1.3296781778335571,-0.9793740510940552,-0.36396732926368713,1.246069073677063,0.43654385209083557,-0.4272121787071228,1.6553001403808594,0.4097272455692291,-1.1705472469329834,0.36291205883026123,-0.09910666942596436,1.0821082592010498,-0.5075235366821289,-1.410681962966919,-1.6585057973861694,-0.5730525851249695,0.9499446749687195,-0.15604667365550995,0.36431238055229187,0.36096030473709106,0.9238391518592834,0.7196022272109985,1.1395416259765625,0.777587354183197,0.5407785177230835,-0.33304306864738464,0.3121814429759979,0.8031852841377258,0.624527096748352,-0.9639633893966675,0.13419055938720703,0.22270089387893677,-1.1276969909667969,-1.2142690420150757,0.8286932706832886,-1.7680977582931519,0.4149487614631653,0.12305527180433273,-0.1968000829219818,-0.6832098960876465,2.4120781421661377,1.3746675252914429,-2.5175936222076416,2.0333099365234375,3.112515926361084,-1.4772471189498901,0.7702991366386414,-1.79938542842865,-2.1533515453338623,-0.15449900925159454,0.4576779901981354,0.9827288389205933,-0.4910829961299896,-1.5752652883529663,-1.7848806381225586,1.0376421213150024,0.8953195810317993,-0.9715192914009094,2.559978485107422,-1.425041675567627,-1.436954379081726,0.4365253448486328,0.655137300491333,-2.2196173667907715,-1.2596865892410278,2.491212844848633,-4.699444770812988,-0.017945546656847,0.46222490072250366,-1.9654500484466553,0.8571377396583557,-1.255544900894165,1.2384018898010254,1.2296032905578613,-0.2942764461040497,1.6214896440505981,-0.8113704323768616,0.551502525806427,-1.6345036029815674,0.07541223615407944,-0.25208520889282227,-1.017083764076233,-0.4706953167915344,-0.17558322846889496,-1.7824422121047974,0.7606104612350464,-0.5702444911003113,-0.7735224366188049,0.4463539719581604,-1.4455012083053589,-0.8426914811134338,-1.0734714269638062,0.64142245054245,2.4104628562927246,1.0210453271865845,-0.3625320792198181,0.25424760580062866,0.42989128828048706,0.3440566956996918,-0.008852346800267696,0.3893081247806549,0.7394003868103027,1.3011773824691772,0.5645102858543396,-0.1523619294166565,0.219571053981781,-2.6178200244903564,-0.19575797021389008,-0.6651458740234375,-0.17016848921775818,0.9767686128616333,-0.39437055587768555,-0.2702634036540985,-0.6457222700119019,0.18385453522205353,-1.7154381275177002,0.20307013392448425,-0.2358948141336441,-0.9678177833557129,0.9094985723495483,1.117918610572815,-5.618710517883301,1.7510555982589722,0.9385215640068054,-0.03692550212144852,-1.1636934280395508,0.10552249103784561,-0.0073328339494764805,-1.8390790224075317,-0.03794371709227562,-1.230496883392334,0.9603681564331055,1.028080940246582,-1.0572106838226318,-0.6471415162086487,0.33200177550315857,-1.349979043006897,-0.4311661124229431,-0.23946323990821838,-0.1004142165184021,-0.2082413285970688,