{"data":"[{\"input\":\"Hello\",\"output\":\"Hi\"},{\"input\":\"Hi\",\"output\":\"Hello! What can I do for you today!\"},{\"input\":\"What is the scratch for discord site?\",\"output\":\"https://scratch-for-discord.com\"},{\"input\":\"What is the s4d site?\",\"output\":\"https://scratch-for-discord.com\"}]","model":{"type":"LSTM","options":{"inputSize":31,"inputRange":31,"hiddenLayers":[20,20],"outputSize":31,"decayRate":0.999,"smoothEps":1e-8,"regc":0.000001,"clipval":5,"maxPredictionLength":100,"dataFormatter":{"indexTable":{"4":27,"H":0,"e":1,"l":2,"o":3,"i":4,"!":5," ":6,"W":7,"h":8,"a":9,"t":10,"c":11,"n":12,"I":13,"d":14,"f":15,"r":16,"y":17,"u":18,"s":19,"?":20,"p":21,":":22,"/":23,"-":24,".":25,"m":26,"stop-input":28,"start-output":29,"unrecognized":30},"characterTable":{"0":"H","1":"e","2":"l","3":"o","4":"i","5":"!","6":" ","7":"W","8":"h","9":"a","10":"t","11":"c","12":"n","13":"I","14":"d","15":"f","16":"r","17":"y","18":"u","19":"s","20":"?","21":"p","22":":","23":"/","24":"-","25":".","26":"m","27":"4","28":null,"29":null,"30":null},"values":[{"input":"Hello","output":"Hi"},{"input":"Hi","output":"Hello! What can I do for you today!"},{"input":"What is the scratch for discord site?","output":"https://scratch-for-discord.com"},{"input":"What is the s4d site?","output":"https://scratch-for-discord.com"}],"characters":["H","e","l","o","i","!"," ","W","h","a","t","c","n","I","d","f","r","y","u","s","?","p",":","/","-",".","m","4","stop-input","start-output","unrecognized"],"specialIndexes":[28,29,30]}},"trainOpts":{"iterations":20000,"errorThresh":0.005,"logPeriod":10,"learningRate":0.01,"callbackPeriod":10,"timeout":"Infinity"},"input":{"rows":32,"columns":31,"weights":[1.2566896677017212,0.010906824842095375,-0.8539397716522217,-3.5763189792633057,0.09573818743228912,0.24680428206920624,2.4760711193084717,-0.010602486319839954,1.7688037157058716,0.15791943669319153,0.0006747709703631699,2.9070754051208496,1.427465796470642,0.8473876714706421,-1.9726918935775757,0.413964182138443,0.5766821503639221,-0.37677597999572754,-1.205470085144043,2.611241102218628,1.7180652618408203,-1.333780288696289,0.7365559339523315,-1.0706514120101929,0.5778002738952637,2.4868857860565186,-0.24887005984783173,0.7427178025245667,-0.16480109095573425,-1.3583943843841553,0.33668845891952515,0.3809888958930969,-6.823563098907471,4.030471324920654,7.426346778869629,-0.3743784725666046,-1.0513947010040283,-1.2885527610778809,-1.8904346227645874,1.5378330945968628,-0.16489912569522858,-0.21967588365077972,-5.928961753845215,-0.5795954465866089,-3.4659242630004883,-4.064299583435059,-2.437467575073242,1.0670349597930908,0.3263147473335266,5.561588287353516,0.33638936281204224,-2.9061033725738525,3.728294849395752,-7.464910507202148,-1.8309738636016846,-0.7351291179656982,-1.9671326875686646,9.454954147338867,3.469813585281372,-4.529476165771484,-2.9033827781677246,-0.40178918838500977,0.7250676155090332,0.24927625060081482,0.5493528842926025,-2.6621360778808594,-0.27339425683021545,-1.4192752838134766,-0.014466864988207817,0.9976204037666321,3.5630762577056885,-0.8443828225135803,2.0608739852905273,-0.6806226372718811,1.1611042022705078,-0.4705086946487427,-1.0055911540985107,-0.021974297240376472,-1.7555513381958008,-0.9265937805175781,0.14354898035526276,-2.15853214263916,-2.036651849746704,0.7607048153877258,-3.4597182273864746,-1.7799770832061768,-0.6911984086036682,-0.07592613250017166,0.7483632564544678,-0.45492732524871826,1.2115285396575928,0.034786734730005264,2.7633368968963623,-0.6369492411613464,-7.385901927947998,-2.615398406982422,-0.39863789081573486,0.7611573934555054,1.215361475944519,0.5726886987686157,0.38400357961654663,0.33123549818992615,-1.778845191001892,-2.700929880142212,-1.1970795392990112,2.029057502746582,-2.6487717628479004,0.16873133182525635,0.17547734081745148,-4.55471134185791,0.059772901237010956,-1.6308460235595703,-2.4581918716430664,-1.3574562072753906,-4.718425273895264,-2.677513599395752,0.44966375827789307,1.5277317762374878,-1.1137019395828247,5.372928619384766,-1.8723522424697876,2.3573944568634033,2.446582794189453,1.1722047328948975,-1.1774802207946777,-2.0385868549346924,-0.6530737280845642,-1.9793225526809692,0.6578530669212341,0.4661824405193329,0.6722254157066345,-0.5305672883987427,2.995861291885376,-0.32577547430992126,-2.484774112701416,0.6905262470245361,1.3590452671051025,-1.3669244050979614,-0.38155534863471985,-2.3970847129821777,-2.3588452339172363,-0.6212650537490845,-1.098473072052002,-1.2007383108139038,-2.484513759613037,-2.713740348815918,0.5790063738822937,-0.006363588385283947,2.0118887424468994,0.30179363489151,2.476184844970703,-0.46287551522254944,2.8561556339263916,0.43916183710098267,0.9759438037872314,2.640251874923706,0.34403809905052185,0.1773500293493271,0.789980411529541,-1.539528250694275,-0.7549887895584106,1.2576637268066406,1.203229546546936,1.1148351430892944,0.6672379970550537,2.0309154987335205,0.2597375214099884,-1.7744050025939941,-0.13326582312583923,1.4925767183303833,-0.3609484136104584,-1.2212928533554077,-1.232367992401123,-0.17328472435474396,1.434498906135559,-1.3400464057922363,0.9540785551071167,0.17593763768672943,1.5346981287002563,1.338468313217163,-1.3922494649887085,0.0959339365363121,2.1556389331817627,-0.7042549848556519,-1.1181151866912842,-0.7614830732345581,1.6699777841567993,-2.5720696449279785,-3.9821014404296875,1.086398720741272,-0.2900650203227997,-0.5827451348304749,-3.7132019996643066,3.0295569896698,3.0818021297454834,-7.391082763671875,0.4065459370613098,3.800100326538086,-3.7485995292663574,2.739616870880127,0.42833074927330017,0.5839903950691223,0.30306246876716614,6.948079586029053,-6.601885795593262,-3.118802547454834,-3.0767569541931152,1.7277346849441528,0.49031051993370056,3.3708713054656982,2.116973400115967,-2.762765884399414,0.2909225821495056,3.4738943576812744,2.2312278747558594,5.026484489440918,-0.9550414085388184,-0.07472782582044601,0.6658377647399902,-1.8182672262191772,0.814328134059906,-2.4481279850006104,-2.2934820652008057,1.92191743850708,0.9668653011322021,0.41273754835128784,1.3447529077529907,0.7808213829994202,0.7201094627380371,1.2221626043319702,2.1273155212402344,-1.822747826576233,0.633513867855072,1.7222219705581665,0.5275411009788513,0.7577807307243347,4.145567417144775,6.959340572357178,2.036939859390259,0.07070375233888626,-2.376077651977539,-1.1494234800338745,-1.2438623905181885,-1.305888056755066,1.4475278854370117,-0.907313346862793,-1.7074449062347412,0.45928654074668884,0.5817780494689941,-1.8704750537872314,-0.02573520876467228,0.6325494647026062,-1.1119900941848755,-0.8202272057533264,-2.662529230117798,0.25007468461990356,1.5033445358276367,0.1653008908033371,-0.9550458788871765,2.444659471511841,1.9303834438323975,-0.9545396566390991,-0.0735761895775795,-2.105393409729004,-2.548405647277832,2.501555919647217,-0.8201497197151184,-2.766390800476074,-3.0053696632385254,0.14040380716323853,-1.0776350498199463,0.043870117515325546,2.0553736686706543,-1.7018578052520752,4.689005374908447,1.9195798635482788,2.4742932319641113,3.147918701171875,0.6870813965797424,-0.8669883012771606,-1.5528712272644043,3.6272921562194824,1.0506857633590698,1.4356948137283325,-0.6108768582344055,0.902750551700592,-0.2870311439037323,-3.931715488433838,1.8989273309707642,-0.32815563678741455,1.1814111471176147,0.26944151520729065,0.04824842885136604,4.23298454284668,1.3572163581848145,1.7925453186035156,-0.45116695761680603,2.424091339111328,0.669957160949707,0.803814172744751,-0.4056209325790405,-0.4095056653022766,2.282986879348755,-3.0293474197387695,-0.3224356770515442,0.979289174079895,-1.0324327945709229,-1.0127599239349365,-4.411797523498535,-3.647608757019043,-1.8051165342330933,-3.9352431297302246,-2.1077747344970703,-2.250013589859009,-0.7781252264976501,0.8627941012382507,-2.581439256668091,-0.5240417718887329,1.6395567655563354,-1.1967802047729492,-1.7178645133972168,1.3535066843032837,3.0667660236358643,-1.4737586975097656,0.7124146819114685,-0.8956130743026733,-2.190690279006958,2.345156192779541,-1.9758450984954834,-1.7363262176513672,-1.9675476551055908,-1.9725669622421265,-2.638875722885132,3.018888473510742,2.1585991382598877,-0.8751867413520813,2.5136590003967285,-2.1748197078704834,1.62125563621521,1.8010015487670898,1.0082107782363892,-1.6633073091506958,-0.9062060117721558,1.8785537481307983,-0.9411228895187378,0.23046699166297913,1.7987667322158813,2.018906354904175,-1.2753612995147705,0.10194005817174911,2.84301495552063,-1.7710951566696167,2.7493844032287598,2.429189443588257,2.350384473800659,0.3346063494682312,-0.4788799583911896,0.5873961448669434,1.9744501113891602,0.6781415343284607,2.814065456390381,1.0394988059997559,-0.11650004237890244,0.4852079749107361,-0.2298511564731598,-2.8391361236572266,0.37582749128341675,-0.045410752296447754,1.4101909399032593,1.4598525762557983,-4.29810094833374,-0.984067976474762,-0.657701313495636,-2.6182315349578857,-1.8696635961532593,-1.6603645086288452,-1.7084438800811768,-1.8866931200027466,0.7689836025238037,-0.13244543969631195,1.5863629579544067,-2.089512825012207,-0.6451250314712524,2.0149588584899902,4.179520606994629,-1.0055798292160034,-1.2619479894638062,-2.4574975967407227,-0.609487771987915,-0.055358126759529114,-2.022186040878296,-3.140631914138794,-4.3581414222717285,0.1923518180847168,-1.1987340450286865,-0.26387321949005127,1.584896445274353,-0.23912480473518372,4.231218338012695,-1.2989028692245483,1.7461206912994385,2.0370728969573975,0.7963645458221436,6.717788219451904,-3.0293657779693604,2.4669876098632812,-2.777704954147339,-0.06367194652557373,2.937741279602051,-1.3641548156738281,3.0813863277435303,3.896256446838379,-1.692304253578186,3.838469982147217,-1.123095154762268,-0.21992127597332,2.141908645629883,0.3470422029495239,2.5642776489257812,-9.197977066040039,-5.193211555480957,-1.547003149986267,-3.901076316833496,-3.478367328643799,5.825628280639648,-9.455771446228027,2.0698482990264893,8.10915470123291,-1.5118472576141357,2.0904221534729004,3.074859857559204,0.0005278199096210301,1.6472101211547852,1.2014073133468628,-1.0388954877853394,1.207897424697876,4.998028755187988,0.045151881873607635,3.423665761947632,-2.0331764221191406,5.036480903625488,-2.5740087032318115,1.289952039718628,1.8044304847717285,0.22010931372642517,2.066035509109497,-0.4899196922779083,-0.37618693709373474,-0.6237636208534241,-5.13648796081543,9.231602668762207,9.962413787841797,7.087722301483154,0.5167015790939331,1.8353756666183472,-0.9036558270454407,3.2592968940734863,-1.6032233238220215,-5.080570697784424,5.958559036254883,-0.7915946841239929,-0.6806674599647522,0.026988251134753227,-3.1727757453918457,1.4342372417449951,-2.6646759510040283,1.2706438302993774,-0.3157271146774292,-0.8270853757858276,4.123676300048828,1.1687902212142944,0.6524707078933716,-4.21116304397583,2.8862216472625732,-1.9550243616104126,-0.16355469822883606,-1.038051962852478,-0.4630725681781769,-0.8689318895339966,-3.838857650756836,0.9709214568138123,0.20011210441589355,-0.5112683176994324,0.11247643828392029,0.3059304654598236,-0.40449807047843933,-0.39714691042900085,0.7999052405357361,-3.670159339904785,-0.37826672196388245,0.9959226250648499,-0.022562367841601372,-3.407930612564087,0.9019836187362671,1.3253662586212158,2.3889856338500977,1.6509281396865845,2.003115177154541,0.9554821848869324,-0.5792356729507446,0.7500569820404053,0.8378989100456238,3.0695338249206543,-1.642600655555725,2.8822977542877197,2.6594486236572266,0.7467991709709167,6.100470066070557,1.0351351499557495,2.1469929218292236,-1.5584136247634888,-0.9568501114845276,1.4440453052520752,1.9665471315383911,1.0252641439437866,1.4050310850143433,2.8426976203918457,0.018685992807149887,1.4537137746810913,-3.102412223815918,-2.2106306552886963,2.4173080921173096,-1.9226444959640503,4.547879219055176,2.1798322200775146,-1.2549970149993896,2.1469976902008057,0.1992698609828949,1.9446684122085571,-2.2493796348571777,0.26451605558395386,-2.8178513050079346,-2.079772710800171,-1.9113630056381226,-0.27726784348487854,-0.5899633169174194,-0.5407917499542236,-0.5105646848678589,3.4718666076660156,-2.5464038848876953,1.4230804443359375,-1.8152854442596436,3.86687970161438,0.6307732462882996,-0.4918230175971985,-2.3762481212615967,-0.8612827658653259,0.36086219549179077,-0.29375240206718445,-1.977791666984558,-1.0181149244308472,1.327650547027588,-4.596129894256592,0.8371486663818359,-0.039692994207143784,-2.9840450286865234,1.159403681755066,0.19392269849777222,-0.147125706076622,1.4785676002502441,0.5359997749328613,0.06307893991470337,0.3833361864089966,-0.09657769650220871,-4.306901931762695,0.7133230566978455,4.057734966278076,-5.546744346618652,-1.3553189039230347,-0.7666035294532776,-2.7922768592834473,7.071552276611328,-4.2921319007873535,-0.8904067873954773,-0.7194663286209106,1.0019131898880005,1.8824255466461182,-5.729456424713135,-3.278536081314087,1.7904963493347168,-0.7188870310783386,-2.0341243743896484,0.5738363265991211,-1.013628602027893,3.092240333557129,1.4779030084609985,-3.8507094383239746,3.097904920578003,4.172209739685059,0.026869291439652443,4.021055698394775,3.3388140201568604,1.771111249923706,-0.11775138974189758,-2.9713919162750244,-3.415463924407959,-0.5439780354499817,-2.3626914024353027,5.150600910186768,-0.19361811876296997,0.11769700795412064,-3.424912452697754,1.5392550230026245,-2.923321008682251,2.691134214401245,5.009064197540283,-0.3141087293624878,0.320258229970932,1.336565613746643,4.26646089553833,-3.0800952911376953,2.9605350494384766,-1.8433659076690674,-6.643851280212402,-1.8332850933074951,-3.835078716278076,9.165428161621094,0.28511032462120056,2.4810101985931396,2.123168706893921,-5.366576194763184,0.11723899841308594,0.07446569949388504,1.6695729494094849,1.0625700950622559,0.7331752777099609,0.42423269152641296,-4.321435928344727,-2.7860841751098633,-0.436410129070282,-2.364032030105591,2.7272841930389404,3.336768388748169,-2.4968907833099365,0.4436520040035248,2.210282564163208,1.6373614072799683,3.7259387969970703,3.140070676803589,1.1739728450775146,4.10610818862915,-3.7541770935058594,0.8198308348655701,-0.9039125442504883,-4.847980499267578,2.9126369953155518,0.004213401582092047,-1.881546139717102,-1.3177248239517212,-0.8801868557929993,-0.8623196482658386,0.6404269933700562,1.4692684412002563,-4.800692558288574,-0.7360050082206726,-1.513657569885254,-2.4661078453063965,-3.897275924682617,-0.17884579300880432,-0.7817527651786804,-3.940197229385376,0.2087903916835785,-1.4191398620605469,-0.42150354385375977,-0.23785994946956635,-2.1263041496276855,-3.2180092334747314,-0.11275119334459305,-3.2131857872009277,-0.4067128896713257,-0.10770353674888611,-2.5398714542388916,0.27122509479522705,-0.19752898812294006,-0.5162283778190613,4.916353225708008,-2.000027656555176,4.15148401260376,2.3761682510375977,-4.850506782531738,-0.575280487537384,1.161048412322998,1.9447840452194214,3.5216665267944336,-3.6204347610473633,-3.6549367904663086,-0.5900015830993652,-2.977511167526245,-1.45549738407135,0.09764464199542999,3.245896339416504,-5.130946636199951,1.4643009901046753,-0.8137694001197815,-3.582453727722168,-0.4895505905151367,-5.6264777183532715,1.05906081199646,-0.37483304738998413,-1.809877872467041,-2.5020432472229004,-0.1300937533378601,0.9737015962600708,0.5694336295127869,-2.2005016803741455,-3.4922056198120117,1.1812114715576172,-2.6979074478149414,-3.220226764678955,0.9394428730010986,-3.3509788513183594,1.3873523473739624,3.1664164066314697,0.11529837548732758,1.5339914560317993,-0.005362437106668949,2.161978006362915,0.5653861165046692,1.8660173416137695,2.251617908477783,1.546852707862854,-2.8508379459381104,1.3492097854614258,1.5363914966583252,-2.4905009269714355,-2.9997167587280273,0.28545334935188293,4.782232284545898,3.700145721435547,1.8001015186309814,2.3556082248687744,0.3589550256729126,3.8673665523529053,0.19397765398025513,4.757088661193848,1.7720160484313965,2.442924976348877,-1.0809160470962524,-3.300417900085449,-0.00028206827118992805,0.10732898116111755,2.3493459224700928,0.0891818255186081,-3.9171841144561768,1.4769858121871948,-1.6044880151748657,2.706484794616699,3.738050937652588,-0.7056496143341064,-0.7892588376998901,-0.7904480695724487,0.773703396320343,-4.451632499694824,2.883371591567993,3.129260540008545,-2.372819423675537,-3.448962450027466,-3.3442654609680176,3.2245097160339355,3.4396419525146484,2.6573352813720703,-0.9988181591033936,2.9077532291412354,-0.04069226607680321,2.074692964553833,2.422576904296875,3.9411137104034424,1.1253695487976074,-3.099375009536743,-1.8262372016906738,-2.347501039505005,1.213667392730713,-2.257540464401245,-1.8330271244049072,-2.274080514907837,-0.964687705039978,2.0743136405944824,4.460056304931641,4.3053460121154785,0.5454728007316589,0.03676684573292732,1.8330388069152832,-0.36814361810684204,-2.882493019104004,2.6836137771606445,-0.9389036893844604,-0.3170081079006195,0.5475335717201233,0.9534676671028137,-0.2480332851409912,1.581876516342163,3.9325222969055176,1.2971272468566895,0.9726129770278931,1.6891323328018188,0.803957462310791,1.4044967889785767,4.372601509094238,-2.574347496032715,-3.2812602519989014,0.9012359976768494,-3.5802557468414307,-0.3892443776130676,1.263623833656311,-0.44843292236328125,0.6291632652282715,3.630356788635254,3.8228402137756348,2.8388092517852783,0.0408969409763813,1.5610435009002686,1.6478840112686157,3.232832908630371,1.7501705884933472,0.566498875617981,-0.37492629885673523,1.3879380226135254,4.713778495788574,-0.82976895570755,4.4651312828063965,3.658506393432617,1.5847541093826294,2.455220937728882,3.2089784145355225,4.689071178436279,-0.9300912618637085,0.03897537663578987,3.048078775405884,1.9956005811691284,-0.015712687745690346,-2.945889472961426,-1.4853205680847168,-2.4761860370635986,0.06178237497806549,1.7029814720153809,-3.6243889331817627,-1.2768570184707642,0.5663608908653259,1.5749166011810303,-3.665172815322876,-3.345946788787842,2.767592191696167,0.9557982683181763,-3.4373903274536133,0.6155195832252502,2.3420157432556152,-8.514456748962402,2.801321268081665,2.275362968444824,-2.8825244903564453,-0.08094068616628647,-4.416037559509277,3.0668952465057373,-0.20920629799365997,-0.17536890506744385,-4.241223335266113,-2.6192615032196045,0.5792533159255981,1.2532914876937866,-1.1898155212402344,-0.5365852117538452,1.5758317708969116,2.167095899581909,-0.6271669268608093,0.10009288787841797,-2.7817511558532715,4.749987602233887,4.297548294067383,-3.74638032913208,-0.9352224469184875,7.2409210205078125,3.0804920196533203,0.0865291878581047,1.327927827835083,1.0928963422775269,-3.6095972061157227,-10.232263565063477,0.031107312068343163,-7.362120628356934,-2.1924638748168945,0.8373507261276245,-3.1941938400268555,6.0373687744140625,-2.374899387359619,2.675326108932495,-1.9179991483688354,6.195212364196777,0.8238328099250793,1.9004631042480469,-3.827666997909546,2.6996755599975586,2.015409231185913,-2.515061855316162,7.0599684715271,-0.8747403025627136,-2.498549222946167,0.9755421876907349,2.3152782917022705,-4.085023880004883,3.254822254180908,3.6342835426330566,-0.07382022589445114,2.288111925125122,1.4400752782821655,0.7189618945121765,-1.076047420501709,2.1930603981018066,0.08621357381343842,0.6289800405502319,2.1306400299072266,-2.224297523498535,-3.5412442684173584,-0.3180331885814667,-1.1505848169326782,1.5995146036148071,-0.06390852481126785,-1.3969253301620483,-0.1253150850534439,0.7067252397537231,-0.5774500966072083,2.99282169342041,-0.08227428048849106,-0.25833913683891296,0.5211315751075745,-0.3409082591533661,-0.2362239509820938,-2.5161166191101074,-0.5004318952560425,-0.37624427676200867,0.004211976658552885,-0.13240104913711548,0.9691818952560425,-1.5896801948547363,-1.1541961431503296,1.271979808807373,1.670780062675476,-1.4248865842819214,-1.7318381071090698,0.4396574795246124,0.2596583366394043,-1.020745038986206,-1.741748571395874,-1.0884369611740112,-0.5878148674964905,-2.03874135017395,-1.048795223236084,-1.0522997379302979,-0.9729688763618469,-0.6365458369255066,-0.8803709149360657,-0.4945456087589264,-1.0665409564971924,1.346760869026184,-2.349943161010742,-0.11747483164072037,2.347172498703003,-0.057029057294130325,0.30209583044052124,-0.21197426319122314,0.941459596157074,2.026203155517578,-0.023095594719052315,-0.03944547474384308,0.04975953325629234,0.027470052242279053,-0.05406565219163895,0.0203553494066,-0.0714561939239502,0.005170227959752083,-0.02951529622077942,-0.05215467885136604,0.028518622741103172,0.05928170308470726,-0.058500662446022034,-0.05483495444059372,0.049059152603149414,-0.051969874650239944,0.005693244282156229,0.00649590790271759,0.064869724214077,0.02938280999660492,-0.010595100931823254,-0.045791078358888626,-0.040257446467876434,-0.0026470941957086325,0.05256897211074829,0.0518183670938015,0.05905367434024811,0.06874551624059677,-0.06336119025945663,-0.06230533868074417,-0.03869546949863434]},"hiddenLayers":[{"inputMatrix":{"rows":20,"columns":31,"weights":[0.2427850365638733,1.2833096981048584,-2.380566358566284,-4.026991844177246,-2.732166290283203,-0.8125143051147461,1.5003288984298706,2.658320665359497,2.2783844470977783,-0.8873831033706665,1.6887848377227783,2.328068494796753,0.07391174137592316,0.5937238335609436,-1.6219536066055298,0.23750033974647522,-0.9365997314453125,1.1994972229003906,-1.6043184995651245,0.3556843400001526,-1.664847493171692,1.8575124740600586,-0.3717155158519745,-0.1549946516752243,1.6640663146972656,-1.8371467590332031,-0.43025925755500793,-0.1275927871465683,1.3940452337265015,-1.0145708322525024,1.8291839361190796,-1.4452673196792603,-1.3938274383544922,0.2571024000644684,0.08498501777648926,-1.7963933944702148,0.6666829586029053,0.7304227948188782,-1.0889101028442383,-1.0518040657043457,0.7921997308731079,1.0527294874191284,0.47968801856040955,2.0513510704040527,0.6415947079658508,1.389357566833496,-2.006394624710083,1.9071011543273926,3.762160301208496,1.350044846534729,-0.04090017452836037,-0.3947465121746063,0.4955141842365265,-1.0011446475982666,1.3332754373550415,-4.490410804748535,-0.8616838455200195,0.002684937557205558,3.079975128173828,0.067409947514534,-0.06183858588337898,-0.1426669955253601,1.1632331609725952,-0.6637788414955139,0.2196250557899475,1.0733948945999146,-1.1424874067306519,-1.0467394590377808,-3.0667855739593506,0.9545406699180603,-0.942075252532959,-0.030557917430996895,1.3762158155441284,-1.893660068511963,-2.086101531982422,-0.8155236840248108,-0.06802350282669067,-0.4846206605434418,-1.339664340019226,-2.5110156536102295,0.061321038752794266,-2.8297390937805176,-1.4679155349731445,0.4914669692516327,-0.2891656160354614,0.5885870456695557,2.1220266819000244,-1.1347284317016602,0.9760867953300476,0.16986805200576782,-1.728699803352356,0.919683575630188,-0.3018762767314911,0.519757866859436,-0.43031999468803406,-1.2707388401031494,-1.4569283723831177,-0.6636545658111572,-1.0053386688232422,-0.31001049280166626,0.6473150849342346,2.3725321292877197,-0.14339850842952728,1.3135827779769897,0.498323529958725,-0.9614869356155396,1.9604867696762085,-2.561253786087036,0.3151458501815796,0.5797103047370911,-1.1810959577560425,-1.1952646970748901,0.11029224842786789,-1.0203649997711182,0.4603959918022156,-0.8829615116119385,-1.2006314992904663,0.4881036877632141,-0.6218686699867249,0.6771030426025391,0.0802997499704361,-0.2918957769870758,0.8183485865592957,2.3602547645568848,0.6985139846801758,-1.835606336593628,-1.3899706602096558,1.9123812913894653,-1.8154640197753906,-1.7035778760910034,-1.8794041872024536,0.004726679064333439,0.24186605215072632,-1.7055296897888184,-0.3545787036418915,1.7510753870010376,-1.1355531215667725,-0.7914679646492004,0.3653743267059326,-1.4764785766601562,0.3022545576095581,-0.27703049778938293,-1.449539303779602,-0.6478461027145386,-1.038400411605835,-0.9187282919883728,1.118032455444336,2.9960403442382812,1.8053441047668457,-1.4626089334487915,-0.047654490917921066,1.849617838859558,-2.810837984085083,0.91327303647995,-0.8899812698364258,0.7510325312614441,-0.21252410113811493,0.019231827929615974,-1.1367207765579224,-1.075975775718689,-0.5976652503013611,-1.6293554306030273,0.15993709862232208,1.5600533485412598,-0.6233363747596741,-0.37700212001800537,-1.9243528842926025,-1.0767111778259277,-1.0830554962158203,-1.5663988590240479,-0.05886112153530121,-0.45691195130348206,-1.1939080953598022,-0.2460142821073532,-1.6454554796218872,-2.3586738109588623,-0.024576734751462936,-1.0039277076721191,-0.7629467844963074,1.8199726343154907,-1.5228586196899414,2.053846597671509,-1.311769962310791,0.1810217946767807,0.41846442222595215,1.877055048942566,-0.8377832770347595,0.07377903163433075,0.19889910519123077,-1.524086594581604,-1.7941361665725708,-0.377269983291626,0.15967296063899994,-0.6860817074775696,0.2977027893066406,2.353153944015503,0.4109080135822296,-0.3994322121143341,1.5881593227386475,0.4908095896244049,-1.1755075454711914,-1.5196527242660522,0.21261121332645416,2.0847370624542236,-0.7460616827011108,0.6153810024261475,1.427582859992981,-0.22952070832252502,0.4117639362812042,-1.4955040216445923,-0.04564773291349411,2.159555673599243,-0.26595422625541687,2.212172031402588,1.7784349918365479,0.3063238561153412,2.1801533699035645,2.059152603149414,0.3408544659614563,0.2327583283185959,0.944796085357666,-0.16350671648979187,-0.7123624682426453,0.5262216329574585,1.1765836477279663,-0.29697850346565247,0.9425821900367737,1.167893886566162,-1.7236026525497437,-0.8786441087722778,-0.5843833088874817,1.263839602470398,1.1957530975341797,-0.31740671396255493,-0.5600047707557678,-0.044809117913246155,0.8640239238739014,-0.15319497883319855,1.5002312660217285,0.9349777698516846,2.236032485961914,-0.3526785969734192,-0.5234698057174683,-1.1764955520629883,0.14863978326320648,-1.740563154220581,-1.6272103786468506,1.3524218797683716,0.7001846432685852,-2.452026128768921,3.7026774883270264,-1.383575439453125,-0.2718667685985565,0.5564485788345337,-0.5395058989524841,1.1413705348968506,0.7649258375167847,0.4069305658340454,1.1388683319091797,-0.3557077944278717,2.134183168411255,-0.15223373472690582,2.609830141067505,-0.7033544778823853,-0.5584890246391296,-0.21029487252235413,1.3591336011886597,-1.2785890102386475,-1.0233112573623657,1.4821032285690308,-2.4799060821533203,2.2419466972351074,-0.2564842700958252,-0.7986544370651245,1.1572270393371582,-0.8358079195022583,1.6684266328811646,-0.7219468355178833,-0.10972198843955994,4.342213153839111,1.1496734619140625,-0.02094210870563984,0.9865424633026123,-2.2367329597473145,-2.394822597503662,-0.9918246269226074,2.8096845149993896,-0.26542919874191284,-0.5052163600921631,1.3303534984588623,0.23186519742012024,-2.8252429962158203,1.6345685720443726,-0.541022539138794,1.6827689409255981,0.43417924642562866,1.9761711359024048,0.15036962926387787,0.33091771602630615,-1.0220659971237183,1.9199912548065186,0.4827762544155121,-2.7090678215026855,0.9484044313430786,-2.14932918548584,0.22231300175189972,1.6520475149154663,-0.8897607922554016,-0.8574279546737671,0.5823639035224915,0.5445917248725891,-1.8302521705627441,-0.4853172302246094,0.6434467434883118,0.2019439935684204,1.6583008766174316,-3.493523597717285,-1.6406036615371704,-1.453169584274292,-0.6688289642333984,-0.44003334641456604,0.5096623301506042,1.5033972263336182,-2.200676918029785,1.1290805339813232,-1.7873179912567139,-0.07364238053560257,0.6956385374069214,-1.3989883661270142,-2.428762197494507,1.3746294975280762,-0.7303668260574341,0.019148031249642372,1.163766860961914,0.7970185279846191,2.766676664352417,3.1816694736480713,0.2518730163574219,0.2896801233291626,1.777500033378601,-1.493353009223938,-2.2395894527435303,-0.5031414031982422,-1.0689852237701416,-0.9722601771354675,-3.1376113891601562,-3.021045446395874,-1.8501163721084595,-0.44086477160453796,-0.5229901075363159,-0.23842507600784302,-0.22153569757938385,-1.8303539752960205,1.01923406124115,0.76528000831604,-2.7679364681243896,0.39620864391326904,0.6161792874336243,0.8376501202583313,-0.32419759035110474,-1.2022502422332764,0.3207464814186096,-0.5271285772323608,-1.1633718013763428,-0.30453553795814514,-1.3903799057006836,-1.5021932125091553,0.48188266158103943,1.244088888168335,-1.3689991235733032,0.44336169958114624,2.198395252227783,0.30445849895477295,2.883650302886963,-0.8973557949066162,4.970157623291016,-0.11603917181491852,-0.38103175163269043,-1.5138554573059082,0.48799988627433777,-3.4776556491851807,0.16262182593345642,-0.16746708750724792,-2.443497896194458,-3.103215456008911,0.2842200696468353,-1.9195761680603027,-1.3083313703536987,0.8305824398994446,-0.5402373671531677,-0.3155878484249115,-0.2543847858905792,-1.2432905435562134,1.4216147661209106,-0.6527313590049744,1.9878990650177002,1.341901421546936,0.3803427517414093,1.4953346252441406,-0.4173186421394348,0.20048490166664124,0.19168654084205627,0.7392115592956543,-0.6646645665168762,1.7384461164474487,2.17311429977417,1.100899338722229,3.043487548828125,0.6679801940917969,0.5667266249656677,-0.6361042261123657,-0.30090126395225525,2.009962320327759,-0.5504081845283508,-2.9928653240203857,0.5836897492408752,0.11934677511453629,-0.012476658448576927,-0.008808844722807407,1.491109013557434,-0.16087360680103302,2.4416463375091553,0.5471532940864563,1.0513490438461304,0.09948968142271042,0.9334330558776855,-1.1195405721664429,-1.496777892112732,1.6412878036499023,-0.8673060536384583,-0.7438884377479553,-0.048017412424087524,-2.1479923725128174,-0.7118632793426514,0.7950645685195923,1.982359528541565,2.676013231277466,2.1536478996276855,-1.6341114044189453,-0.4081227779388428,-0.6182719469070435,0.33548280596733093,-0.13612690567970276,0.968161404132843,-1.0812008380889893,-0.41049739718437195,-1.1135103702545166,4.563720226287842,0.510302722454071,-3.2964255809783936,-0.8452070951461792,1.913864254951477,1.6305416822433472,0.41013288497924805,-0.12511712312698364,1.4669318199157715,-0.47468799352645874,0.13053905963897705,1.0485241413116455,-0.9883996844291687,0.41916075348854065,1.9034662246704102,-0.11173047125339508,0.013117190450429916,-0.4364866614341736,1.6090236902236938,1.4425030946731567,-0.8410402536392212,1.1536924839019775,-3.480567455291748,-3.8681912422180176,0.3835846781730652,0.7203448414802551,1.0463471412658691,-1.1214463710784912,2.294928550720215,2.202483892440796,0.41068342328071594,0.8441882133483887,-0.8535889983177185,0.7163971066474915,1.1027752161026,-0.21680422127246857,-0.9469305276870728,-1.0681545734405518,0.6854150891304016,3.278795003890991,-1.489046573638916,-0.33419859409332275,1.801500916481018,-0.12375116348266602,-0.4804603159427643,0.7485409379005432,-1.8510140180587769,1.0095674991607666,1.0354512929916382,-0.841890275478363,-1.3525989055633545,0.6157329678535461,-0.44793781638145447,2.6318671703338623,0.33936142921447754,0.8186611533164978,-0.2804531753063202,-0.3326655924320221,0.11879847943782806,0.36617180705070496,4.4247212409973145,0.08543127030134201,1.6206132173538208,0.0691608265042305,2.3313241004943848,2.744068145751953,2.409247875213623,1.228804349899292,-0.5452355146408081,0.8954045176506042,1.2293322086334229,1.1915991306304932,-2.0423583984375,-3.9251761436462402,0.6035063862800598,-0.6531842350959778,0.6016422510147095,1.5179611444473267,0.34149086475372314,-0.1278979331254959,-1.532062292098999,-1.0395796298980713,0.4717535972595215,1.3589808940887451,1.031333565711975,-1.2569884061813354,0.16780142486095428,-0.16595029830932617,0.6969341039657593,-0.46528148651123047,-1.7399259805679321,-2.958223342895508,2.3516883850097656,-2.375447988510132,-1.4806381464004517,-1.5966352224349976,0.8251506090164185,0.09372922778129578,1.4760539531707764,-0.6905705332756042,-2.8363001346588135,-1.4233415126800537,-1.4421501159667969,-1.389809250831604,-0.21423640847206116,1.384827971458435,2.4522809982299805,-1.8168145418167114,0.2440682053565979,-0.0009783841669559479,2.2221271991729736,1.0657832622528076,1.0657552480697632,0.7573874592781067,0.005928491707891226,-1.2491828203201294,-0.8259597420692444,0.980259895324707,-0.8251606225967407,-0.5991860628128052,1.2059084177017212,0.47233134508132935,2.420504570007324,0.184585303068161,0.13890275359153748,1.9032869338989258,1.7777023315429688,0.4883175194263458,1.2634965181350708,0.15593478083610535,1.8647407293319702,0.5257453322410583,-0.8563066720962524,0.4454577565193176,-0.11593405157327652,-1.2742795944213867,0.2808093726634979,-0.6471436023712158,0.3633793592453003,-0.9933960437774658,-0.8247895240783691,-2.1560094356536865,1.2580945491790771,0.20356959104537964,0.6783608794212341,2.667634963989258,-1.641496181488037,-3.2546164989471436,1.1801011562347412,1.5761243104934692,0.5093831419944763,0.07099787890911102,1.570138931274414,1.7351372241973877,-1.3144062757492065,1.4099794626235962,-0.7190284132957458,1.3839820623397827,1.9958170652389526,-0.7951788306236267,0.23283033072948456,0.5573532581329346,0.5407806038856506,1.485700011253357,-0.15756730735301971,1.597294569015503,-0.3733326494693756,-3.134220838546753,-0.7219433188438416,1.6096056699752808,-3.167473077774048,-0.9151325821876526,0.8205884695053101]},"inputHidden":{"rows":20,"columns":20,"weights":[1.1445910930633545,1.7166764736175537,-1.470231533050537,1.0242974758148193,0.6512798070907593,-1.5060372352600098,-0.6899624466896057,2.386875629425049,0.18920932710170746,0.34423357248306274,-0.7151737213134766,-4.212022304534912,-4.65648889541626,0.08626735955476761,5.832571983337402,-1.081904411315918,-3.053438663482666,-2.4254751205444336,-1.345871925354004,1.220666766166687,1.349132776260376,-0.6566492319107056,0.6835924386978149,3.4325854778289795,1.0477153062820435,-2.230316400527954,-0.7428920865058899,1.6816884279251099,-2.003596067428589,-0.35724201798439026,-0.3610994517803192,2.4410722255706787,0.17376042902469635,-0.47641366720199585,-0.07644693553447723,1.1915816068649292,-0.6750816702842712,-1.3197451829910278,2.1985578536987305,-2.5838520526885986,2.5770914554595947,-0.7876725792884827,-0.9117268919944763,2.1513149738311768,1.234588861465454,-0.47106310725212097,-3.1003713607788086,0.028463581576943398,-2.5718488693237305,2.2753093242645264,2.1354424953460693,-1.478980541229248,-2.685933828353882,-2.965608596801758,0.9080845713615417,1.6877014636993408,-2.9052090644836426,-1.7278878688812256,-0.48976415395736694,-1.5742436647415161,3.731468439102173,-1.7827844619750977,4.036658763885498,-0.3737713694572449,1.6837515830993652,-1.132607340812683,1.6511316299438477,0.9184564352035522,0.03856253623962402,-1.4825515747070312,0.7360526323318481,0.011641677469015121,1.8167742490768433,2.2399191856384277,-2.054443836212158,0.8701804280281067,1.5780653953552246,0.7741771936416626,4.135231971740723,-3.474461793899536,0.3059590756893158,3.788498878479004,1.9522360563278198,-3.690192699432373,0.3812773823738098,1.838218092918396,2.4476730823516846,2.1326005458831787,0.3285779058933258,-1.333958625793457,-0.3532648980617523,2.4909815788269043,0.3513731360435486,0.6229156255722046,0.9741542935371399,1.9564505815505981,1.5529958009719849,0.9335598349571228,1.349231481552124,0.784249484539032,2.226454019546509,2.3575849533081055,-1.3740954399108887,-1.2113192081451416,-1.039149284362793,1.7014561891555786,-2.3066823482513428,1.8939261436462402,-0.2680315673351288,0.7205348014831543,-0.6755989789962769,-1.6718584299087524,-0.27210482954978943,-1.1360419988632202,0.9315712451934814,0.3208846151828766,0.021158810704946518,-0.6316894292831421,0.5296355485916138,0.21388907730579376,-3.808081865310669,-1.0007193088531494,2.629265069961548,0.5928196310997009,0.898374617099762,-1.0842735767364502,-0.4356549382209778,-1.4586900472640991,1.1228560209274292,-0.9766905307769775,4.8468523025512695,-2.4267377853393555,-1.2453726530075073,-2.0337533950805664,2.896113634109497,2.5861968994140625,0.2968183159828186,-0.06882774829864502,1.7562404870986938,-2.8252575397491455,0.2294837385416031,3.7518606185913086,0.05538308620452881,-2.422318696975708,-2.4885592460632324,0.8721140027046204,2.106614589691162,-1.4956953525543213,3.3778913021087646,2.651702880859375,-0.4274652600288391,0.7854702472686768,1.4005732536315918,2.2556843757629395,-0.6791196465492249,-1.8736379146575928,1.4498717784881592,-1.7520153522491455,-1.2669055461883545,2.0898361206054688,-2.135925531387329,1.1105369329452515,2.5491960048675537,-0.2697252631187439,-0.8153223991394043,1.6624231338500977,1.8786523342132568,-1.0224663019180298,-2.7872369289398193,1.284658432006836,-0.5448458194732666,-0.012597768567502499,0.7211383581161499,1.6645784378051758,-3.94431471824646,-0.17849873006343842,2.536529779434204,-0.7999811768531799,1.834092617034912,-1.0360513925552368,0.7505141496658325,0.786206066608429,-3.6492021083831787,-2.753528356552124,-3.064929246902466,-2.3969295024871826,-2.4936375617980957,0.594683051109314,2.406712055206299,1.2964754104614258,-3.0868918895721436,1.078747272491455,-0.11108171194791794,-1.0817680358886719,0.44312548637390137,-1.8831770420074463,-0.04077552258968353,0.798793613910675,0.26489824056625366,-0.11265744268894196,-0.5152472853660583,1.6767312288284302,-1.3232007026672363,-1.2091981172561646,-3.159398078918457,2.3784406185150146,1.39150869846344,0.2462330162525177,3.9840493202209473,-0.3582865297794342,-2.0108931064605713,-1.1463561058044434,0.4762251079082489,-0.1807488352060318,0.8945658206939697,-1.766427993774414,1.2444639205932617,2.092872142791748,-0.11570841073989868,0.47499749064445496,2.8797104358673096,2.793384313583374,-1.6538174152374268,-2.8228416442871094,-3.3370916843414307,-1.7788517475128174,1.3715711832046509,2.612142562866211,1.323065161705017,0.5895968675613403,0.03555116802453995,3.0606513023376465,1.579538106918335,-1.8294090032577515,-1.2284554243087769,-2.4046924114227295,2.3802690505981445,-0.22339166700839996,-1.8036446571350098,0.006392861250787973,0.48404717445373535,-0.7081210613250732,-2.03582763671875,-0.51975017786026,-3.443000078201294,0.077581487596035,0.8199505805969238,0.25909295678138733,2.7107481956481934,4.336711406707764,-0.7147397398948669,1.1069142818450928,-0.3780806064605713,-0.3199147582054138,-0.9718494415283203,-1.079553246498108,-0.5181238651275635,-0.4920327663421631,-2.1438887119293213,-0.9675297141075134,3.1704771518707275,-2.1588544845581055,1.0735752582550049,-4.1901469230651855,-4.007455348968506,3.7784039974212646,0.6784539818763733,-0.17177718877792358,2.1671745777130127,0.4207059144973755,-0.4323309361934662,0.5274685025215149,-0.3739475905895233,0.10161357372999191,-2.140422821044922,-0.40973615646362305,3.4414541721343994,1.6433876752853394,-0.465589702129364,2.53263783454895,-0.8430303931236267,0.8780587315559387,-0.9249734878540039,-1.3183294534683228,-2.1237449645996094,0.23263607919216156,0.37509119510650635,2.015822172164917,3.560019016265869,0.3615298569202423,1.2791550159454346,1.5204118490219116,1.7235487699508667,-0.3221771717071533,-2.153794288635254,-2.6466307640075684,1.6759392023086548,0.6440542936325073,-1.2751927375793457,0.460742712020874,-2.7848169803619385,2.0667636394500732,-0.6614269018173218,-1.7444151639938354,-0.5981879830360413,1.5865874290466309,-2.188016653060913,1.3075165748596191,0.5133777260780334,2.7270264625549316,-5.91043758392334,2.9750046730041504,9.981879234313965,-1.7104167938232422,0.5678107738494873,-2.599865674972534,0.8220534324645996,1.1134674549102783,1.9546202421188354,-0.5519920587539673,-0.39731109142303467,0.06430435180664062,-0.7639864683151245,0.6924586296081543,-2.6730616092681885,2.8189826011657715,0.09173436462879181,4.034276485443115,2.998508930206299,0.21797196567058563,-1.2103747129440308,2.9853572845458984,0.10024826228618622,-2.0556695461273193,-0.6150121092796326,-1.7557448148727417,-3.822627544403076,-1.0328452587127686,-0.5315473675727844,-0.705115795135498,0.8059806227684021,1.1203151941299438,1.2879221439361572,-0.16524367034435272,0.6227328777313232,-0.42623910307884216,-2.4035282135009766,-1.9978909492492676,0.012779527343809605,-1.3227250576019287,-1.1160081624984741,1.2473582029342651,0.10106974095106125,-1.3746466636657715,1.6977007389068604,0.5219928622245789,0.23480874300003052,0.6713097095489502,2.5412158966064453,0.36320391297340393,0.3056592047214508,-0.07976996898651123,1.9729310274124146,-0.8380260467529297,2.2923221588134766,0.4598848521709442,0.061523742973804474,-1.8395054340362549,-0.38003069162368774,-1.0655417442321777,-1.9405972957611084,2.259728193283081,2.0650315284729004,-0.8232511878013611,-2.733119010925293,0.600651741027832,0.5247535705566406,-0.6114041805267334,0.033157240599393845,-4.369369983673096,2.0584824085235596,-1.6017003059387207,-0.6491057872772217,-2.1359879970550537,-2.895435333251953,-1.00106942653656,-1.5474650859832764,0.9737576842308044,0.7222545146942139,-4.902806282043457,-2.150665283203125,1.8504407405853271,-1.8051066398620605,-1.3198556900024414,2.947110414505005,-2.8414275646209717,-0.2288244217634201,0.5262395739555359,-0.5016517043113708,-0.061887070536613464]},"inputBias":{"rows":20,"columns":1,"weights":[-0.36421722173690796,-2.9330637454986572,-0.6999277472496033,1.2067033052444458,-1.0130671262741089,-0.9392246603965759,-1.0482078790664673,-0.6647450923919678,-1.9283736944198608,-4.75054931640625,-0.3294936716556549,1.926565170288086,-0.1405680626630783,-2.233031988143921,-2.837975025177002,-0.2519572079181671,0.4513230323791504,-0.8599322438240051,0.3823080360889435,-1.1030503511428833]},"forgetMatrix":{"rows":20,"columns":31,"weights":[-0.3963017165660858,-0.9236335158348083,-2.027663230895996,-2.8275396823883057,-0.48442408442497253,0.26844990253448486,-2.3530802726745605,0.8364802002906799,0.44260987639427185,-2.3624210357666016,-0.9940993785858154,-0.8817268013954163,0.5220621824264526,1.115078091621399,-1.2392773628234863,-0.5945703387260437,1.0321311950683594,2.2395212650299072,-2.005678415298462,-3.1411325931549072,0.2198418527841568,0.6572842001914978,-1.1155346632003784,-0.8215689659118652,2.730071544647217,-1.4383476972579956,0.47719433903694153,-0.6608871221542358,-0.09015147387981415,3.556025981903076,1.5809638500213623,1.3079253435134888,1.6487489938735962,1.0503358840942383,0.8020219206809998,-0.21403057873249054,-1.1550843715667725,0.4146224558353424,1.447130799293518,0.6515159010887146,1.7385895252227783,0.8489834666252136,-0.3180643916130066,-1.4772725105285645,0.570229172706604,-0.15646274387836456,0.5866363644599915,1.0244390964508057,-0.2377292662858963,0.8402189612388611,1.431788444519043,0.8214959502220154,1.9544270038604736,1.0460134744644165,-0.8284733295440674,-0.9230919480323792,-1.4949467182159424,-2.1707706451416016,0.5372124910354614,-0.5699290633201599,-1.8262267112731934,0.21894125640392303,0.38742795586586,3.862677574157715,-0.5815548896789551,0.7750370502471924,-0.056450434029102325,0.5089489817619324,0.6361408829689026,-0.992794930934906,0.5286608338356018,0.28128138184547424,1.283076524734497,-0.26869145035743713,-2.7373836040496826,-1.2742445468902588,-0.6255782246589661,-1.1060335636138916,0.6479424834251404,-0.39146068692207336,-0.8816392421722412,1.8165079355239868,0.1769413948059082,1.5361247062683105,3.5036044120788574,-1.7042901515960693,0.6681018471717834,-0.511584460735321,-2.883695125579834,-0.6052238345146179,-1.5650739669799805,0.4725421369075775,0.2655683159828186,-0.3444078862667084,-2.2589774131774902,-0.28694862127304077,0.3974408209323883,0.20913279056549072,1.9975413084030151,-0.2773033678531647,0.20741954445838928,1.7632426023483276,-1.1689409017562866,-0.5450958013534546,0.0030159023590385914,1.5271881818771362,-0.3358036279678345,-1.6162216663360596,-1.0304758548736572,-2.1383941173553467,0.7927203178405762,-0.7937229871749878,-0.07485191524028778,-2.339006185531616,-0.3462754786014557,-1.432429313659668,-1.6360886096954346,0.9816358685493469,1.0370922088623047,1.623290777206421,0.8883430361747742,-0.10553953796625137,0.5253569483757019,1.5484732389450073,-2.384056329727173,-1.7172117233276367,0.7029857039451599,-1.5585498809814453,1.3445041179656982,1.934219241142273,1.208107352256775,-2.164235830307007,-0.15371812880039215,1.0370259284973145,-1.2383538484573364,0.5923892855644226,2.2544353008270264,-0.14884281158447266,-0.05135314166545868,-4.7490081787109375,0.1383334994316101,1.66000235080719,1.0227062702178955,0.06116413697600365,-0.540020763874054,-0.0360843762755394,1.1151585578918457,0.4147265553474426,0.15115591883659363,2.347381114959717,0.9681166410446167,0.968250572681427,2.361650228500366,-0.24507685005664825,-0.34827756881713867,-0.5956018567085266,0.47238555550575256,-2.1369481086730957,-3.7049920558929443,0.1315203309059143,-0.7616109848022461,-1.429815411567688,-0.04321872442960739,2.07585072517395,-0.7630075812339783,0.11560671776533127,1.577824592590332,0.033139001578092575,-0.6421915888786316,-1.329744577407837,-0.8626037836074829,-0.7106178998947144,-0.16009622812271118,-1.6870564222335815,-1.3270142078399658,0.11666424572467804,-0.8300953507423401,-1.4612282514572144,-1.617283821105957,0.9947999715805054,-0.3097039759159088,0.40250644087791443,0.26563629508018494,1.1365596055984497,1.9773874282836914,0.9662761092185974,0.36985838413238525,1.7093713283538818,0.8100085854530334,-1.8022935390472412,-1.534109115600586,-1.3583673238754272,1.3954843282699585,0.6471236348152161,0.06501349806785583,0.6966196894645691,1.818936824798584,1.563414216041565,-0.8662247061729431,3.07529616355896,0.22195298969745636,0.20884867012500763,0.8894944787025452,0.15413177013397217,-1.0456010103225708,1.253765344619751,2.675679922103882,2.0508198738098145,0.6232834458351135,0.3612019419670105,0.7361791729927063,-1.1330783367156982,-2.6260547637939453,2.0612661838531494,0.59601891040802,-0.6533633470535278,-0.10013394057750702,1.2128721475601196,-1.4617958068847656,1.327952265739441,3.7216808795928955,2.048759937286377,0.22902710735797882,0.08197811245918274,0.2789921760559082,-2.8001179695129395,-1.093614101409912,0.10620013624429703,-1.211755394935608,-1.0822316408157349,-2.3166844844818115,0.6435873508453369,-0.4033045470714569,0.24073545634746552,-0.31581607460975647,0.9962323904037476,-0.4960465431213379,1.3055438995361328,0.06794510781764984,0.8219686150550842,1.861641764640808,-0.18824370205402374,2.4205000400543213,1.6687936782836914,-1.356165885925293,-1.2066999673843384,0.21642334759235382,-0.8841252326965332,-2.0869882106781006,-2.2905421257019043,0.8506714701652527,0.10268152505159378,1.1736847162246704,0.8419698476791382,1.219931721687317,0.09444380551576614,0.8012791275978088,0.34159398078918457,-0.6156715750694275,-1.0186755657196045,2.329435110092163,-0.9034441113471985,0.29034361243247986,1.2595300674438477,0.5702283978462219,0.9831867218017578,0.4644300639629364,-0.6081409454345703,-0.26349157094955444,-1.2593573331832886,-1.26953125,1.0684407949447632,-0.1275741010904312,0.0419638529419899,-0.44446858763694763,-2.102843761444092,2.278024196624756,-0.9630308747291565,0.18706156313419342,0.4435656666755676,-2.855421543121338,0.10426997393369675,3.7381818294525146,-1.3240234851837158,1.5926156044006348,1.3198058605194092,1.0709774494171143,0.5795180201530457,1.536539912223816,2.3571808338165283,-1.1682696342468262,-0.09186935424804688,0.7174507975578308,1.8793482780456543,1.2712681293487549,-0.32765161991119385,-0.4547891914844513,2.4387669563293457,0.8806837201118469,0.32674598693847656,1.5101512670516968,0.39150533080101013,1.7071075439453125,-0.6623501181602478,-2.310542345046997,-1.0990442037582397,0.9360207915306091,-0.966867208480835,-1.5315818786621094,0.04438129439949989,-0.27110105752944946,-0.23570680618286133,2.8368120193481445,0.6074278354644775,0.8283947706222534,0.4078098237514496,1.4257994890213013,0.9494887590408325,-1.9563775062561035,2.432340383529663,0.06039878726005554,0.17554540932178497,1.5235191583633423,1.0642204284667969,0.5942888855934143,-0.5284612774848938,1.0866905450820923,2.2148776054382324,3.1795923709869385,1.7975115776062012,1.377440333366394,0.03318736329674721,0.6232353448867798,0.3880693018436432,-2.429575204849243,0.7327733635902405,0.08364838361740112,0.666715681552887,-0.21788020431995392,-0.9652511477470398,-1.3817706108093262,-1.4809999465942383,0.09019437432289124,1.5536819696426392,-2.887700080871582,1.7262160778045654,3.2615511417388916,-1.7643345594406128,-2.6224710941314697,3.0230207443237305,-0.6862924098968506,0.425260066986084,2.3690474033355713,0.32383719086647034,0.10834422707557678,-0.8803529143333435,-0.3739602863788605,-0.6998093724250793,0.97777259349823,-0.42458000779151917,-1.7021132707595825,0.33060774207115173,-0.11279646307229996,-0.3805820643901825,-1.4297188520431519,-0.2561044692993164,0.5571092963218689,0.28642937541007996,0.5676578283309937,2.766394853591919,1.5159955024719238,0.047356732189655304,-0.8978167772293091,-1.8652242422103882,1.5908790826797485,-0.8993698954582214,-0.41258010268211365,1.668339729309082,1.2847111225128174,0.21519213914871216,-0.1575876772403717,0.9128312468528748,0.34674468636512756,1.7595816850662231,1.4689968824386597,-0.5031245946884155,1.745724081993103,-0.5621950030326843,0.8530639410018921,2.371814250946045,1.2916496992111206,0.2277984619140625,1.2425544261932373,-0.020840512588620186,-0.7127025127410889,-2.3275094032287598,-3.148850440979004,0.31831231713294983,-1.5206043720245361,0.8460761904716492,1.497528314590454,-0.6877845525741577,-0.817051887512207,-0.7066351175308228,-0.7774924635887146,-0.4970787465572357,0.6789358854293823,2.1269021034240723,-0.04210413619875908,-0.681046724319458,-0.9928780198097229,-0.6554637551307678,-1.0268309116363525,-4.166529655456543,-1.760953664779663,1.0013705492019653,-3.0160155296325684,1.4776811599731445,-1.3083736896514893,-1.2100141048431396,-0.26549914479255676,-0.8197433948516846,-1.152553915977478,-1.1449261903762817,-2.5681705474853516,-1.3564038276672363,1.033716082572937,0.3674829602241516,1.3173072338104248,0.8672314286231995,-2.5895817279815674,-0.11703076213598251,0.7024892568588257,-0.7109837532043457,-1.8638485670089722,-2.7909700870513916,1.43941330909729,0.5864720344543457,-0.04628826677799225,0.9230687022209167,-0.36402544379234314,-0.22896690666675568,-1.809821605682373,0.43179672956466675,-4.169042110443115,-1.0629966259002686,1.392167091369629,-1.4683994054794312,1.1161792278289795,-2.736400604248047,-1.7859565019607544,-0.022405775263905525,0.2531589865684509,-0.369991660118103,-0.4922972619533539,-3.430995464324951,-1.4693185091018677,1.2576723098754883,0.14257575571537018,0.019321849569678307,2.3906006813049316,-1.1757023334503174,0.8472848534584045,0.1773747056722641,-2.126979112625122,1.2470488548278809,0.805374264717102,-0.38773050904273987,2.4467110633850098,-0.5588082075119019,0.16151924431324005,0.9822202324867249,0.7829259634017944,0.009994879364967346,1.6615283489227295,0.6907007098197937,-1.1943488121032715,-0.40588313341140747,-0.8738451600074768,1.1665127277374268,-0.9945096373558044,1.669650912284851,0.9931325912475586,0.3275161683559418,1.5968080759048462,-0.1080099493265152,1.3488942384719849,3.1285147666931152,2.904790163040161,-0.1696365475654602,-0.36243587732315063,-3.4299018383026123,0.8512002825737,-0.085121288895607,-0.9750587344169617,-1.6715140342712402,0.25510627031326294,0.6216425895690918,0.32579025626182556,2.37085223197937,0.11326747387647629,-0.8319826722145081,0.8034615516662598,-0.05057937279343605,-1.6710115671157837,0.7564487457275391,0.5323597192764282,1.2456804513931274,-0.8641308546066284,-1.178836703300476,1.8536348342895508,1.2492822408676147,0.4502755403518677,-0.7344104051589966,0.8492120504379272,0.6368677020072937,1.0070148706436157,-0.506867527961731,0.8521086573600769,1.2362325191497803,-0.5133023858070374,-1.296254277229309,-1.8336912393569946,-0.396147757768631,-0.5817997455596924,-1.1703163385391235,-1.996246099472046,-0.2731238305568695,-1.1492022275924683,0.27095144987106323,-3.2728514671325684,0.13108637928962708,0.3210253417491913,-0.7301110625267029,-0.833190381526947,1.6860570907592773,-0.7769943475723267,0.9584591388702393,0.692004919052124,0.9739152789115906,1.8396167755126953,-1.6310012340545654,-1.2880220413208008,0.002382918493822217,0.9236169457435608,-0.21413688361644745,0.06168252229690552,-0.1713429093360901,0.9319152235984802,-1.383180856704712,-0.9123395681381226,-0.24267837405204773,-0.2513459026813507,1.9098857641220093,1.1076875925064087,0.8107023239135742,0.10458940267562866,1.0781382322311401,-0.39756301045417786,0.5883186459541321,-2.1618945598602295,-2.303795337677002,0.5165138840675354,1.8477238416671753,-2.3201968669891357,-0.7530736923217773,1.1220020055770874,-1.1410726308822632,-0.32257258892059326,0.19799251854419708,0.30520573258399963,0.16012099385261536,-0.13562412559986115,-0.26273906230926514,-3.5172739028930664,-0.12107273936271667,-1.6491916179656982,-1.7879139184951782,-2.5676913261413574,-0.3768695294857025,-2.4096639156341553,-1.8423212766647339,1.3615766763687134,-0.08308424800634384,0.530035138130188,-0.8488290905952454,1.2730237245559692,2.1583902835845947,1.3677072525024414,0.5562929511070251,-2.0165388584136963,-1.1291300058364868,0.16937895119190216,-1.5800127983093262,-1.3106873035430908,-0.7224724292755127,0.005578635726124048,1.9055407047271729,0.39333778619766235,-0.1550535410642624,-0.6443336606025696,-0.6083727478981018,-0.38277581334114075,0.3185712993144989,-1.0282909870147705,-1.4110270738601685,-0.27919238805770874,-0.7307716608047485,-0.18282555043697357,-1.488451361656189,0.4825156033039093,-0.900058388710022,2.3003861904144287,3.0843887329101562,-0.2559463083744049,3.9275920391082764,-0.27996450662612915,-0.27389946579933167,-0.03904617205262184,0.687408447265625]},"forgetHidden":{"rows":20,"columns":20,"weights":[-0.516852080821991,-0.5950723886489868,2.1246464252471924,-0.36742424964904785,0.18764647841453552,-0.6428452730178833,1.4784566164016724,-0.5561894178390503,-0.28123825788497925,0.15204381942749023,1.960660457611084,-1.2979423999786377,0.04626361280679703,1.6186593770980835,-1.3284382820129395,-2.680543899536133,1.9943463802337646,-0.5495704412460327,-0.12148355692625046,3.554166316986084,-2.0096726417541504,0.3313211500644684,1.014260172843933,-0.28952884674072266,-0.3657991588115692,-1.0760459899902344,0.8809078931808472,-0.9796057343482971,-0.2033696174621582,0.09898271411657333,0.6491607427597046,0.010537782683968544,-0.5257439613342285,0.6403111219406128,-1.2342826128005981,0.871303141117096,-1.8594970703125,0.7273396849632263,-0.9613800644874573,-1.0007139444351196,-0.4577829837799072,0.0025288218166679144,1.0398635864257812,-0.8669547438621521,0.08554770797491074,0.05052397400140762,-0.6481713056564331,2.213291883468628,0.5971479415893555,-0.1368856579065323,-2.023467779159546,-0.47064465284347534,1.584694266319275,0.39100974798202515,-0.5106571912765503,0.8505752682685852,1.097741723060608,1.1779818534851074,3.264930486679077,0.0351717434823513,-0.5175247192382812,0.18253791332244873,1.1508688926696777,-0.2458401769399643,2.1348111629486084,0.1711866706609726,0.4516032636165619,0.9206121563911438,-0.8285917639732361,-0.25143805146217346,-0.23386380076408386,-1.319939136505127,0.43184569478034973,-0.1669374704360962,-0.9941381216049194,2.194704055786133,0.20327702164649963,-0.6692028641700745,-0.16805420815944672,-0.3093247711658478,0.044172126799821854,4.8755621910095215,0.9979050159454346,1.7020468711853027,-0.15286710858345032,-0.1495848447084427,0.8237062096595764,-0.4645916819572449,-1.082512617111206,1.1929140090942383,-0.32720744609832764,1.7329038381576538,-0.21645303070545197,-0.7194998264312744,-1.1230138540267944,1.3244593143463135,0.24787329137325287,-1.6557223796844482,-0.924858808517456,1.4739285707473755,2.4396235942840576,-0.7117857336997986,2.338627815246582,-0.26920145750045776,0.5602399110794067,1.0511993169784546,-0.8771094679832458,-0.7980349063873291,0.19677096605300903,-1.5762301683425903,0.6977325081825256,-2.322247266769409,-2.0966076850891113,0.1188192293047905,2.4881935119628906,1.7114394903182983,-1.6357498168945312,-0.804627001285553,0.5365578532218933,1.9337719678878784,-1.4833427667617798,-0.01167954783886671,0.6066510677337646,-0.8582513928413391,0.6688313484191895,-0.572458803653717,1.9662786722183228,0.6856557130813599,-0.06881528347730637,0.6763014793395996,0.9220032691955566,1.9409507513046265,1.4922884702682495,0.4972590506076813,-2.3858957290649414,-0.10667334496974945,0.1391737312078476,1.319711685180664,-1.4115949869155884,-2.3636083602905273,-2.2068350315093994,-1.2847753763198853,0.157770037651062,0.18461856245994568,0.09343855082988739,-0.6691277027130127,1.1301636695861816,-2.8236944675445557,-0.4023049771785736,-2.6308884620666504,2.34736967086792,-0.2397795170545578,-0.46256595849990845,2.7131638526916504,-1.248498558998108,-0.1199222207069397,1.4902071952819824,2.8056187629699707,-1.3729358911514282,-0.608172595500946,1.0475742816925049,0.24521216750144958,-0.24466140568256378,0.5227594971656799,1.8289216756820679,-0.6319066882133484,0.9658060073852539,0.8419156074523926,-0.8064180612564087,1.2025904655456543,0.6475988626480103,0.46237966418266296,0.6164273023605347,0.3498270511627197,-0.48007240891456604,0.5692276954650879,0.53218674659729,-0.7461330890655518,0.8714514970779419,-0.13837842643260956,1.457727074623108,0.49389833211898804,-0.5592721700668335,-2.4992549419403076,-1.0967262983322144,1.7906197309494019,-1.8275625705718994,-1.1624342203140259,0.5743752121925354,0.369013249874115,-0.5806845426559448,-0.17148464918136597,-0.1851341277360916,-1.0400716066360474,-0.4609892666339874,-1.133060336112976,0.9052221775054932,-0.06428983807563782,-0.9648770689964294,-1.537089467048645,0.9717013239860535,0.44949978590011597,-2.540210008621216,1.6662403345108032,1.82234787940979,0.5101453065872192,-1.450783371925354,-0.40646201372146606,-1.9320145845413208,-1.7701668739318848,1.9157005548477173,-0.0396232008934021,-1.3818601369857788,-1.2883169651031494,0.3717339336872101,0.22933495044708252,-1.8779754638671875,-1.9156068563461304,0.05009927973151207,0.657455563545227,1.1590949296951294,-1.081895112991333,-1.934723973274231,1.8964643478393555,0.8629364371299744,-0.9852898716926575,-2.208162546157837,2.0766854286193848,-2.2124502658843994,0.7535873055458069,0.04158588498830795,1.1629213094711304,0.6784290671348572,-0.8640124201774597,0.24085624516010284,-1.5901401042938232,0.07919108122587204,-1.597054362297058,1.685045838356018,-0.5620979070663452,-0.5918938517570496,1.316306471824646,-0.4962284564971924,2.4454362392425537,0.4652133584022522,-2.5280308723449707,-0.496138334274292,-1.101656198501587,-0.9689656496047974,-0.9778682589530945,0.3415183126926422,0.9943220615386963,0.058164581656455994,-0.8722229599952698,0.2373879998922348,0.39326244592666626,-0.9242656826972961,-1.8657814264297485,0.2762864828109741,-2.928769111633301,0.7495175004005432,-0.9729520082473755,0.979378342628479,1.366146206855774,-0.2993454337120056,0.3986932039260864,-0.5129894018173218,-0.956861138343811,-1.1456305980682373,2.698925733566284,3.2995553016662598,-0.6436049342155457,-1.9895079135894775,-1.6283775568008423,1.2001670598983765,-0.05651121214032173,0.07728395611047745,-2.279310941696167,-0.4500732719898224,3.0477185249328613,0.4094049632549286,-1.094753623008728,3.0787501335144043,-0.052448809146881104,-0.45587408542633057,-1.6770058870315552,0.4680931866168976,-4.194976329803467,0.39625856280326843,-1.7814662456512451,-0.7691415548324585,-0.9096822738647461,-2.1507444381713867,1.0140165090560913,1.4669833183288574,-1.5104328393936157,1.4755665063858032,-0.2536070942878723,0.12042324244976044,-0.5498383045196533,2.9499521255493164,1.5710718631744385,2.487855911254883,1.9361308813095093,1.7237974405288696,-1.69408118724823,-0.6487321853637695,0.35532453656196594,-1.3493415117263794,0.32027989625930786,2.6450448036193848,0.1427965611219406,0.7908183336257935,-1.9864416122436523,0.38509371876716614,2.8950071334838867,0.2503940761089325,-1.6644116640090942,1.8605051040649414,2.2677597999572754,-1.581025242805481,-3.3947842121124268,-0.011047178879380226,-1.851737141609192,-0.01669185422360897,-0.8162787556648254,-1.63633131980896,-1.7101916074752808,-0.7289251685142517,-2.3161802291870117,-0.3081824481487274,-1.0837852954864502,-2.704253673553467,0.5266659259796143,2.347221851348877,-0.3773043751716614,-2.5272445678710938,0.4306028187274933,-1.075942873954773,-1.9790444374084473,0.0678248330950737,-0.7615725994110107,0.5621168613433838,0.4178185760974884,-0.27088630199432373,2.752567768096924,-0.29466891288757324,0.14260457456111908,0.215607687830925,0.25286591053009033,1.4639192819595337,-0.9128890037536621,-0.3245008885860443,-0.5491214394569397,0.5404139161109924,-0.6898828744888306,0.15777502954006195,-1.4512239694595337,1.3208602666854858,1.0274711847305298,-0.7139641046524048,0.0897803008556366,0.2330382764339447,0.4331268072128296,0.9525882601737976,0.6062403321266174,1.05461585521698,-0.8569802641868591,-0.5971174240112305,-0.10154624283313751,0.6536834836006165,0.28670254349708557,-0.42763397097587585,-0.09343987703323364,0.7082248330116272,0.5759573578834534,-1.0764776468276978,-1.4091299772262573,-0.6734024286270142,1.1233938932418823,-3.7251551151275635,0.20175950229167938,-3.898467540740967,0.6596258282661438,2.8250174522399902,-2.904496669769287,0.0022127856500446796,1.7007544040679932,-0.882599949836731,-1.4198087453842163,0.32690203189849854,1.4647315740585327,-0.45846450328826904,1.1631478071212769,-2.0590226650238037,-1.2049819231033325,-1.5219703912734985,-0.04997183009982109,-0.5820613503456116,-1.482123613357544]},"forgetBias":{"rows":20,"columns":1,"weights":[0,0,0,0,0,0,0,0,0,0,0,0,0,0,0,0,0,0,0,0]},"outputMatrix":{"rows":20,"columns":31,"weights":[0.8310238718986511,-0.5211172699928284,0.6969211101531982,0.695643424987793,-1.0012946128845215,-1.1904916763305664,2.6167185306549072,1.1587361097335815,0.02437717840075493,2.849865674972534,-0.05571701377630234,1.632726788520813,0.9820886850357056,-0.3705868721008301,2.9073054790496826,-1.6741145849227905,0.6758692264556885,1.3155138492584229,1.1842429637908936,2.599565267562866,1.4318618774414062,-0.7287392616271973,1.8326424360275269,1.4051451683044434,-1.4591784477233887,0.4630466103553772,-1.6190474033355713,1.6390327215194702,-1.4696153402328491,-2.364429473876953,-1.3052301406860352,0.9651734828948975,-0.9928728938102722,0.5627355575561523,0.4975695312023163,-0.9019180536270142,-0.16156575083732605,3.9506490230560303,-0.5599961280822754,0.12318981438875198,2.1445024013519287,0.8062127828598022,0.4835446774959564,1.6134628057479858,-1.444518804550171,2.61625075340271,-0.8033927083015442,0.833036482334137,0.43212682008743286,1.0808110237121582,2.604034662246704,1.4049628973007202,0.7593934535980225,0.2751569151878357,0.590583324432373,-1.0247050523757935,0.4256303310394287,0.05230918154120445,0.9618057012557983,-0.7942227721214294,-3.2459051609039307,-2.6332144737243652,1.612246036529541,2.9686734676361084,0.8435319662094116,-1.2827672958374023,0.6760319471359253,1.5552942752838135,1.5885283946990967,0.37723439931869507,0.993558406829834,2.041229486465454,1.7164260149002075,-1.2578052282333374,-0.6913054585456848,-0.9487907886505127,0.09525162726640701,0.24179664254188538,-1.069637417793274,-1.5447486639022827,0.12357684224843979,1.022773265838623,0.9771597385406494,2.6118321418762207,0.40088608860969543,-1.716747522354126,-1.1875046491622925,1.0318464040756226,-1.0359042882919312,0.775908887386322,0.22092628479003906,-1.3234941959381104,1.2135127782821655,-0.037925027310848236,-2.0577869415283203,-1.6174544095993042,-2.4505696296691895,-0.6966844201087952,-0.20515640079975128,-1.0861085653305054,-0.021170800551772118,1.647888422012329,-1.621456265449524,-1.344295620918274,-1.8683855533599854,2.4028830528259277,-0.28146907687187195,-2.1163463592529297,-0.7574203610420227,-0.9925575852394104,-1.6089715957641602,-2.023207187652588,-0.32725289463996887,-1.1149276494979858,-0.7175399661064148,-1.9471527338027954,-1.6439566612243652,1.0124976634979248,0.5834473371505737,1.549655795097351,-0.4003147780895233,-0.9498357772827148,1.3011832237243652,1.6817140579223633,0.5926127433776855,-2.1763358116149902,-0.35890328884124756,-0.6564737558364868,-1.2375719547271729,-0.07755883783102036,1.0830707550048828,0.3696109652519226,2.0999557971954346,1.0904065370559692,0.7892026305198669,0.6126925945281982,2.5454940795898438,0.042268820106983185,1.5428352355957031,-1.2805016040802002,-3.1467554569244385,1.6103593111038208,-0.7963138818740845,1.2636476755142212,-2.2309179306030273,0.24136172235012054,0.007282562553882599,2.3371787071228027,0.40991413593292236,-1.1175562143325806,1.4087908267974854,2.1272802352905273,2.107177972793579,-0.33973464369773865,-0.8813632130622864,0.019571099430322647,-0.16270403563976288,-0.6185466647148132,-3.5648066997528076,1.197073221206665,0.6288827657699585,-0.6070666313171387,0.006428522057831287,2.1292340755462646,-1.2984603643417358,-0.30333083868026733,0.16853943467140198,1.8511669635772705,0.3826044201850891,0.02422204613685608,-0.8097887635231018,-0.020205814391374588,-0.043980956077575684,-1.127318263053894,-2.2278149127960205,-1.5902310609817505,0.5652603507041931,-0.04648362100124359,-0.059894662350416183,0.5354426503181458,0.853662371635437,0.34570714831352234,0.3965265154838562,1.8180644512176514,1.5419830083847046,1.18631112575531,0.2500911056995392,0.4910005033016205,1.8266500234603882,1.1174417734146118,-1.7582437992095947,-1.4085915088653564,0.9123879075050354,-0.452717125415802,-1.7672135829925537,2.028491258621216,0.7972311973571777,0.7332088947296143,-0.5553644895553589,-0.9012516736984253,2.4235501289367676,-0.2835167646408081,0.6481993794441223,-0.1384442299604416,0.6099416017532349,1.043474793434143,1.5621137619018555,-0.8656469583511353,-0.3796257972717285,-0.8285140991210938,-0.8384097814559937,-1.7605684995651245,-1.6908186674118042,0.417632520198822,0.5839748978614807,-1.8577183485031128,-1.9529563188552856,-1.0372343063354492,-2.0009801387786865,0.40453818440437317,-1.4256948232650757,1.4940353631973267,1.7594603300094604,2.7903993129730225,-0.1703730672597885,-1.701599359512329,0.6340252757072449,-0.436023473739624,-1.3747204542160034,1.3187413215637207,0.12313596904277802,2.858025312423706,-0.6979987621307373,2.576277494430542,2.084310293197632,0.6256305575370789,2.110074520111084,2.606005907058716,1.0742372274398804,1.9648282527923584,0.1546591818332672,-2.0617759227752686,1.6290587186813354,-0.012718512676656246,-1.6206778287887573,0.8251626491546631,-0.547898530960083,-2.185991048812866,-0.12882983684539795,0.994295060634613,-1.8886749744415283,-1.1846864223480225,-0.22785411775112152,0.26848188042640686,-2.0906975269317627,0.3180501163005829,2.1287245750427246,-3.259524345397949,-1.2318297624588013,0.6890157461166382,0.8485184907913208,-1.1220879554748535,-2.0232958793640137,1.4144383668899536,-0.7906855940818787,-0.21692775189876556,-2.7041287422180176,-1.4398267269134521,0.8922336101531982,-1.324678659439087,-0.487770140171051,-0.4312230348587036,1.3609422445297241,0.15956416726112366,-0.49663224816322327,-1.6951756477355957,0.0874035581946373,2.3891427516937256,2.3501899242401123,-0.1809626966714859,-0.5651882886886597,-0.9556376338005066,1.7450560331344604,-1.8296319246292114,-1.3689403533935547,0.36013495922088623,1.3978710174560547,-0.5533615946769714,0.16689367592334747,0.3517623543739319,-1.8103240728378296,-2.194868564605713,1.7715808153152466,-0.40787315368652344,1.653923749923706,0.2609739601612091,-1.4723762273788452,-0.2743186950683594,0.8081862926483154,0.9431561231613159,1.929716944694519,-1.0395410060882568,1.5834163427352905,0.5581771731376648,-2.5095882415771484,-0.6314409971237183,2.3994905948638916,-4.875598907470703,-0.5127182006835938,-0.8046534061431885,-0.8842100501060486,1.0084441900253296,1.6969386339187622,-3.030064821243286,0.5865795612335205,0.4862719774246216,0.28841128945350647,-3.4898428916931152,1.651531457901001,1.4925494194030762,-1.671710729598999,1.3596099615097046,-0.5843139886856079,0.12222384661436081,0.0860317274928093,-0.9674367308616638,1.0866990089416504,0.44985565543174744,1.1576035022735596,2.7694222927093506,1.801928997039795,-2.0912601947784424,3.162123918533325,-0.6488392353057861,-1.7775664329528809,2.325695037841797,-1.9651269912719727,2.5105409622192383,1.1536178588867188,-1.4665472507476807,1.178968071937561,2.4515089988708496,0.20347201824188232,0.250844269990921,-0.9186790585517883,-2.541477918624878,-1.79369056224823,0.6397162675857544,1.2092350721359253,0.604462206363678,-0.625365138053894,2.211003303527832,0.7386766672134399,0.6379761695861816,1.764621376991272,-0.7447910308837891,1.964298129081726,0.06335239112377167,-0.36478695273399353,-0.9553518295288086,0.1313011199235916,0.7361441254615784,3.496183156967163,-0.7676953673362732,0.3665628731250763,0.47861504554748535,-1.2870776653289795,0.3445402681827545,2.1978747844696045,-0.153468057513237,-1.0322757959365845,0.10165774822235107,-1.2406100034713745,-0.12876668572425842,0.5979306697845459,1.13715660572052,-1.0536093711853027,-1.8267029523849487,1.0993901491165161,-0.09992028027772903,-2.0764076709747314,-0.2999122142791748,-1.7072566747665405,1.2526057958602905,0.06405319273471832,1.9262012243270874,0.9308529496192932,0.6489786505699158,3.754225254058838,2.5374972820281982,1.621665358543396,-0.6617857813835144,2.546412229537964,-0.6537583470344543,1.9690343141555786,1.7861186265945435,-1.7347965240478516,-1.387358546257019,-1.491402268409729,0.30297955870628357,-0.20552313327789307,0.19052265584468842,-1.2954156398773193,1.8171889781951904,0.5668023228645325,0.23655030131340027,3.3825438022613525,-0.257356196641922,-1.08529794216156,-0.4915071427822113,2.538355588912964,-1.2172213792800903,0.9485442042350769,1.1168279647827148,-0.8609576225280762,-1.6493117809295654,0.5849283337593079,0.3102087378501892,1.7417116165161133,0.9793617725372314,0.2389761209487915,-0.07027041167020798,0.6405606865882874,-0.3731399178504944,1.5701991319656372,0.2918505072593689,1.8900116682052612,-0.019947059452533722,-2.6265597343444824,-2.009467840194702,0.21161799132823944,-1.9897804260253906,-0.8640820384025574,-0.5394850969314575,-0.9882577061653137,0.5994943976402283,0.39235129952430725,-0.6602351665496826,2.0641672611236572,1.1571627855300903,0.8800843358039856,-0.29041656851768494,1.059127926826477,-0.03306066617369652,-1.1387056112289429,2.312955379486084,1.0017863512039185,0.7580274343490601,-0.655134379863739,1.6629612445831299,1.0066664218902588,2.3207976818084717,-0.43108803033828735,-2.7927849292755127,-0.2808696925640106,-1.5447722673416138,1.2265609502792358,-2.1060338020324707,-1.0476653575897217,0.9014694690704346,-1.9376623630523682,0.5347328186035156,4.08465051651001,0.8143896460533142,1.9987918138504028,0.05604621767997742,0.43615975975990295,-1.8108211755752563,0.6694038510322571,0.06500240415334702,0.009942803531885147,-3.953178644180298,1.1087298393249512,1.4050230979919434,-0.8986296057701111,-0.2186807096004486,0.6750576496124268,-0.2427312582731247,0.16958588361740112,-2.4080402851104736,-0.5157301425933838,-1.0293517112731934,0.4533206522464752,-0.993402898311615,-1.941066861152649,-1.708471655845642,0.04100622981786728,-2.0590333938598633,-1.3078694343566895,0.0815618485212326,-0.5524473786354065,1.447271466255188,-1.6922006607055664,-0.42859947681427,2.9247732162475586,0.9091385006904602,2.6744401454925537,0.7470697164535522,-0.0015849387273192406,3.0481514930725098,3.2683980464935303,0.8410229682922363,-0.33359065651893616,0.4085359275341034,-1.0304436683654785,-3.0342917442321777,1.8918620347976685,-2.1324055194854736,-2.8149914741516113,-2.3015034198760986,2.271003484725952,-0.39402079582214355,2.249145746231079,-2.239516019821167,0.4908825755119324,-1.0652416944503784,-0.18474408984184265,2.7402775287628174,2.537980556488037,1.022280216217041,0.8315586447715759,2.2875595092773438,-0.8223797678947449,-3.000352144241333,0.48940300941467285,1.2476584911346436,-1.908450961112976,-1.0582746267318726,-1.1601017713546753,0.43214380741119385,-0.31366264820098877,0.4331728219985962,-0.14463774859905243,-1.7799838781356812,-0.27729329466819763,-0.8077138662338257,-1.2654273509979248,-0.6128332614898682,-3.3609466552734375,4.085451126098633,0.037288688123226166,-0.025131698697805405,-3.573004722595215,-0.8460515737533569,-0.628212571144104,0.46143144369125366,-2.0102803707122803,-0.05911281332373619,-1.2384982109069824,-1.442792534828186,-0.855493426322937,0.6009343862533569,0.9929253458976746,4.6924543380737305,0.9643245339393616,-0.9476941227912903,0.7021563053131104,0.43998485803604126,0.9007428288459778,-2.384247064590454,1.8277372121810913,-1.3053046464920044,-0.06372208148241043,0.059662096202373505,2.0755503177642822,-0.043511807918548584,2.8562324047088623,1.487443208694458,0.5119504332542419,2.3274450302124023,2.612905740737915,2.9610679149627686,0.45892640948295593,-1.062561273574829,-0.6731816530227661,1.5482197999954224,1.8596378564834595,-1.0305842161178589,1.0929127931594849,0.8430649638175964,-1.5712858438491821,1.193263292312622,-1.2277919054031372,0.8163653612136841,1.091887354850769,3.233839511871338,-0.3218958079814911,-2.0427310466766357,-0.09932161122560501,-1.1180182695388794,-1.4556496143341064,0.2860269546508789,2.0467677116394043,-1.8049744367599487,-0.24655388295650482,-1.2840169668197632,-2.13210129737854,-0.7864710092544556,0.7582239508628845,-2.1753275394439697,0.6803194284439087,0.9516269564628601,0.023747486993670464,-0.02389770746231079,0.5410085916519165,1.5928821563720703,5.682304859161377,0.6942065954208374,1.0136308670043945,1.0486986637115479,-1.3206524848937988,-1.3324397802352905,1.8102667331695557,-2.362431287765503,-2.36112380027771,0.7177391052246094,1.124574899673462,0.4693819284439087,-0.5765396952629089,0.7943751215934753]},"outputHidden":{"rows":20,"columns":20,"weights":[1.6941604614257812,-1.4454917907714844,2.3150107860565186,1.9857474565505981,2.897449254989624,-0.6148693561553955,-2.231219530105591,0.890537679195404,-2.6465508937835693,-1.9386204481124878,0.7732094526290894,-0.7989188432693481,0.5453464388847351,-0.40745261311531067,1.8815195560455322,-0.5342519879341125,0.03376587852835655,-1.8375598192214966,3.2337734699249268,1.3244764804840088,0.589828372001648,-2.491834878921509,-0.18628613650798798,0.6524351835250854,1.6695730686187744,-2.016753911972046,-0.5754921436309814,1.1933587789535522,-2.1323156356811523,-1.9306639432907104,0.20930199325084686,1.9931049346923828,0.10781870782375336,-0.324055016040802,0.5313923954963684,-0.7909075021743774,-0.706333577632904,-0.8317313194274902,0.9805271625518799,-2.0850627422332764,0.6456506252288818,-0.9127039313316345,-2.3468098640441895,1.0608373880386353,0.6459365487098694,-1.0337135791778564,-2.137005567550659,0.4135126769542694,-0.8320713639259338,0.7257707118988037,1.2897369861602783,2.076848268508911,1.2329390048980713,-2.1929800510406494,-1.2846949100494385,-3.2148613929748535,-0.5290548801422119,-1.8572108745574951,1.1909483671188354,-1.5553901195526123,0.4119853079319,-0.15817739069461823,1.1373426914215088,-0.12013491243124008,0.8818850517272949,-0.15897256135940552,2.043029546737671,-0.7995947599411011,-0.3934909701347351,0.21709716320037842,-0.4302598536014557,0.1758326143026352,1.6902363300323486,1.4093576669692993,1.2595312595367432,-0.02318675071001053,0.7694509029388428,1.6915276050567627,1.7072725296020508,1.8808534145355225,-0.020470809191465378,1.7297102212905884,-0.37015676498413086,0.4197266101837158,2.558202028274536,-2.622349262237549,3.763002872467041,1.7239468097686768,-3.246569871902466,0.14813776314258575,-0.33922818303108215,0.8787448406219482,-0.11063481867313385,1.1991955041885376,-0.3988453149795532,1.0572611093521118,2.0091874599456787,-1.1595042943954468,2.1924219131469727,-1.9134154319763184,0.6826602816581726,-0.7727348208427429,-0.8945215344429016,-1.626102328300476,-1.2429263591766357,0.1640004813671112,0.24393336474895477,1.0127899646759033,1.3728328943252563,0.15405437350273132,2.2775352001190186,-0.3135453462600708,-0.6844918131828308,-1.1781665086746216,-0.3534182906150818,-2.905769109725952,0.6372824311256409,-1.6371376514434814,-1.0202021598815918,-0.5559887886047363,-0.7694542407989502,-2.3701744079589844,0.38141223788261414,0.11468815058469772,1.4570673704147339,0.4689270257949829,-1.7458958625793457,-1.0838329792022705,-0.6201019883155823,-3.677947521209717,-0.20256486535072327,0.3447932004928589,-0.8722484707832336,-1.9917616844177246,-0.0022317618131637573,0.4770018458366394,-1.8617830276489258,-1.5749707221984863,0.5404667258262634,-3.1920671463012695,-0.19121640920639038,-1.9208323955535889,0.5374746918678284,0.782535970211029,-0.6697540879249573,-1.8294278383255005,1.1962456703186035,-1.969424843788147,0.2532641291618347,-1.2183992862701416,0.6839252710342407,0.11144623905420303,-1.990790843963623,3.5423271656036377,0.3468189239501953,-1.2416207790374756,1.3892170190811157,-0.4341629445552826,-2.136343002319336,-2.226231336593628,2.2185611724853516,0.17595623433589935,2.7047154903411865,-0.9903204441070557,-1.753580093383789,-0.28425562381744385,-1.063267707824707,-1.0182318687438965,-0.5761441588401794,-0.06028769910335541,-1.7258232831954956,3.476043939590454,-0.5484329462051392,-0.07970041036605835,1.2894701957702637,3.863436460494995,-1.9246293306350708,0.7285444140434265,1.0620213747024536,1.2056000232696533,-0.36928436160087585,0.8224912285804749,-0.4059276580810547,-1.2482335567474365,-1.7155804634094238,0.2817724645137787,-0.8542216420173645,-3.4709346294403076,1.8615171909332275,1.1194043159484863,-2.03662371635437,2.1306445598602295,-0.5232395529747009,0.4709605872631073,1.3007065057754517,0.7993736863136292,-0.8401387929916382,2.04984974861145,0.07903903722763062,0.04532032832503319,2.8422775268554688,-1.2648628950119019,-1.3025397062301636,0.27713772654533386,-0.3025462031364441,1.16846764087677,-3.0771524906158447,1.1307426691055298,0.7912605404853821,2.4198873043060303,0.946239709854126,-2.1190502643585205,-2.3948776721954346,-1.1378766298294067,0.23608402907848358,-2.507314443588257,-2.8280584812164307,-1.4644920825958252,0.14529354870319366,0.37942683696746826,2.5667738914489746,0.5549207329750061,-1.225407600402832,-0.3546038866043091,0.6040343642234802,-1.3370510339736938,-1.4305096864700317,2.204782485961914,-0.2667987644672394,-1.3638274669647217,-2.805769681930542,2.9374196529388428,1.8063104152679443,0.6813511848449707,-0.7746679782867432,1.1890596151351929,0.25066059827804565,0.6839728355407715,4.621386528015137,-0.12255003303289413,0.9157753586769104,-0.818154513835907,1.3110203742980957,-2.2179293632507324,-2.019765853881836,0.6152350306510925,-0.29679831862449646,-2.5444304943084717,1.1517599821090698,-1.8100687265396118,0.01582607813179493,-0.15227821469306946,-0.8533760905265808,-1.196923851966858,3.347179889678955,-2.8180506229400635,-2.0892868041992188,3.501168966293335,-0.5514805316925049,1.2505943775177002,-0.1823151707649231,0.7641506195068359,-0.5664762854576111,0.8017491698265076,-0.27116063237190247,-1.2314667701721191,-1.5163013935089111,-0.5601875185966492,0.984611451625824,-1.0120069980621338,-0.5918871760368347,-2.586185932159424,-0.4467700719833374,-3.5114219188690186,-0.1276055872440338,-2.583292007446289,-0.05097036436200142,-1.272819995880127,0.7191352844238281,0.09376846998929977,0.937859296798706,-5.477309226989746,-1.0199717283248901,0.4751841127872467,-0.7356361150741577,-1.1576107740402222,-3.534106492996216,-2.0092968940734863,0.18708795309066772,-1.989495873451233,0.029528403654694557,1.0017626285552979,-4.328136920928955,-4.247536659240723,3.031576633453369,-3.7127726078033447,-3.9333302974700928,-0.7209485769271851,-1.5343581438064575,-3.984941005706787,0.41102346777915955,1.6628539562225342,1.6805546283721924,0.7920092344284058,0.22330671548843384,-2.007103204727173,-0.026256898418068886,-0.6489378809928894,-0.5102243423461914,1.0313904285430908,-0.22508040070533752,1.0348222255706787,-1.1387683153152466,1.0825181007385254,0.4735602140426636,2.3657820224761963,-1.6881545782089233,1.1242903470993042,2.964808702468872,1.295216679573059,-0.11199665814638138,-1.0034061670303345,-0.5180488228797913,-1.0853283405303955,-3.543067693710327,1.234890341758728,-1.1047041416168213,0.40344008803367615,2.7982046604156494,0.48696577548980713,-2.012033462524414,1.369392991065979,0.6155226230621338,1.0689905881881714,1.7638643980026245,-0.8447461724281311,-1.7547683715820312,0.11574439704418182,-1.2347545623779297,-1.6025258302688599,1.2104458808898926,-1.0900061130523682,1.092138648033142,-1.8065224885940552,3.853280544281006,0.7713287472724915,-2.6032230854034424,-0.023267611861228943,-1.398664116859436,-0.20078375935554504,3.116065740585327,1.5479326248168945,-5.218441009521484,-3.559511423110962,0.02124452032148838,2.031161308288574,2.745203971862793,-0.18441183865070343,1.0647649765014648,-0.8521025776863098,1.7118313312530518,-2.097015857696533,1.3021677732467651,1.984972357749939,5.688867568969727,-2.1638312339782715,0.15726244449615479,-0.7383756637573242,-1.9983361959457397,-0.3945084810256958,1.20597243309021,0.5638529658317566,1.4544707536697388,0.10411616414785385,-4.659683704376221,0.4812650978565216,0.4783443808555603,-3.100943088531494,-1.2146787643432617,-2.3520724773406982,-0.5296384692192078,-1.503377079963684,-1.7898529767990112,-4.153770446777344,-5.472602367401123,5.706495761871338,0.7399088740348816,2.1195108890533447,3.4344642162323,-0.027085570618510246,-0.21476474404335022,-1.3062827587127686,0.7963703274726868,0.055368389934301376,1.4592307806015015,-0.7394033670425415,0.013110174797475338,1.0423295497894287,-3.5744612216949463,0.45261961221694946]},"outputBias":{"rows":20,"columns":1,"weights":[1.8719804286956787,-0.31548261642456055,-0.011708972975611687,1.6349190473556519,-2.121441125869751,-0.6352842450141907,-3.3160204887390137,-0.9433084726333618,-0.708042323589325,-2.8078083992004395,0.6653927564620972,4.017728328704834,-0.2988676428794861,-1.8531485795974731,-1.472507119178772,2.039222478866577,-0.04754619300365448,-0.8284867405891418,1.8610385656356812,-0.43041202425956726]},"cellActivationMatrix":{"rows":20,"columns":31,"weights":[-0.7451845407485962,-0.39109161496162415,0.6402050256729126,-0.6886557340621948,-0.30953556299209595,-0.7825602889060974,1.1635000705718994,0.1734326034784317,-2.124326705932617,1.8500663042068481,0.30959630012512207,0.8026986122131348,1.2128727436065674,1.5908758640289307,0.12944388389587402,0.34398767352104187,2.761939287185669,1.5934574604034424,1.191449761390686,1.7079334259033203,0.41099223494529724,0.2121434360742569,1.7689377069473267,-1.6035643815994263,-2.242326259613037,1.4462840557098389,-0.8755974173545837,1.134184718132019,0.3604492247104645,-1.674949049949646,-0.6360107660293579,-0.405169814825058,-0.35298579931259155,0.26655247807502747,0.9168904423713684,0.44702720642089844,-0.4282224774360657,0.13033342361450195,-1.0629037618637085,-0.605432391166687,-0.3222690224647522,-0.8098957538604736,0.9056146144866943,-0.6066034436225891,-1.3688018321990967,-1.0254161357879639,-1.5726898908615112,-0.11448574811220169,-0.2904839515686035,-0.6769914031028748,-0.3893314599990845,0.1602672040462494,-1.3265089988708496,-0.5088807344436646,-2.4636945724487305,0.7198554873466492,2.642594337463379,0.8866003155708313,-0.6849464178085327,0.5000219345092773,0.17889583110809326,0.385147362947464,1.9997243881225586,0.5049678683280945,-1.5878279209136963,-0.5214619636535645,-0.02255723997950554,0.6055175065994263,-0.3780479431152344,0.50327467918396,1.8423064947128296,-1.3715970516204834,1.102161169052124,0.2832401394844055,-0.30889543890953064,-0.12436866015195847,-0.6862159371376038,-0.8995282649993896,-2.0692529678344727,-1.2813832759857178,-0.9145256280899048,-0.40247806906700134,-1.9797861576080322,0.33077436685562134,0.057956840842962265,-1.1334108114242554,1.0857138633728027,-1.0846081972122192,0.43200790882110596,1.2438154220581055,0.7436651587486267,0.46211937069892883,1.1952921152114868,0.9707897901535034,0.32141685485839844,1.9168981313705444,2.7013723850250244,-0.27769702672958374,0.6285755038261414,-0.3575263023376465,1.11945378780365,-1.404592752456665,0.10383415222167969,1.2921414375305176,0.006330041214823723,-1.1526204347610474,0.3536788523197174,0.35191163420677185,1.643205165863037,0.7992077469825745,-0.5326485633850098,0.958426296710968,-0.2832941710948944,0.40366771817207336,1.3478535413742065,1.0691369771957397,0.11376731097698212,0.7354668378829956,-0.636609673500061,0.5986513495445251,-0.37461504340171814,-0.06279244273900986,-0.5602396130561829,-0.21387358009815216,0.6390020847320557,0.6669131517410278,0.693066418170929,1.779813289642334,-0.04135828837752342,0.7489970326423645,3.3774993419647217,0.22526894509792328,0.45148399472236633,2.276432752609253,0.5748195052146912,0.09829743206501007,-0.31971290707588196,-0.8098486065864563,1.416435956954956,0.31667080521583557,0.7778916358947754,0.6242432594299316,2.2471418380737305,3.369762659072876,-0.6186640858650208,0.051468417048454285,0.8853582739830017,1.0595422983169556,-2.141812562942505,-0.3896333575248718,-0.24022826552391052,3.0659217834472656,0.07599980384111404,-1.999194622039795,-1.2585022449493408,-0.5854528546333313,-0.28603243827819824,-1.309428095817566,-1.1386390924453735,0.19489602744579315,-0.05625215917825699,-0.20884989202022552,-0.3101669251918793,0.824575662612915,-1.7190308570861816,-1.3334017992019653,1.0189589262008667,-0.29290884733200073,-1.0720986127853394,-0.16463333368301392,0.9137795567512512,-0.941963255405426,0.36977556347846985,-1.5334824323654175,-0.3501865565776825,-0.4530024528503418,-1.4711569547653198,-0.840240478515625,0.5242020487785339,1.0964076519012451,0.15401354432106018,0.30616065859794617,0.12059655785560608,1.099534511566162,1.5528361797332764,0.35852330923080444,-0.29440411925315857,0.5121684074401855,-0.8583855032920837,-0.14407587051391602,1.4796459674835205,0.30847254395484924,-1.5560779571533203,-0.6241469383239746,1.028030276298523,-0.8703860640525818,-0.1225738599896431,0.8518019318580627,0.5102590322494507,-0.4564761817455292,-1.9795352220535278,-0.47058722376823425,-1.232744812965393,-0.5125353336334229,-1.3574583530426025,-1.6147750616073608,-1.3236314058303833,-0.5300706028938293,-1.540473461151123,-2.0190868377685547,0.46928852796554565,0.7343612313270569,0.9266811609268188,1.084790587425232,0.5401313900947571,0.5086269378662109,1.337233304977417,-0.8916832804679871,-0.25270766019821167,0.957926332950592,0.5950484275817871,1.308532476425171,-1.2747349739074707,0.5761877298355103,-0.1361544281244278,-0.19219084084033966,1.78700590133667,0.19876143336296082,0.43401429057121277,0.5345686078071594,-0.17185595631599426,-0.8283801078796387,0.2861630618572235,1.7376904487609863,-0.05069119483232498,0.352552205324173,-0.7954462766647339,1.4702259302139282,0.29757019877433777,1.8535144329071045,-1.718316674232483,-0.7127504944801331,1.5783071517944336,-0.9951363205909729,-1.373476505279541,-0.3705446422100067,-0.5221529006958008,0.2702252268791199,-1.5504302978515625,0.6104472279548645,0.07492263615131378,-2.044217586517334,0.950878381729126,1.4264438152313232,-0.4662233889102936,-1.0122864246368408,1.9791045188903809,-0.30464667081832886,-0.49167153239250183,-1.3796064853668213,1.369884967803955,0.22687210142612457,-2.471226215362549,0.31023550033569336,-1.2611925601959229,-0.5684592127799988,-0.8930176496505737,-0.3944483697414398,-0.7645593285560608,-0.8712387084960938,-1.6208229064941406,-2.0165984630584717,-0.3945084512233734,0.6420098543167114,0.3957561254501343,-0.18751554191112518,-0.09039466083049774,0.3922836184501648,2.2010557651519775,0.2551725506782532,-0.6710218191146851,-1.988149642944336,-1.085540533065796,-0.6261744499206543,-0.2463674247264862,-1.8537980318069458,-0.051620543003082275,2.6238205432891846,-1.5506665706634521,0.5956987142562866,1.0506134033203125,0.7803397178649902,0.12732984125614166,-1.6451778411865234,-1.479245901107788,-0.653677761554718,0.03582700341939926,-1.8746551275253296,-1.457502007484436,-2.207947015762329,0.28645890951156616,-2.2340939044952393,-0.48316383361816406,1.678131103515625,-0.8297699093818665,1.7012057304382324,1.7052528858184814,-0.8066381812095642,1.9662754535675049,1.6047210693359375,1.2040908336639404,0.4669314920902252,0.557184636592865,1.4645707607269287,-1.3636467456817627,-0.9792011380195618,-0.3621875047683716,1.0260648727416992,0.18526427447795868,-0.3198287785053253,0.28341010212898254,-0.45512712001800537,-2.038667917251587,0.5443465113639832,0.8962598443031311,-0.22024567425251007,0.314488023519516,-0.7203422784805298,1.261763095855713,0.2902352809906006,0.19196264445781708,1.6338067054748535,-0.08039394021034241,0.8487230539321899,-0.2895190715789795,-2.2346367835998535,0.2088438868522644,0.9184135794639587,-1.8171887397766113,-1.180687427520752,0.4626491963863373,1.6812283992767334,1.6710869073867798,-0.11308610439300537,-1.4525983333587646,0.5153116583824158,0.6484113335609436,0.9593834280967712,-1.665783405303955,-0.29071667790412903,0.4592972695827484,-0.8493874073028564,-1.040988564491272,-0.7675924897193909,-0.31388238072395325,-0.2511826455593109,-0.7386038899421692,0.42042744159698486,-1.706843376159668,0.35912322998046875,2.863283395767212,0.3662208914756775,-0.39282160997390747,1.0596321821212769,-0.39166542887687683,0.3706791400909424,-0.21601396799087524,-1.1351358890533447,0.14144714176654816,-1.0786895751953125,-1.3639215230941772,0.6613457202911377,0.6564785838127136,-1.342374324798584,-0.6851222515106201,-0.3218313157558441,-0.08913330733776093,-0.40040674805641174,-0.9464254975318909,1.0551717281341553,2.4380366802215576,-0.4677309989929199,0.1364370882511139,-0.6801186800003052,1.4624346494674683,-0.1716168075799942,-0.15710929036140442,-0.5282037258148193,-1.4026845693588257,0.31777283549308777,-0.74603271484375,-1.129190444946289,-3.3180947303771973,0.43914446234703064,0.9294768571853638,0.732063353061676,1.1689056158065796,0.016757164150476456,0.5655893087387085,1.6761258840560913,-0.0998554527759552,0.6890791058540344,1.1087249517440796,-0.1439386010169983,-0.8700764775276184,1.299861192703247,-1.127879023551941,2.990086078643799,0.7604575157165527,-0.7773059010505676,-1.116891860961914,1.0152486562728882,-1.0572612285614014,0.9293996691703796,0.3205280601978302,0.8785480856895447,0.6498599648475647,-1.6588886976242065,-0.9308669567108154,-1.7905299663543701,0.28626155853271484,0.8532909154891968,-0.43205687403678894,-0.6372694969177246,-0.6943291425704956,-1.1909379959106445,-1.010032296180725,-0.19354449212551117,0.9559736847877502,1.0065710544586182,1.2071055173873901,1.08159601688385,0.6199185252189636,1.3912721872329712,-1.054311990737915,0.39126425981521606,1.5094335079193115,0.5884993076324463,0.13491655886173248,0.17188818752765656,2.3268401622772217,-0.48343783617019653,-0.9053665995597839,3.291769504547119,-0.19321122765541077,-1.0189586877822876,0.21226100623607635,0.4845747947692871,1.091126799583435,-0.057424068450927734,1.4704508781433105,0.4731355905532837,2.171940326690674,3.121039867401123,1.141436219215393,0.15321728587150574,0.9451228380203247,0.4389488995075226,-1.7167898416519165,0.037698253989219666,0.17161932587623596,-0.9611485004425049,-0.06517520546913147,-2.7803053855895996,-1.4502270221710205,0.328520268201828,0.6300349831581116,0.43030276894569397,-0.09057517349720001,0.490077406167984,1.4097719192504883,0.4422755539417267,0.3737279176712036,0.45376819372177124,-0.05106724426150322,-0.34677377343177795,1.6072438955307007,-2.8590965270996094,0.04671628028154373,-0.2705431878566742,1.4607418775558472,-0.08277207612991333,0.5010090470314026,-0.11276606470346451,1.109660029411316,1.9775203466415405,0.4548344016075134,1.793466567993164,-0.18705609440803528,-0.39451783895492554,-0.18281880021095276,-1.7492166757583618,0.17829479277133942,0.0890333279967308,-0.024284550920128822,-0.09162849187850952,-0.9456978440284729,-0.8904575109481812,-0.9281877279281616,-0.8334999084472656,0.4895479381084442,0.24439691007137299,-2.2834904193878174,0.2849167287349701,0.4201979637145996,-2.3250715732574463,-0.3895506262779236,-0.12725616991519928,0.10485970973968506,-0.3531742990016937,-0.9625699520111084,-0.861847460269928,-0.4655989706516266,-0.8365426659584045,-0.9112203121185303,-1.622877597808838,-2.0638427734375,-0.6515933871269226,-1.4301362037658691,-1.647026538848877,1.1436326503753662,-0.40792912244796753,1.4407095909118652,-0.7955390214920044,0.2328442633152008,0.7227380871772766,1.3249156475067139,-2.173273801803589,-1.8667500019073486,-0.6453738212585449,-0.6745609641075134,0.006196121219545603,1.1550605297088623,0.11170270293951035,-0.8074581027030945,1.0657556056976318,-0.32316431403160095,-0.3204520046710968,0.7997314929962158,0.8584851622581482,0.19223932921886444,-0.6821349263191223,-0.8162859678268433,-1.9940236806869507,0.5636311769485474,-0.6324998140335083,-0.8132932186126709,-0.5153108835220337,-1.6319304704666138,-1.6844795942306519,-2.139643430709839,0.4475163519382477,-0.09330283850431442,2.7834479808807373,1.6686723232269287,-0.051765698939561844,-0.6858339905738831,0.2095360904932022,-0.7812326550483704,-0.9134008884429932,1.4201693534851074,-0.33816683292388916,1.3197556734085083,1.981205701828003,1.7680457830429077,-1.3967210054397583,0.1560484915971756,2.7453227043151855,-0.192289799451828,0.20890483260154724,1.3091689348220825,0.7826557159423828,-0.4986836612224579,-1.0626027584075928,2.940692901611328,1.527279257774353,2.244069814682007,1.3634142875671387,1.0219790935516357,-1.3860971927642822,0.39349329471588135,0.35799816250801086,-1.8625432252883911,1.5754177570343018,-0.5130695104598999,0.5137224793434143,1.703282117843628,-1.799263596534729,0.2897697687149048,-1.0649816989898682,0.2883327007293701,-0.0722329244017601,-1.311618685722351,1.5856373310089111,1.5040935277938843,0.31253740191459656,-1.0902831554412842,-1.1684691905975342,-0.5047467350959778,-0.817651093006134,-0.35859256982803345,0.46523022651672363,-1.2000854015350342,-0.2788117825984955,-1.8722795248031616,1.0636857748031616,2.21040940284729,0.39771759510040283,0.27113786339759827,-0.6499491930007935,-0.9896522164344788,-0.6883176565170288,-0.9081361293792725,-0.30731192231178284,3.869307041168213,-0.47220340371131897,-0.16859793663024902,2.1141583919525146,0.45827358961105347,0.4425368905067444]},"cellActivationHidden":{"rows":20,"columns":20,"weights":[0.48302534222602844,0.4735872447490692,1.283740520477295,-0.8128727078437805,0.5819711685180664,-0.5306428670883179,0.8884665966033936,-0.05193763226270676,-0.4635854959487915,-1.565697193145752,0.7834936380386353,-0.06965633481740952,-1.1231069564819336,-1.796135425567627,2.038860559463501,1.601885437965393,0.1190769299864769,-1.61371648311615,-0.9821150302886963,-0.8598291277885437,1.5067732334136963,-1.1720632314682007,-1.123432993888855,0.21799878776073456,-0.5431056022644043,-1.4286065101623535,-0.8320066928863525,-0.35593631863594055,0.520923912525177,-0.7481675148010254,-0.6584455966949463,-1.125093698501587,-0.021130114793777466,-1.3909517526626587,0.38790592551231384,0.6215062141418457,-0.23597761988639832,-0.1399407684803009,0.7589742541313171,0.17191950976848602,1.4677525758743286,0.7666752338409424,-0.24525903165340424,0.14011940360069275,-0.13038571178913116,1.5928536653518677,0.8362634778022766,-0.6418931484222412,0.3662264943122864,1.9773799180984497,-0.4641755223274231,-1.4466278553009033,-0.34513506293296814,0.236832857131958,-0.24314062297344208,0.6651089191436768,-0.28930121660232544,0.8145818710327148,-0.3042280972003937,0.4511098861694336,-0.7111329436302185,-0.03930952772498131,0.9049360156059265,-0.1688096821308136,-0.6192595958709717,-1.2975120544433594,-0.7318389415740967,1.9328585863113403,0.7988402843475342,-0.3689733147621155,-0.28372663259506226,2.8333232402801514,-1.9290671348571777,-2.357551097869873,0.37572044134140015,1.769633173942566,-2.0496227741241455,0.04741945490241051,0.2728663980960846,-1.993187665939331,1.1631323099136353,-1.7491010427474976,1.5580929517745972,1.3427993059158325,-0.27800729870796204,-0.2716483175754547,-0.12763506174087524,-1.8828601837158203,-0.10291142016649246,2.1025636196136475,0.23196959495544434,0.7654923796653748,-0.08293060213327408,-1.2926000356674194,0.4651678502559662,-1.3938510417938232,-0.27574464678764343,-0.6752974390983582,-0.35688793659210205,-1.4963622093200684,1.4838608503341675,-1.5582690238952637,0.8816145658493042,-0.46963873505592346,-0.20792947709560394,-1.2373952865600586,-2.131136417388916,-1.2833126783370972,0.9051575064659119,-1.1288189888000488,-0.7566052079200745,1.2735090255737305,-3.1587436199188232,-1.2837108373641968,3.0545434951782227,-0.27812162041664124,-2.4030489921569824,1.3927823305130005,0.8934124708175659,-1.110193133354187,0.9785693883895874,0.3651101589202881,1.180489420890808,-0.0838957354426384,0.6195091009140015,-0.3281387984752655,0.17754825949668884,2.041851282119751,-1.5505200624465942,0.48688000440597534,3.5695745944976807,0.8955833911895752,0.8326415419578552,-1.900400161743164,-0.18868128955364227,1.3987395763397217,0.9539167881011963,-1.6170681715011597,3.8916409015655518,-0.2940923571586609,0.45900020003318787,-0.7937509417533875,1.804300308227539,-1.7728898525238037,-0.2445458620786667,0.06915729492902756,1.624141812324524,-1.0613205432891846,1.0748438835144043,0.675171971321106,-0.8085317015647888,-0.6402823328971863,0.1919262707233429,0.41766172647476196,1.3356528282165527,-0.8514792323112488,0.7799845933914185,-0.558179497718811,-1.2157702445983887,0.6924003958702087,0.22799678146839142,0.42195916175842285,-0.13435690104961395,1.0827735662460327,2.085442066192627,-0.04191846027970314,-0.8063345551490784,-0.6644929647445679,-1.1511569023132324,-0.5082892179489136,0.9903998970985413,-1.105146884918213,-0.3088577687740326,0.45424631237983704,1.0366766452789307,2.4614450931549072,-0.3842608332633972,-1.3053066730499268,0.9418449401855469,-1.572322964668274,1.6557707786560059,-0.029853669926524162,0.2099546194076538,1.5454270839691162,0.7091396450996399,1.068692922592163,0.04235120117664337,-0.4647007882595062,0.5467913746833801,-0.31865960359573364,0.7656065225601196,0.3964102864265442,-0.4747350215911865,0.6395034193992615,-0.17130886018276215,1.039083480834961,1.150709867477417,-2.315595865249634,-0.5909110307693481,-1.3173555135726929,0.31179970502853394,-0.8926954865455627,0.3629825711250305,-0.45542553067207336,0.024022117257118225,0.2552931010723114,0.3164142370223999,0.3589589297771454,0.4084608256816864,0.742842435836792,-0.28064286708831787,-0.256580114364624,-1.4215068817138672,-1.0090763568878174,-0.025491464883089066,-0.09367246925830841,-1.0504465103149414,1.0271464586257935,-0.1389191895723343,-0.3228229880332947,0.6781604886054993,1.7182683944702148,-0.017979897558689117,1.3518680334091187,1.2366846799850464,0.301608681678772,-1.2551319599151611,-1.4575248956680298,-1.4512370824813843,-1.9717695713043213,0.6374285221099854,-0.5323910117149353,-0.08803796023130417,-0.6829008460044861,-2.2874550819396973,2.9532127380371094,-0.15981389582157135,-1.3855401277542114,-0.9148080348968506,0.4768447279930115,0.3712383508682251,0.6744149327278137,-2.2084569931030273,1.0903986692428589,1.5144891738891602,0.233762726187706,-0.560877799987793,1.1754205226898193,-0.5625183582305908,0.41406193375587463,0.2637629508972168,-0.3458167314529419,0.30104339122772217,-0.07105870544910431,-0.23258769512176514,1.0080814361572266,0.9620705246925354,-0.7766169905662537,0.5791093707084656,0.04655975103378296,1.2832428216934204,-2.0994789600372314,-0.8293335437774658,2.1004467010498047,1.4261714220046997,-1.0148917436599731,-1.7707003355026245,0.9714040756225586,-2.5559797286987305,-0.5772998929023743,1.3889069557189941,0.4411354660987854,-0.7256165742874146,-1.2668867111206055,1.4911338090896606,-1.0546948909759521,-1.6061875820159912,-2.473951578140259,0.9453126192092896,-2.252577543258667,-0.727544903755188,-1.0670799016952515,-0.29015475511550903,-1.288077473640442,-0.4652577042579651,0.10304073244333267,1.0077801942825317,0.05541716516017914,0.7503992319107056,0.2302284687757492,-0.3544027805328369,0.30623361468315125,0.4022667109966278,1.2543385028839111,-0.8086754083633423,-1.5003069639205933,-0.6458114385604858,0.887619137763977,-0.8178192377090454,0.09922023117542267,