{"data":"[{\"input\":\"What is the scratch for discord site?\",\"output\":\"https://scratch-for-discord.com\"},{\"input\":\"What is the s4d site?\",\"output\":\"https://scratch-for-discord.com\"},{\"input\":\"What is the full form of s4d?\",\"output\":\"The full form is **scratch for discord**\"},{\"input\":\"Who made s4d?\",\"output\":\"Androz\"},{\"input\":\"What is the difference between the link you sent and the https://scratch-for-discord.netlify.app ?\",\"output\":\"The https://scratch-for-discord.netlify.app is the original s4d but it is now outdated and suited for use. Also, that link I sent has a lot of features compared to the main one\"}]","model":{"type":"LSTM","options":{"inputSize":38,"inputRange":38,"hiddenLayers":[20,20],"outputSize":38,"decayRate":0.999,"smoothEps":1e-8,"regc":0.000001,"clipval":5,"maxPredictionLength":100,"dataFormatter":{"indexTable":{"4":20,"W":0,"h":1,"a":2,"t":3," ":4,"i":5,"s":6,"e":7,"c":8,"r":9,"f":10,"o":11,"d":12,"?":13,"p":14,":":15,"/":16,"-":17,".":18,"m":19,"u":21,"l":22,"T":23,"*":24,"A":25,"n":26,"z":27,"b":28,"w":29,"k":30,"y":31,"g":32,",":33,"I":34,"stop-input":35,"start-output":36,"unrecognized":37},"characterTable":{"0":"W","1":"h","2":"a","3":"t","4":" ","5":"i","6":"s","7":"e","8":"c","9":"r","10":"f","11":"o","12":"d","13":"?","14":"p","15":":","16":"/","17":"-","18":".","19":"m","20":"4","21":"u","22":"l","23":"T","24":"*","25":"A","26":"n","27":"z","28":"b","29":"w","30":"k","31":"y","32":"g","33":",","34":"I","35":null,"36":null,"37":null},"values":[{"input":"What is the scratch for discord site?","output":"https://scratch-for-discord.com"},{"input":"What is the s4d site?","output":"https://scratch-for-discord.com"},{"input":"What is the full form of s4d?","output":"The full form is **scratch for discord**"},{"input":"Who made s4d?","output":"Androz"},{"input":"What is the difference between the link you sent and the https://scratch-for-discord.netlify.app ?","output":"The https://scratch-for-discord.netlify.app is the original s4d but it is now outdated and suited for use. Also, that link I sent has a lot of features compared to the main one"}],"characters":["W","h","a","t"," ","i","s","e","c","r","f","o","d","?","p",":","/","-",".","m","4","u","l","T","*","A","n","z","b","w","k","y","g",",","I","stop-input","start-output","unrecognized"],"specialIndexes":[35,36,37]}},"trainOpts":{"iterations":20000,"errorThresh":0.005,"logPeriod":10,"learningRate":0.01,"callbackPeriod":10,"timeout":"Infinity"},"input":{"rows":39,"columns":38,"weights":[-0.3083266019821167,2.247889518737793,0.8195324540138245,2.5770926475524902,0.8330042958259583,-0.9675512313842773,1.1162980794906616,1.8323333263397217,2.136108636856079,0.21312889456748962,1.075340747833252,0.15193285048007965,0.525030255317688,1.5109506845474243,0.3254222869873047,-2.4760208129882812,0.28190526366233826,-1.9621367454528809,-3.4410059452056885,-1.5571098327636719,-0.7670670747756958,0.8255881071090698,0.70649653673172,-1.0014479160308838,0.5241497755050659,-1.1083948612213135,0.5191836953163147,-2.5933732986450195,3.7167673110961914,1.9609498977661133,1.0635312795639038,-0.2850852310657501,-2.4509077072143555,1.7958953380584717,0.37790995836257935,1.9512462615966797,-2.338298797607422,-0.380977064371109,3.2442824840545654,-1.205366849899292,-1.056373119354248,1.4853521585464478,-0.9923542141914368,0.7093031406402588,1.7464534044265747,-0.3504282832145691,1.357936143875122,-1.2905142307281494,1.3165898323059082,-0.9238081574440002,0.9936496615409851,0.8259441256523132,2.339639902114868,3.472583055496216,0.8308071494102478,-1.5879312753677368,0.9237074255943298,-2.1227245330810547,-0.5404139161109924,-1.6371146440505981,6.565868854522705,0.07209223508834839,-1.1339298486709595,1.001227617263794,-0.6226643323898315,-1.360932469367981,-1.1359254121780396,0.7103716135025024,-0.6243579983711243,1.0339423418045044,2.609266757965088,0.4537639319896698,-0.37087857723236084,-2.6463701725006104,0.7493091821670532,1.1547116041183472,0.3483368158340454,-1.5569263696670532,-2.7780158519744873,2.717355489730835,2.2349019050598145,-2.6788530349731445,1.1090055704116821,0.21632349491119385,-0.9102346897125244,0.010320599190890789,1.5680879354476929,0.5268021821975708,0.8607651591300964,-1.559908151626587,1.0498466491699219,2.0097882747650146,2.571997880935669,-1.030410885810852,-0.8421421051025391,-1.7234671115875244,0.8436285853385925,-0.462859570980072,-2.2517592906951904,-0.8953004479408264,-2.2925448417663574,-0.24895384907722473,-1.9904884099960327,0.2216344028711319,-0.34349194169044495,0.4299262762069702,1.3090338706970215,-0.1472458839416504,1.150597333908081,0.10745242238044739,-0.6535694599151611,-1.6972777843475342,-1.9681473970413208,-0.9770832061767578,-1.0644711256027222,-2.910893440246582,0.4766973555088043,-0.3770124614238739,3.338752031326294,-0.19448162615299225,2.9752330780029297,1.0565900802612305,1.9726639986038208,-2.5650088787078857,0.9447576403617859,-1.356534481048584,-1.8178685903549194,0.31341955065727234,-0.11610665172338486,2.1286134719848633,-0.5299400687217712,-1.0690028667449951,-1.1919077634811401,-0.6022921800613403,1.382704496383667,-0.5964418053627014,-0.3807893991470337,1.251214861869812,2.277784585952759,-1.8876674175262451,2.8934237957000732,-2.1718270778656006,-0.39934512972831726,0.46346914768218994,0.29240843653678894,3.135258913040161,0.8377019166946411,0.24189753830432892,-0.7405547499656677,-0.41636595129966736,0.2831992208957672,0.3435821533203125,1.3654290437698364,-2.1890969276428223,2.370206117630005,-1.2458956241607666,-1.9697771072387695,-2.635934591293335,-1.0676888227462769,2.3279638290405273,2.134885787963867,-3.0373284816741943,1.4599117040634155,0.9263260960578918,1.9500013589859009,-8.085329055786133,-0.8980724215507507,3.436372995376587,2.3571255207061768,-2.209606647491455,0.3820222318172455,2.7999207973480225,-1.295607089996338,0.9451478123664856,0.8694368004798889,-0.43197542428970337,0.0634208545088768,-0.1991877406835556,1.4203051328659058,0.19026052951812744,0.20955324172973633,0.6978607773780823,1.216052532196045,-0.1941068321466446,0.34541669487953186,0.17277903854846954,0.06796921044588089,4.880661964416504,0.7480750679969788,-2.275716781616211,-0.2780064046382904,-2.534363031387329,-0.4510612189769745,-1.1052075624465942,-0.06915143877267838,-0.8306710124015808,0.12154088169336319,-0.09327592700719833,0.953722357749939,-2.470395803451538,0.8928362131118774,-2.444404363632202,1.2725569009780884,-1.8796402215957642,1.871857762336731,2.2827367782592773,0.9641917943954468,0.6175154447555542,-1.9517085552215576,2.2132441997528076,0.19062472879886627,1.1679438352584839,-0.05217435956001282,1.39288330078125,-0.45634618401527405,0.023395225405693054,-0.39030691981315613,-0.06752961128950119,-0.2941953241825104,-0.4648551940917969,0.9867277145385742,0.7010350227355957,2.6121604442596436,0.6261884570121765,-2.3642995357513428,-0.34485331177711487,0.2417549192905426,0.5265030860900879,0.9560648202896118,1.9194414615631104,-0.38849231600761414,-1.9584543704986572,0.16725647449493408,0.32589972019195557,-2.3400275707244873,-0.830024003982544,0.7214758396148682,-0.8864091038703918,3.689674139022827,-2.356400728225708,1.9691399335861206,1.0006495714187622,2.0273711681365967,-0.6150975227355957,1.1902846097946167,-1.3496779203414917,-0.9689010977745056,1.8746793270111084,-0.7387511730194092,2.6074371337890625,1.1651601791381836,2.919386386871338,-0.5608602166175842,1.912005066871643,-1.3197871446609497,4.3521528244018555,-2.0498955249786377,-1.848215937614441,3.574732542037964,-0.6858898997306824,2.9767513275146484,-0.09545651823282242,-3.799509286880493,-0.26621386408805847,-0.752138078212738,-1.344883680343628,1.497497320175171,0.5404583811759949,-0.14776699244976044,-1.4064645767211914,0.48247605562210083,-0.2699640393257141,0.8647938966751099,2.1799001693725586,-0.4737119972705841,3.874397039413452,-0.5899901390075684,-1.3603729009628296,-0.8857625126838684,1.3322750329971313,-1.3273597955703735,1.445731282234192,-3.092301607131958,1.4012494087219238,-0.7307223081588745,-0.9591969847679138,0.19851212203502655,-2.2303833961486816,2.603912353515625,0.007513829041272402,2.8501808643341064,-3.1471195220947266,0.4843275249004364,-1.2930256128311157,-1.148421049118042,-0.5407317876815796,-3.4430623054504395,0.9798579812049866,-1.3979934453964233,1.0518906116485596,-0.4490904211997986,-0.40889859199523926,-0.5860317945480347,-0.007924681529402733,-2.235832691192627,2.6139113903045654,-0.531476616859436,1.4145187139511108,0.30420389771461487,2.1241703033447266,1.2377538681030273,-0.6357375383377075,-0.7228159308433533,2.791005849838257,-1.1505459547042847,-2.270946741104126,0.9603428244590759,0.6807355880737305,1.8184483051300049,-1.5609667301177979,2.1022250652313232,-0.18112535774707794,-0.5123741626739502,-1.2345588207244873,3.585608959197998,0.24017025530338287,-0.6969518661499023,-2.749384880065918,-1.1686797142028809,0.8264487385749817,-4.113231658935547,-1.0127619504928589,0.528805673122406,0.5031663179397583,0.20502780377864838,0.47454914450645447,-0.9823859930038452,1.093874454498291,3.652038097381592,-5.2639923095703125,-3.2603142261505127,4.3969268798828125,0.4507744014263153,-2.548524856567383,1.3019074201583862,-0.8880850672721863,0.47996214032173157,-0.8839924335479736,-0.21621635556221008,-0.046102024614810944,1.8078622817993164,-2.1487584114074707,-1.40738844871521,1.6330058574676514,2.0864696502685547,-1.6400558948516846,2.634901523590088,1.383041501045227,2.9123151302337646,-2.8716835975646973,3.6895291805267334,1.6114789247512817,-0.7548579573631287,0.6702170372009277,-0.5506954789161682,1.1163431406021118,0.8936108350753784,0.26832810044288635,0.9499251842498779,-1.5337340831756592,0.1944832056760788,-0.2166738212108612,2.8595428466796875,-0.27446871995925903,2.6272783279418945,1.7565984725952148,-1.172960638999939,0.7905554175376892,1.000502586364746,-0.7871904373168945,3.3330607414245605,2.421532392501831,-3.495281457901001,0.9446121454238892,-0.4908832609653473,-0.07276113331317902,-3.160130739212036,2.5717544555664062,-2.9381203651428223,0.8016490936279297,0.8973491787910461,-0.5771070122718811,0.5496329069137573,1.2718394994735718,0.7754718065261841,1.1444982290267944,-0.8758159279823303,1.1235313415527344,0.08457628637552261,-1.5460612773895264,1.5981225967407227,0.26286137104034424,-0.15727980434894562,0.6470411419868469,-0.8718408942222595,-0.844978392124176,-0.5745541453361511,3.6783862113952637,-0.6560715436935425,0.408825159072876,-0.7637757658958435,-5.853785514831543,0.34046462178230286,1.5641443729400635,-1.3805464506149292,-0.1559493988752365,-1.4289201498031616,0.13813036680221558,0.010608288459479809,-0.5924398899078369,3.8860676288604736,2.4049694538116455,-1.3699171543121338,1.0114130973815918,-1.1407071352005005,-1.9925994873046875,4.050975799560547,-0.07270798087120056,0.1117592453956604,-1.6778165102005005,-4.539447784423828,-2.5887818336486816,-5.080137729644775,-0.1390608847141266,-0.17258690297603607,-0.007972036488354206,-0.035498928278684616,0.27550008893013,2.5098605155944824,4.582671165466309,0.34547942876815796,1.313768744468689,-1.7361304759979248,3.864119291305542,-0.44436344504356384,-2.0613927841186523,0.1250440925359726,1.8120492696762085,1.1183016300201416,-1.079696536064148,0.30638477206230164,-2.2407031059265137,1.4206616878509521,3.9884581565856934,-1.0196303129196167,-3.6780874729156494,-0.8722944259643555,-0.9370613098144531,0.2692112624645233,1.1005353927612305,-0.30214962363243103,0.6109852194786072,2.9590823650360107,0.9577853679656982,0.530647337436676,-2.6286725997924805,-1.7478559017181396,-0.8331426382064819,0.041362229734659195,-0.06247393786907196,1.7604061365127563,5.994394302368164,-0.09819711744785309,-0.7925230264663696,-0.37298616766929626,2.2264602184295654,-1.2917735576629639,0.5604754686355591,-0.5003424286842346,1.661316156387329,-2.3795766830444336,-0.5121461153030396,1.281772494316101,0.9782915711402893,-0.7355366945266724,1.1845940351486206,0.901728630065918,2.332442045211792,1.7998048067092896,0.34986189007759094,-0.8713927268981934,1.5891417264938354,-1.4077011346817017,-0.0219766516238451,0.6779332160949707,1.865339756011963,2.132413148880005,-2.7945823669433594,0.519789457321167,-0.1668187528848648,-0.41474059224128723,0.10547444969415665,-0.9877448678016663,-1.6921181678771973,-1.9221233129501343,0.768485426902771,1.86432683467865,3.329780101776123,-0.6704466938972473,-6.381694316864014,0.9886881709098816,1.1235120296478271,-1.1803674697875977,-0.7060893774032593,2.281259059906006,-0.811935544013977,0.1599237024784088,-1.4487433433532715,-0.3675771653652191,1.5757925510406494,-0.5521305799484253,0.05843449756503105,-0.09950698167085648,0.34480196237564087,-0.9824771285057068,3.1056644916534424,-1.0559543371200562,-1.0897941589355469,1.04562509059906,-2.89839768409729,-1.5698517560958862,2.8585805892944336,-0.6512088775634766,0.7922550439834595,-0.9066877961158752,2.3828437328338623,-2.741644859313965,0.1003415435552597,-1.5412793159484863,1.580335021018982,-0.031722553074359894,0.3724355101585388,3.21846342086792,-1.8699603080749512,-0.7987133860588074,0.7416436076164246,-0.07831656187772751,1.805700659751892,-0.9945518374443054,-0.8931146264076233,2.442849636077881,-1.9244790077209473,-2.5167596340179443,-0.5396385788917542,5.219429969787598,-0.3019379675388336,0.7179592847824097,-1.265683889389038,1.6657978296279907,-1.2118210792541504,-1.1059659719467163,0.8490222096443176,0.9076669812202454,-0.44940873980522156,-2.8840670585632324,-0.9581254720687866,1.2244492769241333,-3.202634811401367,0.5267137289047241,0.3267177939414978,-3.7848427295684814,1.6360729932785034,-1.2111705541610718,0.217264786362648,4.541402339935303,-3.019789934158325,2.2711689472198486,-2.1781017780303955,-1.5331392288208008,-1.801282525062561,-0.07287215441465378,1.132804036140442,-4.91660737991333,-1.047309398651123,3.6533915996551514,-0.016339074820280075,2.0226449966430664,-1.7950756549835205,-0.4608742594718933,0.4388151168823242,0.8250537514686584,-0.9024113416671753,-2.5597615242004395,-0.7113944292068481,1.7884809970855713,-1.853941559791565,-0.7151615023612976,-1.9058665037155151,-0.3532964885234833,-2.674286365509033,0.5306675434112549,-1.0836076736450195,0.428708553314209,0.1253267377614975,-1.2907952070236206,4.5048112869262695,0.5625684857368469,-1.9441955089569092,2.8153481483459473,-1.0591354370117188,1.0589838027954102,-1.4580029249191284,-3.8849592208862305,-0.08339355140924454,-1.8270232677459717,1.1101831197738647,0.8265777826309204,0.6584945321083069,4.4467291831970215,-0.3647656738758087,1.8718640804290771,-0.23912467062473297,-0.9589453339576721,2.1246402263641357,0.5305268168449402,1.9878898859024048,2.810572862625122,-1.107511043548584,-3.702977418899536,-1.4458767175674438,3.3394973278045654,2.092939853668213,0.3821773827075958,3.158486843109131,0.7902382612228394,-4.152841091156006,0.7670769691467285,1.7111384868621826,1.2885891199111938,1.6027277708053589,1.1375442743301392,3.139627456665039,-0.8661566376686096,0.01704219914972782,-1.9521338939666748,1.9147679805755615,0.7094244360923767,-1.709588885307312,1.718531608581543,0.001823296770453453,-0.8163920640945435,-0.8854703307151794,-1.0736112594604492,-1.2111387252807617,4.082616329193115,-2.655668020248413,-4.67387580871582,-2.9388771057128906,-1.7578692436218262,-1.5456595420837402,-1.8279489278793335,0.918789267539978,-2.2417759895324707,-2.907785415649414,2.179100751876831,4.209824085235596,-1.8642665147781372,1.7890976667404175,-0.21596062183380127,2.4761576652526855,-0.5883417129516602,1.6548151969909668,3.0316340923309326,0.2689991295337677,-0.5378739833831787,3.179098129272461,4.907115936279297,-1.1668645143508911,-0.8044832348823547,-0.44202300906181335,-0.2572939693927765,0.9811164736747742,-0.07760721445083618,-1.5097007751464844,-2.2951598167419434,4.764285087585449,-1.0596123933792114,4.450088024139404,0.35964083671569824,2.2378475666046143,2.5717337131500244,2.2473158836364746,0.7191978096961975,1.9869604110717773,-4.118076324462891,-2.7382946014404297,-3.1154587268829346,2.8124566078186035,1.8783472776412964,-2.2202579975128174,-1.125229835510254,-6.0858941078186035,-0.6353739500045776,0.7719653248786926,1.0143945217132568,0.7589673399925232,-0.7084892988204956,0.7514093518257141,1.1388227939605713,1.1689369678497314,-1.3627243041992188,2.749872922897339,-1.1551659107208252,0.525989830493927,3.4048707485198975,1.5516775846481323,-3.9541022777557373,-2.111252546310425,1.5389068126678467,0.4764527976512909,-4.262895584106445,0.08178588002920151,-1.977707862854004,-0.9658147096633911,0.9877220988273621,-0.9649437665939331,1.6415941715240479,-5.1006317138671875,2.0647926330566406,0.4211708605289459,-1.7950042486190796,-4.718401908874512,-1.6142122745513916,4.053793430328369,0.5492655038833618,0.7606383562088013,1.0142254829406738,0.4566638767719269,-1.4208931922912598,-0.5891285538673401,-0.8464826345443726,-2.9234707355499268,-0.29094064235687256,-0.2690373659133911,5.067843914031982,-0.2656322121620178,-0.3874225318431854,-3.853358030319214,6.292858600616455,-0.46652910113334656,0.720406174659729,2.928809404373169,1.100348711013794,3.75179123878479,0.17024114727973938,-0.5400176048278809,0.7561488151550293,-1.0461688041687012,4.172562122344971,5.482085704803467,-0.0609041228890419,3.7694337368011475,-1.3909270763397217,0.5756877660751343,-0.7921180129051208,0.8317471742630005,-1.2926197052001953,0.389230340719223,-6.189943790435791,-1.5959291458129883,-2.781496524810791,0.33815234899520874,-0.7497926354408264,8.126197814941406,0.8900869488716125,-2.316221237182617,-0.006145942024886608,-1.3146964311599731,-0.022481802850961685,-2.284029483795166,-2.1033270359039307,-0.8721141219139099,0.4131970703601837,-2.832188844680786,0.6683152914047241,-3.580388069152832,-4.4794230461120605,3.5954201221466064,-4.324887752532959,-4.665165424346924,-0.46163585782051086,2.259418487548828,-2.0346484184265137,-0.06655615568161011,1.2938218116760254,-2.574439287185669,1.1112627983093262,2.716921329498291,-1.3984454870224,0.4700652062892914,-0.8774210214614868,-1.188651442527771,1.6804457902908325,1.8956732749938965,1.8902840614318848,-0.614806592464447,-0.19578595459461212,1.6600390672683716,-4.917977333068848,-0.3493945300579071,-1.2803019285202026,4.976797103881836,0.3442530035972595,-1.712257742881775,-2.159273862838745,0.6107841730117798,-0.7338812351226807,-0.6815710067749023,1.0653760433197021,-1.030943512916565,1.3215336799621582,-2.7310798168182373,-1.0086761713027954,1.1831557750701904,0.5217295289039612,0.6611943244934082,2.2038414478302,1.2485450506210327,-2.177999496459961,1.9872891902923584,-0.9214310050010681,-2.6444694995880127,3.6057674884796143,-5.643697261810303,-0.9504289627075195,5.921347141265869,-4.76928186416626,-2.7402403354644775,-1.5460243225097656,-1.053530216217041,-0.9605288505554199,0.9254946112632751,-2.1534242630004883,1.2286983728408813,6.610123157501221,-0.16083939373493195,-7.725357532501221,-3.9132156372070312,0.3421410024166107,-0.7808622717857361,-0.08626999706029892,3.155405044555664,-1.2165685892105103,-0.6283542513847351,0.037534166127443314,-0.5441200137138367,1.2404776811599731,4.028436660766602,0.2126937359571457,3.2305386066436768,-1.9983550310134888,-2.291159152984619,0.3124377429485321,-0.5237630605697632,6.308535099029541,-1.371240496635437,1.6804839372634888,-0.67637038230896,-0.22366876900196075,-3.24657940864563,0.4463394582271576,0.3839570879936218,1.0907468795776367,4.324058532714844,-0.5306697487831116,3.0716469287872314,-5.070860862731934,-2.098158836364746,-1.4679807424545288,2.189159631729126,-5.194582939147949,2.795830249786377,-0.04365256428718567,-0.07660452276468277,0.252380907535553,-5.473108291625977,6.044972896575928,0.06751381605863571,-0.08193261921405792,2.260817289352417,-0.2799440622329712,-1.8799189329147339,-0.09331917017698288,-1.5806589126586914,-1.4593998193740845,4.889605522155762,2.170348882675171,3.3684496879577637,-4.451175689697266,-2.480621576309204,-5.57075834274292,-1.148209810256958,-8.034297943115234,-0.2687849700450897,4.295223712921143,-2.2073593139648438,-2.411632776260376,-2.1844124794006348,-3.409463882446289,0.4407775104045868,-7.507884979248047,-1.595624327659607,-0.22011597454547882,1.8259259462356567,0.30937913060188293,-1.342853307723999,-2.7383832931518555,4.06570291519165,-0.9419127702713013,0.05981475114822388,0.6157345175743103,4.227766513824463,-0.9182447195053101,-3.401102304458618,1.0892603397369385,0.9466421008110046,-1.091701865196228,-1.7263767719268799,-4.016571521759033,2.491114377975464,-0.6412321329116821,0.7798967957496643,0.04715384170413017,3.2125210762023926,2.208573579788208,-2.2633554935455322,-0.6391308903694153,-0.28411054611206055,-1.6659268140792847,0.5953869223594666,-1.562091588973999,-0.6148666739463806,-0.5834324359893799,1.4557783603668213,-0.7364239692687988,-4.387608528137207,1.8463525772094727,0.7408304214477539,-1.464076280593872,-0.28320708870887756,5.0018792152404785,15.009688377380371,-4.01492166519165,-2.4726200103759766,6.354696750640869,-7.4210076332092285,4.934299468994141,-0.6295985579490662,-0.9194620847702026,2.6923115253448486,-2.9294707775115967,-0.8163905739784241,9.369153022766113,5.538677215576172,-0.3918952941894531,-8.514325141906738,4.521740436553955,0.28096917271614075,-5.6631364822387695,0.40777090191841125,2.243635654449463,-5.320683002471924,0.7211573123931885,1.072227120399475,-1.8937160968780518,-2.3073654174804688,-4.1308183670043945,7.23816442489624,3.6375818252563477,-2.1918160915374756,-1.0642499923706055,-0.8633760809898376,2.057626485824585,-3.0767903327941895,-2.1558609008789062,-8.111806869506836,-0.2170397937297821,4.688333511352539,-4.2818169593811035,0.7167922258377075,6.59135103225708,-0.9342039823532104,2.574674606323242,-5.30902624130249,1.3301138877868652,0.6656894087791443,5.090943336486816,-3.351928472518921,4.023415565490723,4.7890095710754395,-1.1265437602996826,2.5011348724365234,-0.5539465546607971,-1.010716438293457,1.3076616525650024,-0.5355523228645325,2.954092502593994,3.4816341400146484,0.7744582295417786,-3.119497776031494,1.4831658601760864,-0.156480073928833,-0.7914065718650818,-4.037288665771484,6.091542720794678,-3.9257454872131348,2.0015993118286133,3.399204969406128,1.5311579704284668,-2.581681251525879,-0.8422480821609497,1.8557765483856201,1.0586402416229248,2.34001088142395,-4.964146137237549,0.5754368901252747,0.6589435338973999,3.592775583267212,-4.710758686065674,-1.2843743562698364,-3.9982173442840576,0.21768099069595337,-3.0730576515197754,0.1694505661725998,-1.0401755571365356,-1.0885461568832397,1.7090914249420166,2.367074489593506,-1.380219578742981,2.0848677158355713,0.047090791165828705,2.065392255783081,-5.183191776275635,-2.9149773120880127,0.8472119569778442,-7.358962059020996,-1.8830235004425049,0.6368016600608826,-1.72887122631073,-0.19537003338336945,-4.8460798263549805,-0.4423425793647766,0.5807119011878967,1.9205151796340942,-4.360538959503174,-0.497799813747406,-3.4606518745422363,1.5123454332351685,-1.8961327075958252,0.1705363541841507,3.3143768310546875,2.6847617626190186,-3.661654233932495,-4.536707401275635,-2.2456142902374268,6.873951435089111,-2.621339797973633,-0.640330970287323,3.2296650409698486,3.7153215408325195,-2.139561176300049,2.2057738304138184,0.460233211517334,4.532454967498779,-5.001993656158447,-1.7350847721099854,4.227697849273682,7.529426097869873,0.203709214925766,-7.1208577156066895,0.5303043127059937,4.08461332321167,-3.4603829383850098,1.1075100898742676,-4.470602512359619,4.25292444229126,-3.996724843978882,-2.3986501693725586,0.1740645468235016,-0.6567952632904053,-3.8249616622924805,-2.2495410442352295,3.3219830989837646,-7.959471702575684,3.668179988861084,-2.199568271636963,3.663370370864868,-0.5095236897468567,5.594234466552734,-1.580504059791565,-2.1687865257263184,2.4423279762268066,-0.07780233770608902,-0.20254099369049072,-1.8343292474746704,-3.1785709857940674,-4.225551128387451,0.6137169599533081,-4.081681728363037,1.346008539199829,1.1193655729293823,-3.2234039306640625,0.4607275724411011,-0.48737430572509766,1.1235949993133545,-2.1081655025482178,3.068268299102783,-0.22587785124778748,1.3337208032608032,-3.900289297103882,-0.23275499045848846,1.2838013172149658,-6.156879901885986,-2.486811637878418,1.2763596773147583,1.5759813785552979,-0.313772976398468,2.159281015396118,-1.06232488155365,-6.6973981857299805,1.0993692874908447,3.9822394847869873,1.2933627367019653,0.10420487076044083,-3.466815948486328,4.98392391204834,-3.0417582988739014,3.7743897438049316,0.5697130560874939,0.3620796799659729,1.3943313360214233,-1.95277738571167,11.156719207763672,-4.396388530731201,0.9713022708892822,2.408116579055786,3.2040164470672607,-0.350512832403183,-0.4450291693210602,-1.5906580686569214,5.630433082580566,-1.0051109790802002,-0.37507501244544983,-3.4606637954711914,0.44308820366859436,2.5997750759124756,2.854034423828125,-7.838527202606201,9.258309364318848,3.846464157104492,3.394052505493164,1.283618450164795,-2.876156806945801,1.439296007156372,0.5755578875541687,-4.450945854187012,1.4928388595581055,-3.154381275177002,5.628735542297363,5.770523548126221,12.369267463684082,1.569201946258545,-0.6956751942634583,2.0371854305267334,-1.622263789176941,4.54239559173584,-1.6066741943359375,2.5590198040008545,-5.262265682220459,-1.1723439693450928,6.281185626983643,1.0916911363601685,0.9906981587409973,1.5177022218704224,3.9294469356536865,-1.5960192680358887,0.014878999441862106,3.8253843784332275,-1.2154170274734497,0.8929728865623474,-7.101181983947754,1.8639947175979614,-2.516096353530884,-3.7075889110565186,-0.23865973949432373,4.2482380867004395,4.635709285736084,-1.386795163154602,5.147956848144531,1.2601815462112427,-0.4802744388580322,-4.169519424438477,-4.210224151611328,1.962568759918213,2.208129644393921,-1.936453104019165,1.4434309005737305,3.5392723083496094,-0.15410925447940826,4.3676066398620605,1.6376136541366577,0.5445569157600403,8.486351013183594,-5.283216953277588,5.717576503753662,4.174691677093506,4.436953544616699,-6.180419445037842,-1.0424308776855469,7.1188788414001465,-0.02290373668074608,-3.2711188793182373,0.08423054218292236,3.647319793701172,1.0701864957809448,-2.8640246391296387,4.187565803527832,5.309468746185303,2.007242202758789,-8.516818046569824,0.8625650405883789,3.2735483646392822,4.735308647155762,-2.117507219314575,-0.998282253742218,0.9708365797996521,-0.5541731119155884,-2.413604736328125,0.7743339538574219,-2.415039300918579,4.538334369659424,-3.5677030086517334,2.3234527111053467,0.03715808317065239,-2.672161102294922,-1.9627219438552856,-1.6521925926208496,-4.8110432624816895,1.0746288299560547,3.121730327606201,0.6641606688499451,1.4492201805114746,5.816223621368408,-6.416241645812988,-5.804871559143066,-0.37444281578063965,-3.1341075897216797,1.315456748008728,0.595425009727478,-2.6298911571502686,1.8631203174591064,4.518256187438965,-3.1245534420013428,0.8076204061508179,2.462491750717163,-0.5022661089897156,-0.11872558295726776,5.301266670227051,-4.492528438568115,-6.71342134475708,-1.6909263134002686,2.7220118045806885,-0.35825371742248535,-3.353285074234009,1.55437433719635,4.051234245300293,1.393697738647461,-2.5330257415771484,2.480621337890625,-2.1301372051239014,-2.7416138648986816,-2.3680179119110107,3.0778636932373047,0.660838782787323,-1.1871296167373657,12.717059135437012,-0.6953681111335754,-4.981375217437744,5.019165992736816,-2.1712541580200195,3.4228954315185547,2.076988458633423,2.673251152038574,-1.742710828781128,4.7515058517456055,-1.533370852470398,0.8325254321098328,3.4424407482147217,-1.6348143815994263,1.2401686906814575,4.411056995391846,-0.5204707384109497,0.7402663230895996,-4.45133638381958,2.9882373809814453,1.4510143995285034,-0.767636239528656,-5.236577987670898,0.5796601176261902,0.4858352839946747,3.3435561656951904,-2.118098258972168,1.7087856531143188,0.9501497149467468,10.263325691223145,-7.819031238555908,0.8730551600456238,7.00112247467041,1.3698855638504028,3.309722661972046,0.7106918096542358,-1.9235217571258545,1.1699776649475098,-0.4159314036369324,-0.9081997871398926,-0.25643131136894226,7.563310146331787,-1.6030473709106445,2.7658181190490723,8.125041961669922,-2.8611392974853516,2.6235885620117188,-5.773693561553955,3.5460917949676514,2.0963847637176514,-1.8275474309921265,6.806238174438477,1.4537742137908936,-1.0221024751663208,4.3324761390686035,-1.6721938848495483,3.010057210922241,-0.21962690353393555,1.7096202373504639,1.809020757675171,6.950831890106201,2.894300699234009,0.8391180038452148,3.8656439781188965,-5.539974689483643,-0.397975891828537,-4.142908096313477,-6.960099697113037,4.085294246673584,-3.3169326782226562,-9.432849884033203,-1.2146230936050415,-2.9908103942871094,1.564286470413208,-0.5153188705444336,1.7442680597305298,-0.7946011424064636,2.848081588745117,-0.4821757674217224,-1.0470939874649048,2.3210227489471436,2.794053792953491,-0.7875287532806396,-1.5141295194625854,1.6196268796920776,-1.4546045064926147,2.483484983444214,-0.4486723840236664,-0.36102017760276794,-1.4945476055145264,-1.1152746677398682,-1.3608473539352417,-0.6307207942008972,-1.0940979719161987,-2.0408778190612793,-3.9916651248931885,1.9367587566375732,-0.668006420135498,-1.7423818111419678,-1.2437201738357544,-0.5428972244262695,0.2061014473438263,-0.23752936720848083,1.3414700031280518,0.8201113939285278,-0.848173201084137,0.5930455923080444,0.18847499787807465,1.4635988473892212,-2.248887538909912,1.1155108213424683,2.935325860977173,-0.5501809120178223,1.9489531517028809,-0.2561394274234772,-0.22187012434005737,-1.114337682723999,1.1678966283798218,-1.119690179824829,-0.8671207427978516,0.012490074150264263,4.5403923988342285,0.8545531630516052,0.25569450855255127,-0.7285405397415161,-0.8271064162254333,-0.7909266352653503,-0.4145108461380005,-0.38001248240470886,0.9249663949012756,-0.8560456037521362,0.6156811714172363,-0.09186579287052155,3.7380049228668213,-0.17571909725666046,-0.6293799877166748,-0.4678139090538025,1.281663179397583,-0.5908132195472717,2.7244880199432373,0.05034942552447319,-0.7757909297943115,0.43227842450141907,1.933890700340271,0.20065851509571075,0.6011256575584412,1.9999514818191528,-1.203659176826477,-0.9702974557876587,-2.4133479595184326,-0.8878222107887268,-0.585852861404419,-0.45350345969200134,0.023310771211981773,1.4080976247787476,-2.7989747524261475,-0.5675671696662903,-0.274079829454422,0.3284912109375,0.05725323408842087,-0.06668484210968018,-0.052217915654182434,-0.013948295265436172,0.038644127547740936,0.02704772539436817,0.015974070876836777,-0.04356778413057327,0.05862046033143997,0.027436653152108192,-0.04502122849225998,0.05229895934462547,-0.06485657393932343,0.054456762969493866,0.0297003835439682,0.010966623201966286,-0.04166889935731888,-0.04026129096746445,-0.027613649144768715,-0.039720915257930756,-0.0636126920580864,-0.04334435984492302,0.019281694665551186,0.010356801562011242,0.06515182554721832,0.062048155814409256,-0.00716873025521636,-0.03217101842164993,0.06100556254386902,0.017828259617090225,-0.009766770526766777,0.06378091126680374,-0.03128213435411453,0.0411805622279644,0.06389213353395462,0.00869752187281847,0.03602388873696327,-0.030445657670497894]},"hiddenLayers":[{"inputMatrix":{"rows":20,"columns":38,"weights":[0.9182837009429932,0.24046747386455536,-0.6349684596061707,1.0917190313339233,-1.0826191902160645,0.7274825572967529,-0.2211163192987442,0.6123017072677612,1.2246863842010498,2.3800716400146484,-1.603263020515442,0.6502188444137573,0.12466345727443695,1.1225899457931519,-0.7798832654953003,0.2975849509239197,-3.539893865585327,-1.0642075538635254,-0.5715909600257874,-1.5554776191711426,-1.6997805833816528,-0.3719068467617035,1.668073058128357,-0.36313143372535706,0.11581221222877502,0.3416278660297394,0.2624242603778839,-2.863870143890381,-0.12897545099258423,-1.4995551109313965,-2.271522283554077,-1.8985490798950195,-0.47412988543510437,0.6168264746665955,-0.14423178136348724,0.34465113282203674,0.9059285521507263,-0.2071051448583603,-0.807546079158783,0.9094033241271973,-1.18313467502594,-0.28785067796707153,-1.0520306825637817,1.3254512548446655,-0.13580141961574554,-0.08902259171009064,-0.4575808644294739,0.3547424077987671,-1.107333779335022,-2.03670597076416,-0.5383470058441162,0.8003559708595276,-0.15387752652168274,-0.06727912276983261,-1.2683614492416382,0.6337114572525024,0.38601329922676086,-0.18296967446804047,-0.007867297157645226,1.325661540031433,0.8000731468200684,-0.261359304189682,0.699846088886261,-1.1459158658981323,0.48476696014404297,0.47684764862060547,-0.21798548102378845,-0.1739632934331894,-0.8169670701026917,0.08710028231143951,-0.12737244367599487,-0.879181981086731,0.3912934958934784,-0.12496630847454071,0.1311904340982437,-0.3170402944087982,0.22142016887664795,-0.3482564389705658,-1.2154453992843628,-2.2775673866271973,-1.3547430038452148,0.7816809415817261,-1.732692003250122,0.4527677595615387,0.7778413891792297,-0.21128466725349426,1.048936367034912,-0.7121281027793884,2.0787291526794434,-0.8182529807090759,0.09535665065050125,0.09687342494726181,0.5876800417900085,0.6807856559753418,0.3340662121772766,0.4937909245491028,0.027381284162402153,1.9467103481292725,1.1154046058654785,-0.21664009988307953,-0.14190594851970673,1.2221122980117798,-0.04204494506120682,-1.4882097244262695,-1.2922519445419312,-1.0938162803649902,-0.27517610788345337,-0.7275866866111755,-0.06418022513389587,0.45112812519073486,0.09891991317272186,-0.17144587635993958,0.3020378351211548,-0.164210706949234,1.0437904596328735,-1.2041507959365845,2.037977933883667,-2.5045905113220215,-0.2952982783317566,1.0526268482208252,-0.5056354403495789,0.2211940437555313,-0.12847952544689178,-0.6641011238098145,-0.40455809235572815,1.2533791065216064,-0.5515127778053284,0.07913944870233536,0.7472684383392334,0.19574308395385742,0.09853724390268326,0.18575939536094666,-0.6065471172332764,-0.35586977005004883,0.8959308862686157,-1.8536508083343506,-1.2212826013565063,0.16676034033298492,-1.383965015411377,0.5297286510467529,1.2563588619232178,-2.5257511138916016,2.100440740585327,1.1550843715667725,-1.9677796363830566,1.4300953149795532,-0.6012750864028931,3.322824239730835,0.7768617868423462,0.3160475790500641,-1.5672276020050049,0.8772265911102295,-0.19770759344100952,-1.1022143363952637,0.3693426251411438,1.3465427160263062,2.616103172302246,0.17067424952983856,1.4960788488388062,-1.0280462503433228,2.8315041065216064,-1.7354578971862793,2.9200620651245117,-1.0150365829467773,-1.9187285900115967,-0.9463779330253601,1.5066808462142944,-0.3110913932323456,0.6652145981788635,-2.27052903175354,-1.0558114051818848,0.35340648889541626,0.8366373181343079,1.611396074295044,-0.10518202930688858,0.5922655463218689,-0.14071999490261078,2.2505693435668945,0.810632586479187,-0.21366113424301147,-0.9370142817497253,-1.6202683448791504,3.7953732013702393,-1.1129553318023682,1.6580206155776978,-0.7728844881057739,-0.8654650449752808,1.0243343114852905,-0.06177985668182373,-2.497788667678833,-0.1643812656402588,-0.928500235080719,-1.3542386293411255,0.2868722677230835,1.5161027908325195,-0.17799842357635498,0.9913721084594727,-0.7301501631736755,-1.2529358863830566,0.450582891702652,0.35568687319755554,1.4240806102752686,-0.927964985370636,-0.11179260164499283,2.0448811054229736,0.3066379427909851,-0.4763495624065399,-0.32303354144096375,-0.06412813067436218,-0.262069433927536,0.5824934840202332,-0.8214107751846313,-1.6111928224563599,0.675445020198822,0.9178356528282166,-1.2865586280822754,0.4160453677177429,-1.1223582029342651,3.6153697967529297,-0.09932509809732437,-0.45969974994659424,-0.005597550421953201,0.5204914808273315,0.15350057184696198,0.4826282858848572,0.7963425517082214,0.37114137411117554,0.1124827042222023,0.4778711497783661,-0.06302078068256378,0.1914028823375702,0.6050623059272766,-1.2301207780838013,0.3004950284957886,-0.7234985828399658,-0.2820616066455841,0.28203779458999634,-1.1013987064361572,1.2565524578094482,1.8037700653076172,0.4467286467552185,0.43628066778182983,1.2870023250579834,-1.2741268873214722,0.35164886713027954,-1.0367176532745361,1.2184497117996216,-0.4821324050426483,0.035695306956768036,-1.4626384973526,-0.24961048364639282,0.20204195380210876,1.556269884109497,0.7652568221092224,0.08570686727762222,-1.744848370552063,0.3883799910545349,0.7176728248596191,0.10807015746831894,-0.2676554322242737,-1.5425864458084106,1.3098390102386475,0.14939191937446594,2.3842954635620117,-1.0242469310760498,-0.3957435190677643,-0.09708529710769653,-1.5635771751403809,-0.0030352992471307516,-0.5823147296905518,-0.545758843421936,-0.253161758184433,-0.61190265417099,0.5946403741836548,0.3719252943992615,-0.14415013790130615,0.014468919485807419,-0.23895080387592316,0.22838257253170013,0.10194233059883118,-1.2031502723693848,0.2910590171813965,1.5803881883621216,-0.07510463893413544,2.415184497833252,0.022144824266433716,-0.8961219191551208,0.8678202033042908,0.2833671569824219,1.0970877408981323,-1.0355933904647827,-0.21790853142738342,0.46702754497528076,-1.1906993389129639,0.9513121247291565,1.5916779041290283,1.0343339443206787,1.260806679725647,0.7282760143280029,1.1740719079971313,-1.0826407670974731,0.0808754563331604,-0.7714641690254211,0.6159199476242065,-0.6691372990608215,-0.6702349781990051,2.082008123397827,-1.1783491373062134,-1.5988149642944336,0.4054799973964691,-0.39244693517684937,2.7208433151245117,1.1726409196853638,-0.43543392419815063,1.326293706893921,-1.3081276416778564,0.7639932632446289,-0.5109139680862427,-0.8422962427139282,3.969289779663086,-0.7445347309112549,0.4464488923549652,1.4286446571350098,1.1820719242095947,-1.2562837600708008,-0.013398151844739914,1.948304533958435,0.9236149787902832,0.9189417362213135,-1.7745217084884644,2.201514720916748,-0.1098870187997818,-2.571877956390381,0.6510429382324219,0.6809282302856445,1.168684720993042,-0.13334563374519348,2.3625967502593994,-0.03285912796854973,0.14590613543987274,0.4549698531627655,0.1312381476163864,-0.24331769347190857,0.039834365248680115,0.36717963218688965,0.685239315032959,0.02258884534239769,-0.4616778790950775,0.22156047821044922,0.12309780716896057,1.4740337133407593,-0.30829352140426636,-0.2417549043893814,0.32258304953575134,-0.8459742665290833,-0.5161553621292114,0.7278640270233154,0.5751940011978149,-0.30260834097862244,-1.146972894668579,0.34346291422843933,-0.5811660885810852,0.6236979961395264,-0.12463577836751938,-1.1999832391738892,0.503543496131897,-0.8518399000167847,0.27395159006118774,0.9822262525558472,-0.5026805996894836,0.9249693155288696,1.3554513454437256,1.000304102897644,0.5533425211906433,-0.28958189487457275,1.0322706699371338,0.19637808203697205,1.038730263710022,0.3509282171726227,-0.3649052381515503,2.9710187911987305,-0.465972900390625,1.4131184816360474,-1.8481245040893555,0.9501577019691467,-1.6503809690475464,1.3624906539916992,1.4954880475997925,-0.7716885805130005,-1.6198245286941528,-0.3625684380531311,1.1361169815063477,1.2475454807281494,0.43372517824172974,1.9107471704483032,-0.7736417651176453,1.384539008140564,-1.8034344911575317,1.4319977760314941,0.8565083742141724,-2.2354164123535156,-1.4989769458770752,-0.2153758704662323,0.043255437165498734,-1.2519030570983887,2.4394938945770264,0.9698910117149353,0.9875066876411438,-0.9950121641159058,1.6232495307922363,0.4942881166934967,-1.4636385440826416,0.7501258850097656,2.218902587890625,-1.9439561367034912,1.3406553268432617,-1.5700491666793823,0.4486568868160248,1.8322643041610718,0.8712033033370972,1.1243847608566284,0.6146338582038879,-0.5410450100898743,0.43893375992774963,-1.2718943357467651,0.3259147107601166,0.5208669304847717,-0.5342288613319397,0.5015606880187988,0.6156396865844727,0.9070730805397034,0.9570510387420654,0.45223885774612427,0.04545099660754204,0.6949944496154785,-2.887777805328369,1.959930658340454,1.0395699739456177,-2.2861688137054443,-1.0906018018722534,0.612882137298584,-0.21269606053829193,-1.1089234352111816,0.39704635739326477,0.42901790142059326,1.359028697013855,-2.3315210342407227,0.23129133880138397,0.12109493464231491,-0.8797301054000854,-0.5137394070625305,1.8726478815078735,0.07899171113967896,-0.24455006420612335,-1.0627654790878296,0.6582610011100769,-1.6711888313293457,0.3037264943122864,-1.1524231433868408,0.14582909643650055,0.3672984540462494,-0.6639906764030457,0.24981334805488586,0.708253800868988,-1.2523150444030762,1.1864678859710693,0.7574210166931152,0.08503925800323486,0.20727084577083588,0.2678118050098419,-0.7600833773612976,-0.6377968788146973,-0.3975176215171814,0.6868921518325806,-1.2770851850509644,-2.1385624408721924,-0.14349432289600372,0.9000092148780823,-1.3101400136947632,0.07335679978132248,-0.11138893663883209,-0.9046356081962585,-0.9581665992736816,0.22949369251728058,-0.244939923286438,-0.7065566182136536,0.838953971862793,0.45394599437713623,0.7772166132926941,-0.8457562327384949,0.5410661697387695,-0.2795257866382599,0.16054661571979523,0.3294484615325928,-0.461470365524292,0.615451455116272,-0.23870226740837097,0.06615787744522095,1.9927705526351929,-0.17619118094444275,1.241647720336914,-1.632347822189331,0.1980392038822174,-0.6404079794883728,-1.2187473773956299,-0.6502472162246704,-0.09626033157110214,0.3301725685596466,0.8117984533309937,0.16470731794834137,-0.7154821753501892,-1.6319698095321655,0.206984743475914,0.9970880150794983,0.08185020089149475,-0.004199049435555935,-1.175905704498291,0.36537355184555054,-0.6898416876792908,-0.5800255537033081,-1.3417714834213257,0.768121600151062,-0.7157250046730042,-0.9149007797241211,1.0496336221694946,0.1701352447271347,0.662256121635437,-0.7436780333518982,-0.583497166633606,-0.5692341923713684,-0.3463408648967743,0.41853761672973633,-0.0026572481729090214,0.012940649874508381,0.7152633666992188,1.9340404272079468,-1.1279826164245605,0.12251162528991699,0.39603254199028015,-0.889667809009552,0.5669775009155273,-0.175007626414299,-1.9828697443008423,0.611102283000946,-1.2310830354690552,0.14933501183986664,0.9797152280807495,-0.31064173579216003,-0.33868494629859924,-0.3322109878063202,-0.42476600408554077,0.45498353242874146,-0.32377320528030396,0.18528832495212555,1.6930209398269653,-1.1383403539657593,-1.0249531269073486,0.10267727822065353,-0.3565053641796112,0.891363799571991,0.011405275203287601,0.7974464297294617,-1.7454426288604736,0.3305481970310211,-0.7662384510040283,-0.6144795417785645,1.3886804580688477,0.3951912522315979,-0.38330867886543274,-0.25472378730773926,-0.06242799758911133,0.087572380900383,-0.788619339466095,-0.780718982219696,-1.3481173515319824,-0.5037214159965515,-0.7001213431358337,2.081185817718506,-1.195006251335144,-0.9621307253837585,0.7483839392662048,0.4937398135662079,1.3350927829742432,0.28669294714927673,1.424176573753357,0.36585643887519836,2.0604231357574463,1.1861377954483032,-0.5874703526496887,1.4119211435317993,-1.2571940422058105,-0.13713517785072327,1.2921379804611206,1.8251570463180542,-1.7536423206329346,-0.3891620635986328,-1.969085931777954,1.3043709993362427,-1.5276777744293213,1.5327672958374023,-0.16063804924488068,-1.4718835353851318,0.9015268683433533,1.0653456449508667,-1.0558321475982666,-0.5250276923179626,-0.06590688228607178,-0.3196176588535309,-1.0074148178100586,0.022067824378609657,-0.40202340483665466,0.2034701257944107,0.8677559494972229,-1.9587795734405518,0.31326982378959656,-0.12333612889051437,1.6383442878723145,-0.6816727519035339,0.25715598464012146,-0.6633366346359253,-0.14295664429664612,0.14305530488491058,0.3393597900867462,0.3143429458141327,0.15122106671333313,-0.6031268835067749,0.849166750907898,-0.5424522757530212,-1.5568186044692993,0.2231539785861969,0.7360998392105103,-0.38693130016326904,-0.3390910029411316,-0.7620788216590881,-0.6987252831459045,-0.4151795506477356,-0.14292246103286743,1.164624810218811,1.3307325839996338,0.1718682497739792,-0.0640895888209343,-0.3003467619419098,0.3628499209880829,-1.8140813112258911,-1.244742512702942,1.577659010887146,0.12925246357917786,-0.8965932130813599,-0.5228902697563171,-1.3136850595474243,-0.23302429914474487,0.8369884490966797,-0.929561972618103,-1.198771595954895,-1.1021116971969604,0.07337625324726105,-0.3025442361831665,-0.6549016237258911,0.24303989112377167,-0.8459164500236511,-1.5118601322174072,-0.10569000989198685,-0.6411042809486389,2.164956569671631,-0.8828359842300415,1.4101406335830688,-0.4315410256385803,2.122560739517212,-2.1582729816436768,1.8307909965515137,-1.1897681951522827,1.3734691143035889,-1.3278816938400269,2.606328248977661,-0.38682281970977783,-1.1151695251464844,-0.11771378666162491,-1.0108702182769775,0.6644251942634583,-0.7081974744796753,-0.7662416100502014,-0.17009815573692322,-0.49148958921432495,-0.2508429288864136,-1.0732802152633667,-1.1819899082183838,1.2373498678207397,0.6383797526359558,-0.14158616960048676,-0.2218683511018753,0.7432060837745667,-0.8067038059234619,1.3836727142333984,-0.35761386156082153,-0.3083023428916931,0.5075226426124573,-0.008012871257960796,-1.511272668838501,-0.9094832539558411,1.0336917638778687,0.2568415105342865,0.7916778922080994,-0.5929340124130249,0.11005185544490814,0.6646592617034912,-0.5753503441810608,-0.2222796529531479,0.120125912129879,0.9015732407569885,-0.2785921096801758,2.1222705841064453,-0.720624566078186,1.002550721168518,-1.9157549142837524,-1.665969729423523,-0.0812654122710228,1.1243611574172974,-1.1134710311889648,0.06609787046909332,0.8773212432861328,2.4283385276794434,-1.3505141735076904,1.861208438873291,-0.6044276356697083,1.0599596500396729,0.3020925223827362,-2.134796380996704,1.2624561786651611,-1.8399583101272583,0.7668206095695496,-0.8520898222923279,1.5286829471588135,-0.04448474943637848,0.5467172861099243,0.05551709979772568,-0.16318906843662262,0.4076879024505615,-0.12362712621688843,1.6864434480667114,0.3982270061969757,1.1223318576812744,0.3418456017971039,-0.65912264585495,2.4092087745666504,1.4696258306503296,-0.30194470286369324,0.7774332165718079,1.5809249877929688,-1.2543858289718628,-1.5731171369552612,0.869620680809021,2.1092662811279297,-0.039875879883766174,-2.9864695072174072,-0.7475810050964355,1.8325366973876953,1.054979681968689,0.5907860994338989,-0.02086474560201168,0.07990196347236633]},"inputHidden":{"rows":20,"columns":20,"weights":[0.9168596267700195,2.9638302326202393,1.6009435653686523,2.983830451965332,2.4828641414642334,-0.12121594697237015,-5.710511207580566,-0.26617753505706787,0.15106403827667236,-0.9272515177726746,1.0697052478790283,0.5477877855300903,-1.9772498607635498,1.0050294399261475,0.04984786733984947,1.683311939239502,-1.6704018115997314,-0.4562949240207672,1.680117130279541,-0.8018540143966675,2.737423896789551,-0.04202594980597496,1.0139495134353638,0.35154056549072266,-5.656399726867676,3.2638938426971436,1.8967620134353638,-2.0123841762542725,3.305288553237915,-3.1522250175476074,1.161549687385559,-1.0451343059539795,-1.124979853630066,-0.9915196299552917,2.101604461669922,-1.9781699180603027,-1.698732614517212,-4.225554466247559,-2.885380268096924,1.5870246887207031,3.454665422439575,-0.43766990303993225,-3.1837704181671143,-5.223287582397461,-4.05843448638916,-3.056445598602295,-4.448680400848389,0.4108070135116577,1.5846604108810425,-0.13742384314537048,-2.4511749744415283,0.4684917628765106,-3.362046718597412,-2.1210460662841797,3.9139902591705322,0.5839399099349976,-1.381613850593567,-1.931229829788208,1.6987643241882324,3.4072861671447754,3.2063615322113037,-2.034769296646118,-0.8485500812530518,-4.323484897613525,0.030997440218925476,-3.1884050369262695,-2.850689649581909,-0.03647371754050255,-0.505693256855011,1.0191224813461304,2.1636247634887695,0.5411953926086426,-3.8323442935943604,-2.1346471309661865,3.58015513420105,-1.9046674966812134,-0.6553810238838196,2.6298940181732178,0.7025119066238403,1.696202039718628,-0.8433224558830261,0.23630551993846893,1.3814617395401,-0.11889474838972092,-0.7763278484344482,-0.7069140076637268,-1.2599663734436035,0.05029701814055443,-0.8308393359184265,-0.5779420733451843,-1.9853036403656006,1.315982699394226,0.979607343673706,0.41482922434806824,1.7905380725860596,-0.03968032822012901,-0.38896986842155457,2.320307493209839,2.645721197128296,0.24305878579616547,-0.7724130153656006,0.38558802008628845,0.3458414673805237,-1.0404536724090576,-4.5417704582214355,-0.0038436297327280045,-0.30701014399528503,2.9919655323028564,0.8359085917472839,3.753654718399048,1.6087276935577393,-1.2578458786010742,-3.7555809020996094,-3.30007266998291,-0.7093253135681152,-5.216449737548828,0.4318683445453644,-5.648036003112793,2.5517947673797607,-1.1496583223342896,1.5741994380950928,-0.738720715045929,-0.7872322797775269,1.184267520904541,0.9752275943756104,3.2327375411987305,-0.9152153134346008,-0.29708898067474365,3.889437675476074,0.255625456571579,3.115257501602173,-2.240504503250122,-5.462202072143555,-4.87883186340332,-3.0989835262298584,-3.410005807876587,-0.029446972534060478,0.8127585053443909,0.6337864398956299,-2.989992141723633,2.766486883163452,-1.058393120765686,-0.018744518980383873,-2.6691861152648926,2.490344762802124,-3.0448215007781982,-2.9036898612976074,1.281968355178833,5.213303565979004,-3.874512195587158,-2.8820488452911377,2.6114165782928467,-1.234655737876892,0.6205952167510986,1.6162270307540894,0.11025706678628922,-1.075996994972229,0.1954883188009262,2.188993453979492,2.0443801879882812,-0.18078404664993286,-3.1711654663085938,-0.4496288001537323,0.645048975944519,-0.7793312668800354,-0.7961744070053101,1.6704719066619873,-0.8996073603630066,-0.44634878635406494,-0.7427758574485779,6.333514213562012,-1.4422565698623657,1.1710236072540283,-4.6327056884765625,0.14533227682113647,-0.5215113759040833,0.8110206723213196,-1.1687184572219849,0.9743937849998474,0.3440442383289337,1.4893240928649902,3.4697611331939697,-2.1934256553649902,1.0139578580856323,1.184674620628357,-3.524794816970825,-1.5231162309646606,-0.6078461408615112,2.2980446815490723,2.479146957397461,-0.640800416469574,1.7907706499099731,-1.3795442581176758,-0.998985230922699,2.6440281867980957,0.7102161049842834,-1.100943684577942,-3.496460437774658,3.6098146438598633,3.618568181991577,-1.6986294984817505,1.446170449256897,0.6486427783966064,-2.8176538944244385,2.4373724460601807,-1.1591224670410156,1.558565378189087,0.019165469333529472,-0.41933202743530273,4.657506942749023,-2.0638816356658936,-1.067767858505249,2.5461339950561523,-1.0450212955474854,0.745019793510437,-1.4082036018371582,2.8504700660705566,1.1559085845947266,0.6601904034614563,-1.122879981994629,-1.6040226221084595,2.631077527999878,2.1440794467926025,2.419956684112549,-0.9458358287811279,1.6289479732513428,4.461277961730957,0.6253520250320435,0.3133963346481323,0.7708752155303955,3.7260067462921143,-2.264223337173462,-2.662292242050171,-1.2339633703231812,-2.152829885482788,0.731627345085144,1.2348970174789429,-4.968940258026123,1.6751724481582642,-0.04611240699887276,-0.19416071474552155,0.7993899583816528,-0.08604010194540024,-0.9479897022247314,-2.0819742679595947,-1.0918582677841187,-3.5873825550079346,-3.1012327671051025,2.8509042263031006,-2.656606912612915,-0.2722617983818054,-2.131448745727539,1.2963947057724,1.582704782485962,-0.6080354452133179,-1.7780555486679077,2.8484485149383545,0.8416251540184021,3.000474691390991,1.5982041358947754,-0.9817851185798645,2.2031028270721436,2.9380064010620117,3.6368460655212402,1.9099260568618774,-0.020323779433965683,1.6266859769821167,2.864771604537964,-1.5795631408691406,0.43415313959121704,-0.925862729549408,-0.6737934947013855,1.8220776319503784,1.2445825338363647,0.13381798565387726,1.546098232269287,-5.742795944213867,0.8146930932998657,-4.886438846588135,-0.27010130882263184,4.95073127746582,1.126528024673462,-1.8761152029037476,-2.923699378967285,1.366349458694458,2.8206682205200195,0.4262276589870453,2.2593977451324463,-0.7817734479904175,0.5444148778915405,0.3172176778316498,3.161449909210205,-7.448017120361328,2.4755146503448486,4.254952907562256,-5.415569305419922,-2.5972230434417725,-2.186115026473999,1.1510791778564453,6.766295909881592,2.231581926345825,2.34466814994812,-0.658401370048523,0.07733359932899475,-2.0509843826293945,4.4830322265625,1.429286003112793,0.7430056929588318,-1.2834680080413818,-0.47328394651412964,-3.2513439655303955,1.0894724130630493,-0.7391648888587952,2.4193813800811768,-1.689110517501831,1.7088350057601929,-1.56282377243042,-6.423692226409912,-1.5141534805297852,-0.6704813241958618,-1.9327056407928467,2.629117012023926,-0.2829726040363312,1.308876872062683,4.23799467086792,-1.3305169343948364,4.199632167816162,-0.22308307886123657,-1.2198197841644287,5.857888698577881,-1.7791447639465332,0.358272522687912,1.8397568464279175,2.2092080116271973,-3.357351303100586,2.645167827606201,1.6336919069290161,-1.585585117340088,-2.3702590465545654,-3.0766963958740234,-3.3777968883514404,3.0794460773468018,-2.4672691822052,4.476903915405273,-1.8472539186477661,0.8561592102050781,2.5111677646636963,-1.540828824043274,-3.872581958770752,-4.836862087249756,-2.3364789485931396,0.8723508715629578,-2.983184814453125,6.100088119506836,0.7394846081733704,3.4796485900878906,-1.6176621913909912,1.836143970489502,-1.6280598640441895,3.5043346881866455,1.412846326828003,0.5438970923423767,-0.6530928611755371,-2.4830739498138428,-0.030055830255150795,-3.4191536903381348,1.3212884664535522,0.7476192712783813,2.5555882453918457,-0.6819413304328918,1.1993029117584229,-1.1889760494232178,-2.957573652267456,1.4164704084396362,2.771962881088257,-4.749111175537109,0.14138981699943542,1.6247398853302002,3.9478816986083984,0.5896686315536499,-1.5124075412750244,-0.34492960572242737,0.6978515386581421,-2.3752880096435547,0.9894522428512573,1.4480477571487427,0.8669471144676208,1.9321459531784058,0.2620249390602112,0.9206627607345581,1.1199826002120972,-0.5219244956970215,5.186206340789795,-2.892159938812256,1.9852856397628784,-2.4329071044921875,2.1724512577056885,-0.8973972201347351,1.571394443511963,2.5144221782684326]},"inputBias":{"rows":20,"columns":1,"weights":[-2.010927200317383,-4.529736042022705,-1.837784767150879,-5.403774738311768,-1.2967380285263062,0.9657653570175171,-1.5597169399261475,0.036495357751846313,0.1685045212507248,-1.8275054693222046,-0.3225211203098297,-0.4305790364742279,-3.239521026611328,-2.9055378437042236,-6.949195384979248,-3.28151798248291,2.8923466205596924,-1.8420335054397583,-3.835599184036255,-0.9567079544067383]},"forgetMatrix":{"rows":20,"columns":38,"weights":[-2.687798500061035,-1.567398190498352,-0.8153204917907715,0.7580419778823853,3.4399595260620117,1.1715167760849,2.1213583946228027,-1.806180477142334,0.03296659141778946,0.7690797448158264,0.22597625851631165,-0.32757917046546936,-2.9109675884246826,-0.5554237961769104,-2.7783308029174805,-0.875705361366272,-3.268076181411743,1.6472020149230957,-2.5660111904144287,-1.547290325164795,1.082453966140747,0.02713533490896225,0.40515708923339844,0.3734222650527954,1.8248553276062012,-2.165823221206665,1.4948519468307495,-1.22089684009552,1.5436627864837646,1.2356230020523071,-0.09472084790468216,2.1083476543426514,1.478756308555603,-4.098934650421143,-1.0372614860534668,-1.2155526876449585,2.4467105865478516,-0.43779125809669495,-1.724202275276184,0.1393384486436844,-0.3481763005256653,-0.07104010879993439,1.4906789064407349,-0.36490070819854736,-0.31220805644989014,-0.156564861536026,1.2068517208099365,0.5993819236755371,0.6576354503631592,-0.644649863243103,-0.0710417628288269,-1.3121944665908813,-1.005293607711792,0.022689200937747955,0.12506365776062012,2.1235668659210205,-2.4305384159088135,0.6683672666549683,0.5002062916755676,1.3582077026367188,-1.030866265296936,-2.6651079654693604,0.1659080535173416,0.2417616844177246,-0.22210831940174103,1.4232869148254395,-0.07856771349906921,-0.20815041661262512,-0.8938105702400208,3.316840410232544,-2.0136241912841797,-1.170142650604248,2.7224464416503906,-1.5398309230804443,-0.6137053370475769,0.892786979675293,-1.6263982057571411,-0.36550119519233704,-1.8136392831802368,-1.2200539112091064,-0.5207271575927734,2.4615063667297363,-1.6062771081924438,-1.2839630842208862,-0.5906767845153809,-0.00448084669187665,1.2826063632965088,1.5153086185455322,2.315967082977295,0.2781522274017334,-1.072185754776001,-1.3185926675796509,-0.4044850170612335,1.996411681175232,-2.628497838973999,-0.4000231921672821,2.282480001449585,2.2616004943847656,-1.0565919876098633,0.9789438843727112,-2.617902994155884,0.54335618019104,-3.965953826904297,-0.05659029632806778,2.979773998260498,0.44343194365501404,-0.2809627056121826,-0.37094101309776306,0.2411431074142456,-1.1897923946380615,-0.8572432994842529,-2.592517852783203,0.18603356182575226,0.6919354796409607,-2.4721975326538086,1.188332200050354,-0.05768995359539986,-2.126706838607788,1.356218695640564,1.0701360702514648,1.0729873180389404,-1.2811309099197388,-0.12190092355012894,1.2844129800796509,-1.4541407823562622,-0.7996330857276917,-0.4826989471912384,1.4625622034072876,-0.7295399904251099,-1.824680209159851,-1.4115124940872192,0.6340436339378357,-3.1074540615081787,0.04133869335055351,0.8660063743591309,-0.20049113035202026,-1.456478476524353,-0.49924877285957336,-0.39400431513786316,0.8741616010665894,-0.5528935194015503,-0.7179908156394958,1.8287975788116455,0.06166325509548187,-0.18813742697238922,1.6016905307769775,-0.16436246037483215,-2.064051866531372,0.770623505115509,0.8434686064720154,-1.8663872480392456,-0.5167690515518188,-1.3586597442626953,0.9548095464706421,-0.22902433574199677,-3.3742783069610596,0.7301927804946899,0.19970622658729553,0.7832034826278687,0.19538216292858124,-0.8808360695838928,-0.420929878950119,-2.112238645553589,-1.1625640392303467,-2.0966432094573975,1.6044137477874756,0.9480223655700684,-0.5373886823654175,-1.1505495309829712,0.21619290113449097,-0.3632802665233612,-0.43569260835647583,0.31975409388542175,-2.230576753616333,-0.5286912322044373,-0.9448665976524353,2.077639102935791,-2.086189031600952,1.5648473501205444,-0.4511503279209137,-0.1398177146911621,-0.12461604923009872,-0.5773730874061584,-0.6009011268615723,-0.8183103799819946,0.10478416830301285,-1.4493221044540405,-1.3445817232131958,-2.6389591693878174,0.167576864361763,-0.25787773728370667,-2.778240919113159,0.13186095654964447,2.256089210510254,1.2225457429885864,-1.4631212949752808,1.8922737836837769,-1.0652574300765991,0.9417580366134644,-1.8536787033081055,-0.6634296774864197,2.6036627292633057,-0.31067293882369995,-1.121778130531311,2.128458023071289,0.45967742800712585,1.490394115447998,-1.7984434366226196,-0.07542161643505096,0.8523558378219604,1.1452020406723022,-0.8542639017105103,-1.5879899263381958,0.08290207386016846,-2.3695216178894043,-1.9587609767913818,1.1010956764221191,2.3564798831939697,-0.17138956487178802,-1.8220559358596802,1.1609463691711426,0.047506559640169144,2.079613447189331,1.1790192127227783,-0.3695889413356781,0.19174304604530334,2.95974063873291,-0.6916706562042236,-0.9782867431640625,-2.658158540725708,0.4561675786972046,0.5267590880393982,0.13316610455513,-0.9883899688720703,0.23377865552902222,-0.3973698914051056,-1.7370102405548096,-0.836639940738678,1.2235958576202393,2.3505191802978516,0.4677121639251709,-1.3759171962738037,-0.18863022327423096,-1.0318858623504639,1.369382619857788,1.3759968280792236,0.17547017335891724,0.7850947380065918,2.6174216270446777,-1.2044814825057983,0.984305202960968,-0.026669684797525406,3.7558043003082275,-1.8873592615127563,2.243917465209961,1.816405177116394,1.3544609546661377,-2.1621673107147217,0.29228270053863525,-0.1646493673324585,1.7485098838806152,0.48088884353637695,-0.840259850025177,0.7203233242034912,1.8306883573532104,-1.9037643671035767,-0.11828938126564026,1.3832216262817383,0.00029218668350949883,2.7157399654388428,1.2522238492965698,-0.7313265800476074,-0.13954082131385803,-0.36718064546585083,-1.326638102531433,0.5157994031906128,-1.255319595336914,1.9879721403121948,-2.0315074920654297,-0.14158396422863007,0.001512463903054595,-1.9003121852874756,0.7439706325531006,-0.752691924571991,-0.2794104218482971,-1.5132882595062256,0.26315996050834656,-0.9929529428482056,1.319284200668335,-5.041452884674072,-0.5785523056983948,0.18931710720062256,-4.121930122375488,0.2978881001472473,0.0397486612200737,0.24339590966701508,-0.9932581782341003,0.4534183144569397,-0.9040380120277405,-0.8989497423171997,1.5366336107254028,-0.5789628624916077,1.6492332220077515,1.626887559890747,-0.895652174949646,-0.8589881658554077,0.34372228384017944,0.8859356641769409,-1.3333836793899536,1.7051682472229004,0.5547385811805725,0.2569043040275574,-0.8087899684906006,-1.7022799253463745,0.7533255219459534,2.3628416061401367,-0.104668527841568,-0.9563286304473877,-0.11651713401079178,1.3699421882629395,1.1498055458068848,-0.47405895590782166,1.35060453414917,0.7389475703239441,-0.9560733437538147,-1.7203538417816162,1.995644211769104,-1.362988829612732,0.5564237236976624,-2.255552053451538,1.9094069004058838,-0.8923577070236206,1.6392165422439575,1.2162699699401855,-0.8430509567260742,0.686616837978363,-0.12520499527454376,0.8231761455535889,0.3531191349029541,2.667008638381958,0.09801333397626877,-0.3610701262950897,0.5744705200195312,3.3121113777160645,-1.2629053592681885,1.6483205556869507,0.789431095123291,0.9085145592689514,-0.1950400173664093,-0.18251371383666992,-0.7817133665084839,0.21651583909988403,-0.24357661604881287,-2.399562120437622,-0.9202120304107666,3.1820502281188965,0.13727103173732758,-3.407442092895508,-1.2875880002975464,-0.5609831213951111,-0.9459890127182007,-0.6871158480644226,-0.4592735469341278,0.27808743715286255,-0.37480428814888,-1.0019508600234985,0.07880876213312149,-0.32637929916381836,-2.4299304485321045,0.5808926820755005,-0.6241004467010498,1.3752036094665527,-1.5584461688995361,0.787038266658783,-0.15060463547706604,-0.12178944051265717,-1.081902265548706,-0.22119244933128357,-3.073300838470459,-0.030243001878261566,-1.5784839391708374,-0.2951129972934723,-0.5519430041313171,-0.6088404655456543,-1.3774265050888062,1.1260710954666138,0.19653771817684174,-0.9711823463439941,2.1488733291625977,0.21908603608608246,0.7875337600708008,-1.0526881217956543,-2.815965175628662,0.6705974340438843,-3.3189735412597656,-0.6968568563461304,-1.6928733587265015,1.8057085275650024,1.791396141052246,-0.6458064913749695,-0.5551813244819641,0.2853110432624817,-3.7626569271087646,1.7577520608901978,1.2300022840499878,0.5017232298851013,1.2391029596328735,-3.3323233127593994,1.465877652168274,2.384082794189453,0.10210730135440826,0.8985541462898254,-1.7349278926849365,0.5361010432243347,1.4950690269470215,1.4731390476226807,0.46444836258888245,0.8866758942604065,2.2025647163391113,0.8418089151382446,-1.1903948783874512,-0.6686321496963501,0.8723811507225037,0.2124217450618744,-1.2736889123916626,-0.47388508915901184,0.76394122838974,-0.4303343594074249,-2.9531078338623047,-0.5504907369613647,-1.6411731243133545,0.4172622859477997,0.42688649892807007,-0.8900347352027893,-1.5333117246627808,-0.436298131942749,-2.154998302459717,1.3332189321517944,1.2056403160095215,2.864201784133911,0.9157381653785706,0.5506348013877869,-1.695388913154602,3.5669806003570557,-2.357818603515625,-0.5781381726264954,0.9357007145881653,-0.3027091920375824,2.597033977508545,-1.440364122390747,0.6756186485290527,0.6773314476013184,0.2803632915019989,0.2992726266384125,0.48856332898139954,0.5549722909927368,-1.1953314542770386,1.2233023643493652,1.5126923322677612,-0.34635046124458313,-0.8160634636878967,0.9080708026885986,-2.272317409515381,2.0734610557556152,0.5232895612716675,1.6448454856872559,0.33592548966407776,-1.1116589307785034,-1.335448145866394,0.5225745439529419,-0.6342416405677795,0.26574376225471497,-1.058810830116272,0.31777894496917725,-2.5926051139831543,-1.6504753828048706,3.0137405395507812,-0.16114094853401184,0.1361483931541443,-2.2776169776916504,-3.3653314113616943,-0.7609295845031738,-0.6625575423240662,0.5540667772293091,3.3050684928894043,2.2898733615875244,-1.080244541168213,1.3218448162078857,-1.9759769439697266,-1.1662803888320923,1.35769784450531,0.18297572433948517,-1.4875609874725342,0.8488249778747559,0.47914111614227295,-1.934381127357483,0.4446319341659546,0.5154029130935669,1.583511233329773,0.28113827109336853,0.3443969488143921,0.48838427662849426,-3.392319679260254,0.6715657114982605,-0.49056276679039,2.97528076171875,0.6443260312080383,0.34040480852127075,2.24253249168396,-0.7917019724845886,2.7114484310150146,2.1194233894348145,-0.7798903584480286,-0.44946518540382385,3.216977596282959,-2.6861281394958496,0.32079219818115234,-4.020855903625488,2.088810682296753,-1.3088278770446777,1.547574520111084,1.038854956626892,0.7720359563827515,-2.119361162185669,-0.9044168591499329,-1.3627532720565796,0.35217657685279846,2.362180709838867,-0.2842617332935333,0.5504400730133057,1.8367760181427002,0.9675084948539734,-0.07267021387815475,0.35369354486465454,0.7842037081718445,0.43873360753059387,2.635843276977539,2.3524010181427,-0.09122419357299805,-0.8631703853607178,-0.6200100779533386,-0.6031461358070374,-1.6470820903778076,1.2189799547195435,0.03096022643148899,0.1671331822872162,1.4431077241897583,0.14962872862815857,-0.49697718024253845,-0.7124878764152527,-1.8543378114700317,-1.8552303314208984,1.1067110300064087,-0.21675023436546326,-2.558716297149658,-1.7093532085418701,-3.5825226306915283,3.357905149459839,-0.5389507412910461,2.4628889560699463,0.6817053556442261,-1.0109198093414307,-1.3931753635406494,0.0549691803753376,0.20046859979629517,0.5579766035079956,0.8316763043403625,-0.4715372920036316,0.051146749407052994,-0.748850405216217,0.6318785548210144,0.29045820236206055,-0.19749179482460022,-1.0322577953338623,1.1058417558670044,1.2604191303253174,1.222440481185913,0.24111536145210266,0.40428128838539124,2.5659031867980957,0.23019938170909882,-0.07865943014621735,0.6193849444389343,1.0409610271453857,0.5820679068565369,0.1627463400363922,1.4178217649459839,0.2186911553144455,-2.4218811988830566,0.08248601853847504,0.47020256519317627,-0.9649260640144348,-2.384589195251465,1.1040347814559937,-1.1983304023742676,-1.1329201459884644,-1.0533971786499023,1.0051788091659546,1.0663617849349976,-0.8942877054214478,0.4777904152870178,-0.374172180891037,-0.2316543161869049,-0.04605965316295624,-1.7218941450119019,0.2545551061630249,-1.4157353639602661,0.9425755143165588,1.9827542304992676,1.1300933361053467,1.8530700206756592,-0.7461705803871155,0.025682827457785606,-1.4512898921966553,0.6275423169136047,1.6038304567337036,1.1430995464324951,-0.8351747989654541,0.1253158152103424,-0.08474887162446976,1.453175663948059,1.5025514364242554,0.08692308515310287,0.9998839497566223,1.2978360652923584,-1.3947631120681763,3.8921058177948,-0.9682033658027649,-2.194013833999634,-1.3796887397766113,1.5286744832992554,-2.171613931655884,-0.7811930179595947,-0.16496595740318298,0.46388283371925354,-1.6209219694137573,-1.2192434072494507,2.2151236534118652,-0.09777875244617462,-0.8828248381614685,-1.674315094947815,1.4863120317459106,0.6257326602935791,-0.40712428092956543,-1.12141752243042,1.6822723150253296,-1.2129989862442017,1.5592180490493774,0.10420863330364227,-0.07367314398288727,0.46262842416763306,-0.6807745695114136,0.8377861380577087,-0.5395158529281616,0.3991028964519501,1.392209768295288,0.9610735774040222,-3.8027265071868896,0.4449699819087982,0.04261421784758568,-3.110812187194824,-1.034400224685669,-1.7468458414077759,0.9923760890960693,-0.5072886347770691,-2.050511121749878,0.5212089419364929,2.4103353023529053,1.4666253328323364,-0.6193342208862305,0.6235354542732239,1.8653758764266968,-2.870227336883545,1.3168917894363403,-0.21630197763442993,-0.1395188421010971,-0.6787942051887512,2.0328898429870605,-0.22198794782161713,-3.4340102672576904,1.7484115362167358,-3.2841715812683105,1.0897263288497925,-0.14544589817523956,0.8652396202087402,1.6925691366195679,1.74771249294281,-2.0933079719543457,1.8219372034072876,1.3300060033798218,0.4818513095378876,-1.2018508911132812,-0.6073676347732544,-1.6585503816604614,0.11715392768383026,2.6657326221466064,-0.6242473125457764,3.2593863010406494,-0.1514023244380951,-2.9104862213134766,-1.189972162246704,-0.4753512442111969,0.6620239615440369,1.6275815963745117,1.065141201019287,4.774864196777344,-2.450178623199463,-0.47744542360305786,-0.5144829154014587,-0.15898944437503815,1.7752567529678345,-0.9248106479644775,-0.04683666676282883,-0.7638415694236755,0.18197214603424072,-0.8568843603134155,-0.8562649488449097,-1.1621437072753906,0.624912679195404,1.853325605392456,-3.653585433959961,-0.5004221796989441,-1.2459516525268555,-2.888547658920288,0.659033477306366,-0.8236158490180969,0.3326665759086609,-1.5246742963790894,0.31832799315452576,-0.5559802651405334,-0.3754254877567291,-2.1993539333343506,0.5530113577842712,1.4493587017059326,-0.1921599805355072,-2.450690269470215,-0.3236945867538452,1.1456327438354492,3.1553449630737305,0.7588164806365967,-1.011824131011963,-0.4158540368080139,0.5697317719459534,-0.36313146352767944,-0.28588640689849854,0.21380794048309326,2.9139652252197266,0.4238305985927582,1.0788849592208862,-0.05434909090399742,-1.1475861072540283,-0.5753175020217896,0.5554092526435852,0.7678835391998291,0.23900197446346283,-0.41053712368011475,0.15635788440704346,-0.6504429578781128,1.82313072681427,-0.3416714072227478]},"forgetHidden":{"rows":20,"columns":20,"weights":[0.015197117812931538,-2.1206767559051514,0.5077087879180908,0.23326487839221954,-1.630531907081604,0.6630190014839172,0.7646080851554871,2.626574754714966,1.0822020769119263,-0.055463895201683044,3.503929853439331,-1.1186434030532837,1.0442578792572021,-2.27695894241333,0.7702897191047668,0.7117083072662354,1.3751157522201538,-1.444593906402588,0.0494975671172142,2.9940147399902344,2.267714738845825,4.431873798370361,3.537468910217285,-0.5986703038215637,-1.634627342224121,-3.2854769229888916,-12.478012084960938,0.15872527658939362,0.6030557155609131,0.7063996195793152,2.7377331256866455,-6.062966346740723,-2.281294822692871,-2.9638471603393555,2.1141605377197266,2.9147236347198486,0.7932205200195312,-0.7600129246711731,2.824061870574951,4.976896286010742,0.8969411253929138,0.6687092185020447,2.484766721725464,0.26062914729118347,2.036926746368408,-4.7818803787231445,-1.140425205230713,0.13937748968601227,-3.5049712657928467,-1.0744606256484985,-2.543001651763916,0.10517854243516922,1.1180527210235596,4.698130130767822,0.7951472997665405,-0.6965440511703491,-0.6423216462135315,-2.0372467041015625,-0.951335608959198,-3.2342870235443115,1.7893911600112915,3.989114761352539,1.7431495189666748,-1.2869175672531128,-2.900043487548828,-0.7133325338363647,-0.13202224671840668,-1.6208244562149048,-2.683832883834839,-0.25795772671699524,-2.380934953689575,-0.6103630661964417,-0.6841540932655334,5.942882537841797,1.8125406503677368,1.435260534286499,-0.6436920166015625,-2.1277644634246826,-2.8584418296813965,2.1221137046813965,3.9984889030456543,-4.545743465423584,-1.0581690073013306,1.1946932077407837,-2.977742910385132,0.00506128603592515,-0.12576982378959656,-3.9782981872558594,2.517876386642456,-3.097712516784668,-0.6991691589355469,-2.2930121421813965,2.1994214057922363,0.0474998764693737,-0.02604462392628193,-0.9791122078895569,1.7810826301574707,-3.423562526702881,0.24063296616077423,4.411096096038818,3.913198709487915,2.0919063091278076,1.3886175155639648,1.3455041646957397,-0.23150351643562317,0.6770851612091064,0.3802573084831238,-1.1103096008300781,-0.8407552242279053,-0.6865824460983276,1.8368966579437256,0.7213098406791687,-3.332566976547241,0.5930004715919495,-0.157769113779068,-0.3794826865196228,-3.223087787628174,-1.5391883850097656,-0.006671270355582237,-0.973709762096405,-12.360650062561035,-3.6419970989227295,1.0422531366348267,2.4204742908477783,-0.13491415977478027,2.936134099960327,1.5851128101348877,-0.5888174772262573,-2.6959409713745117,-0.4346776604652405,-1.349989891052246,2.0547614097595215,-2.2514400482177734,-0.08173448592424393,-8.940106391906738,1.9870936870574951,-1.0079725980758667,-1.7162295579910278,0.5600013136863708,-0.6403578519821167,2.0585384368896484,3.2556023597717285,1.1941742897033691,3.4055721759796143,0.8540455102920532,1.7244560718536377,-2.3218867778778076,1.3931467533111572,3.2542002201080322,2.248769521713257,-1.4153082370758057,0.32981881499290466,7.289055347442627,-0.9249575138092041,2.300034523010254,0.9085586071014404,-0.7203197479248047,-0.5278314352035522,0.6108589768409729,-5.157526016235352,-3.5634877681732178,7.522061824798584,2.312232732772827,-2.5752482414245605,2.222744941711426,1.485876202583313,-0.5825881361961365,2.4736337661743164,1.929032325744629,0.5939328670501709,-0.07122999429702759,0.7203445434570312,4.849148750305176,-4.437824726104736,-0.5401756763458252,-0.2555646002292633,2.6696419715881348,0.9583237767219543,1.3034471273422241,-2.407365322113037,1.4966238737106323,1.3753788471221924,-0.40045541524887085,-5.550472736358643,-3.114412307739258,-1.3445839881896973,4.462826251983643,-1.0015597343444824,-2.3060452938079834,0.7592050433158875,-2.67395281791687,3.197801351547241,-0.626675009727478,-1.9099732637405396,2.90686297416687,1.3892924785614014,-0.5716241598129272,-0.8945015072822571,-1.4372941255569458,-1.8972725868225098,-0.4850735366344452,1.073433518409729,1.6762762069702148,0.2137771099805832,-1.1154080629348755,1.0516071319580078,-0.5783575177192688,1.8904945850372314,1.7714028358459473,1.4781403541564941,1.9703590869903564,0.7344027757644653,0.6821913123130798,-2.260850667953491,-3.2809910774230957,-1.6941028833389282,2.074589490890503,0.8240414261817932,-1.339415192604065,5.968240737915039,-4.02203369140625,5.024291038513184,3.7313172817230225,3.5391600131988525,0.8501339554786682,-0.42901092767715454,4.169201374053955,-2.6094350814819336,-1.1410658359527588,5.209618091583252,-0.18296276032924652,2.3679490089416504,-3.0101101398468018,0.9502566456794739,2.6485486030578613,4.544493198394775,-2.846090316772461,-0.15937423706054688,-0.39211803674697876,-5.742393970489502,-6.920342922210693,-3.4723217487335205,6.274016857147217,-0.41459232568740845,16.810443878173828,-0.24999898672103882,1.5840388536453247,-1.239778757095337,-0.23101192712783813,3.607914686203003,5.174600124359131,1.5001473426818848,3.7696235179901123,-3.4034621715545654,-1.4763387441635132,-0.3654543459415436,-0.7402026057243347,-1.1596285104751587,-2.2336978912353516,-3.7421860694885254,3.681853771209717,-4.285287380218506,-2.0514273643493652,-2.345940589904785,-0.3529960513114929,0.11104133725166321,-2.0771679878234863,-3.2331550121307373,1.0685964822769165,-0.4779726564884186,-2.2715988159179688,1.0314862728118896,2.0780820846557617,0.02566816285252571,-0.03289952501654625,-1.93455970287323,-5.122176647186279,-1.0396288633346558,2.032585382461548,1.4951035976409912,-2.65527606010437,-1.083632469177246,2.0138187408447266,2.5540506839752197,0.39553675055503845,-2.271819829940796,-0.6139701008796692,2.1749563217163086,-1.973563551902771,-1.2960065603256226,0.278751015663147,-2.160997152328491,0.3738913834095001,1.0370233058929443,0.4121333956718445,-1.5357024669647217,-0.904109001159668,0.4738074243068695,2.281301736831665,0.736488938331604,-2.417276382446289,0.08767623454332352,2.279536485671997,-0.30234837532043457,4.736794948577881,-0.07869207113981247,3.2063961029052734,-2.6884448528289795,0.3934074640274048,0.47037577629089355,-2.46340012550354,3.4414992332458496,3.4800522327423096,-3.1862106323242188,-2.3968398571014404,4.974517822265625,1.4410979747772217,4.909969329833984,0.8036600947380066,-3.762127161026001,-1.964811086654663,-0.917990505695343,-3.413638114929199,0.3039613366127014,-3.6936230659484863,-2.4136788845062256,-2.77360463142395,-5.186602592468262,4.059971332550049,0.3357919454574585,-2.6574227809906006,1.0734578371047974,-17.442041397094727,-2.7539222240448,1.1173046827316284,1.436965823173523,1.4375113248825073,-0.6946379542350769,3.498487949371338,-1.038775086402893,5.921627044677734,4.329777717590332,-1.8019518852233887,-2.0059382915496826,-2.090609073638916,1.821689486503601,2.9040703773498535,-1.1129164695739746,3.657184600830078,0.3288396894931793,-1.625266432762146,0.7820014357566833,-5.205597877502441,1.3264567852020264,2.3092257976531982,1.1694366931915283,0.2396915853023529,-1.5876319408416748,-5.249637603759766,-3.6314001083374023,3.1166558265686035,-1.189302682876587,0.7169535160064697,1.4355477094650269,4.437916278839111,1.9812999963760376,-1.5060930252075195,0.22658830881118774,-1.2473222017288208,-1.6276578903198242,3.497406005859375,-1.9165081977844238,-0.36031416058540344,-1.8801326751708984,5.714524269104004,1.230398178100586,0.24296310544013977,-0.6309627294540405,-0.41498324275016785,-4.027677059173584,1.5375617742538452,1.3364074230194092,1.328794002532959,-1.017073154449463,0.6443769931793213,2.5869295597076416,2.8432347774505615,-1.4713059663772583,0.09846147894859314,0.4677239656448364,-0.7156405448913574,1.4652397632598877,-2.4217355251312256,-2.8229596614837646,-0.21910233795642853,3.030778408050537,-2.124556064605713,-1.8928087949752808,-3.253922462463379,-1.762818455696106]},"forgetBias":{"rows":20,"columns":1,"weights":[0,0,0,0,0,0,0,0,0,0,0,0,0,0,0,0,0,0,0,0]},"outputMatrix":{"rows":20,"columns":38,"weights":[-0.3905286192893982,0.6566948890686035,0.6976004242897034,-1.2708330154418945,-0.5969637036323547,0.8214905261993408,-0.3254142999649048,0.25737088918685913,-0.1394733339548111,-0.7913691997528076,1.959411382675171,-2.2918272018432617,0.08641578257083893,0.41504332423210144,-2.284815549850464,0.18847039341926575,-1.7857710123062134,-0.663012683391571,0.7657340168952942,-0.4200514256954193,1.042976975440979,0.49475783109664917,1.9185645580291748,0.7139925360679626,-1.259292483329773,0.7093140482902527,-0.6618545651435852,0.06920209527015686,-0.5905812382698059,2.498469352722168,-1.2791926860809326,0.6461039781570435,-0.9578249454498291,-2.0246171951293945,0.39167290925979614,-2.1707286834716797,-0.9630281329154968,0.3163314163684845,0.25175899267196655,1.2089258432388306,-1.9519762992858887,0.6636426448822021,-0.6987046599388123,0.29962706565856934,-0.4784814417362213,0.4195554554462433,0.4472629129886627,0.17716452479362488,1.1187405586242676,-2.4523539543151855,0.809964656829834,2.022737741470337,1.4000838994979858,-1.1179286241531372,-1.2781484127044678,0.840645432472229,-2.3677964210510254,0.6590136289596558,-1.446555256843567,-0.027504293248057365,2.2668752670288086,-1.0094921588897705,-0.343143492937088,0.7466220855712891,-4.118720531463623,2.1670095920562744,-0.5776537656784058,-0.42224636673927307,-1.4747008085250854,1.4079980850219727,-0.03989939019083977,-0.06346778571605682,-2.2379724979400635,-1.3072261810302734,-2.7001631259918213,0.5559859275817871,0.2515929341316223,0.4224157929420471,-0.9074409604072571,-0.2159269154071808,-0.41032707691192627,0.8480538725852966,0.3884449005126953,0.06551993638277054,0.9468840956687927,0.545212984085083,1.3030160665512085,-0.3710881173610687,1.5641968250274658,-0.6633575558662415,1.0345613956451416,1.0281821489334106,0.9075430035591125,-0.5271910429000854,-1.11172354221344,-0.0952153205871582,-2.055549383163452,1.2562237977981567,0.9093526601791382,-1.172006368637085,-0.05646174028515816,0.14298154413700104,-1.894507884979248,-0.8352233171463013,-1.3909765481948853,-0.4062841236591339,0.5609272122383118,0.04431852698326111,0.7277471423149109,0.02525625191628933,-0.17718467116355896,-0.12660008668899536,0.2912063002586365,-1.2070341110229492,-0.45278942584991455,1.5101289749145508,-0.42748090624809265,-0.16782215237617493,-0.5263611078262329,1.1856715679168701,-0.40309712290763855,0.018290851265192032,-1.4985545873641968,1.284679651260376,0.3170061409473419,0.12168309092521667,-0.7257994413375854,1.5715945959091187,-0.08649179339408875,-0.8907120227813721,-0.8249949216842651,0.44810977578163147,0.07823604345321655,-0.8975136876106262,-0.9191300868988037,-1.476372480392456,0.7394652366638184,0.023226894438266754,0.6159257292747498,-1.6187787055969238,1.3463042974472046,-1.2045221328735352,1.324724793434143,0.8172286748886108,-0.9498271346092224,-0.436681866645813,-2.2660744190216064,-1.1206111907958984,0.2941536009311676,-0.4920867383480072,-0.37435951828956604,0.7812117338180542,-0.9584295153617859,0.5908401012420654,-0.600477397441864,-0.5152925252914429,2.66607403755188,-0.5719003677368164,1.8683234453201294,-2.3158926963806152,-0.21790751814842224,-1.8201005458831787,1.0662345886230469,-0.5699893236160278,-1.3430023193359375,-0.06791141629219055,0.38508936762809753,-2.585500955581665,0.6078253984451294,-2.7066824436187744,-0.2456231564283371,-0.36986514925956726,2.576200008392334,1.0216753482818604,-0.38080042600631714,0.2514270544052124,-1.278863787651062,1.8424931764602661,-0.027178948745131493,-0.09906048327684402,0.8533748388290405,0.5286053419113159,1.49263334274292,0.5646736025810242,0.5043802857398987,0.13387002050876617,0.28844210505485535,-2.577716112136841,-0.2745679020881653,0.4476192593574524,-0.380954772233963,-0.5272507071495056,2.824152708053589,0.13729740679264069,-0.36414286494255066,1.8419855833053589,-1.501286268234253,-0.7603648900985718,0.542220413684845,-1.0091500282287598,0.6006081700325012,1.3099826574325562,-1.109074354171753,-0.7122083902359009,-0.4477243721485138,-0.5654807090759277,0.6030179858207703,-1.398889422416687,-0.8164706230163574,0.22285138070583344,2.708475351333618,0.35144442319869995,-0.6416662931442261,-1.2290728092193604,1.8911867141723633,0.5285096764564514,1.2158876657485962,-3.1972806453704834,0.7865731716156006,2.503610610961914,0.47498318552970886,-1.1620879173278809,-0.568220853805542,1.3936069011688232,-0.17946378886699677,2.1979215145111084,1.3491283655166626,-1.937524676322937,0.6780023574829102,-0.4103999733924866,0.5975744128227234,0.1369740515947342,0.32194459438323975,0.23436401784420013,-0.38103505969047546,0.16899937391281128,-0.8745114803314209,0.6097966432571411,1.814786672592163,3.722062349319458,-0.39926835894584656,-0.6521986722946167,0.04692229628562927,0.3178108036518097,0.2878355085849762,0.759056806564331,1.0037001371383667,0.6586389541625977,1.2105714082717896,-0.5284679532051086,-0.7741380333900452,-0.6468652486801147,0.5060229897499084,-1.3035476207733154,-0.13722676038742065,1.4062738418579102,0.21188509464263916,-0.22841429710388184,-0.7656015753746033,-1.550391674041748,-1.0738030672073364,1.3395981788635254,1.0603188276290894,0.4444778561592102,1.743909478187561,-0.05940120667219162,-0.1837204098701477,0.002107566222548485,3.207465410232544,1.4890719652175903,-0.4367733597755432,-1.6086184978485107,0.8218035101890564,0.7200728058815002,1.477204442024231,0.5686230659484863,1.3332061767578125,1.1810048818588257,-0.26899513602256775,-0.4424959421157837,2.4092273712158203,1.7167352437973022,2.482839345932007,-0.5472725033760071,0.706598162651062,-0.26053163409233093,-0.5917691588401794,-0.48054856061935425,2.5527772903442383,-2.3039841651916504,1.3791550397872925,-0.07952280342578888,0.05538168177008629,-1.7516058683395386,0.41146907210350037,0.6544656753540039,-0.16917531192302704,0.1336207389831543,-1.4806959629058838,3.8467764854431152,0.8358371257781982,1.075703501701355,0.9820354580879211,0.5187515616416931,0.8433123230934143,0.825594961643219,0.9404719471931458,0.5016211867332458,-0.6817547678947449,-0.6568611264228821,0.09715687483549118,-0.5287197828292847,-1.221665382385254,-0.4500289559364319,-1.3313902616500854,1.374046802520752,0.29761645197868347,-0.6995288133621216,0.9147563576698303,-0.8515925407409668,2.7363767623901367,-3.4877710342407227,1.2156850099563599,0.13404352962970734,-0.5717107057571411,-0.10277867317199707,0.06276020407676697,0.5507469773292542,0.4427207112312317,0.05184156447649002,0.4268641769886017,-0.6427482962608337,0.6467183232307434,0.4061872363090515,0.514643132686615,-0.06485879421234131,1.0002106428146362,2.041128396987915,-1.236546277999878,2.2996113300323486,0.779777467250824,-0.11087987571954727,-0.8723180294036865,4.670785903930664,-0.8605064153671265,-0.7528454661369324,-0.24135944247245789,-0.757111132144928,-1.4208831787109375,-1.3448312282562256,-0.19789712131023407,0.12877383828163147,-0.9725417494773865,-0.05521726980805397,-0.6714562177658081,4.697128772735596,1.247510313987732,-2.517566204071045,-1.7359778881072998,-0.14391961693763733,-0.19795455038547516,-0.11510815471410751,-0.32932910323143005,-0.48134106397628784,0.2416432648897171,-0.07143031060695648,0.19344978034496307,-2.1990303993225098,-0.9182398319244385,1.2912436723709106,1.038556694984436,-0.9781402945518494,-0.521801233291626,0.1887512505054474,-0.8615826964378357,0.338293194770813,-0.4776771366596222,-0.46375054121017456,-0.9335382580757141,1.554595708847046,0.08845899999141693,-1.4887257814407349,-0.7152724266052246,-2.291571617126465,0.611685037612915,-3.454200506210327,0.449761301279068,-1.1597492694854736,-0.6765084862709045,-2.859910726547241,0.06918308883905411,0.8146371245384216,0.8690752983093262,-1.5622183084487915,1.6973047256469727,1.632561445236206,1.6649659872055054,0.3194029927253723,1.2528164386749268,1.7242096662521362,-0.8803582787513733,-2.599863290786743,-0.6358160972595215,1.5657169818878174,1.2351492643356323,0.0845237448811531,0.001964598661288619,-0.01210511289536953,0.7655115127563477,0.6558969616889954,2.5458076000213623,-0.21339619159698486,1.8725520372390747,0.8433328866958618,-2.503628730773926,-1.3870422840118408,0.5023843050003052,0.3898647427558899,-0.3380779027938843,-1.9280718564987183,0.7473066449165344,-1.3691601753234863,-2.3158557415008545,2.1395788192749023,-1.3331609964370728,1.104000210762024,1.0324689149856567,0.34447482228279114,1.3496466875076294,-1.0002632141113281,0.5356413125991821,-2.3195531368255615,0.22375573217868805,3.515202283859253,-0.9563025832176208,1.0946228504180908,1.923032283782959,-0.31119343638420105,-1.3149462938308716,-0.5200881958007812,0.4423356354236603,1.0419543981552124,-0.28320127725601196,-0.29045286774635315,0.6529666781425476,0.8589608669281006,-0.8882489800453186,0.3534926176071167,-0.13101662695407867,0.5625489354133606,0.02825651317834854,-0.131134033203125,-0.24935637414455414,1.3613781929016113,1.6308518648147583,-0.10951200872659683,-0.8403630256652832,-0.8713425397872925,1.2167139053344727,-0.9992648959159851,-1.2276467084884644,0.05011535808444023,-0.7043730020523071,-0.426638662815094,-1.1985230445861816,0.37425604462623596,-1.9196418523788452,0.44722142815589905,-0.41583141684532166,0.6287550330162048,0.1652408242225647,-2.175140619277954,1.4442226886749268,1.8781837224960327,0.643371045589447,0.5018302202224731,-0.08294004201889038,-0.6045001149177551,-1.4440406560897827,-0.47682633996009827,0.30948910117149353,0.14892487227916718,0.3614528477191925,0.07741417735815048,3.060487747192383,-0.8838313221931458,0.1450439989566803,-0.05442921444773674,0.10871578752994537,0.31506699323654175,0.6220982074737549,-0.299024373292923,0.9187111258506775,2.322103261947632,-0.5330596566200256,0.22132085263729095,-0.7972845435142517,0.1377706676721573,-1.1266807317733765,0.45930570363998413,-1.111749291419983,0.5363394021987915,-0.2867555618286133,0.5777218341827393,-0.6975147128105164,-0.30237314105033875,-0.10954155772924423,-0.6393070220947266,1.965404748916626,0.9496324062347412,1.6577121019363403,0.1572900265455246,-0.18111485242843628,0.8463975191116333,0.39656126499176025,2.0049562454223633,-3.062805414199829,0.6630141735076904,-1.0678082704544067,1.3409863710403442,-1.745155692100525,1.078350305557251,0.06571278721094131,0.2760534882545471,1.8112151622772217,-1.866987705230713,-0.8167761564254761,0.22248272597789764,0.13902026414871216,1.8144723176956177,-1.0234105587005615,-0.9542248845100403,0.4844322204589844,-0.1605212688446045,0.7199432253837585,-1.067122220993042,-0.574093759059906,0.3857806921005249,0.675606369972229,-0.6205514073371887,0.4102169871330261,-0.02222280390560627,-0.5670647025108337,0.15255500376224518,-0.19903458654880524,0.1598796844482422,0.14373351633548737,0.714785635471344,0.4505223035812378,-0.2102472186088562,1.3915983438491821,0.2973160445690155,-0.9357869625091553,-1.155120849609375,1.7963191270828247,-0.7935813665390015,-1.1832473278045654,-0.21720018982887268,1.206884503364563,0.06330514699220657,-0.10763964056968689,1.704472303390503,-0.8764622807502747,0.6803545355796814,-1.268932819366455,0.07924993336200714,-0.14692379534244537,-0.16684389114379883,-1.0201315879821777,1.1164138317108154,-0.4314625859260559,-0.7276988625526428,1.0620874166488647,1.273186206817627,-0.20289862155914307,0.3254956007003784,-0.36075857281684875,1.650191068649292,1.8021904230117798,1.2667979001998901,-1.1985357999801636,-0.3548610508441925,0.2573453485965729,-1.5614538192749023,0.4864514470100403,0.6917935013771057,2.483349561691284,-1.181670904159546,-0.6849095225334167,0.8962011337280273,-1.0337185859680176,0.46244198083877563,-1.2773070335388184,0.742350161075592,-0.25515732169151306,1.2345292568206787,-1.1607338190078735,-0.08107812702655792,1.1573152542114258,0.8368938565254211,1.9288557767868042,-0.2811584174633026,0.216511070728302,2.527822494506836,0.6185101270675659,0.6993869543075562,-0.6552631855010986,1.1379221677780151,-0.22193026542663574,0.13852913677692413,-2.435518741607666,0.4991733729839325,-0.06942035257816315,0.04203858599066734,-0.5719603896141052,-0.7953572869300842,-1.1175469160079956,-0.3319641053676605,2.2750041484832764,-0.23879437148571014,-0.27052560448646545,-0.17285430431365967,0.897153913974762,0.8149533867835999,-1.0585651397705078,0.0513111911714077,-2.3859424591064453,-1.041919231414795,-1.5855494737625122,-0.11449606716632843,-0.6238741874694824,0.9698421955108643,1.2940990924835205,0.1173926293849945,-1.2492038011550903,-2.039480447769165,-1.9568179845809937,-1.4682234525680542,0.320692777633667,0.7342708706855774,0.8000070452690125,0.44934311509132385,-0.5175223350524902,0.18174494802951813,1.2974292039871216,-0.9216437935829163,-0.43410682678222656,-0.6024876832962036,0.6057224869728088,-0.046804483979940414,0.17695839703083038,0.26778700947761536,0.578264057636261,-0.601525068283081,0.9944683909416199,0.6018590927124023,-0.750775933265686,-1.6117863655090332,-0.9112503528594971,0.1933094561100006,0.05181824043393135,-0.8260974884033203,-1.9128551483154297,1.0619574785232544,-0.23518197238445282,0.6649323105812073,-0.2962641417980194,-1.172377347946167,1.197544813156128,0.16739384829998016,0.6022925972938538,0.4785500466823578,0.24856196343898773,0.6127546429634094,0.14920072257518768,-1.2830437421798706,-0.609539270401001,0.04190194979310036,0.4027295708656311,-3.289822578430176,0.7388727068901062,-1.9457619190216064,0.6218358278274536,0.4596852958202362,-0.4431206285953522,0.938147783279419,1.1320406198501587,-0.23235666751861572,-2.6537511348724365,-0.42835184931755066,-0.7256085276603699,-0.9642988443374634,-0.567272424697876,0.7703096866607666,0.0021625154186040163,1.1728781461715698,-0.2982288897037506,-0.2897970974445343,-1.214403748512268,-1.0115078687667847,1.2218618392944336,-0.08276621997356415,-0.4456092119216919,0.07788364589214325,-0.09860104322433472,-0.258201539516449,-0.022269725799560547,-0.9133079648017883,0.3110310435295105,-0.33971476554870605,-1.709984302520752,-2.2589430809020996,0.9967275261878967,2.047619342803955,-0.3077350854873657,1.1559221744537354,-1.0548673868179321,-0.19394029676914215,0.7758004069328308,1.359618902206421,-0.9554394483566284,-0.6060132384300232,2.1674439907073975,-0.7155697345733643,0.02308611199259758,0.8263903260231018,0.6066359877586365,-0.4352881610393524,1.8744354248046875,-0.349742591381073,-0.7470709085464478,0.6029922366142273,-0.8675936460494995,1.7758872509002686,0.508155345916748,0.15213096141815186,1.215187668800354,-0.6481828093528748,1.6119027137756348,1.2417553663253784,0.9196116924285889,-1.0691993236541748,2.121647357940674,-1.3012330532073975,-0.14110535383224487,-0.7650319933891296,0.24072448909282684,0.7032626867294312,-0.13980509340763092,1.7804661989212036,0.236895352602005,-0.9095253348350525,-0.8585652112960815,-1.533578872680664,0.2904636263847351,0.34004947543144226,0.6486151218414307,-0.7560025453567505,2.175194025039673,0.10590769350528717]},"outputHidden":{"rows":20,"columns":20,"weights":[-0.15531562268733978,-1.1525461673736572,-1.97515070438385,-1.3531887531280518,-0.242725670337677,-0.32813724875450134,0.12899070978164673,-0.5520097613334656,2.626030445098877,-0.5130916237831116,0.21650435030460358,1.5950229167938232,-5.045400142669678,-0.5707299113273621,5.135517597198486,-1.3042738437652588,-2.535283327102661,0.061155300587415695,-5.5317816734313965,2.8242106437683105,4.395050525665283,2.6485517024993896,-1.901827096939087,2.4960813522338867,-3.8960251808166504,-1.0284295082092285,4.489922046661377,-1.9806811809539795,1.6372150182724,-1.5500580072402954,0.5790418982505798,-1.109380841255188,-4.210766315460205,0.4023520350456238,1.0528699159622192,2.321822166442871,-2.647888660430908,-1.3071317672729492,-2.460550308227539,0.5934213995933533,2.444707155227661,0.8640402555465698,-3.3441271781921387,-5.735977649688721,1.843104600906372,-2.3206474781036377,-1.977624535560608,1.927114486694336,3.5064969062805176,-3.647921562194824,-1.2400563955307007,-0.012017415836453438,-1.3156601190567017,-2.1454274654388428,2.7196881771087646,-0.9753127694129944,-1.8879952430725098,1.3997687101364136,4.0779829025268555,-0.9741390943527222,1.0530714988708496,3.5641634464263916,-1.3283075094223022,-0.26732176542282104,-0.5949953198432922,-3.40063214302063,-2.9709603786468506,1.5437281131744385,1.5967515707015991,-0.5267626047134399,-0.9119192361831665,0.3775140047073364,-14.858892440795898,1.418123483657837,0.06210511550307274,3.113598108291626,-1.6762348413467407,1.9705421924591064,0.04883146658539772,3.5529730319976807,1.3741202354431152,-1.2987587451934814,2.1039416790008545,2.680284261703491,-0.7827244400978088,0.28014031052589417,0.3624674081802368,2.862448215484619,1.2635964155197144,-2.0335276126861572,0.9949182868003845,-3.510284900665283,-0.04367499426007271,-1.388641119003296,4.598308563232422,1.1592824459075928,0.4226545989513397,-0.14441938698291779,-0.8013872504234314,0.6223143339157104,-1.7625597715377808,2.288506269454956,0.20609517395496368,4.5909857749938965,-1.9311513900756836,-1.709979772567749,-0.27378755807876587,-0.4869441092014313,1.2641141414642334,0.9087210297584534,0.6241647005081177,-3.2660133838653564,-3.545807123184204,-2.908287525177002,-1.227857232093811,-2.344858169555664,-1.8574819564819336,-1.3040332794189453,-2.3912618160247803,1.1110808849334717,-1.0848013162612915,0.5300321578979492,1.1182035207748413,4.166018962860107,-4.868998050689697,0.5384984612464905,2.1558806896209717,-2.9483654499053955,0.5137227773666382,-3.239201307296753,1.0969091653823853,2.257498264312744,-0.4410039186477661,-0.21844470500946045,-3.349553346633911,0.5985884070396423,1.9727436304092407,-1.3050837516784668,-2.075056552886963,-0.28126901388168335,-0.5676620602607727,0.14874307811260223,-1.3312901258468628,-0.9316806793212891,-0.27455759048461914,-0.6787444949150085,-1.06715989112854,-1.4364970922470093,0.5118710994720459,0.589187502861023,-0.5633581876754761,1.0307869911193848,-0.10107211768627167,-0.5808730721473694,-3.832775354385376,0.4508169889450073,-0.29483863711357117,-0.9667946696281433,4.145520210266113,-1.8542205095291138,-1.5374397039413452,-1.0119749307632446,1.6973769664764404,1.2767995595932007,-0.179238423705101,1.980580449104309,1.7136359214782715,0.6422256827354431,-1.7148234844207764,-1.5897186994552612,1.4661226272583008,1.0597563982009888,3.989622116088867,0.2615988552570343,-1.6047602891921997,-0.3015633821487427,0.5221668481826782,0.9016147255897522,-1.1763993501663208,-0.26800116896629333,-0.5512962341308594,0.24870803952217102,0.17968206107616425,-0.2871476411819458,-4.524796485900879,-2.2334096431732178,1.0528943538665771,1.248346209526062,1.2803795337677002,-4.093075275421143,-3.6433441638946533,0.6458053588867188,0.00806918554008007,-0.8543542623519897,1.7024884223937988,0.8616898655891418,-2.4372549057006836,-2.0115950107574463,-0.2248312085866928,-0.16982242465019226,3.194559335708618,0.826054573059082,1.4924829006195068,-0.10043000429868698,0.5963180661201477,2.874981164932251,-1.6160951852798462,-2.2274973392486572,-0.8306427597999573,1.6265376806259155,-1.0929055213928223,1.9238479137420654,0.7185116410255432,-0.615552544593811,-0.45441409945487976,-0.38554686307907104,0.2618616223335266,-1.1487433910369873,2.259593963623047,-0.39863425493240356,-1.5140095949172974,3.2977888584136963,-1.0608564615249634,-2.299199104309082,2.2843894958496094,0.785563051700592,0.2738303244113922,-0.8073008060455322,-0.08784538507461548,3.147752046585083,-1.9150866270065308,1.8398592472076416,-4.8336896896362305,-1.31050705909729,1.0825692415237427,0.9737483263015747,1.1500333547592163,-1.2450008392333984,-2.3404271602630615,0.7671375870704651,-3.364976406097412,-0.7031829953193665,-0.8841364979743958,0.9953091740608215,-1.5883891582489014,-1.2655649185180664,-2.6446216106414795,-0.6678043007850647,0.8524006605148315,-5.223538398742676,2.893552780151367,-0.5674460530281067,1.7885487079620361,2.934455394744873,-0.9212067723274231,3.4385225772857666,0.9465327262878418,5.476016521453857,-0.05453553795814514,0.29451999068260193,0.2942355275154114,1.2988895177841187,-1.0404762029647827,-2.257124185562134,0.5562108159065247,-0.04905380681157112,0.169345885515213,2.698193311691284,-0.2246558964252472,-1.6700387001037598,-2.4882712364196777,0.6543747186660767,1.1455508470535278,0.0982900932431221,2.8514316082000732,1.528162956237793,-3.449174404144287,-2.917691946029663,0.7276520133018494,2.2601876258850098,0.9092556834220886,-1.3890877962112427,-0.8310142159461975,0.347949355840683,4.988841533660889,1.3031208515167236,-0.2626257538795471,1.0745633840560913,1.4390761852264404,-1.2720838785171509,0.8253821730613708,-0.041546780616045,0.05107087641954422,-0.15709303319454193,5.427350997924805,-3.2989776134490967,0.301370769739151,-3.6172573566436768,-1.3221282958984375,0.674319326877594,-1.70115327835083,2.045945644378662,0.4041809141635895,1.3143011331558228,1.0628845691680908,-3.4780237674713135,0.04369797930121422,1.871712327003479,-1.1957159042358398,1.4806492328643799,-3.4572696685791016,2.644592046737671,-0.7310110330581665,2.320810556411743,-1.3507792949676514,0.2888897657394409,-2.3101139068603516,-1.2163159847259521,1.0401939153671265,-0.6410833597183228,-0.13059040904045105,1.9283268451690674,-2.5282161235809326,0.2885158061981201,1.3367464542388916,1.1535755395889282,1.1674847602844238,3.89811372756958,2.288198709487915,0.40317434072494507,-2.538780450820923,4.953556537628174,-2.8814797401428223,-2.443371534347534,-2.96925687789917,0.9211589694023132,-0.15884803235530853,-1.096632719039917,1.7854856252670288,-1.9116874933242798,0.867006242275238,-2.9032740592956543,0.8929113745689392,2.6492812633514404,-1.5878406763076782,-0.27808094024658203,2.0930228233337402,-1.8076125383377075,1.3410067558288574,-4.96182918548584,-2.8110625743865967,3.9492666721343994,1.4809815883636475,2.110699415206909,1.9606326818466187,3.5192649364471436,-1.3655900955200195,-1.3928018808364868,-2.219681978225708,0.017570767551660538,3.106822967529297,4.339034557342529,-2.9113144874572754,-2.176784038543701,-3.056692600250244,-2.721118927001953,-2.9100046157836914,1.9176042079925537,1.1462537050247192,0.8779978156089783,2.1945176124572754,1.7602742910385132,-1.8166548013687134,-2.389746904373169,3.2220284938812256,-3.436737060546875,1.0426524877548218,-5.657499313354492,-0.12442632019519806,1.1381165981292725,2.116419553756714,0.2894955277442932,0.18879128992557526,2.386620044708252,0.5708084106445312,-2.860285520553589,1.3362150192260742,-1.179827094078064,-0.5436076521873474,-0.8245960474014282,-1.5630327463150024,-1.010036587715149,-0.7989876866340637,0.5313240885734558,2.8062174320220947,1.1057418584823608,1.3057013750076294,1.567160725593567,1.2603434324264526,-0.9972695112228394]},"outputBias":{"rows":20,"columns":1,"weights":[-0.5922127366065979,0.5886167287826538,-0.42145687341690063,0.1763133555650711,-1.2315917015075684,-1.474024772644043,-4.715025424957275,-0.7780537605285645,