{"data":"[{\"input\":\"Hello\",\"output\":\"Hi\"},{\"input\":\"Hi\",\"output\":\"Hello! What can I do for you today!\"}]","model":{"type":"LSTM","options":{"inputSize":22,"inputRange":22,"hiddenLayers":[20,20],"outputSize":22,"decayRate":0.999,"smoothEps":1e-8,"regc":0.000001,"clipval":5,"maxPredictionLength":100,"dataFormatter":{"indexTable":{"H":0,"e":1,"l":2,"o":3,"i":4,"!":5," ":6,"W":7,"h":8,"a":9,"t":10,"c":11,"n":12,"I":13,"d":14,"f":15,"r":16,"y":17,"u":18,"stop-input":19,"start-output":20,"unrecognized":21},"characterTable":{"0":"H","1":"e","2":"l","3":"o","4":"i","5":"!","6":" ","7":"W","8":"h","9":"a","10":"t","11":"c","12":"n","13":"I","14":"d","15":"f","16":"r","17":"y","18":"u","19":null,"20":null,"21":null},"values":[{"input":"Hello","output":"Hi"},{"input":"Hi","output":"Hello! What can I do for you today!"}],"characters":["H","e","l","o","i","!"," ","W","h","a","t","c","n","I","d","f","r","y","u","stop-input","start-output","unrecognized"],"specialIndexes":[19,20,21]}},"trainOpts":{"iterations":20000,"errorThresh":0.005,"log":false,"logPeriod":10,"learningRate":0.01,"callbackPeriod":10,"timeout":"Infinity"},"input":{"rows":23,"columns":22,"weights":[-0.36204808950424194,-0.9329083561897278,0.6984819769859314,-0.6389926671981812,-0.3152327835559845,-0.09049246460199356,1.3108500242233276,1.0940279960632324,0.062031447887420654,0.29954931139945984,0.07036010175943375,-0.6422252058982849,1.0115329027175903,0.3247852027416229,0.18188592791557312,0.9665955901145935,-0.05235898867249489,0.956291139125824,0.6868333220481873,0.09786530584096909,1.1949667930603027,-0.3272859752178192,1.5239031314849854,-0.4407893419265747,-0.8948425650596619,-0.22552987933158875,2.481156349182129,1.5083760023117065,0.5312008261680603,-0.6323691010475159,1.4535455703735352,-2.0697896480560303,1.3585020303726196,0.4133162796497345,-0.3901490271091461,-0.8887324333190918,-1.1800291538238525,-1.0497256517410278,-0.011570993810892105,0.0930793434381485,-0.21948780119419098,1.0928550958633423,-0.3112561106681824,-0.9841744303703308,-0.5057530403137207,-0.08408378809690475,0.7601467967033386,0.011786350049078465,-0.5385271310806274,-0.6319490075111389,0.10921978205442429,0.1832771748304367,-0.31754499673843384,0.4286021292209625,-0.9168270230293274,-0.94736647605896,0.5158712863922119,0.7832377552986145,0.5761530995368958,0.12935160100460052,0.7811314463615417,0.14590302109718323,0.34102731943130493,-0.5788868069648743,0.014594513922929764,0.32918789982795715,0.18884114921092987,0.2980007231235504,-0.7740102410316467,0.18436357378959656,0.1812458485364914,0.2823874056339264,-0.3058038353919983,0.7478866577148438,-0.5903187990188599,-0.16223838925361633,0.169040247797966,2.031172275543213,-1.2846765518188477,-0.6976954340934753,-0.2546776831150055,0.10334203392267227,-0.35574549436569214,-0.3921249210834503,-0.2421075850725174,0.18879947066307068,-0.2893234193325043,-0.16245417296886444,-0.12828071415424347,-0.6527554988861084,0.014385628513991833,-0.7411989569664001,-0.18582192063331604,-0.1520848274230957,0.3870065212249756,0.8087178468704224,-0.5731509923934937,0.17037469148635864,-0.19364631175994873,-0.09613709151744843,0.02923574112355709,0.2188829928636551,0.08035863190889359,0.5999644994735718,-0.012227059341967106,0.9176879525184631,0.8713794350624084,0.02306881733238697,0.7529820799827576,-0.15246841311454773,-0.3168531060218811,-1.1578781604766846,0.3350929021835327,-1.3273433446884155,-0.3788081705570221,-0.26154425740242004,0.3420514166355133,0.9755929708480835,-1.1655393838882446,0.36042264103889465,-0.10128787159919739,-0.67120361328125,0.3004404306411743,0.483833909034729,0.10980373620986938,0.9952996373176575,-0.08665922284126282,1.2824684381484985,1.0194059610366821,0.13628000020980835,1.1496537923812866,-0.2374986708164215,-1.6828386783599854,0.5527554750442505,1.1155881881713867,-0.047299616038799286,-0.8236151337623596,-1.7946205139160156,-0.45948854088783264,-0.3979088366031647,-1.0643739700317383,0.9338849186897278,-1.7649081945419312,-0.9992823004722595,1.7581919431686401,1.3796746730804443,2.1764473915100098,-0.37573713064193726,1.6153230667114258,0.7417935132980347,0.9883295297622681,-0.807382345199585,-0.3225758671760559,1.062187910079956,-0.32729655504226685,1.1938196420669556,0.7051607966423035,1.2033578157424927,-0.3348519206047058,-0.17126300930976868,-0.9802911281585693,-1.1539993286132812,1.7613379955291748,0.19061356782913208,-0.07808529585599899,-0.6889159083366394,0.9319475889205933,0.08224556595087051,0.28366026282310486,-0.9846941828727722,0.5138946175575256,-0.9211552143096924,-1.7002867460250854,-0.5753076672554016,-1.0122687816619873,1.4961198568344116,-0.6790738701820374,0.5299044847488403,-0.004404156934469938,0.40071621537208557,-0.7180968523025513,-0.969115138053894,-0.6794824004173279,-1.1425153017044067,1.4530500173568726,0.7360880374908447,-0.77567058801651,-0.23657271265983582,-0.31717631220817566,0.3399339020252228,0.8585149049758911,-0.7164614796638489,0.9522224068641663,-1.243838906288147,-1.3500906229019165,-1.1188496351242065,-0.5986909866333008,1.4583832025527954,-0.6405392289161682,0.6185032725334167,0.42733028531074524,0.44580814242362976,-0.5849946737289429,-0.9161666035652161,-0.6214566230773926,-0.6523244380950928,0.30133727192878723,0.8605208992958069,-0.44024983048439026,-0.7554774880409241,1.1489380598068237,0.6669418811798096,1.0263818502426147,-0.3864424526691437,1.4177442789077759,-0.8081278800964355,-0.5788921117782593,-0.7563804388046265,-0.3607398271560669,1.3271665573120117,-1.8023825883865356,-0.4001030921936035,1.546578049659729,-0.4895203113555908,-1.601245641708374,-0.9127178192138672,0.3116719722747803,0.2591839134693146,-0.6911047101020813,2.055851697921753,-0.938559353351593,-2.335707902908325,1.1038203239440918,2.398491621017456,0.9015933275222778,0.47174128890037537,0.48197686672210693,-0.018321512266993523,0.2209954410791397,-0.5021986365318298,0.4562681317329407,-0.0015259137144312263,-2.009545087814331,0.3220689594745636,2.056674003601074,0.17333512008190155,-1.708215355873108,-1.267452359199524,-0.21140816807746887,0.3279614746570587,-0.4012840986251831,1.853345274925232,-1.8955756425857544,-3.520768404006958,0.8109208345413208,3.4972116947174072,1.4500821828842163,-0.14673934876918793,0.8990836143493652,0.20176734030246735,0.5459749102592468,-0.7561253309249878,-0.17521677911281586,0.6989458799362183,1.0315824747085571,1.0097637176513672,-1.77891206741333,1.16068434715271,0.5515404343605042,0.3083847463130951,-0.9279499053955078,-0.8601811528205872,-0.1561276912689209,-0.8595287203788757,0.34688127040863037,1.7746626138687134,-1.611775517463684,-1.9694995880126953,-0.8618168830871582,-0.8605504035949707,-0.40990203619003296,-2.090672731399536,-0.971750020980835,-0.036726728081703186,-1.4890053272247314,0.08313318341970444,-0.9464185833930969,-0.18747131526470184,3.4792520999908447,-0.1133224293589592,-0.9970916509628296,-0.5204268097877502,0.10333254188299179,0.7199982404708862,-0.3377132713794708,1.0387022495269775,-0.8513016700744629,-3.5249719619750977,1.1900177001953125,2.393955945968628,0.6251572370529175,0.28493624925613403,0.48703375458717346,0.2953816056251526,0.5582090616226196,-0.9587826728820801,0.2316741645336151,0.03636625036597252,-0.6982604265213013,-0.012586320750415325,1.6382426023483276,-0.042959682643413544,-1.1224489212036133,-0.9214912056922913,0.05343710631132126,0.6800978183746338,0.14865127205848694,0.7837393879890442,-1.3301783800125122,-2.0890305042266846,0.8712725043296814,1.6088802814483643,1.1019872426986694,0.0583217553794384,1.3279625177383423,0.8827490210533142,0.7005189657211304,-1.5732678174972534,0.005366285797208548,1.0026379823684692,-0.5386630892753601,1.3146742582321167,0.5196434259414673,0.9908955693244934,-0.2197221964597702,-0.7921361923217773,-1.0088438987731934,-1.5400947332382202,1.111983060836792,0.41112813353538513,-0.5193029046058655,-0.6832717061042786,1.2794222831726074,0.4058710038661957,0.6700212359428406,-1.1459609270095825,1.0036734342575073,-0.9837155342102051,-1.0320225954055786,-0.47406479716300964,-0.9612827301025391,1.5732415914535522,0.6068689823150635,1.0455174446105957,-1.7000136375427246,1.3411180973052979,0.06518358737230301,0.28824055194854736,-0.6941484212875366,-1.5355470180511475,0.6187616586685181,-0.3578629493713379,0.22790838778018951,1.568168044090271,-1.0837643146514893,-1.1639676094055176,-0.5084987282752991,-0.6078215837478638,-0.5187035799026489,-2.140183925628662,-2.3556690216064453,-0.010335140861570835,-1.057275414466858,-0.002846312243491411,-0.5481144785881042,0.7575002312660217,0.7888734936714172,0.7029680013656616,-0.7284612059593201,-0.6296944618225098,-0.8288669586181641,-0.46447890996932983,0.8666898608207703,0.31102120876312256,-0.5808868408203125,-0.6671915650367737,1.3164570331573486,0.655954122543335,0.6106956601142883,-0.7504928112030029,2.0874199867248535,-0.6648375988006592,-0.4455398619174957,-1.6175651550292969,-0.741430938243866,1.0461360216140747,0.4488668143749237,1.040986180305481,-0.6816754341125488,1.3002034425735474,-0.0046471115201711655,0.23270738124847412,-1.3250432014465332,-1.9026802778244019,2.0133275985717773,-0.2605840265750885,0.2718442678451538,0.6020245552062988,-0.004826134070754051,-0.6000509858131409,-0.30439522862434387,-1.6265732049942017,-0.07862324267625809,-1.464795708656311,-1.7863130569458008,0.01035790890455246,-1.389033555984497,0.6979789733886719,-1.5152039527893066,0.01652771234512329,0.803406834602356,-0.13010786473751068,-1.396851658821106,-1.285530924797058,-0.15739686787128448,0.5938048958778381,-0.32007935643196106,1.6571142673492432,-1.147030234336853,-0.6114447116851807,0.526482880115509,1.150874137878418,1.0732675790786743,0.30717238783836365,0.24885661900043488,0.37633058428764343,0.4301958382129669,-0.5601598620414734,0.3570217788219452,0.25796613097190857,0.1157689318060875,-1.2307062149047852,-0.06648838520050049,-1.402809739112854,0.36730989813804626,0.7661020755767822,1.562340259552002,1.406295895576477,-1.2484716176986694,-0.30799973011016846,0.6230505704879761,-0.3036441504955292,-0.6853216290473938,-0.11255872994661331,-0.6816149353981018,1.7761367559432983,-0.9558016061782837,1.6257575750350952,1.3773646354675293,1.0505882501602173,1.8026552200317383,-1.120835542678833,0.042800772935152054,-0.5816333293914795,-0.1966780126094818,-0.6279898881912231,0.12059608846902847,0.29059526324272156,0.8912791013717651,1.271249532699585,-1.0647122859954834,-0.23155678808689117,0.3309166729450226,0.39334920048713684,-0.6687521934509277,0.04475229233503342,-0.393807053565979,1.0918545722961426,-0.6780520081520081,0.8262506723403931,0.9486038088798523,0.5950865745544434,1.0638879537582397,-1.0032825469970703,-0.03057398647069931,0.0682368278503418,0.07292935252189636,-0.00018333060143049806,0.04832719638943672,-0.057827480137348175,0.03361501544713974,0.03904316574335098,0.07390578091144562,-0.06069089472293854,-0.04457773640751839,0.07261951267719269,-0.014534365385770798,0.05861866846680641,0.032089684158563614,-0.05007781833410263,-0.008581294678151608,-0.02219509147107601,0.02408917061984539,-0.04153059422969818,0.02342098206281662,-0.033999379724264145]},"hiddenLayers":[{"inputMatrix":{"rows":20,"columns":22,"weights":[0.36128172278404236,-0.5822468400001526,-0.030380642041563988,-0.7372869253158569,0.35458874702453613,0.3430415093898773,0.6911521553993225,0.6835120916366577,-0.8534985780715942,-0.39559078216552734,0.29882127046585083,0.2099524289369583,-0.1908591240644455,-0.04957083612680435,-0.2674989104270935,0.7314904928207397,-0.42600664496421814,0.6188445687294006,0.7170582413673401,0.5600194931030273,0.7502083778381348,-0.9240112900733948,-0.16879238188266754,-1.5549746751785278,0.40433627367019653,-1.091721534729004,-0.41174203157424927,0.08807181566953659,1.6447840929031372,2.167393207550049,-1.7330540418624878,0.3352392911911011,-0.17799106240272522,-0.5255037546157837,-0.39889952540397644,0.6654331684112549,-0.2803384065628052,1.8161518573760986,-0.3912527561187744,1.2722598314285278,2.009538173675537,0.12754517793655396,1.400625467300415,-0.7493836283683777,0.8184865117073059,0.622481644153595,-0.4652104079723358,0.5319250226020813,0.44258514046669006,0.8723213076591492,-0.681777834892273,-0.6390588283538818,0.5300424695014954,-0.978193998336792,0.8817256689071655,0.35225990414619446,-0.09123051166534424,-0.914705753326416,-0.6750063300132751,-0.6561564803123474,-0.18620403110980988,-0.5651451945304871,-0.5596253871917725,0.18395353853702545,-0.690998911857605,0.11943059414625168,0.89662104845047,0.2508726418018341,-0.5795551538467407,0.2559007406234741,0.8158383369445801,0.7488239407539368,-0.11291895061731339,-0.27390146255493164,0.26546424627304077,-0.9433316588401794,0.8536191582679749,0.8838123679161072,-0.6334277987480164,-0.9033896923065186,-0.9364202618598938,-0.6047084927558899,-0.7349056601524353,-0.30408167839050293,-0.12343356758356094,0.33442503213882446,-0.33149778842926025,0.07362499088048935,-0.5709441900253296,-0.903217077255249,0.3095267117023468,-0.9181368350982666,-0.4485624134540558,-0.46778878569602966,0.7554828524589539,1.0358550548553467,-1.400744080543518,0.6276304721832275,-0.5365989804267883,-0.8379743099212646,0.2133329063653946,0.6888763904571533,0.4037117063999176,1.1175874471664429,0.1330278515815735,1.1425237655639648,1.7567403316497803,-0.03635723143815994,1.0515769720077515,-0.2667697072029114,-0.0672382190823555,0.9167997241020203,-0.5716455578804016,0.6539534330368042,-0.31649720668792725,-0.536982536315918,-0.8898411989212036,-0.7552001476287842,0.4203648865222931,0.2887051999568939,-0.5382180213928223,0.6629952192306519,-0.40891149640083313,-0.1753886640071869,0.47543269395828247,-0.8371087312698364,0.5407605767250061,-0.49949780106544495,-0.40895941853523254,-0.4716903865337372,-0.7363420724868774,0.5996659994125366,0.08861728757619858,-0.9526670575141907,-0.21644042432308197,-0.9825201034545898,0.3050309419631958,0.5304556488990784,0.8951436281204224,0.6507158875465393,-0.6781960129737854,-0.05864785239100456,0.5650815367698669,-0.31468135118484497,0.03261871635913849,0.15058979392051697,-0.3071805238723755,0.38005268573760986,-0.5516940951347351,0.8110224008560181,0.8119756579399109,0.8102014064788818,0.8674671649932861,-1.0194892883300781,-0.8091084957122803,0.02019422873854637,1.1480127573013306,-0.23711033165454865,-0.49237754940986633,-0.4162473678588867,-0.10809824615716934,-0.13494931161403656,0.14879532158374786,0.5582254528999329,-0.2992861568927765,-1.47036612033844,1.3533836603164673,0.9892012476921082,0.7715421915054321,-0.5424205660820007,1.000349521636963,0.24580271542072296,0.18191269040107727,-0.44701194763183594,0.17227905988693237,0.5821592211723328,0.46596184372901917,-0.11765886098146439,-1.6621474027633667,-0.47717276215553284,0.18134592473506927,-0.06517812609672546,-0.12706398963928223,0.059002574533224106,-1.032350778579712,-0.24682402610778809,-0.2114138901233673,1.1672632694244385,-2.098726511001587,-0.03026753105223179,-0.2331591546535492,0.15155424177646637,-0.25517842173576355,0.11098610609769821,0.41754740476608276,0.44230082631111145,0.174357607960701,-0.3468257486820221,-0.12199553847312927,1.3533776998519897,0.320192813873291,1.3706071376800537,-0.20538997650146484,-0.3873520493507385,-0.9610804319381714,-0.9554951786994934,0.21908943355083466,0.06309135258197784,-0.5403348207473755,-0.37300509214401245,-0.00036648500827141106,0.13312774896621704,0.42549118399620056,-1.0899158716201782,0.5912611484527588,-1.0541296005249023,-0.7835233807563782,-0.7973938584327698,-1.332321047782898,0.8953679203987122,-0.31477391719818115,-0.9044788479804993,0.5336501598358154,-0.9458844065666199,-0.17798154056072235,-0.21199682354927063,0.8634273409843445,1.0780277252197266,-1.582453727722168,0.3723350763320923,-0.3120671808719635,-0.9115926623344421,0.0888417437672615,0.7048303484916687,0.16741010546684265,0.9971941709518433,-0.06316126883029938,0.855012059211731,1.5088196992874146,0.21675840020179749,0.838324785232544,-0.6050798296928406,0.5597690343856812,0.59316486120224,-0.24517576396465302,0.6733575463294983,0.46549808979034424,0.35997453331947327,-0.5824939608573914,-0.973945140838623,1.0889735221862793,-0.6053733229637146,0.3580281734466553,-0.09730876237154007,0.1649477332830429,-0.3411250710487366,-0.29533088207244873,-0.9013694524765015,0.18718814849853516,-0.6326801180839539,-0.8030372858047485,0.11736007779836655,-0.8057463765144348,0.14490564167499542,0.9578860998153687,0.4567006528377533,-1.0779074430465698,0.2791224718093872,0.9781438112258911,0.8710325360298157,-0.3641713261604309,-0.47013750672340393,-0.06495872884988785,-1.097812533378601,0.7980321645736694,0.9396410584449768,-1.332940697669983,-0.7457036972045898,-0.9367265701293945,-0.4134449064731598,-0.5095288753509521,-0.38284245133399963,-0.1866103559732437,0.8179064989089966,-0.3993852734565735,-0.30093103647232056,1.0439183712005615,0.4403337240219116,-0.7620989680290222,0.5024388432502747,0.9929450154304504,0.7722299098968506,-0.30692237615585327,-0.654403567314148,0.1303146630525589,-0.9025668501853943,0.7548720240592957,0.9650394320487976,-0.34149959683418274,-1.0621681213378906,-0.7390835285186768,-0.5634624361991882,-0.6608965992927551,-0.4692956805229187,-0.5441060662269592,0.915836751461029,-0.6514344811439514,-0.3694652020931244,0.8416175842285156,0.5710226893424988,-0.6147549748420715,0.5390518307685852,0.8182137608528137,0.647693932056427,-0.6297687292098999,-1.0231773853302002,0.708842396736145,-0.8461059331893921,0.6713858246803284,0.626792848110199,-0.36196041107177734,-0.7695271372795105,-0.6195938587188721,-0.8076941967010498,-0.32027846574783325,-1.2693634033203125,-1.065173864364624,0.48574119806289673,-0.9338339567184448,-0.2277454137802124,-1.0163979530334473,-0.15668094158172607,1.2195353507995605,-0.16113977134227753,-0.6974880695343018,-1.0634046792984009,-0.007464544847607613,0.04037380591034889,0.14940908551216125,0.7785660624504089,-0.8467493653297424,-0.9015154242515564,0.9753596782684326,1.0099090337753296,1.0308470726013184,-0.5290213227272034,1.2629400491714478,0.25631940364837646,0.2833898663520813,-1.0523576736450195,0.1480018049478531,0.9234873056411743,0.7778566479682922,0.021199967712163925,-1.0407384634017944,-0.022994790226221085,1.0014184713363647,0.7623242735862732,0.1668354868888855,0.22183121740818024,-0.5221242904663086,-0.8351365923881531,0.2657112777233124,1.3104028701782227,-1.2284584045410156,-0.7959816455841064,-0.9770525097846985,0.28046995401382446,-1.3918931484222412,0.2111748605966568,-0.006919126957654953,0.6384804248809814,0.18697477877140045,-0.6856192946434021,0.3568422198295593,0.7592425346374512,-0.6837895512580872,0.8176030516624451,0.2724640369415283,0.37315231561660767,-0.7098665833473206,-0.888758659362793,0.7221837639808655,-0.5414119362831116,0.312649130821228,0.7692621350288391,-0.08383169770240784,-0.6822760105133057,-0.33049631118774414,-0.8660520911216736,-0.1267337054014206,-1.050052523612976,-0.9392713904380798,0.042885638773441315,-0.8861901760101318,0.02301403507590294,-0.4659906029701233,-1.0114785432815552,0.27318981289863586,-1.411710500717163,-0.5119633674621582,-0.4160209000110626,0.7656278610229492,0.9300707578659058,-1.956139326095581,0.5826669335365295,-0.3533802032470703,-0.6681845784187317,0.17558546364307404,0.7168012261390686,0.3696710765361786,0.960666298866272,-0.6141534447669983,1.2260560989379883,1.5398383140563965,0.4181458055973053,1.232143759727478,-0.32662051916122437,0.9281230568885803,0.17540326714515686,-0.841325044631958,0.16503603756427765,0.6492425203323364,1.0322104692459106,-0.1312708854675293,-0.1570950150489807,-0.16861793398857117,-1.0139894485473633,0.9475761651992798,0.9006037712097168,-1.213196039199829,-0.7071529030799866,-1.0617191791534424,-0.1486709862947464,-0.606670081615448,-0.2224847972393036,-0.07892929017543793,0.6419401168823242,-0.2769511044025421,-0.39300650358200073]},"inputHidden":{"rows":20,"columns":20,"weights":[0.06827695667743683,-0.7946121692657471,0.6133871078491211,0.04190150648355484,-0.9988223910331726,0.33013445138931274,0.028791170567274094,-0.24253350496292114,-0.05695021525025368,0.6056000590324402,0.8826960325241089,-0.545070230960846,-0.03212689235806465,0.1381760686635971,-0.13318857550621033,-0.12699539959430695,0.04077105596661568,-0.7908984422683716,-0.20490485429763794,-0.6357972025871277,0.6530405879020691,-0.4775664508342743,0.2713025212287903,0.2549300789833069,0.3485199809074402,0.610489010810852,-0.5181306600570679,-0.10602669417858124,-0.962100088596344,0.3414563536643982,0.2746752202510834,0.09292810410261154,0.1093258261680603,-0.4107683300971985,0.5695247650146484,0.04054103046655655,0.404461145401001,0.5132709741592407,-0.034991174936294556,-0.13339371979236603,-0.27168914675712585,0.15945422649383545,0.17912593483924866,-0.23748554289340973,-0.32844817638397217,-0.1615484356880188,0.14989697933197021,-0.3383578956127167,0.37823671102523804,-0.060045596212148666,0.2513568103313446,-0.29190799593925476,-0.2794104814529419,0.2952270209789276,-0.2607564926147461,-0.1755220890045166,-0.20661985874176025,-0.2254771888256073,-0.6263957023620605,-0.25833311676979065,-0.5037369728088379,-0.9110807180404663,-0.07349476218223572,0.14276666939258575,-1.0665794610977173,-0.4096699357032776,0.27504226565361023,-0.944460391998291,1.0574578046798706,0.5579048991203308,0.6421063542366028,-0.046535324305295944,-0.07845129072666168,0.196426659822464,-0.35809072852134705,-0.7052451372146606,0.030300457030534744,0.07624758780002594,-0.2142849713563919,0.21564838290214539,0.551869809627533,-0.3376559019088745,0.11472691595554352,0.04637620598077774,-0.1884888857603073,0.9019080400466919,-0.11052792519330978,0.2021428942680359,-0.7263414859771729,-0.13025157153606415,0.12929125130176544,0.028763702139258385,0.24495108425617218,0.2275507003068924,0.010118282400071621,0.3975614309310913,0.22326190769672394,-0.147269606590271,0.6398839950561523,0.12474380433559418,-0.2488236129283905,-0.6662168502807617,-0.06903862208127975,0.10995380580425262,-0.22637149691581726,0.8468109965324402,0.3349572420120239,0.771496057510376,0.6330651640892029,-0.09701215475797653,-0.2751297652721405,-0.4053419530391693,0.23365989327430725,0.42817169427871704,-0.6117492914199829,0.9651522040367126,0.3367450535297394,-0.5857651829719543,-0.0874924287199974,0.27482137084007263,-0.48911455273628235,-0.6791979074478149,0.18559540808200836,-0.8866621851921082,-1.122931957244873,-0.5228817462921143,0.3422943949699402,-0.6256837844848633,0.38304808735847473,0.5425288081169128,1.0598442554473877,-0.2376188337802887,-1.0382297039031982,0.8897013068199158,-0.9082115292549133,-0.48075324296951294,-0.38813936710357666,-0.16690035164356232,-0.193734809756279,-0.3487519323825836,-0.7698369026184082,-0.39750799536705017,0.07928768545389175,-0.4925375282764435,-0.9938600063323975,-0.29010117053985596,0.018786923959851265,-0.23325496912002563,0.33159300684928894,-0.012453640811145306,0.4227151870727539,0.08661075681447983,-0.5245555639266968,0.21171435713768005,-0.2509872019290924,-0.5741224884986877,-0.23045417666435242,0.11285284906625748,-0.56819748878479,-0.33056551218032837,-0.5409048795700073,-0.7857942581176758,0.8033881783485413,-1.2377598285675049,-0.8391399383544922,0.5726603269577026,0.23337702453136444,0.7360808849334717,-1.1032001972198486,0.5191776156425476,0.25672343373298645,-1.0960397720336914,-1.6238365173339844,0.9667650461196899,-1.2937973737716675,0.7113544344902039,-0.4028337597846985,-1.638318419456482,0.20928457379341125,-1.0494590997695923,-0.13008633255958557,-0.45756322145462036,-0.1968291997909546,0.4185575246810913,0.3101052939891815,0.4117588698863983,-0.23379182815551758,0.13775326311588287,0.3631041646003723,-0.512697696685791,-0.39760392904281616,0.016243567690253258,0.3872394561767578,-0.41721656918525696,0.3638741075992584,0.36363592743873596,0.6654312014579773,-0.3032394349575043,-0.7385631203651428,0.3341611921787262,0.1104423776268959,-0.9044632911682129,-0.24327771365642548,0.07714755088090897,0.011868775822222233,0.34962892532348633,-0.4413742423057556,0.25232622027397156,-0.4395361542701721,0.035409122705459595,0.551111102104187,0.22301051020622253,-0.017959071323275566,-0.112993523478508,0.18913032114505768,0.4218710958957672,0.26949355006217957,0.269104540348053,1.2519774436950684,-0.17160581052303314,-0.3229708969593048,-0.42265042662620544,0.3911292254924774,-0.3520124852657318,-0.510678768157959,-0.33535850048065186,0.1972607970237732,-0.38269633054733276,0.2329305112361908,0.21840161085128784,0.540570855140686,-0.3256141245365143,-0.3383829891681671,0.336532324552536,-0.35495510697364807,-0.3624339997768402,-0.2777515649795532,-0.26988720893859863,-0.4112829566001892,-0.4187811017036438,-0.5294560790061951,-0.13130876421928406,-0.08894726634025574,-0.04007071256637573,-0.7023166418075562,-0.5086261630058289,-0.061193469911813736,-0.7532947659492493,0.7310605049133301,0.41020509600639343,0.32018184661865234,0.032237228006124496,0.009474712423980236,0.04760481417179108,-0.011267893016338348,-0.6730148196220398,0.11275740712881088,0.18064755201339722,-1.0540505647659302,0.0585063211619854,-0.32428768277168274,-0.8996395468711853,-0.19661755859851837,-0.049588240683078766,-0.6210690140724182,-0.8014309406280518,0.25300490856170654,-0.7772909998893738,-0.06420810520648956,0.005576829891651869,1.0156818628311157,0.07538175582885742,-0.24300304055213928,-0.11143510788679123,0.09544143825769424,-0.684924840927124,-0.34562456607818604,0.14011086523532867,-0.22965528070926666,-0.3521060049533844,-0.3372684121131897,-0.3739864230155945,0.14786432683467865,-0.2054157257080078,-0.3456832468509674,-0.36180737614631653,0.18097911775112152,-0.5847262740135193,0.17774173617362976,0.2686218023300171,0.5305922627449036,-0.16766603291034698,-0.27506932616233826,0.08567754179239273,-0.15019093453884125,-0.5636521577835083,-0.2608940005302429,-0.1084829717874527,-0.35380882024765015,-0.29385411739349365,-0.7986898422241211,-0.20252813398838043,-0.03980188071727753,-0.597946286201477,-0.6528621315956116,-0.07421796023845673,0.08285199105739594,0.15976034104824066,0.34047845005989075,-0.13011546432971954,0.30549463629722595,0.058525655418634415,-0.5214911699295044,0.615474283695221,-0.5933153629302979,-0.26542165875434875,0.04366597160696983,0.029591724276542664,-0.2779808044433594,0.01764378696680069,-0.3860236406326294,0.39851805567741394,0.9813464879989624,-0.39850667119026184,0.14095699787139893,-0.01303568109869957,0.23467744886875153,0.045477066189050674,0.11815457791090012,0.01890392228960991,-0.3710242509841919,-0.9489794969558716,-0.5244741439819336,0.7056607007980347,-0.5551855564117432,0.301059365272522,-0.4943462014198303,-0.9676939249038696,-0.27512699365615845,-0.6564865112304688,-0.6061488389968872,0.05273856967687607,-0.1441015750169754,0.25663039088249207,-0.6938506960868835,-0.3956291973590851,-0.06952707469463348,-0.4267212152481079,0.6973648071289062,0.1528244912624359,0.40797892212867737,-0.014493471942842007,0.07458214461803436,0.007009831722825766,-0.03158025071024895,-0.49535611271858215,0.1894850879907608,-0.22465156018733978,-0.9742152094841003,-0.10815533250570297,0.009734448976814747,-0.10347768664360046,0.609852135181427,-0.17539504170417786,-0.15348249673843384,0.22544749081134796,0.32672184705734253,0.16313834488391876,-1.0329290628433228,-0.1855604201555252,0.11514768749475479,-0.4940093159675598,-0.2157983034849167,0.11759040504693985,-0.15684354305267334,0.15537285804748535,-0.20807361602783203,-0.509671688079834,0.06338561326265335,-0.050520993769168854,-0.5075799822807312,-0.30419400334358215,0.027622288092970848,-0.07869483530521393,-0.8002488017082214,-0.21865606307983398,0.008709713816642761,-0.4036855697631836,0.7846946120262146,0.35214611887931824,0.3729059398174286,-0.16257040202617645,-0.03640728071331978,0.06592555344104767,-0.15256811678409576,-0.31766584515571594,0.05558794364333153,-0.11586792021989822,-1.146628737449646,-0.12096786499023438]},"inputBias":{"rows":20,"columns":1,"weights":[0.014051544480025768,-0.42164191603660583,-0.5990608930587769,0.5210543870925903,0.02899603359401226,-0.12116721272468567,0.3614969849586487,-0.5340504050254822,-2.323519229888916,-0.03871484473347664,-0.1983565092086792,-0.1828945428133011,-0.6154577136039734,-0.05066298320889473,-0.08607804775238037,-0.04602570831775665,-0.8011246919631958,0.050230398774147034,-1.1005442142486572,-0.6111993789672852]},"forgetMatrix":{"rows":20,"columns":22,"weights":[0.13428285717964172,0.9188060164451599,0.07487649470567703,0.7635921835899353,0.06357850134372711,-0.10495182871818542,-0.7249891757965088,-0.5851970314979553,-0.18751026690006256,-0.1119348332285881,0.001150729600340128,-0.36781394481658936,0.49694350361824036,0.1164621114730835,0.22680534422397614,-0.46066877245903015,0.6159923672676086,-0.06269076466560364,0.09930059313774109,-0.6127128601074219,-0.4387003183364868,1.147530436515808,0.41006413102149963,-0.33013471961021423,0.034541819244623184,-0.03540918603539467,0.15486367046833038,0.5799673795700073,0.27926501631736755,0.6494183540344238,0.688837468624115,-0.2623065412044525,0.37595537304878235,-0.00041384907672181726,-0.2504095435142517,-0.3622329533100128,-0.37814611196517944,0.3776927590370178,-0.4679728150367737,-0.08998951315879822,-0.9065893292427063,0.3434051275253296,0.2931612730026245,-0.3984331786632538,0.9513053894042969,0.03588765114545822,-0.8130595684051514,0.2178739458322525,0.550937294960022,0.9651095867156982,-0.014992616139352322,0.09591226279735565,-0.28049927949905396,-0.7800674438476562,0.7716073989868164,1.175017237663269,-0.8586824536323547,-0.870722770690918,-1.0144197940826416,0.1702961027622223,-1.0635074377059937,-0.13610319793224335,-0.14021241664886475,0.8770245909690857,-0.015439601615071297,-0.4543488025665283,0.32650652527809143,-0.32253938913345337,-0.3776756525039673,-0.19387207925319672,0.3615732789039612,0.33469754457473755,0.614561915397644,0.46411454677581787,-0.5376961827278137,-0.4306892454624176,0.21861983835697174,0.40013387799263,-0.5252861976623535,-0.333994597196579,-0.4748421311378479,0.0729825347661972,-0.391028493642807,0.36521586775779724,0.5478925108909607,0.4327739179134369,0.27869027853012085,-0.6521556377410889,-0.711334228515625,-0.08498819172382355,1.1418317556381226,-0.2589845657348633,-0.29355794191360474,-0.40957438945770264,0.05555012449622154,0.9401655793190002,-0.035066645592451096,0.38857606053352356,-0.4223393499851227,-1.0020053386688232,0.8356252312660217,0.7683802843093872,0.3953847885131836,0.5268343687057495,0.6429535150527954,0.8239859342575073,0.6723766326904297,-0.48551294207572937,0.2768603265285492,0.1547836810350418,-0.45427563786506653,0.943501353263855,0.35296007990837097,0.815480649471283,-0.38118085265159607,-0.37305188179016113,-0.8943497538566589,-0.7769301533699036,0.5976351499557495,0.45638447999954224,-0.44759848713874817,-0.44305112957954407,0.5390285849571228,0.4762466847896576,0.43857163190841675,-0.7304046750068665,0.36303508281707764,-1.020216464996338,-0.6904534697532654,-0.3488825857639313,-0.787201464176178,0.8287113308906555,0.8005402088165283,0.3964304029941559,-0.4659315347671509,0.3762712776660919,0.7734664678573608,1.021092414855957,0.2802185118198395,-0.38675299286842346,0.2534608840942383,-0.927196741104126,1.064764380455017,0.5216009020805359,-0.6115468740463257,-0.7014720439910889,-0.9680879712104797,-0.24211035668849945,-0.9263975620269775,-0.44086042046546936,-0.14106900990009308,0.775192379951477,-0.29056796431541443,-0.5536931753158569,-1.0344244241714478,0.14868485927581787,1.0755172967910767,0.14946025609970093,-0.4749956727027893,-0.8515955209732056,-0.012228169478476048,0.18647733330726624,0.37065234780311584,0.8573417663574219,-0.6752891540527344,-1.4148041009902954,1.0859453678131104,0.8142482042312622,0.9328241348266602,0.013731434009969234,0.8251264095306396,0.3324965834617615,0.052534978836774826,-0.454579621553421,0.009927081875503063,0.25057241320610046,0.8196789622306824,0.3681488335132599,-0.7107515931129456,0.4017491042613983,0.8876416087150574,0.8897202014923096,-0.1392732858657837,-0.29412558674812317,0.09810510277748108,-0.9487589001655579,1.019031047821045,0.7520849704742432,-0.7909791469573975,-0.8647882342338562,-0.9233177304267883,-0.20802417397499084,-0.8659670352935791,-0.5131063461303711,-0.43331053853034973,0.6603565216064453,-0.281404048204422,-0.47155657410621643,-0.9210168123245239,-0.6542006134986877,1.4325780868530273,-0.618913471698761,-0.5196792483329773,-0.5043900012969971,0.3699888288974762,0.6402027010917664,-0.25234362483024597,0.8731095790863037,-0.6350034475326538,-1.7326297760009766,0.9080044627189636,1.0993239879608154,0.5870512127876282,0.5108759999275208,0.0975770428776741,0.7056238651275635,0.44688811898231506,0.005087493918836117,0.6794567108154297,-0.1613016426563263,-0.7226731181144714,0.0060914047062397,0.43479421734809875,-0.0714457705616951,-0.692773163318634,-0.28468528389930725,-0.26928719878196716,-0.24456726014614105,0.7231664061546326,0.5142191648483276,-0.09651125967502594,-1.251524806022644,0.5749703645706177,0.6824594140052795,0.5894712805747986,-0.34341633319854736,0.7413234710693359,0.03519894555211067,-0.11749766021966934,-0.4846712350845337,0.043921541422605515,0.48036375641822815,0.8677874803543091,0.7241181135177612,-0.05463922396302223,0.9728096723556519,0.6784089803695679,1.0562025308609009,-0.27588555216789246,-0.35172897577285767,0.08127100765705109,-0.9744870066642761,1.0239264965057373,0.5088866353034973,0.10670144855976105,-0.6377795934677124,-0.938465416431427,-0.28966179490089417,-0.648309588432312,-0.5659067630767822,-0.6311224699020386,0.7551701664924622,-0.6991655230522156,-0.09051167219877243,0.33077743649482727,-0.13909929990768433,-0.4680805802345276,-0.16015492379665375,0.20803678035736084,0.29420194029808044,0.34381023049354553,0.12400699406862259,-0.4809991419315338,-0.32941678166389465,0.34577590227127075,0.6021915674209595,-0.6533330082893372,-0.3318936824798584,-0.3325398862361908,0.04284292086958885,-0.5438108444213867,0.10712556540966034,0.40204206109046936,0.5500932335853577,0.14371837675571442,-0.6260583996772766,0.9062416553497314,0.2028888314962387,-0.6280488967895508,0.18296587467193604,0.545452356338501,0.7115820646286011,-0.03369755297899246,-0.08095770329236984,-0.14717881381511688,-0.7605699300765991,0.6675525903701782,0.9516564011573792,-0.6147151589393616,-0.82173091173172,-0.7128346562385559,-0.33635953068733215,-0.6346275210380554,-0.0035896345507353544,0.017822548747062683,0.6125311851501465,-0.15494996309280396,-0.20245520770549774,0.6145890355110168,0.26484453678131104,-0.5802060961723328,0.39592400193214417,0.38270074129104614,0.6250287890434265,-0.14755696058273315,-0.32389065623283386,0.33279404044151306,-0.4790365397930145,0.5869452357292175,0.8235333561897278,-0.4255601763725281,-0.8571279048919678,-0.4924122393131256,-0.4592851996421814,-0.536422848701477,-0.06955310702323914,-0.3055881857872009,0.5409356355667114,-0.2946436107158661,-0.03200266510248184,-0.4749067723751068,0.41876888275146484,0.7495521306991577,0.31829074025154114,-0.5915904641151428,-0.5702397227287292,-0.3615943193435669,-0.33503687381744385,1.1130280494689941,0.4698679447174072,-0.4513455331325531,-1.1324962377548218,0.9405423998832703,0.6648991703987122,0.505057692527771,-0.528180718421936,0.6824227571487427,0.12251589447259903,-0.27399876713752747,-0.4849179685115814,-0.1876324862241745,0.5037797093391418,1.0605639219284058,0.6010884046554565,-0.9432154297828674,0.7497031092643738,1.0892369747161865,1.2165117263793945,-0.03081786073744297,-0.6237972974777222,0.06276408582925797,-1.2938728332519531,1.1933094263076782,1.055394172668457,-1.1515259742736816,-0.9214606881141663,-1.0701075792312622,-0.032414406538009644,-0.929241418838501,-0.6475949883460999,-0.5182716846466064,0.9900129437446594,-0.5640527009963989,-0.9422156810760498,0.7564173340797424,1.3415770530700684,-0.2028440535068512,1.3353193998336792,1.0224149227142334,0.5660184621810913,-1.2445508241653442,-0.8340067267417908,1.5486012697219849,-1.094713807106018,0.8317378759384155,0.3521227240562439,-0.37710636854171753,-0.8351737856864929,-0.5027279257774353,-1.7406123876571655,-0.27313557267189026,-0.47289422154426575,-0.7059915661811829,0.416782945394516,-1.6730517148971558,0.4693739712238312,-0.6916059851646423,-0.9174402356147766,0.4984925091266632,-1.1076173782348633,-0.3390054702758789,-0.1724608689546585,0.9694872498512268,0.8895366191864014,-0.6440781354904175,0.5064489245414734,-0.07789664715528488,-0.9397215843200684,0.663392186164856,0.4713938534259796,0.2585098147392273,0.8940585255622864,-0.44403067231178284,1.2828805446624756,1.0812196731567383,0.6275919079780579,1.0742567777633667,-0.9725200533866882,0.6182061433792114,0.11965592950582504,-0.7957879304885864,0.10587430000305176,0.5311644673347473,0.7428498268127441,0.2136431187391281,-0.0159338116645813,-0.24501444399356842,-0.7922861576080322,0.7479746341705322,1.4228354692459106,-1.2776390314102173,-0.6195014119148254,-0.8336994647979736,0.09777218848466873,-1.0121972560882568,-0.24751949310302734,0.021838437765836716,0.8091254830360413,-0.08240275830030441,-0.6881625056266785]},"forgetHidden":{"rows":20,"columns":20,"weights":[-0.15846553444862366,-0.8511876463890076,0.1585494726896286,-1.1533856391906738,0.33491894602775574,-0.626164436340332,0.8646100163459778,-0.5601479411125183,0.175932377576828,0.414483904838562,0.4574551582336426,-0.09584162384271622,-1.065080165863037,0.7625367045402527,-0.6583307385444641,-0.6312144994735718,-0.591576099395752,0.04044460877776146,0.7564022541046143,-0.3037106990814209,0.22616319358348846,0.9562283158302307,-0.21666330099105835,0.32632237672805786,1.695815086364746,2.1884613037109375,-0.5901730060577393,0.5959076285362244,-0.17947109043598175,-0.39662277698516846,-1.1364233493804932,0.2860775887966156,0.44853439927101135,-0.23206786811351776,0.17672580480575562,0.8268639445304871,0.5550929307937622,1.405250072479248,0.4939455986022949,0.013547418639063835,-0.24210797250270844,-0.27357348799705505,0.2993398904800415,-0.3078140318393707,-0.38506263494491577,-0.3972807228565216,0.22917571663856506,-0.32793664932250977,0.3152925372123718,0.33265653252601624,0.5056198835372925,-0.37976449728012085,-0.20176345109939575,0.32293233275413513,-0.2694319486618042,-0.288456529378891,-0.32017970085144043,-0.3235686719417572,-0.3989256024360657,-0.41497159004211426,-0.5320256948471069,-0.08557699620723724,0.3556249439716339,-0.6740086078643799,-0.3963213860988617,-0.6617386937141418,0.29814252257347107,-0.33235684037208557,0.6468891501426697,0.434205561876297,0.18240773677825928,-0.2738068103790283,-0.8246704339981079,0.7792276740074158,-0.8566590547561646,-0.2873969078063965,-0.31648004055023193,-0.16976988315582275,-0.41663479804992676,-0.34833210706710815,-0.5453066825866699,0.6324292421340942,-0.3393908739089966,0.47559091448783875,0.410276859998703,1.0527102947235107,-1.2984813451766968,-0.0538024827837944,0.611164927482605,-0.012828675098717213,-0.31058868765830994,0.361672967672348,0.29877400398254395,-0.3963491916656494,0.42179107666015625,0.0728161633014679,1.0369032621383667,0.6611949801445007,-0.293986052274704,0.20617333054542542,-0.14032518863677979,-0.053692691028118134,1.4046146869659424,-1.5232951641082764,-0.596376359462738,0.09439924359321594,0.2171378880739212,-0.19112569093704224,-0.0593973770737648,0.23242391645908356,0.3053196668624878,-0.9188836216926575,-0.9163630604743958,1.1476198434829712,-0.9766843914985657,0.061240263283252716,-1.0182892084121704,-0.8177888989448547,-0.6195123195648193,-0.8785801529884338,-0.6094005107879639,-0.2868298888206482,0.013122521340847015,-0.09716439992189407,-0.6300501227378845,-0.40331771969795227,0.24243636429309845,-0.4529547691345215,0.6694275140762329,0.39233964681625366,0.39506182074546814,-0.11733748018741608,-0.05956219881772995,0.23996418714523315,-0.1135789155960083,-0.37582769989967346,-0.27159178256988525,-0.12438267469406128,-0.8614152073860168,-0.021783240139484406,-0.42460766434669495,-0.15607678890228271,0.16023790836334229,-0.3940611481666565,-0.012720070779323578,-0.9263364672660828,0.3653974235057831,-0.16993437707424164,0.4627557098865509,-0.22886283695697784,-0.07802458852529526,0.07817977666854858,-0.4087139070034027,-0.07963408529758453,0.09147559851408005,-0.35969582200050354,-0.40120282769203186,0.050568871200084686,-0.36904701590538025,-0.22781741619110107,-0.740235447883606,-0.21121463179588318,-0.11193602532148361,0.10085247457027435,-0.6164619326591492,-0.1238909587264061,0.1815290004014969,-0.43736690282821655,1.1383283138275146,0.8078804016113281,0.3934095501899719,0.09338319301605225,0.12202193588018417,0.021407755091786385,-0.12806975841522217,-0.6908043622970581,0.2183539867401123,-0.022410115227103233,-0.9212096333503723,0.13050633668899536,-0.07455206662416458,-0.18628503382205963,0.44499728083610535,-1.0217835903167725,0.4507107734680176,-0.5222171545028687,1.0027765035629272,0.3990854322910309,-0.4817776679992676,-0.41399621963500977,-0.38152286410331726,-0.5383679270744324,-0.7865815162658691,0.6373013854026794,-0.6253297924995422,0.2533697485923767,-1.029187798500061,0.11545903980731964,0.493757039308548,-0.9984530806541443,-0.09339221566915512,0.9332889914512634,-0.27409279346466064,0.08535382896661758,0.5491398572921753,0.1486670970916748,-0.5548040866851807,0.2552163302898407,-0.21371805667877197,-0.8410714268684387,-1.0717616081237793,0.5618724822998047,0.218424454331398,-0.49507102370262146,0.5133166313171387,0.11739525943994522,0.2556820213794708,0.5406474471092224,0.25555089116096497,0.23855632543563843,-0.18517829477787018,-0.26797327399253845,0.26375001668930054,-0.2921542227268219,-0.49628230929374695,-0.21811701357364655,0.22437958419322968,-0.5434803366661072,0.32919833064079285,0.3632349669933319,0.4116646945476532,-0.2505713403224945,-0.2553502321243286,0.243272602558136,-0.34782910346984863,-0.2430940568447113,-0.20010563731193542,-0.2644270956516266,-0.18601930141448975,-0.26835376024246216,-0.34867987036705017,-0.13447730243206024,0.4550093412399292,-0.5554684996604919,-0.49211451411247253,-0.8305026292800903,0.12743787467479706,-0.31919246912002563,0.22096692025661469,0.48098644614219666,0.31528517603874207,-0.47773417830467224,-0.580290675163269,0.659561038017273,-0.7278522253036499,-0.38793638348579407,-0.38199782371520996,-0.5236812233924866,-0.7683020234107971,-0.4352802634239197,-0.22506561875343323,-0.3169061541557312,0.11850880086421967,-0.20001661777496338,-0.49201756715774536,-0.41221433877944946,0.1989804059267044,-0.6920526027679443,0.259713739156723,0.2386000007390976,0.5196784734725952,-0.12738193571567535,-0.4128684401512146,0.26520097255706787,-0.37957412004470825,-0.3300115466117859,-0.3009323179721832,-0.23133525252342224,-0.2624443769454956,-0.2670206129550934,-0.22520533204078674,-0.2705463767051697,0.12719689309597015,-0.11783604323863983,-0.7631821036338806,-0.2962881028652191,0.2731914520263672,-0.5606963038444519,0.3501552939414978,0.29328861832618713,0.657538115978241,-0.33177703619003296,-0.37200531363487244,0.34307336807250977,-0.44533783197402954,-0.24329036474227905,-0.19910410046577454,-0.3217768371105194,-0.30629584193229675,-0.19346177577972412,-0.49763575196266174,-0.2692599594593048,0.007232590112835169,-0.538253664970398,-0.1918327808380127,-0.4325360953807831,0.26399484276771545,0.04289355129003525,0.6218794584274292,-0.05102089047431946,0.22034624218940735,0.12516231834888458,-0.495570570230484,0.24220231175422668,-0.30711042881011963,-0.15821582078933716,-0.06604135781526566,-0.06755346804857254,-0.27764469385147095,-0.1752736121416092,-0.5031569004058838,-0.17407703399658203,0.241743266582489,0.1068013533949852,-0.5544008016586304,-0.4525316059589386,0.1727626472711563,-0.4844664931297302,0.30275076627731323,0.22696271538734436,0.31171712279319763,-0.3028959035873413,0.12039151042699814,-0.07799530774354935,0.09800127893686295,-0.4794716238975525,-0.3672509789466858,-0.31118232011795044,-0.8986663222312927,-0.32070451974868774,-0.3588329255580902,0.14177201688289642,-0.2883850932121277,0.2527638077735901,-0.022196495905518532,-0.9495196342468262,0.18587543070316315,-0.26787930727005005,0.6578137278556824,-0.5232542753219604,0.16016626358032227,0.20397333800792694,0.2849726378917694,-0.3670004904270172,0.2939847707748413,-0.32515203952789307,0.051306311041116714,-0.044606734067201614,-0.31829220056533813,0.10102318227291107,-0.28818172216415405,0.013935726135969162,0.045637354254722595,0.6587831974029541,-0.7618541717529297,-0.27191391587257385,-0.03569668531417847,-0.33407720923423767,1.1696821451187134,0.3857439458370209,0.29460322856903076,-0.07683008909225464,0.5687915086746216,0.2099391520023346,-0.1699456125497818,-0.3253284990787506,0.32303184270858765,-0.1270248293876648,-1.1547577381134033,-0.1793140470981598,-0.573606014251709,-0.23677514493465424,0.3303060233592987,-0.10220599919557571,-0.5016655325889587,-0.47191762924194336,0.15619732439517975,-0.23531295359134674,0.5223496556282043,0.2492855042219162,0.233658105134964,-0.34427890181541443,-0.0069392709992825985,0.3662079870700836,-0.32345831394195557,-0.364952951669693,-0.15340673923492432,-0.3683176636695862,-0.9073293805122375,-0.19016242027282715]},"forgetBias":{"rows":20,"columns":1,"weights":[0,0,0,0,0,0,0,0,0,0,0,0,0,0,0,0,0,0,0,0]},"outputMatrix":{"rows":20,"columns":22,"weights":[0.6257265210151672,-0.657309889793396,-0.2544025480747223,-0.6036525368690491,0.6511494517326355,0.6012251377105713,0.6331328749656677,0.6737422943115234,-0.5068288445472717,-0.6628445982933044,0.53883957862854,0.35834792256355286,-0.2129475325345993,-0.33915096521377563,-0.5871583819389343,0.6754707098007202,-0.41343986988067627,0.6529368758201599,0.6349776387214661,0.570530354976654,0.596769392490387,-0.6831209659576416,-0.7802901268005371,-0.11903306841850281,1.1170884370803833,-0.13842149078845978,-0.35847538709640503,0.16598884761333466,0.609029233455658,0.39479002356529236,0.07358096539974213,0.40051141381263733,0.04143187031149864,-1.5124961137771606,0.49421408772468567,0.4373962879180908,0.15024250745773315,0.7389338612556458,-0.02301180548965931,0.48752668499946594,0.07916878163814545,0.0028796130791306496,0.5174462795257568,0.15221072733402252,1.1954642534255981,0.5788621306419373,-0.35965752601623535,0.6084991097450256,0.8495921492576599,1.4488999843597412,-0.5162059664726257,-0.532612144947052,0.4463576376438141,-1.3926424980163574,1.2032132148742676,0.7199729084968567,-0.2906138002872467,-1.200160264968872,-1.401532769203186,-0.4271381199359894,-0.9028081893920898,-0.6276001334190369,-0.686901330947876,0.5044007301330566,-0.5606186985969543,0.01660027727484703,0.7021994590759277,0.2657109498977661,-0.7233536243438721,0.21019728481769562,0.6509383320808411,0.6598098874092102,-0.09487804025411606,-0.1712600588798523,0.1981217861175537,-0.8083412051200867,0.576215386390686,0.721915602684021,-0.7072339057922363,-0.7571200132369995,-0.7982943654060364,-0.7431480884552002,-0.4384916126728058,-0.22974534332752228,-0.057011980563402176,0.2022094428539276,-0.18710291385650635,0.20493856072425842,-0.97015380859375,-0.27984726428985596,1.2941498756408691,-0.4624870717525482,-0.5996576547622681,-0.80483078956604,0.7280441522598267,0.6871591806411743,-0.12965774536132812,0.7218537330627441,-0.6698997616767883,-1.3680932521820068,1.1585884094238281,0.9298833608627319,0.6019506454467773,0.7362483143806458,0.6696574687957764,0.9880779981613159,0.8587315678596497,-0.6826784014701843,0.890741229057312,0.446025013923645,-0.3360389173030853,0.7214571833610535,-0.20053674280643463,0.5186524391174316,-0.8091208934783936,-0.6529767513275146,-0.9297287464141846,-0.9516822695732117,0.3878737986087799,0.7063364386558533,-0.688518226146698,0.18252161145210266,-0.1306810826063156,0.4763806164264679,0.5083723068237305,-0.740298330783844,0.5989860892295837,-0.9179080128669739,-0.5426627993583679,-0.5882309079170227,-0.5741891860961914,0.6482808589935303,0.1404201090335846,-0.6011267304420471,0.15975363552570343,-0.5319955945014954,0.28636065125465393,0.3285026550292969,0.9051512479782104,0.610299825668335,-0.14430510997772217,-0.21546600759029388,0.35211437940597534,-0.29089245200157166,0.15328384935855865,0.1350058913230896,-0.20561519265174866,0.46193554997444153,-0.4080692231655121,0.5264593362808228,0.5116617679595947,0.5917448997497559,0.5905892848968506,-0.8655921220779419,0.4349561929702759,0.3933982253074646,-0.6719650626182556,0.09239079803228378,0.4912416934967041,0.4787881672382355,-0.5050888657569885,-0.9401047229766846,0.1550355702638626,-0.29364514350891113,0.6250603795051575,0.4680998921394348,-0.5525650382041931,-0.5100865960121155,-0.5121133923530579,-0.28779760003089905,-0.47884100675582886,-0.7185223698616028,-1.2432639598846436,0.5346044301986694,-0.15838907659053802,0.24475066363811493,0.4716205596923828,-0.6170973777770996,-0.654127836227417,-0.7728152871131897,0.6186432838439941,0.7128993272781372,0.08273689448833466,0.7199920415878296,-1.2162400484085083,-0.4703599512577057,0.4465871751308441,0.9370237588882446,-1.2957745790481567,-0.23551790416240692,-0.6148610711097717,0.3511647582054138,-0.5977712869644165,0.5303840041160583,1.0053704977035522,0.9472348690032959,0.5417585372924805,-0.6466438174247742,-0.405887246131897,-0.03762871026992798,0.7669177651405334,-0.36513155698776245,-0.10260049998760223,-0.5185712575912476,0.5126563310623169,0.44467076659202576,-0.897890567779541,0.26514551043510437,-0.5805692076683044,-1.0247902870178223,0.39212098717689514,0.7615009546279907,0.7340176701545715,0.4408302307128906,0.31866174936294556,0.7502321004867554,0.8215265870094299,-0.09823859483003616,0.3805510103702545,-0.1160760223865509,-0.36646559834480286,0.480928510427475,0.6036264896392822,0.24400782585144043,-0.17624936997890472,-0.6768324375152588,-1.1291440725326538,-0.9371688365936279,0.33621805906295776,0.3528939187526703,-0.5185993313789368,-1.302491307258606,0.9200236797332764,0.5797469615936279,0.7319193482398987,-1.2234036922454834,1.474281668663025,-0.4209357798099518,-0.18084058165550232,-1.0569109916687012,-0.9515854716300964,1.753104329109192,0.6972765922546387,0.8953012228012085,-0.2592545747756958,0.9835682511329651,0.5139462947845459,0.6001956462860107,-0.8519729971885681,-0.6928133368492126,0.5739344358444214,-0.8481883406639099,0.5998271107673645,0.5841207504272461,0.052608877420425415,-0.7084837555885315,-0.5890194177627563,-0.7958521246910095,0.03202466294169426,-0.6661897301673889,-0.6401063799858093,-0.07641781121492386,-0.9872593283653259,0.21058829128742218,0.5422632098197937,-0.18245750665664673,-0.9364681839942932,-0.28363388776779175,0.6378790736198425,0.49136286973953247,0.04994255676865578,0.37574201822280884,-0.9987049102783203,-0.5516928434371948,0.2884528934955597,0.951154351234436,-1.0577529668807983,-0.63590008020401,-0.5047199130058289,0.15467575192451477,-0.5731608271598816,-0.04292621836066246,0.3986088037490845,0.566157341003418,0.013639556244015694,-0.8103459477424622,0.5751380920410156,0.6128082871437073,-0.7832428216934204,0.6957893967628479,0.5009378790855408,0.3403436243534088,-0.7138203978538513,-0.8528934717178345,0.7788652181625366,-0.5281690359115601,0.3538755178451538,1.0260009765625,-0.16983875632286072,-0.8332387208938599,-0.4651004672050476,-0.8111421465873718,-0.14326785504817963,-0.8491806983947754,-0.8718062043190002,0.3005950152873993,-0.8519706130027771,0.05503218248486519,0.6868139505386353,0.6880823373794556,-0.66608065366745,0.7776184678077698,0.5134509801864624,0.46058326959609985,-0.7835005521774292,-0.6463845372200012,0.7482402324676514,-0.6021401882171631,0.5204348564147949,0.7923570275306702,-0.18018072843551636,-0.7741929888725281,-0.45620203018188477,-0.7510127425193787,-0.22850945591926575,-0.8183525204658508,-0.7933546900749207,0.21881577372550964,-0.7808608412742615,0.09691634774208069,0.38621246814727783,0.9175938963890076,-0.493252158164978,0.5049636960029602,0.36129143834114075,0.22476772964000702,-1.0308938026428223,-1.665167212486267,0.674933671951294,-0.1312391608953476,0.5982358455657959,0.37852761149406433,0.002836900530382991,-0.5200874209403992,-0.23057878017425537,-0.9175599217414856,-0.009104433469474316,-2.2577786445617676,-1.916639804840088,0.16840411722660065,-0.7003637552261353,0.4563365578651428,0.876788854598999,0.02950425259768963,-1.0998222827911377,-0.03885802999138832,0.6924686431884766,1.0660216808319092,0.05080359801650047,0.2687835693359375,-0.6857313513755798,-0.8494624495506287,0.6864892244338989,1.1421849727630615,-1.3633713722229004,-0.9026995897293091,-1.067315936088562,0.5071282386779785,-1.2173221111297607,0.06854263693094254,0.12093071639537811,1.150987982749939,0.17247453331947327,-0.9751443266868591,0.5359137654304504,0.9529470801353455,-0.4631127119064331,1.0055347681045532,0.6841243505477905,0.6186885833740234,-0.9461637139320374,-0.8672330975532532,0.957977831363678,-0.7781128883361816,0.6510252356529236,0.5147218704223633,-0.34728485345840454,-0.7710707783699036,-0.5238527655601501,-0.9860355854034424,-0.2378012239933014,-1.0160584449768066,-1.2262299060821533,0.16213202476501465,-1.1783344745635986,0.14717625081539154,-0.3977941870689392,-1.4150135517120361,0.041807714849710464,-1.6716002225875854,-0.3509335219860077,-0.001985852373763919,1.0751670598983765,0.8924481272697449,-2.069436550140381,0.48349279165267944,-0.12324154376983643,-0.5004194974899292,0.0029548434540629387,0.7196215391159058,0.07087112218141556,1.0646615028381348,-0.8101996779441833,1.1945782899856567,1.3580162525177002,1.0886443853378296,1.473476767539978,-1.3825016021728516,1.1386183500289917,0.1043466329574585,-1.025594711303711,0.3035416305065155,0.9693674445152283,1.095781683921814,-0.00971266906708479,0.02624230459332466,-0.3364782929420471,-1.2426047325134277,1.125199317932129,1.355234146118164,-1.1411863565444946,-1.0454552173614502,-1.2460452318191528,0.133835569024086,-1.1610743999481201,-0.33203431963920593,-0.07487260550260544,0.9392439723014832,-0.20695368945598602,-0.7632017135620117]},"outputHidden":{"rows":20,"columns":20,"weights":[0.2958967089653015,-0.9186326265335083,0.3041905164718628,0.2465912103652954,-0.9788718819618225,0.39669764041900635,0.10725780576467514,-0.31378406286239624,-0.28559359908103943,0.5933597087860107,0.8378440737724304,-0.22474059462547302,0.06695057451725006,0.17046058177947998,0.02349947579205036,-0.3066633641719818,0.13594546914100647,-0.43210500478744507,-0.07734877616167068,-0.27953580021858215,-0.11317603290081024,1.2780201435089111,-0.3529180586338043,0.5002852082252502,0.9794720411300659,1.221299171447754,-0.36775222420692444,0.5590689182281494,-0.19457995891571045,-1.403265357017517,-1.1412198543548584,0.6578760743141174,0.5241610407829285,-0.6488511562347412,0.6749776005744934,0.6552972793579102,0.23012588918209076,0.8521844744682312,-0.8964165449142456,-0.897459864616394,-0.27945375442504883,0.06284422427415848,0.04135942459106445,-0.17344675958156586,-0.2103033810853958,-0.46206051111221313,0.1310625523328781,-0.6629312634468079,0.26563960313796997,-0.010001817718148232,0.22725194692611694,-0.08214406669139862,-0.19016382098197937,-0.11173470318317413,0.044750239700078964,-0.5464804172515869,-0.2211706042289734,-0.14083492755889893,-0.4705093502998352,-0.2913544178009033,-0.34586259722709656,-0.8224031925201416,0.08548996597528458,-0.6300074458122253,-1.0293675661087036,-0.9627360105514526,-0.43423032760620117,-0.9282167553901672,0.4860987365245819,0.8116157650947571,0.39676550030708313,-0.056896694004535675,-0.965369701385498,0.6114717721939087,-0.5529824495315552,-0.7786464691162109,0.05211065337061882,0.10619331151247025,-0.7524502873420715,-0.41146957874298096,0.12454842776060104,0.3120309114456177,-0.20122136175632477,0.1806342452764511,0.3095739483833313,0.5864017009735107,-0.5118919610977173,0.5404740571975708,-0.31414422392845154,-0.7433125376701355,-0.34583649039268494,0.173847496509552,0.1253996342420578,-0.22798481583595276,0.18123845756053925,0.6543904542922974,0.4541615843772888,0.29762330651283264,-0.4638955295085907,0.05571354925632477,-0.10369723290205002,-0.5371345281600952,0.9136635661125183,-0.8448643088340759,-0.11396200209856033,0.43428051471710205,0.511640191078186,0.4997375011444092,-0.039113517850637436,-0.06784699857234955,-0.3611457347869873,-1.0024518966674805,-0.66098552942276,0.8916274309158325,-0.9568701386451721,0.6078620553016663,-0.6927424073219299,-1.0161185264587402,-0.007479383610188961,-0.5751080513000488,-0.5696730017662048,-0.5573728084564209,0.7054694890975952,-0.6631974577903748,-1.0960352420806885,0.04840023070573807,0.4723181426525116,-0.234369695186615,-1.2333645820617676,0.7487615346908569,0.6277323365211487,-0.8687739968299866,-0.8825873136520386,0.6599252820014954,-0.5560043454170227,-0.11429721862077713,-0.758313775062561,0.002630560426041484,-0.45095887780189514,-0.8721369504928589,0.5396749377250671,-0.4058939814567566,0.7070476412773132,-0.7612008452415466,0.2511763572692871,-0.21433858573436737,1.1473466157913208,0.48264962434768677,-0.411532461643219,-0.024642199277877808,-0.4661836326122284,-0.6763570308685303,-0.4513698220252991,0.6807247996330261,-0.7263842821121216,0.18897992372512817,-1.0126569271087646,-0.5766511559486389,0.4324263036251068,-0.6569775938987732,-0.666141152381897,0.03600774705410004,0.3880031406879425,-0.18836994469165802,-0.46666908264160156,0.5485756993293762,-0.017023809254169464,0.3809041380882263,0.6642956137657166,0.14662188291549683,0.04489516466856003,-0.5065144300460815,-0.38208696246147156,0.6602709293365479,-0.807091474533081,0.2492605298757553,0.1683310568332672,-0.9953656196594238,-1.2236934900283813,-0.07129786163568497,-0.31689581274986267,-1.2431634664535522,1.1374882459640503,-1.1223918199539185,-0.233299121260643,0.2680165469646454,0.7724564075469971,0.4513784646987915,-0.1537742018699646,-0.4540908932685852,-0.30184632539749146,-1.0233500003814697,-1.1092448234558105,1.1246343851089478,-1.235011339187622,0.3688991963863373,-0.8141850829124451,-0.33449316024780273,0.16884811222553253,-0.8577358722686768,0.2744273841381073,-0.7632309794425964,-0.7707453966140747,0.36891838908195496,-0.06539645791053772,-0.02727397531270981,-0.5464861989021301,-0.1526983082294464,-0.011408629827201366,0.10971510410308838,0.19211126863956451,0.8577690720558167,0.40589529275894165,-0.41977089643478394,0.32979729771614075,0.06857697665691376,0.872808575630188,0.9967764616012573,-0.12827642261981964,0.7674614191055298,-0.3155525326728821,-0.1779448390007019,0.3086699843406677,-0.4086989760398865,-0.17818768322467804,-0.25939297676086426,0.19598959386348724,-0.481340229511261,0.39269644021987915,-0.022548360750079155,0.22808541357517242,-0.14784668385982513,-0.3753455877304077,0.1772240847349167,-0.07876808941364288,-0.37063953280448914,-0.18840327858924866,-0.21058286726474762,-0.31334012746810913,-0.2702556550502777,-0.09804964810609818,-0.48638659715652466,0.17274010181427002,-0.9467974305152893,-0.20141448080539703,-0.9965255260467529,0.050068311393260956,-0.7936401963233948,0.4078367054462433,0.6699609160423279,0.5224149227142334,-0.1870255023241043,-0.959368884563446,0.582777738571167,-0.5667768120765686,-0.7994226813316345,-0.1371133178472519,-0.10861024260520935,-0.23240655660629272,-0.2846081256866455,-0.23233787715435028,0.042080797255039215,0.08625729382038116,-0.18831145763397217,-0.1866101175546646,-0.1525895744562149,0.13734401762485504,-0.07796987891197205,0.21940788626670837,0.13627463579177856,0.2034575194120407,-0.25304922461509705,-0.34305742383003235,0.34922370314598083,-0.29026278853416443,-0.1514587104320526,-0.16619208455085754,-0.25346291065216064,-0.4372251033782959,-0.2669498026371002,-0.2932314872741699,0.08189725130796432,0.15266674757003784,-0.18526719510555267,-0.32527416944503784,-0.2018851786851883,0.11906322091817856,-0.2239776998758316,0.2978938817977905,0.1535029411315918,0.3032245934009552,-0.2872418761253357,-0.35835501551628113,0.22399058938026428,-0.3220951557159424,-0.15357334911823273,-0.17669151723384857,-0.3654046952724457,-0.4021229147911072,-0.2890247404575348,-0.6980478167533875,-0.6238139867782593,0.516435980796814,-0.5339764356613159,-0.3315746784210205,-0.31619444489479065,0.5864500403404236,0.31884658336639404,0.6836469173431396,0.18354327976703644,-0.2073434591293335,-0.4377593994140625,-0.4284120798110962,0.4829714894294739,-0.601338803768158,-0.10145389288663864,-0.539901077747345,0.2939000725746155,0.03963750973343849,-0.44046518206596375,-0.3605690896511078,0.46829965710639954,0.5197834968566895,-0.5509405136108398,-0.037651948630809784,-0.0665888711810112,0.0743541568517685,-0.228647381067276,0.3893543481826782,1.0596855878829956,0.37628817558288574,-0.7890598773956299,-0.32970187067985535,0.33098357915878296,-0.40931862592697144,0.012352134101092815,-0.7430049777030945,-0.8272790908813477,1.0949029922485352,-0.5679836869239807,-0.29149627685546875,-0.059351786971092224,0.2690982520580292,0.16081608831882477,-0.2637350559234619,-0.5075932145118713,0.1672109216451645,-0.3348213732242584,0.25883224606513977,-0.08349672704935074,0.00767135014757514,-0.32186344265937805,0.1282433569431305,-0.07115354388952255,0.01338663138449192,-0.2730497717857361,-0.21353323757648468,-0.3318789601325989,-0.7081518173217773,-0.3278774917125702,-0.3980192542076111,0.12260686606168747,0.5863586664199829,0.5518832206726074,-0.6321005821228027,0.5539465546607971,-1.380333423614502,0.09150026738643646,0.19257105886936188,-0.3986881375312805,-0.04857408255338669,-0.640813410282135,0.28304323554039,0.13583695888519287,-0.13951389491558075,0.255215048789978,0.31855738162994385,-0.5617689490318298,-1.6100671291351318,-0.6331961154937744,-0.2005605846643448,-0.586552083492279,0.1839768886566162,0.0171915665268898,-0.3921329081058502,-0.1423962265253067,0.20071353018283844,-0.45484650135040283,0.34812986850738525,0.45691779255867004,0.5957498550415039,-0.24824680387973785,0.0817173570394516,0.0041061039082705975,-0.05675019323825836,-0.2892584800720215,-0.08334473520517349,-0.2796453833580017,-0.4905191659927368,-0.26162898540496826]},"outputBias":{"rows":20,"columns":1,"weights":[0.32222962379455566,-0.9035456776618958,-0.5865964293479919,0.36391502618789673,0.7849286794662476,-0.09518569707870483,0.8004287481307983,-0.6531834602355957,-2.1372225284576416,-0.05839994549751282,-0.9068624377250671,-0.2107563018798828,-0.3856149911880493,0.005823320709168911,-0.010586732067167759,-0.04669526219367981,0.4788554906845093,0.05593312159180641,-1.025314211845398,-0.23226298391819]},"cellActivationMatrix":{"rows":20,"columns":22,"weights":[0.4671611785888672,0.5395798683166504,-0.6520719528198242,0.4791644215583801,0.32413432002067566,0.28920063376426697,-0.8349735140800476,-0.7141641974449158,0.06336480379104614,-0.4385347366333008,0.3981073200702667,0.011450598947703838,-0.6450347900390625,-0.3299180567264557,-0.3847338855266571,-0.5439602136611938,-0.1715017408132553,-0.6037995219230652,-0.29346129298210144,0.4119028151035309,-0.5241944789886475,0.1532607078552246,0.3210890293121338,0.3199273347854614,0.21491551399230957,0.25699812173843384,0.2660183012485504,0.06936228275299072,-0.5331653356552124,-0.36292335391044617,0.8203702569007874,-0.2774594724178314,0.12562498450279236,-0.09690184891223907,0.32587194442749023,-0.11506929993629456,0.14384959638118744,-0.49031272530555725,1.062833309173584,0.03170626983046532,-0.28116580843925476,-1.2389599084854126,-0.5111124515533447,0.7595030665397644,-0.16902993619441986,0.7658695578575134,-0.07341025024652481,0.7674351334571838,-0.3179420828819275,-0.21665984392166138,-0.2950311601161957,0.41838929057121277,0.046022213995456696,0.16637930274009705,-0.29932868480682373,1.0209064483642578,-0.28228673338890076,-0.1164669319987297,0.17365600168704987,0.23727726936340332,0.021342549473047256,-0.8105137348175049,-0.8970730900764465,-0.3843226134777069,-0.7290065288543701,0.4156199097633362,-0.10475247353315353,-0.7068890333175659,0.5000460743904114,-0.5409552454948425,0.3279891312122345,0.2890762388706207,1.0045653581619263,0.44857844710350037,-0.35558927059173584,-0.12399359792470932,0.3527834117412567,0.43303555250167847,0.43609315156936646,0.3045317530632019,0.0580277144908905,0.4653257429599762,-0.23934105038642883,0.5979642271995544,0.6107710599899292,0.7413477897644043,0.826478898525238,-0.5192660689353943,0.1699385643005371,1.120163083076477,0.03529940918087959,0.9994636178016663,0.101371169090271,0.001259783748537302,-0.8696151375770569,-0.8030844330787659,0.9305880069732666,-0.28484922647476196,-0.17128917574882507,-0.13492365181446075,0.07644058763980865,-0.041187580674886703,0.1290232539176941,-1.0430831909179688,1.1525174379348755,-0.8318483829498291,-0.676734983921051,-0.8416966199874878,-1.114798665046692,2.0223824977874756,-0.15483759343624115,-0.052003879100084305,0.4883028566837311,-0.051395680755376816,0.1574421226978302,0.19359837472438812,0.19186314940452576,0.08879446238279343,0.32966750860214233,-0.0193818137049675,0.10133156180381775,-0.8897771835327148,1.2687019109725952,0.3541041612625122,0.1159631758928299,-0.6905924081802368,0.01377115398645401,-0.02439584955573082,-0.10962946712970734,0.37960949540138245,-0.047397904098033905,-0.29171785712242126,-0.5286378264427185,0.8349913954734802,0.3567766845226288,0.6214349269866943,-0.3863334059715271,-0.6447610259056091,-0.9973602294921875,-0.5085793137550354,0.6112247705459595,0.5819898247718811,-0.5167410969734192,-0.4953908324241638,0.31433141231536865,0.21263611316680908,0.6255812048912048,-0.6311080455780029,0.902661919593811,-0.8076717257499695,-0.43891283869743347,-0.7840422987937927,-0.6682498455047607,1.4476553201675415,-0.3246891498565674,1.1238937377929688,0.4968828856945038,1.1739975214004517,-0.13217636942863464,-0.2789498567581177,-1.0190258026123047,-0.5479475855827332,0.9457442760467529,0.2671133875846863,-0.14928901195526123,-0.9742777347564697,0.6327651739120483,0.14470459520816803,0.3117818534374237,-0.9491375088691711,0.439923495054245,-0.36616793274879456,-0.6922059655189514,-0.36036157608032227,-0.9581652283668518,0.4237750768661499,-0.3307952582836151,-0.9449805617332458,0.11242856085300446,-0.9257364273071289,-0.4567418396472931,-0.3758889138698578,0.6034768223762512,0.5389726161956787,-0.43231630325317383,0.44184812903404236,-0.3655940294265747,-0.29844799637794495,0.11844261735677719,0.46030452847480774,0.27096256613731384,0.3968666195869446,0.06080886349081993,1.0701228380203247,1.041061520576477,-0.24483659863471985,1.0023252964019775,0.026362311094999313,0.9679350852966309,-0.4391437768936157,-1.3069572448730469,-0.9331671595573425,0.4843132197856903,0.69215327501297,0.211564838886261,0.9579801559448242,-1.0946470499038696,-0.7870264053344727,0.3864602744579315,1.1260395050048828,-1.0304771661758423,-0.2827315628528595,-0.6376424431800842,0.6402422189712524,-0.5985358953475952,0.42935657501220703,0.8121045827865601,0.4610466957092285,0.4974185526371002,-0.3985650837421417,0.4793159067630768,0.45843225717544556,-0.511154055595398,0.3661498725414276,0.37384676933288574,0.3212277889251709,-0.24778620898723602,-0.19866755604743958,-0.1309017837047577,-0.42398881912231445,0.24587425589561462,0.9070987105369568,-0.6744515299797058,-0.5597237944602966,-0.34655991196632385,-0.23975670337677002,-0.39964354038238525,-0.22525151073932648,-0.1901334971189499,0.16851063072681427,-0.2956770658493042,0.21165192127227783,0.19824586808681488,-1.1771748065948486,0.40750381350517273,-1.0140899419784546,0.26697438955307007,0.2461455762386322,0.8080962896347046,-0.010413173586130142,0.06990550458431244,-0.24683089554309845,0.36221644282341003,-0.5015613436698914,0.6289075016975403,0.051759570837020874,-0.23751682043075562,-0.012110546231269836,-0.33412909507751465,1.3212217092514038,0.9053208231925964,0.478069007396698,0.9774324893951416,-0.6051687598228455,0.6249060034751892,-0.865464448928833,-0.04900861531496048,-0.7610421776771545,0.5518474578857422,0.47974926233291626,1.2526330947875977,0.04415123537182808,-0.17272329330444336,-0.5773493647575378,0.6882345080375671,-0.19916528463363647,0.35035210847854614,-0.0719691589474678,-0.5213819146156311,0.5199597477912903,-0.41364145278930664,0.7769538164138794,0.7072737216949463,0.8038182854652405,0.8525024056434631,-1.0482642650604248,-0.6105725169181824,1.099876046180725,-0.2777118384838104,0.6115787029266357,-0.672400176525116,-0.6130311489105225,-1.5576171875,-0.038078151643276215,-0.23575614392757416,0.620423436164856,-0.7817901968955994,0.2867484390735626,-0.5793890953063965,0.1065681055188179,0.5785004496574402,-0.6322213411331177,0.5699137449264526,-1.0272769927978516,-0.40341323614120483,-0.7072454690933228,-1.105611801147461,1.0098652839660645,0.345458060503006,-0.8362032771110535,0.08904922753572464,-0.570438027381897,0.5803697109222412,0.3978288173675537,1.4204977750778198,0.2847228944301605,-0.16263912618160248,-0.29783979058265686,0.6023191213607788,-0.28579962253570557,0.678752601146698,-0.01566333696246147,-0.5125922560691833,0.3511578440666199,-0.5837586522102356,1.0688557624816895,0.4536023736000061,0.8445538878440857,0.7965689301490784,-1.038533329963684,-0.14214584231376648,0.958797037601471,0.5581479072570801,0.9459220170974731,0.023012559860944748,-0.20399023592472076,-0.8699595928192139,-0.833575963973999,0.8551652431488037,0.15677189826965332,-0.07238210737705231,-0.3969070017337799,0.6585402488708496,0.2377776950597763,0.3234720230102539,-0.8902373909950256,0.4052046537399292,-0.9427366256713867,-0.9122104048728943,-0.2866188883781433,-0.9972332715988159,0.3052438199520111,-0.1370781511068344,-1.0486457347869873,0.245187446475029,-0.5932484269142151,0.162052184343338,0.46857160329818726,1.3666495084762573,1.0071660280227661,-0.8219069242477417,0.12872163951396942,0.3047031760215759,0.3632993698120117,-0.017506180331110954,-0.12457772344350815,-0.2844369411468506,1.295403242111206,-0.5139921307563782,0.7973758578300476,0.3050576150417328,0.6379802823066711,1.1405560970306396,-1.2038140296936035,0.0032988046295940876,-1.4013580083847046,0.5745593309402466,-1.1967636346817017,0.4618857204914093,0.20149508118629456,1.6516282558441162,0.4563121497631073,-0.23593419790267944,-0.0310737956315279,0.2891654372215271,-0.411321222782135,0.8018528819084167,0.2532683312892914,-0.1395210474729538,0.4057689309120178,-0.19331535696983337,1.5784767866134644,1.0367120504379272,0.4202831983566284,1.1386404037475586,-0.7212707996368408,-0.02512371726334095,0.891215443611145,-0.01862289011478424,1.071168065071106,0.10983789712190628,0.0751870721578598,-0.7123589515686035,-0.6404680013656616,0.050278663635253906,-0.23558491468429565,0.15766681730747223,-0.06263264268636703,-0.12137158960103989,-0.36200016736984253,-0.0014785624807700515,-0.5998782515525818,0.05660102516412735,-0.8728874325752258,-0.9388150572776794,0.09865137189626694,-0.8989447355270386,0.12631972134113312,0.3325914740562439,-0.21245145797729492,0.3028357923030853,-0.436178594827652,0.4555487632751465,0.3152652382850647,-0.6480666399002075,-1.1434062719345093,0.38304033875465393,-0.23862692713737488,0.37168195843696594,-0.5822180509567261,0.5543995499610901,0.01751244068145752,-0.08753695338964462,-0.6839145421981812,0.09567084908485413,0.19611161947250366,0.5980634689331055,0.21654197573661804,-0.10831727087497711,0.19249573349952698]},"cellActivationHidden":{"rows":20,"columns":20,"weights":[-0.10839379578828812,-0.35917404294013977,0.2504470646381378,-0.27055537700653076,-0.3366950452327728,-0.07901694625616074,0.24446000158786774,-0.1817735880613327,0.15558242797851562,0.28266292810440063,0.17604216933250427,-0.17451253533363342,-0.2671685516834259,0.10173071920871735,-0.1416976898908615,-0.05896775797009468,-0.3071231245994568,-0.1777268797159195,-0.2425013780593872,-0.2561943233013153,0.4617648720741272,0.23456884920597076,-0.9190713763237,0.7526005506515503,0.8312959671020508,0.8726864457130432,0.27963900566101074,0.8717474341392517,-0.8534285426139832,-1.1176221370697021,-1.1794835329055786,0.9412203431129456,0.7080063223838806,-0.9886748790740967,0.9225992560386658,0.5274847149848938,0.6774216294288635,0.923607587814331,0.7179996967315674,0.6936742663383484,0.47222602367401123,0.6188801527023315,0.11862511932849884,0.4673757553100586,0.8690112829208374,0.478192001581192,-0.40027686953544617,0.13487616181373596,-0.4261833429336548,-0.13095001876354218,-0.6982402205467224,-0.08322005718946457,0.39171522855758667,-0.3105609714984894,0.022059718146920204,0.1153615266084671,0.4571387469768524,-0.04524606466293335,0.40370237827301025,-0.020644227042794228,-0.3354227840900421,-0.8754177689552307,-0.3045261800289154,-0.13518737256526947,-1.0117297172546387,0.38416537642478943,0.07137026637792587,-0.33736559748649597,0.4615636169910431,0.731728196144104,0.7589280605316162,0.37555041909217834,-0.19270123541355133,-0.051107220351696014,0.022104820236563683,-0.47016194462776184,0.27368104457855225,0.43773284554481506,-0.42860984802246094,0.1685793697834015,0.419462651014328,0.19742092490196228,-0.8312720060348511,0.20498831570148468,0.13600274920463562,0.028024718165397644,-0.5243622660636902,0.2568454146385193,0.20617029070854187,-0.329368531703949,-0.12127909064292908,0.8558725118637085,0.22971412539482117,-0.310126394033432,0.30105915665626526,0.2689310610294342,0.5320860743522644,0.7274327278137207,0.15534840524196625,0.7201817631721497,-0.4506334960460663,-0.7245028018951416,0.30756860971450806,-0.09265027195215225,-1.0156391859054565,-0.4199522137641907,0.002847654279321432,-0.6431784629821777,-0.01494242437183857,0.38054603338241577,0.650469183921814,-0.25839072465896606,-0.09001319110393524,-0.10865622758865356,0.004805076401680708,-0.4659751057624817,-0.5703064203262329,-0.38474681973457336,-0.5508328676223755,-0.49867963790893555,-0.18372364342212677,0.39906203746795654,-0.4193563759326935,-0.08227327466011047,0.23796938359737396,-0.30035799741744995,-0.08367051184177399,-0.2195068746805191,0.2487219125032425,-0.2903379201889038,-0.34753233194351196,0.38347697257995605,-0.1290169209241867,0.2811667025089264,-0.3065125048160553,-0.19921372830867767,0.46909400820732117,0.3725537657737732,-0.2584991753101349,0.4353099763393402,-0.2515372335910797,-0.0909903347492218,0.18195299804210663,-0.39717885851860046,-0.043788641691207886,-0.1738816499710083,0.28249967098236084,0.02514834702014923,0.1806989312171936,-0.033324580639600754,0.019544463604688644,-0.15376818180084229,-0.24666889011859894,0.1339244246482849,-0.2013024091720581,0.032881781458854675,-0.19326967000961304,-0.14660625159740448,-0.1361953318119049,-0.19084660708904266,0.061123352497816086,0.10913114249706268,-0.5272011756896973,0.17618516087532043,0.10725060850381851,-0.18126951158046722,-0.058632150292396545,0.2633834183216095,0.12960024178028107,-0.32825881242752075,0.076324462890625,0.3921697437763214,0.18567700684070587,0.022281263023614883,0.33111393451690674,0.14155495166778564,0.017814701423048973,0.42806151509284973,0.144440695643425,0.6338591575622559,0.15943290293216705,0.2203277051448822,0.21115002036094666,-0.03363475203514099,0.2648678719997406,-0.304738312959671,0.05092762038111687,0.07280315458774567,-0.4758937358856201,-0.0811808854341507,-0.10764987766742706,-0.0825418010354042,0.05978322774171829,-0.011705691926181316,0.026661012321710587,0.15277093648910522,-0.20852035284042358,-0.14637130498886108,0.8583911657333374,-0.19037431478500366,-0.4666942059993744,-0.6078784465789795,0.46340641379356384,-0.26135367155075073,-0.4413093030452728,-0.5225398540496826,0.4383033514022827,-0.635703980922699,0.4272467792034149,0.5720856785774231,0.7787132263183594,-0.457149863243103,-0.3989071249961853,0.5398350954055786,-0.5645270943641663,-0.6338984966278076,-0.3474031984806061,-0.437432199716568,-0.4194698631763458,-0.2766280770301819,-0.47611236572265625,-0.785411536693573,-0.2178216278553009,-0.37162113189697266,-0.9902242422103882,-0.34972888231277466,0.3051444888114929,-0.06891854107379913,0.3687213957309723,0.21627946197986603,0.6233913898468018,0.1134251207113266,-0.3646712005138397,0.19760116934776306,0.1495683640241623,-0.09100639820098877,-0.27028557658195496,0.12128135561943054,-0.3472154438495636,0.17235130071640015,-0.20719128847122192,-0.5796874165534973,-0.11600710451602936,-0.09341907501220703,-0.5476996302604675,0.16831791400909424,0.06786713004112244,-0.24605098366737366,0.27626562118530273,0.2732514441013336,0.43209123611450195,0.13092654943466187,0.07580222934484482,-0.18026994168758392,0.19769412279129028,-0.20707179605960846,0.15911869704723358,0.20248907804489136,-0.3397488594055176,0.10843053460121155,0.07376185804605484,0.5592244863510132,-0.02681797929108143,0.06653808802366257,0.5835146307945251,-0.17764073610305786,-0.10554628074169159,0.0934658944606781,-0.12765632569789886,-0.22227834165096283,-0.5001245141029358,0.031419407576322556,0.09736402332782745,0.09867783635854721,0.00528987729921937,0.14238378405570984,0.04507897049188614,-0.06512774527072906,0.17196476459503174,0.036658234894275665,-0.39634838700294495,-0.45819708704948425,-0.3719378709793091,-0.39108529686927795,-0.39409247040748596,-0.1391104757785797,0.19873914122581482,-0.18393073976039886,0.49448105692863464,0.36961835622787476,0.28440985083580017,0.37427783012390137,-0.3953903615474701,0.3085181713104248,-0.14083397388458252,-0.17504028975963593,0.080525241792202,0.30831456184387207,-0.17071418464183807,0.17364901304244995,-0.1689847856760025,-0.3024216890335083,0.2123877853155136,-0.19821086525917053,-0.33127087354660034,-0.17972950637340546,0.16725850105285645,-0.08228904008865356,0.14025820791721344,0.19571706652641296,0.10980872064828873,-0.19408167898654938,-0.1233760416507721,0.18203508853912354,-0.1852288544178009,-0.09736227244138718,-0.1401863843202591,-0.20920158922672272,-0.43226465582847595,-0.18014441430568695,-0.3958606421947479,-0.9003847241401672,0.19862419366836548,-0.5709351897239685,-0.9627067446708679,0.41601258516311646,0.05256066843867302,-0.6384751796722412,0.026471123099327087,0.8113608956336975,0.8385720252990723,-0.1620858907699585,-0.372454434633255,0.43575215339660645,-0.36523354053497314,-0.7723352313041687,-0.18986991047859192,0.2812875807285309,-0.4666825532913208,-0.3718055784702301,0.002984781051054597,-1.0875885486602783,0.20172150433063507,-1.062147855758667,0.007660627830773592,-0.21470782160758972,0.6566584706306458,-0.1754312515258789,-0.5008630752563477,-0.052383191883563995,0.34018099308013916,0.030284451320767403,-0.9423118829727173,0.06687290221452713,0.10241727530956268,-0.18997225165367126,-0.8429495692253113,0.24041126668453217,0.1848457306623459,-1.1977771520614624,-0.13611100614070892,-0.27665552496910095,0.26463741064071655,-0.26900842785835266,-0.2869199812412262,-0.048503320664167404,0.3322826027870178,-0.2794986963272095,0.15554073452949524,0.21151500940322876,0.2649885416030884,-0.29581648111343384,-0.14325977861881256,0.21375083923339844,-0.22422461211681366,-0.31266865134239197,-0.3467184007167816,-0.32636165618896484,-0.0319037064909935,-0.15669777989387512,-0.5264052748680115,-1.3049050569534302,-0.22752121090888977,-0.5278756618499756,-1.0193333625793457,-0.44046130776405334,0.18760401010513306,-0.2583058476448059,0.7325207591056824,0.7039771676063538,0.7926392555236816,0.1471768319606781,-0.557424008846283,0.2955269515514374,0.11906183511018753,-0.19072328507900238,-0.20149610936641693,0.2078763246536255,-0.7276796102523804,0.9031272530555725]},"cellActivationBias":{"rows":20,"columns":1,"weights":[0.23705630004405975,-0.6088172793388367,-0.4439142048358917,0.289656400680542,-0.8707221150398254,0.6785157322883606,-0.5076280236244202,0.2744041085243225,-0.2983859181404114,-0.37157925963401794,-0.4254612326622009,0.5932065844535828,0.3782791495323181,-0.7028400301933289,0.6814649701118469,0.3906495273113251,0.5314443111419678,0.5952102541923523,-0.09547126293182373,-0.2897854745388031]}},{"inputMatrix":{"rows":20,"columns":20,"weights":[0.10146750509738922,-0.2486342489719391,-0.333889901638031,0.89766526222229,-0.7111181616783142,0.39494454860687256,-2.0139503479003906,0.03716651722788811,1.6559908390045166,-0.16349521279335022,-0.4231641888618469,-0.1100270077586174,0.9169948697090149,0.08831064403057098,-0.18895258009433746,0.0036486038006842136,1.3493049144744873,-0.08314059674739838,-2.305023670196533,1.2689546346664429,-0.3284880220890045,-1.149523377418518,0.8596379160881042,0.008835693821310997,-2.6465516090393066,0.6424355506896973,0.20419526100158691,0.3521297872066498,0.04280582442879677,0.43946975469589233,0.4278564155101776,-0.9336327314376831,-0.23309996724128723,0.5390406250953674,-0.5141356587409973,0.35647839307785034,-0.8976174592971802,-1.4791947603225708,-0.4197394847869873,-0.8231480121612549,-0.287416934967041,0.5921770334243774,0.9561424851417542,-0.8524658679962158,-0.8629071116447449,0.263363242149353,0.2772004306316376,0.07359272986650467,0.13027529418468475,-0.12803791463375092,0.07570423185825348,-0.9537518620491028,-0.8524597883224487,0.4956713020801544,-0.4361090660095215,0.25556889176368713,-0.5546186566352844,-0.7273365259170532,-0.5961310267448425,-0.8545076251029968,-0.23422306776046753,0.09589246660470963,-1.449779987335205,1.4172004461288452,-1.0481112003326416,-0.1863047033548355,-1.0685545206069946,0.8589797616004944,1.4011458158493042,-0.5959173440933228,-1.0488790273666382,0.9333962202072144,1.122148871421814,-1.158186674118042,0.8162416219711304,0.3827449083328247,1.6684473752975464,0.11366836726665497,-2.296874523162842,1.8153223991394043,0.8374919891357422,2.111715316772461,0.46058687567710876,0.385823130607605,0.06158110499382019,-0.9774189591407776,-0.4011681377887726,0.46726927161216736,-0.9708109498023987,-0.4880243241786957,-0.28834202885627747,-0.6217877864837646,-0.15405993163585663,-0.6075434684753418,-0.1433396339416504,0.10675866901874542,-0.07624691724777222,-0.5089251399040222,-1.575219988822937,-1.0293653011322021,-0.605819582939148,-0.5311553478240967,0.48317450284957886,-0.7544437646865845,-2.2113759517669678,-1.047986626625061,0.8456481099128723,-1.502859115600586,0.027323883026838303,0.8117056488990784,1.52958083152771,-0.3507893681526184,-0.872724175453186,-0.2516864538192749,0.23040345311164856,-1.4959356784820557,-1.02143394947052,-0.014110898599028587,-2.492654800415039,-1.3384718894958496,0.025716058909893036,-1.0763053894042969,0.7337924838066101,-0.5468616485595703,-1.5293079614639282,-0.36298123002052307,0.16816318035125732,-1.0991984605789185,-0.11307469010353088,0.3375164270401001,1.2666622400283813,-0.7081298828125,-0.40925806760787964,-0.06394527107477188,0.09447862207889557,-0.8855064511299133,-0.5393725037574768,-0.5793395638465881,-1.6735361814498901,-0.8371851444244385,-0.3593655824661255,0.24220013618469238,-0.9985876679420471,0.30636999011039734,-0.7890337109565735,-0.45279428362846375,-0.2319643795490265,-0.9107905030250549,1.4322843551635742,0.09423414617776871,-0.10668887943029404,1.2429618835449219,0.7765142321586609,-0.6426647901535034,0.8708826899528503,-1.2221300601959229,1.2866179943084717,1.1389319896697998,-3.1273562908172607,1.5674073696136475,-0.3683682084083557,-0.09275549650192261,-0.7602471709251404,-1.4198683500289917,-4.144632339477539,-0.6962817311286926,-0.8866797089576721,-0.693470299243927,0.7131941914558411,0.6039158701896667,1.1300684213638306,0.9836933612823486,0.15314997732639313,-0.3094342350959778,0.3200393617153168,-1.060848355293274,0.8539969325065613,0.4265531599521637,-2.0796258449554443,1.3977100849151611,1.1138423681259155,-0.316327303647995,0.2555093467235565,0.6893408894538879,-0.8778026103973389,1.1618049144744873,-0.6067773699760437,0.5136275887489319,0.32802221179008484,-0.027696043252944946,0.07356275618076324,-0.2080264538526535,0.7654582858085632,-0.061089009046554565,0.20409084856510162,0.8781951665878296,0.3885135054588318,-1.2019436359405518,-0.49378567934036255,0.23908108472824097,-0.043401941657066345,1.0357228517532349,-0.6493761539459229,0.4176495373249054,0.005747701972723007,0.7802648544311523,-1.715961217880249,-0.15836678445339203,0.7122199535369873,0.049203142523765564,-0.9589919447898865,0.2906078100204468,0.04430246725678444,-0.10737746208906174,-0.07712704688310623,-0.14934678375720978,0.6489095687866211,0.03536148741841316,-2.954493761062622,1.0423791408538818,-0.6080950498580933,1.3206875324249268,0.851144552230835,-0.5794002413749695,0.5560295581817627,-1.565184473991394,-2.778785467147827,-0.03128085657954216,1.3541098833084106,0.2579415738582611,0.13273152709007263,-0.8710253238677979,-0.25582900643348694,1.2086632251739502,-0.9779984951019287,-0.46478381752967834,0.8876289129257202,-0.7038022875785828,-2.027787446975708,-0.25171273946762085,0.20353709161281586,0.8944644331932068,-1.0773136615753174,1.4397552013397217,1.0199946165084839,1.3318997621536255,-3.320322275161743,0.9811883568763733,-0.09282982349395752,-0.3617004454135895,-0.7277861833572388,1.2785743474960327,0.9259573817253113,-0.3036336302757263,0.23594534397125244,0.6102873682975769,2.4409923553466797,0.6778827905654907,-0.5091043710708618,1.2746509313583374,0.21779567003250122,0.7506000399589539,-1.1071077585220337,0.8544269800186157,0.22038517892360687,-0.8455393314361572,-0.6746031045913696,-0.19940976798534393,0.5422423481941223,-1.279877781867981,-2.003664493560791,1.312651515007019,0.7464125156402588,-0.9346849322319031,0.8163031339645386,0.09155406057834625,1.452109694480896,1.249116063117981,-1.9766521453857422,1.0537253618240356,1.2485196590423584,0.09568627923727036,-1.5652905702590942,-0.3311529755592346,-1.1536020040512085,-0.9064423441886902,-0.31914547085762024,-1.4136923551559448,1.398661494255066,0.5267345309257507,0.20411628484725952,1.6726254224777222,0.30927127599716187,-1.6894865036010742,1.6352967023849487,-1.253226637840271,0.9570264220237732,1.795672059059143,-0.9758434891700745,1.0879360437393188,0.8060981631278992,-0.5210030674934387,-0.2871483266353607,0.724544107913971,1.4764704704284668,1.308497428894043,-1.6343584060668945,-0.18425914645195007,-1.8124140501022339,-0.6839281320571899,-0.5329543352127075,0.4464336931705475,0.46090030670166016,0.08080682903528214,0.02964056469500065,0.8753615617752075,0.9727736115455627,-0.3192536234855652,0.0010926430113613605,0.7161673903465271,-1.7343567609786987,0.9055311679840088,0.3438739478588104,0.5512378215789795,-2.2771284580230713,-0.30059370398521423,0.21447166800498962,-0.608937680721283,1.131373405456543,-0.19052377343177795,0.6880609393119812,-1.1074433326721191,-0.29568636417388916,-0.11575262248516083,-0.8502421379089355,0.09820325672626495,0.14833258092403412,-0.08804642409086227,-3.2587008476257324,-1.4270716905593872,0.391082763671875,-0.7056060433387756,-0.7323031425476074,1.4035614728927612,-3.1573596000671387,-0.28810951113700867,-0.6205264925956726,-1.324713110923767,0.21160151064395905,-0.4399690628051758,0.1802230179309845,0.7702056169509888,1.08915114402771,-1.140608310699463,1.0294581651687622,-1.3034956455230713,1.1738719940185547,0.7626191973686218,-2.8805670738220215,0.6924754977226257,-0.27359792590141296,-1.5266451835632324,0.612642228603363,-0.14900246262550354,-1.9374628067016602,0.5649521350860596,-0.43542537093162537,-1.1082135438919067,-0.17164762318134308,-0.027920009568333626,0.928146481513977,-0.45500609278678894,-0.2590668499469757,0.22556862235069275,-0.06733334064483643,-0.2815215587615967,-0.5429384708404541,-0.763795018196106,-0.7576454877853394,-0.6819082498550415,-0.8920804262161255,2.4651401042938232,-0.44604018330574036,1.1578354835510254,0.23843829333782196,-0.6412482261657715,0.022587794810533524,-0.16793909668922424,1.2946476936340332,-0.8453665971755981,-1.4108688831329346,0.15910546481609344,1.536294937133789,-1.4401750564575195,0.8139736652374268,-0.1358853578567505,0.4913349151611328,0.4488830268383026,-3.5344038009643555,0.649621844291687]},"inputHidden":{"rows":20,"columns":20,"weights":[0.17605122923851013,-2.1985347270965576,-0.4984612762928009,-0.12505845725536346,-0.4564991891384125,0.22744984924793243,-0.673454761505127,-0.18064256012439728,-0.9102396965026855,1.23553466796875,1.216050386428833,-0.10533149540424347,-1.7359354496002197,1.1118067502975464,-0.5840380787849426,2.898522138595581,0.5306625366210938,-1.0138235092163086,-0.9122765064239502,0.14219503104686737,0.2860037684440613,-0.774541437625885,0.07217808812856674,-2.3290698528289795,0.38769203424453735,-0.40918198227882385,-0.3589740991592407,-1.1386672258377075,0.051647257059812546,-0.05584366247057915,-0.7605948448181152,-0.6479059457778931,0.6633844971656799,-1.6276459693908691,-1.1047788858413696,-1.4247781038284302,0.6546014547348022,-0.35816293954849243,0.2869551479816437,-0.949985921382904,0.7898073196411133,-0.24875018000602722,0.39131757616996765,0.16010968387126923,1.3244458436965942,0.4724268615245819,-0.2566307485103607,-1.7342480421066284,-0.5453037619590759,0.10239145159721375,-0.9500349760055542,-1.2581672668457031,-0.16085192561149597,-1.6434823274612427,-0.6472554206848145,-0.5630132555961609,-0.5646938681602478,-0.5843121409416199,-0.26559174060821533,-2.2113444805145264,-0.04487617686390877,-0.5524863004684448,-0.9238898158073425,0.03873087838292122,-1.4808934926986694,0.4573422074317932,-0.5963038802146912,0.5620086789131165,0.13892287015914917,2.0166313648223877,1.5142847299575806,0.27429160475730896,-1.938499093055725,1.3561615943908691,-0.22770069539546967,1.5872588157653809,0.17500104010105133,0.7874613404273987,-0.004185686353594065,0.5424731969833374,-0.17814071476459503,1.8979498147964478,0.8147161602973938,0.7263222336769104,-0.24983637034893036,-1.51853609085083,3.4819679260253906,-0.8621851205825806,1.4779608249664307,-1.2008047103881836,0.4380854666233063,0.0896482914686203,-2.164384365081787,-0.9697883129119873,-1.6193664073944092,0.6867058873176575,0.689867377281189,0.6612695455551147,3.0107364654541016,-0.8435577154159546,-0.5099198818206787,0.7258630394935608,-0.5931928157806396,-0.15293028950691223,0.4398002326488495,-0.3632654547691345,0.25156867504119873,0.11931074410676956,0.3974842131137848,-0.4473482668399811,-1.3460639715194702,0.942535400390625,0.28903728723526,-0.8910627365112305,-0.02130376547574997,-0.5977049469947815,-0.8608824014663696,-0.041058819741010666,-1.9160658121109009,-1.588371992111206,0.028834465891122818,0.16230933368206024,0.3771311342716217,-2.032029867172241,0.7584306001663208,0.3910290002822876,-1.1345818042755127,-0.1868375539779663,-0.6489360332489014,0.4673474133014679,-1.6265267133712769,1.0048414468765259,0.8448114991188049,-1.3341965675354004,-0.7779155969619751,-0.8058059811592102,-0.05669455975294113,-1.7695637941360474,0.004982398822903633,-0.9935072064399719,-1.9860702753067017,-0.7542203068733215,-0.5135206580162048,0.4664223790168762,-1.634893536567688,0.42180949449539185,-0.554848849773407,0.9302670359611511,-0.6070314645767212,0.5050444006919861,0.12419074028730392,0.7996570467948914,-1.3230717182159424,1.37957763671875,-1.0172637701034546,1.223929524421692,1.0485789775848389,0.4556737542152405,-0.5425596237182617,0.139879509806633,-0.388915091753006,-0.2553381621837616,0.08740197867155075,-0.8265635371208191,-0.2997630536556244,0.12650282680988312,-0.5553182363510132,-0.21949993073940277,-2.2949113845825195,0.38025611639022827,-0.662596583366394,-0.7227844595909119,1.2833195924758911,-0.06541724503040314,-2.157238006591797,-1.0540406703948975,-0.8887221217155457,2.245286464691162,-1.3613520860671997,-0.1728600561618805,0.4553716480731964,-0.9394162893295288,0.034842368215322495,-0.723440945148468,0.4760831296443939,1.0286316871643066,-0.9092504978179932,-0.3188265860080719,-1.8434996604919434,0.8284949064254761,-1.4273698329925537,-0.31291279196739197,0.546474814414978,-1.3649617433547974,-0.41228148341178894,-0.22628752887248993,-0.45754823088645935,1.102710247039795,-1.4381327629089355,-0.06812910735607147,0.2636677920818329,-2.278252363204956,-1.5343964099884033,1.9879478216171265,0.43838536739349365,0.3857944905757904,-0.44192686676979065,0.8613035082817078,-0.0425201952457428,2.795438289642334,0.7266469597816467,0.6966962814331055,-1.7537280321121216,-0.00841060746461153,-0.34535837173461914,1.6363518238067627,0.7584344744682312,-1.1331039667129517,-1.3483513593673706,-0.03811865672469139,-0.7046590447425842,0.06833334267139435,-0.05522523075342178,0.03148207440972328,-1.2726374864578247,-0.39879924058914185,-0.08221080899238586,0.6202750205993652,-0.7598856091499329,2.335322380065918,0.3100055456161499,-0.1506669819355011,-1.5355255603790283,1.9419525861740112,1.1365066766738892,1.9452166557312012,0.9849703907966614,2.062533378601074,0.6045051217079163,0.8494515419006348,0.47329115867614746,-0.15553922951221466,-0.06781994551420212,-0.7991569638252258,-1.0028173923492432,-0.5537603497505188,0.7771729826927185,-0.8971253037452698,-0.4947297275066376,0.3051374852657318,-0.3697533905506134,-1.8834630250930786,-0.9924373030662537,-0.14064830541610718,-0.2955954074859619,-0.28770747780799866,1.3843337297439575,3.6058738231658936,-0.5113863348960876,0.4204019606113434,-1.6380771398544312,-0.18316061794757843,0.15325844287872314,1.0678894519805908,-2.0400233268737793,1.4119938611984253,-0.8409905433654785,1.197895884513855,-0.44675880670547485,0.4409421980381012,1.6806013584136963,0.5364940166473389,-1.6222050189971924,-1.353576421737671,-0.5340171456336975,1.283037781715393,-0.5415018200874329,0.08034893125295639,-0.3047652840614319,0.07136613875627518,-2.1288440227508545,-2.1577539443969727,0.5619952082633972,1.4975166320800781,-1.6742702722549438,0.8720024228096008,-1.5721542835235596,3.1489713191986084,-1.2598758935928345,2.1483078002929688,0.5061569809913635,1.3800277709960938,-0.6135866641998291,0.4933730959892273,-1.1210031509399414,0.43005871772766113,0.6836878061294556,0.6983195543289185,-1.940969705581665,1.342714548110962,-0.39081010222435,0.7604600787162781,-0.2536431550979614,2.8761682510375977,0.6767579913139343,-0.29730406403541565,-0.6877897381782532,1.6120306253433228,-0.14738033711910248,0.13212282955646515,3.02032208442688,2.4411327838897705,0.2892274260520935,0.3321496844291687,1.022094964981079,1.5030986070632935,-2.174379825592041,3.763580799102783,0.4282115697860718,0.13566820323467255,1.1871092319488525,0.9413702487945557,1.9779292345046997,-0.7551947236061096,2.219651699066162,-1.3126076459884644,0.4744757413864136,-0.07855644077062607,1.098567008972168,-0.037932273000478745,1.0748738050460815,0.9555648565292358,0.39951762557029724,1.4177806377410889,-0.5233151912689209,0.02102820761501789,-0.9137137532234192,-1.8273260593414307,0.9446299076080322,-1.1759305000305176,0.015103358775377274,-0.0019663849379867315,0.28249606490135193,0.6359824538230896,-0.14383122324943542,0.40584737062454224,-0.3360389173030853,0.49613890051841736,-0.8078156113624573,0.9561123251914978,0.7473576068878174,-0.38398733735084534,0.20599009096622467,0.651428759098053,-0.11595544964075089,0.09931942820549011,1.0399765968322754,0.6176698207855225,-0.2614923417568207,0.31976163387298584,-0.03486594930291176,-2.1438722610473633,-0.70320063829422,-1.9996651411056519,1.771270990371704,-0.5557222962379456,-0.5006915926933289,-0.49399811029434204,0.838056206703186,1.188835620880127,-1.542723536491394,-0.6374452710151672,1.105804204940796,-1.430786371231079,-1.4281359910964966,-2.074016571044922,1.619759202003479,-0.02588285692036152,-0.8295975923538208,-1.0337138175964355,0.3289152681827545,0.45732545852661133,0.5810739994049072,0.24975667893886566,0.3146819770336151,-0.8860859870910645,0.817990779876709,-0.7994569540023804,-0.5407092571258545,-1.4785170555114746,-0.6893450617790222,-0.6459275484085083,-1.2026864290237427,-0.9223355054855347,-2.978301763534546,-1.4286725521087646,0.7471657991409302,-0.8132964372634888,1.0476727485656738,-1.3109469413757324]},"inputBias":{"rows":20,"columns":1,"weights":[0.001196864410303533,1.5005550384521484,0.22350524365901947,-0.6506189107894897,-1.7891582250595093,0.4775734841823578,0.3627682626247406,0.9402906894683838,0.48854860663414,1.7435771226882935,-0.36344513297080994,0.21245591342449188,1.1500897407531738,-0.08778412640094757,-4.566850185394287,0.901549756526947,1.444778561592102,-0.3908173441886902,0.33662116527557373,1.7246509790420532]},"forgetMatrix":{"rows":20,"columns":20,"weights":[0.7665274143218994,0.4013376235961914,-0.1491960734128952,0.5715353488922119,0.6738861203193665,-0.3056672215461731,-0.7995967864990234,0.2071385383605957,0.8250359296798706,-1.112302541732788,-1.21280038356781,0.2562579810619354,1.303238868713379,-1.0445252656936646,0.43690425157546997,0.31054869294166565,1.0475720167160034,0.37877824902534485,-1.3736759424209595,1.2544071674346924,-1.28879714012146,-1.1595722436904907,-0.35416656732559204,-0.7124411463737488,-0.28860557079315186,-0.3643961250782013,0.5014341473579407,-0.1611320525407791,0.6661502718925476,0.7977983951568604,0.430072546005249,0.04110049456357956,-0.436974436044693,0.5352255702018738,-0.4616343080997467,-0.9981873631477356,-0.8250437378883362,-0.1416947990655899,-0.14925596117973328,-0.07348646223545074,-0.2971304953098297,-0.5581749677658081,0.2463509738445282,-0.9486587643623352,-0.4734727144241333,-0.604101300239563,0.1916242241859436,-1.138620138168335,0.529624342918396,0.5944926142692566,1.1643500328063965,-0.3753478229045868,-1.0874022245407104,0.6962440609931946,-0.9470540881156921,-0.6958407163619995,-0.8512881994247437,-0.11490174382925034,-0.10511718690395355,-0.4197738468647003,0.31484341621398926,-0.7450848817825317,-0.4759118854999542,0.35439732670783997,-1.4534447193145752,0.5893155336380005,-0.4236220121383667,-0.7013503909111023,0.7137718796730042,0.6484286785125732,0.36071404814720154,0.41976219415664673,0.6873277425765991,-0.5551672577857971,0.5299413800239563,-1.1243007183074951,0.7134985327720642,1.2475048303604126,-0.10326926410198212,0.2655720114707947,0.17987357079982758,-1.1832101345062256,-0.7980780005455017,-0.1596096307039261,-0.5547313094139099,-0.4407041370868683,-0.190622478723526,-0.3359241187572479,0.17029187083244324,0.45104917883872986,1.2061532735824585,1.0736479759216309,0.39015260338783264,-0.22039420902729034,0.2674948275089264,-0.3074938654899597,-0.769620954990387,1.3331385850906372,1.9404544830322266,0.6960944533348083,-1.2500946521759033,-0.446501761674881,0.5796999335289001,-0.2951689064502716,-0.8486777544021606,-1.4147746562957764,-0.9417151808738708,-0.6347002983093262,1.33822762966156,0.637988269329071,1.471553921699524,-0.039793647825717926,-1.039854645729065,0.383865624666214,-0.43971002101898193,-0.6957419514656067,-0.0733618512749672,-0.11621222645044327,-0.05263514816761017,-1.5623365640640259,-0.850707471370697,0.6566605567932129,0.7367224097251892,-0.410444438457489,-0.9411404728889465,0.5034325122833252,-0.045634519308805466,0.8532116413116455,0.9108482003211975,-1.4431993961334229,-0.9152585864067078,-0.6090177297592163,-0.6903862357139587,0.7278102040290833,-0.980373740196228,0.8672305941581726,0.11146451532840729,-0.9182901382446289,-1.6276438236236572,-1.2064565420150757,0.4175742566585541,0.06276772916316986,0.7826557755470276,-1.2699698209762573,-0.569183349609375,0.9212415814399719,1.1399751901626587,-0.7595126628875732,1.0447057485580444,0.24811206758022308,0.31518736481666565,-0.5879128575325012,-0.7498630285263062,0.622072696685791,-0.3566502034664154,-1.4548002481460571,-0.6861598491668701,-0.010676015168428421,-0.10744848102331161,-0.8517293930053711,-0.5542516112327576,1.0142576694488525,0.8665611743927002,-0.6137314438819885,3.1277925968170166,2.1918652057647705,0.5216879844665527,0.480652391910553,0.9217952489852905,-1.4013460874557495,-1.7684394121170044,-1.0231388807296753,-0.6625717282295227,0.8837720155715942,-0.9006838798522949,0.48983314633369446,-0.21607095003128052,-0.45283037424087524,1.5401365756988525,-0.960658848285675,0.29926353693008423,-1.0992963314056396,0.9666891694068909,-1.1299179792404175,-0.7519519329071045,0.13318294286727905,1.3504396677017212,0.038876332342624664,-0.3513222634792328,1.8368624448776245,-0.11371523141860962,-1.2283880710601807,-0.9656433463096619,1.1763683557510376,-1.1993814706802368,