{"data":"[{\"input\":\"What is the scratch for discord site?\",\"output\":\"s4d\"},{\"input\":\"What is the s4d site?\",\"output\":\"s4d\"},{\"input\":\"What is the full form of s4d?\",\"output\":\"fullform\"},{\"input\":\"Who made s4d?\",\"output\":\"and\"},{\"input\":\"What is the difference between the link you sent and the https://scratch-for-discord.netlify.app ?\",\"output\":\"dif\"}]","model":{"type":"LSTM","options":{"inputSize":31,"inputRange":31,"hiddenLayers":[20,20],"outputSize":31,"decayRate":0.999,"smoothEps":1e-8,"regc":0.000001,"clipval":5,"maxPredictionLength":100,"dataFormatter":{"indexTable":{"4":14,"W":0,"h":1,"a":2,"t":3," ":4,"i":5,"s":6,"e":7,"c":8,"r":9,"f":10,"o":11,"d":12,"?":13,"u":15,"l":16,"m":17,"n":18,"b":19,"w":20,"k":21,"y":22,"p":23,":":24,"/":25,"-":26,".":27,"stop-input":28,"start-output":29,"unrecognized":30},"characterTable":{"0":"W","1":"h","2":"a","3":"t","4":" ","5":"i","6":"s","7":"e","8":"c","9":"r","10":"f","11":"o","12":"d","13":"?","14":"4","15":"u","16":"l","17":"m","18":"n","19":"b","20":"w","21":"k","22":"y","23":"p","24":":","25":"/","26":"-","27":".","28":null,"29":null,"30":null},"values":[{"input":"What is the scratch for discord site?","output":"s4d"},{"input":"What is the s4d site?","output":"s4d"},{"input":"What is the full form of s4d?","output":"fullform"},{"input":"Who made s4d?","output":"and"},{"input":"What is the difference between the link you sent and the https://scratch-for-discord.netlify.app ?","output":"dif"}],"characters":["W","h","a","t"," ","i","s","e","c","r","f","o","d","?","4","u","l","m","n","b","w","k","y","p",":","/","-",".","stop-input","start-output","unrecognized"],"specialIndexes":[28,29,30]},"iterations":1000000},"trainOpts":{"iterations":20000,"errorThresh":0.005,"logPeriod":10,"learningRate":0.01,"callbackPeriod":10,"timeout":"Infinity"},"input":{"rows":32,"columns":31,"weights":[0.7820858955383301,-0.08286996185779572,-1.448192834854126,-1.5699342489242554,-0.15489715337753296,0.564277708530426,0.03341292217373848,-1.5857257843017578,1.8779555559158325,-0.9199637174606323,-1.9444348812103271,-1.0155566930770874,-0.7226455807685852,-0.35474005341529846,-0.6423394680023193,-0.21436741948127747,-0.6877085566520691,-0.8264556527137756,-0.9503596425056458,-0.5776036977767944,0.9641416668891907,-1.6224465370178223,0.12625887989997864,-0.7396206855773926,2.352666139602661,3.442244291305542,-3.376539468765259,-2.431123733520508,-0.011129659600555897,-0.22701552510261536,-0.8136031627655029,-3.3768112659454346,1.9887837171554565,-0.15874837338924408,0.3664137125015259,-0.8559756875038147,-2.911363124847412,-1.3613818883895874,-1.2709845304489136,0.9524640440940857,0.1747303307056427,0.8937160968780518,-4.071928977966309,0.17754261195659637,0.27249419689178467,-2.9666335582733154,-0.5331431031227112,-1.344693660736084,-2.034579277038574,1.4366497993469238,1.2119784355163574,1.345266580581665,3.6171019077301025,-0.1056966632604599,-0.5464521646499634,0.15266112983226776,-0.14323176443576813,2.475613832473755,2.811859130859375,-1.1701923608779907,3.136204719543457,1.2830687761306763,0.2355826050043106,4.315211772918701,0.6609082818031311,-0.7491210699081421,-0.044759612530469894,-0.8660885095596313,-2.7566444873809814,2.466600179672241,3.3686914443969727,-2.317462205886841,-0.8609817028045654,1.9822893142700195,0.8724111318588257,-2.1890745162963867,0.15056240558624268,-0.25937288999557495,0.36709314584732056,-0.18239040672779083,-1.2619831562042236,2.756838083267212,-0.22915726900100708,-1.8040618896484375,0.8693283200263977,0.6151409149169922,-1.9835952520370483,-2.5190751552581787,-0.21800497174263,1.789881706237793,0.9580006003379822,-2.2961435317993164,-2.2072529792785645,-2.1649603843688965,0.6981022357940674,-0.27044954895973206,-0.27094122767448425,0.874329149723053,2.7028567790985107,0.7498482465744019,-0.689480721950531,-0.8412889838218689,2.61346697807312,-0.1176999881863594,0.81764155626297,-0.994780421257019,2.0352728366851807,-0.12898176908493042,-1.0165563821792603,-0.43522486090660095,-0.6495940089225769,-1.831325888633728,-1.6654354333877563,-0.6690879464149475,-0.7387410402297974,2.410785436630249,-1.308148741722107,-1.1752766370773315,-1.7616679668426514,1.309662103652954,0.2554713487625122,2.4511499404907227,-0.8965922594070435,2.9925172328948975,-4.174816608428955,-3.2557969093322754,-0.22090400755405426,-0.24461765587329865,0.9931938052177429,0.2156456857919693,1.9794867038726807,-1.787448763847351,0.1549290269613266,1.7498859167099,0.8477152585983276,1.6368708610534668,-2.5034756660461426,1.2991435527801514,0.5888543128967285,-1.6318150758743286,-1.4176945686340332,1.3153553009033203,-0.005624798592180014,1.0792919397354126,1.6538314819335938,1.8430898189544678,-0.7169148325920105,0.8321254253387451,0.5410668849945068,-0.7810242176055908,0.5959019064903259,-0.11476203799247742,0.16102755069732666,0.32739895582199097,3.653529644012451,-1.6151039600372314,0.7724832892417908,1.7195457220077515,0.7914437055587769,-1.4315245151519775,0.2835862934589386,0.4161559045314789,1.9754713773727417,-2.1776888370513916,1.0409764051437378,-0.2794654369354248,-0.7420010566711426,-1.9048084020614624,1.0011553764343262,1.2225689888000488,-0.33529868721961975,-2.859184980392456,-0.9760679602622986,-0.853777289390564,-0.894025444984436,-0.8553876280784607,0.11330831050872803,3.5403573513031006,0.7780272960662842,-0.914490282535553,-1.1534757614135742,2.3811168670654297,-0.37474071979522705,1.0826205015182495,-0.5311754941940308,1.4746111631393433,0.6392564177513123,6.178516864776611,-1.9804438352584839,3.468755006790161,-0.32631030678749084,-1.0495201349258423,-5.25872278213501,-5.506443500518799,-0.9233241081237793,-0.7807750701904297,1.4047282934188843,-4.614862442016602,2.2065720558166504,3.150998115539551,-2.9418392181396484,0.28236648440361023,4.802773475646973,-1.967782735824585,-0.1987285614013672,-0.15517430007457733,1.369297981262207,-0.856981098651886,3.1235218048095703,0.8156464695930481,-4.607738494873047,-1.0968689918518066,-3.856616258621216,-2.7185871601104736,-0.5163140296936035,1.186335802078247,3.3750619888305664,0.7609528303146362,0.680083692073822,-3.4524483680725098,0.5357645153999329,-1.1976256370544434,1.6870821714401245,1.5048726797103882,-0.5897793769836426,-1.7712823152542114,2.627955913543701,-1.8001312017440796,1.722977876663208,-0.524959146976471,2.1724867820739746,1.6424826383590698,-0.5247995257377625,-0.387494295835495,-0.4051865339279175,-2.5801215171813965,-3.4440290927886963,1.6905988454818726,-0.2804712951183319,0.3191644847393036,-2.503349542617798,-0.976615846157074,-1.0053224563598633,0.23368889093399048,-1.5998622179031372,0.7343624830245972,-0.6306588053703308,0.8675571084022522,-1.9189599752426147,-2.729222536087036,4.169128894805908,-0.770887017250061,-0.7787289619445801,-0.5621930360794067,-3.09061861038208,-0.09052576869726181,1.7638384103775024,1.1938713788986206,-1.4262235164642334,-0.3424015939235687,-1.9496724605560303,-0.8258546590805054,-1.252920389175415,-2.502443790435791,-3.275977849960327,-0.1730867624282837,3.723583936691284,3.5411243438720703,0.2110021859407425,-0.21039526164531708,-1.5389631986618042,2.672297716140747,1.0769304037094116,1.5416655540466309,1.4377466440200806,-0.48655086755752563,-0.3726807236671448,-0.46639519929885864,0.5931151509284973,2.48183012008667,0.3696981370449066,1.7195485830307007,-2.4847564697265625,-1.7551450729370117,0.968776524066925,-1.7867966890335083,2.6019465923309326,-1.6873334646224976,-1.6300095319747925,-0.7448062896728516,1.4636765718460083,4.387927055358887,-2.855971574783325,2.7116739749908447,1.457531452178955,5.1337103843688965,-0.3939693868160248,2.317701816558838,0.2502806782722473,0.09135085344314575,0.7531097531318665,-0.37620118260383606,1.2388793230056763,2.640148162841797,-3.9134023189544678,0.6653477549552917,4.312991619110107,1.369194746017456,-0.5123716592788696,-2.7734529972076416,0.3360956907272339,-1.7440654039382935,1.1268179416656494,-1.2629895210266113,-0.32449641823768616,2.2387495040893555,-2.6654398441314697,-2.6678245067596436,-3.3261117935180664,0.40426012873649597,-3.830392837524414,-2.329986810684204,-1.5512875318527222,2.862626552581787,0.7208521962165833,-2.031186819076538,-2.2405617237091064,0.3125239610671997,0.8566790223121643,0.3380863070487976,-3.531256914138794,1.226349115371704,-0.7688155174255371,0.530217170715332,0.44345319271087646,1.5491517782211304,-2.186918258666992,-5.550858497619629,0.791681170463562,-0.08172660320997238,-0.10027041286230087,-2.6151540279388428,0.6847647428512573,1.5326673984527588,-0.22164635360240936,-1.2853902578353882,0.1079811304807663,1.1350034475326538,4.716195583343506,-3.5127053260803223,1.5185446739196777,0.3389730751514435,3.448333740234375,-2.1640279293060303,0.38690969347953796,1.4338696002960205,-2.2596845626831055,-2.1514501571655273,0.8281998038291931,-1.1705800294876099,0.620466411113739,0.2551458477973938,-6.755215644836426,-2.1417946815490723,4.1477203369140625,1.3126626014709473,-1.3494552373886108,5.469318866729736,2.317852020263672,5.307898998260498,-3.826836585998535,-0.0094972038641572,-1.5236973762512207,-0.24136140942573547,-0.4051746726036072,0.2833020091056824,-0.3566717207431793,1.857197880744934,-0.15603366494178772,0.34487229585647583,-2.9057259559631348,1.3926385641098022,-1.20960533618927,3.24989914894104,-0.6121107935905457,1.097769856452942,1.5674811601638794,-0.5720179677009583,0.6521806716918945,1.9399040937423706,-1.6339659690856934,-1.1064865589141846,1.2116892337799072,-0.026867058128118515,1.5444234609603882,-0.3257735073566437,0.45091378688812256,-1.950701355934143,0.9226603507995605,0.498946875333786,2.257340908050537,-1.5420719385147095,1.7633191347122192,-3.940643548965454,-0.17154905200004578,0.5229772329330444,1.4806495904922485,-0.2823280990123749,0.8705220222473145,0.2811029255390167,0.4832804799079895,-1.5707112550735474,-0.25915834307670593,0.19333623349666595,-0.7934623956680298,-1.0111185312271118,0.022622305899858475,0.5857853293418884,0.33936160802841187,-2.758368730545044,0.8002839088439941,-0.9963248372077942,-0.2534060478210449,-0.6820458769798279,1.786180853843689,2.4664409160614014,0.5168265700340271,-0.4256680905818939,0.06822150200605392,0.3220542073249817,0.4577312171459198,-0.5414044260978699,-0.0717989057302475,2.817505359649658,0.22450114786624908,0.8208512663841248,-0.16878683865070343,-1.2396626472473145,1.383101463317871,0.49633240699768066,-2.0584042072296143,1.9057331085205078,1.1104075908660889,-1.9153095483779907,-1.450875163078308,2.470503330230713,-0.8315557837486267,-1.7906925678253174,2.725372791290283,-0.5616742968559265,3.531463146209717,2.609602928161621,-0.14125306904315948,1.192780613899231,0.17797109484672546,2.067817449569702,1.141981840133667,2.3621859550476074,2.17956805229187,2.3535284996032715,1.4675369262695312,0.9580630660057068,2.7343807220458984,0.7419111132621765,1.5913535356521606,-3.2436885833740234,-0.41791263222694397,1.8444966077804565,-1.3289366960525513,0.7457693219184875,-1.4836896657943726,-0.9811404943466187,1.2101491689682007,-1.5844027996063232,0.0004398705204948783,-0.8688392043113708,1.1959818601608276,-0.31987765431404114,-1.7096847295761108,1.3934050798416138,-0.8604419827461243,1.1210836172103882,4.767004489898682,1.7747570276260376,2.124115467071533,0.883330762386322,-1.5255266427993774,-2.0319478511810303,2.0588598251342773,-0.05436770245432854,-3.480771780014038,1.9756683111190796,-0.7628998160362244,2.061979293823242,-0.7283292412757874,1.7861523628234863,-5.203280448913574,-5.659185409545898,-0.38741645216941833,-4.935109615325928,2.4955761432647705,-0.4604516923427582,2.82973313331604,-1.1802666187286377,-2.495685577392578,-0.05586719140410423,-0.0469696968793869,0.746860921382904,-4.885307788848877,4.217947959899902,2.6598122119903564,-0.013832071796059608,-2.8102054595947266,2.72214674949646,-0.3201689124107361,2.175642490386963,3.6667962074279785,-2.756317377090454,-0.43512624502182007,2.8223934173583984,2.4359185695648193,1.0058599710464478,4.753116130828857,1.1366945505142212,4.319159984588623,-0.039661798626184464,2.9549410343170166,-2.8869173526763916,-3.6947901248931885,-0.9565479755401611,-2.480574369430542,-1.3686027526855469,-3.629570484161377,8.209166526794434,-3.913261890411377,-1.996612548828125,5.072770595550537,0.1834924966096878,1.7410118579864502,2.4565272331237793,-2.2755560874938965,-1.2056607007980347,0.05276225507259369,-0.2391841858625412,0.22112897038459778,-1.4307457208633423,-5.476147651672363,5.949342250823975,-0.7074027061462402,0.6882741451263428,0.4578630030155182,1.0451182126998901,-1.0091485977172852,-5.827936172485352,7.101893901824951,3.91563081741333,1.5331717729568481,3.153165340423584,-4.738653182983398,-1.9229117631912231,6.731948375701904,-3.719202995300293,-2.598243236541748,-0.5018822550773621,-5.741793155670166,2.6258914470672607,1.1555356979370117,-0.11644647270441055,-3.233945846557617,1.38760507106781,0.4241882562637329,-8.816431045532227,0.48515021800994873,-4.070399284362793,-4.68613338470459,0.023071127012372017,0.730132520198822,2.588552236557007,0.9039544463157654,-1.0077756643295288,1.8394238948822021,5.899448871612549,-4.321734428405762,1.8342633247375488,2.737255811691284,5.186460971832275,3.602841854095459,-3.070465564727783,4.460628509521484,-4.915323257446289,4.278332710266113,-0.46918824315071106,2.287215232849121,1.3970823287963867,-4.165903091430664,-2.2469289302825928,-0.8641090989112854,-3.7261672019958496,-2.2405753135681152,0.3788566589355469,1.996813178062439,3.27005934715271,0.7740994095802307,-4.108109951019287,2.041236400604248,-0.6356154680252075,0.13787932693958282,2.055331230163574,7.266942024230957,0.835348904132843,2.043382406234741,3.8515310287475586,-4.462646961212158,-0.6873843669891357,0.7119097709655762,2.0970559120178223,4.440678119659424,-0.23635995388031006,-5.640382766723633,1.8351534605026245,-2.362210750579834,5.932555198669434,-2.4639651775360107,-1.2304991483688354,-4.700117111206055,0.09063099324703217,0.3458808660507202,2.781287431716919,-5.75368595123291,0.5911113023757935,-1.8502321243286133,-2.396007537841797,5.145298004150391,-0.6015836000442505,0.7107402086257935,6.163305282592773,1.8809102773666382,-1.5280754566192627,-7.328499794006348,0.6686071753501892,-0.27035897970199585,4.317409992218018,9.147818565368652,-1.1652352809906006,2.374530792236328,-4.862698554992676,0.5733988881111145,1.260587215423584,-4.484474182128906,5.317707061767578,1.6213669776916504,5.935195446014404,1.7221180200576782,-4.451471328735352,8.577263832092285,3.479706287384033,-1.5497758388519287,1.597235918045044,-5.659873962402344,0.2806134819984436,-3.498258590698242,6.316233158111572,2.608996629714966,0.433932900428772,9.208656311035156,-1.3430991172790527,-1.6714942455291748,4.427015781402588,-1.1987617015838623,2.0778989791870117,0.23708097636699677,5.737722396850586,2.052234649658203,-2.769331932067871,-7.1819610595703125,2.6795711517333984,-1.0283617973327637,-4.578066825866699,-4.162053108215332,-3.53248929977417,-0.39261412620544434,-1.0905011892318726,-1.1505993604660034,0.9860145449638367,4.931780815124512,5.484635829925537,-0.34782934188842773,-7.104779243469238,0.027527084574103355,-2.4237639904022217,-0.2712816894054413,0.1924823373556137,4.9316182136535645,-8.446320533752441,3.388239622116089,3.0166943073272705,-6.995144844055176,4.289058208465576,0.40739330649375916,-1.58125638961792,0.147538959980011,2.2069170475006104,-5.692392826080322,3.834397554397583,-1.3666660785675049,-0.7415831685066223,-1.572780966758728,-2.8080875873565674,0.3687129020690918,-7.483384609222412,-6.749988079071045,7.887876987457275,-1.3972744941711426,1.9004212617874146,-1.925162434577942,1.6554948091506958,-4.393752574920654,4.710774898529053,9.903586387634277,1.0348554849624634,4.597681522369385,4.551799297332764,2.1734273433685303,-9.048222541809082,7.9901323318481445,-5.131826400756836,2.742046356201172,6.241639137268066,-6.499463081359863,1.5374422073364258,3.4880847930908203,1.3343585729599,-0.16353540122509003,0.10106884688138962,-1.3953570127487183,-1.8808633089065552,1.3093082904815674,2.2451565265655518,-3.1998438835144043,-3.266845226287842,-2.185912609100342,6.38230562210083,-9.616588592529297,-1.0711404085159302,2.167609214782715,-0.12629903852939606,1.3577275276184082,6.603781700134277,1.839548110961914,-5.169353008270264,3.996962308883667,-2.527888774871826,1.083536982536316,3.584791898727417,10.13796329498291,-7.741389751434326,0.5785263776779175,4.912193298339844,-7.019139289855957,5.82513427734375,3.366401433944702,-2.590014696121216,-4.159154415130615,-7.466166019439697,0.26677364110946655,8.03685474395752,-3.300227642059326,-4.162623882293701,-0.6451295018196106,-1.0992830991744995,0.5952576398849487,-4.775927543640137,-5.841455459594727,6.571444034576416,-0.5418497323989868,-4.6873345375061035,1.3545162677764893,0.5606594681739807,2.354299783706665,-2.284135103225708,-1.0757951736450195,-7.140560150146484,-0.9996552467346191,7.764763832092285,-7.723385334014893,-1.056442379951477,1.2229779958724976,-1.4405747652053833,0.5462570786476135,-5.605811595916748,4.648361682891846,-3.9094321727752686,2.4408719539642334,-0.6615099310874939,10.781092643737793,-5.2174601554870605,8.794598579406738,1.748888373374939,-1.3131340742111206,-1.6878938674926758,-0.930881142616272,0.893515944480896,-3.941455841064453,-6.298630714416504,0.022912105545401573,-2.846879005432129,-3.878990411758423,4.355819225311279,0.3659335970878601,2.9153072834014893,2.968151807785034,-4.547236442565918,-6.203083038330078,1.6173336505889893,2.224545478820801,-8.893867492675781,1.1808044910430908,-5.2512688636779785,0.9664579033851624,1.1230393648147583,-7.3251729011535645,3.785410165786743,1.1774009466171265,1.200901746749878,-5.59005880355835,6.507946491241455,2.5320487022399902,8.274829864501953,1.2257741689682007,3.464487075805664,2.1293718814849854,2.4939637184143066,4.399048328399658,-0.5901346802711487,-1.0856274366378784,-0.02611507847905159,-3.775956392288208,-6.796939373016357,6.7301459312438965,-1.1116961240768433,1.0793235301971436,-2.519702911376953,3.926485061645508,1.9635661840438843,4.145170211791992,-6.004142761230469,10.05923080444336,2.4866349697113037,2.779311180114746,-2.590949535369873,0.900732159614563,3.426846742630005,-2.086033821105957,-4.8666276931762695,-1.4659075736999512,-5.894522190093994,-3.63641357421875,3.6008009910583496,2.280669927597046,4.907865047454834,-2.5216543674468994,-6.314681529998779,-6.756470680236816,-2.3763861656188965,0.050268564373254776,6.526630401611328,-3.552222728729248,6.07352352142334,0.14680364727973938,1.4629707336425781,4.04738712310791,-8.112604141235352,-3.950045347213745,12.039569854736328,1.9497556686401367,-0.17116712033748627,3.4512221813201904,1.2792749404907227,-6.625899791717529,2.3188436031341553,0.03635748103260994,-6.837608337402344,7.879605293273926,-7.74945068359375,1.2551536560058594,4.925746440887451,1.2648117542266846,-2.4186229705810547,-1.1653765439987183,-1.8949910402297974,4.349467754364014,4.907973289489746,-2.666069746017456,-3.1242661476135254,-2.8916385173797607,-0.10468273609876633,1.991620659828186,-6.135986804962158,-0.9387598633766174,-1.4580390453338623,0.06258735805749893,0.325591117143631,-1.087001919746399,2.159534454345703,-1.6954349279403687,1.536240816116333,0.8403837084770203,-3.0685601234436035,2.718217372894287,1.1328612565994263,-0.2543664574623108,0.2320801168680191,0.643378496170044,3.1126039028167725,-2.41373610496521,-2.55206298828125,-0.3407117426395416,-0.2976875901222229,-2.2967936992645264,-1.4919342994689941,-0.1971863955259323,-1.9664219617843628,0.8107982277870178,2.33343768119812,2.355985641479492,1.5185292959213257,2.1280949115753174,0.17871345579624176,-1.6844215393066406,3.0438761711120605,3.295954465866089,-2.337280750274658,2.936051845550537,-1.3338629007339478,-1.0420500040054321,-1.2197445631027222,-1.6797106266021729,2.795758008956909,-1.4073822498321533,1.4290144443511963,0.22906525433063507,2.2974045276641846,-5.365423679351807,-0.8665212392807007,1.227748155593872,-0.6308437585830688,-1.4829003810882568,1.5963363647460938,0.9810853600502014,2.502084732055664,-0.43445709347724915,-2.6348133087158203,0.49794602394104004,1.012742042541504,-0.35193657875061035,0.41956186294555664,1.1194307804107666,-2.367034673690796,2.2383017539978027,-0.8224591612815857,-1.87311589717865,0.016045618802309036,0.013830711133778095,0.05367168039083481,-0.04395439103245735,-0.030209042131900787,-0.05346674472093582,0.043864089995622635,0.036445312201976776,0.034848880022764206,-0.016312794759869576,0.0036271950230002403,-0.032892584800720215,0.04454336687922478,-0.06195635721087456,0.03557079657912254,0.007101583294570446,-0.022929616272449493,0.042378272861242294,0.00019080664787907153,0.0705132931470871,0.06901456415653229,-0.06287286430597305,-0.028797073289752007,-0.03680381551384926,-0.058419205248355865,-0.06964412331581116,-0.06733714789152145,-0.04788438230752945,0.07237643003463745,0.037754811346530914,-0.058749981224536896]},"hiddenLayers":[{"inputMatrix":{"rows":20,"columns":31,"weights":[-0.5041568875312805,-0.7135348916053772,-0.4573284089565277,0.3333323895931244,-0.6860939264297485,-0.28736433386802673,0.5045167803764343,0.8407169580459595,-5.396784782409668,0.713815450668335,-1.1642398834228516,-0.3848423361778259,0.11754260212182999,0.8855963945388794,2.9146690368652344,-0.19009089469909668,0.4408527612686157,0.5042868852615356,0.22623172402381897,-2.491774559020996,-1.0277125835418701,-2.4527316093444824,1.5632922649383545,-0.7909113764762878,-0.6706631779670715,-0.24670501053333282,-1.0110875368118286,-1.9551502466201782,1.0420783758163452,-2.1668920516967773,0.9681794047355652,0.6877105236053467,0.7752386927604675,-1.479650855064392,-0.10112524032592773,0.09155748784542084,3.1387054920196533,0.0029802925419062376,-0.264130175113678,-0.41588860750198364,-0.17840684950351715,0.10350558161735535,0.9051705598831177,0.807626485824585,-0.0958235040307045,3.0783510208129883,-0.9361801743507385,0.604693591594696,-1.493744134902954,0.586237370967865,-1.1056572198867798,-0.17727337777614594,-1.006969690322876,-0.19552086293697357,-3.2367982864379883,2.165529251098633,1.0505404472351074,-1.267170786857605,-0.06398970633745193,-0.14446358382701874,1.2246840000152588,-0.20507386326789856,1.0615692138671875,2.0347440242767334,0.6131192445755005,-1.2541545629501343,1.1898289918899536,-1.0510283708572388,-1.6911470890045166,-0.460051953792572,1.64835524559021,-0.35764840245246887,-0.6468639373779297,0.4829615354537964,1.19467031955719,-1.3608660697937012,0.4466915726661682,-2.4808616638183594,0.4443185031414032,0.015769558027386665,2.5650362968444824,-1.002164363861084,-0.959816575050354,-2.4624128341674805,-1.9259278774261475,1.875133991241455,0.382051020860672,1.4347645044326782,-1.1467152833938599,-0.9059102535247803,2.8299920558929443,-0.3249838352203369,-1.241227626800537,-1.593158483505249,-1.8420509099960327,2.5186221599578857,-3.656249761581421,1.6996115446090698,0.888565719127655,0.19939599931240082,0.17204570770263672,-1.9437429904937744,1.505924105644226,0.21417440474033356,1.0963529348373413,-0.41172221302986145,0.9414449334144592,0.23945078253746033,-1.2854481935501099,-0.47793087363243103,2.1075327396392822,0.7648038268089294,-1.8799939155578613,-1.317472219467163,1.3585633039474487,-0.6680998802185059,2.518526077270508,3.345607280731201,0.7249476313591003,2.433086633682251,0.6699163913726807,2.0203237533569336,-1.221136450767517,2.6766581535339355,3.29427170753479,1.938268780708313,-1.2868024110794067,2.2410073280334473,0.506714940071106,0.42215368151664734,-2.188807964324951,2.8566503524780273,-0.2682744562625885,-0.34985870122909546,2.7239766120910645,2.2012939453125,0.03324726223945618,0.792731523513794,1.972723126411438,0.5428159236907959,2.3928356170654297,-0.9227050542831421,0.2203853279352188,1.9300674200057983,2.406792402267456,-0.6043931841850281,-0.15317997336387634,0.34569162130355835,-0.19378933310508728,0.20239917933940887,-0.43881189823150635,1.1885148286819458,0.35733240842819214,-1.5299229621887207,-2.8131508827209473,0.3441309630870819,-0.5667095184326172,1.257670283317566,0.44887441396713257,0.49114811420440674,-2.0296595096588135,0.5686879754066467,0.08240244537591934,-0.46068862080574036,-0.6373793482780457,0.230096235871315,0.6335011720657349,-0.0019027497619390488,-0.6749317646026611,0.2037103772163391,2.508466958999634,0.49364927411079407,1.165044903755188,0.12591159343719482,-0.16876879334449768,-0.5007482171058655,2.6201066970825195,-0.7391788959503174,-1.0825917720794678,1.0827206373214722,0.754895806312561,-0.3808231055736542,1.361948847770691,-1.598541498184204,2.713804006576538,-0.9474820494651794,-1.972943902015686,-0.45733579993247986,2.3473355770111084,-0.26163211464881897,1.4633890390396118,0.9887409210205078,-0.3584578335285187,3.2712137699127197,-1.1043586730957031,-0.6614190936088562,-0.6740062236785889,0.47382721304893494,-0.5162374973297119,-0.6727221608161926,0.8753756880760193,-0.08709444105625153,-0.41449201107025146,2.181849479675293,2.478221893310547,0.9497168064117432,-1.6953420639038086,0.9101213216781616,1.056508183479309,1.6969032287597656,-0.04620297625660896,-0.5320228934288025,-0.13035733997821808,1.704951286315918,3.294766664505005,-1.1242390871047974,1.0744813680648804,0.3691887855529785,-1.8105430603027344,-0.8618572950363159,-0.8813827633857727,0.48483893275260925,-2.1507463455200195,0.5078064203262329,0.8223311305046082,-0.4239809811115265,-1.788915753364563,0.11538373678922653,0.13874223828315735,0.1692829579114914,-0.802210807800293,1.1769112348556519,1.080128788948059,0.7704606652259827,0.11285850405693054,-0.6124275326728821,-0.19528134167194366,-2.227475166320801,1.273187279701233,-0.7620067596435547,0.8005766868591309,2.154874086380005,2.6401376724243164,-0.16146132349967957,-0.22740401327610016,-1.3726420402526855,1.2411572933197021,0.18451525270938873,0.5102382302284241,1.6646733283996582,-0.23797409236431122,0.41949817538261414,-0.6632452607154846,2.2401123046875,0.8381022810935974,2.7336673736572266,2.444615602493286,-1.2229903936386108,-0.4861702024936676,1.4780770540237427,0.9245975017547607,-1.9224767684936523,0.685593843460083,-0.9031949043273926,0.7691565155982971,-1.4348474740982056,0.8265278339385986,0.2679533064365387,-1.0260584354400635,-0.7486053109169006,-0.7437976598739624,1.9361236095428467,-0.2749257981777191,1.6340975761413574,0.5375775098800659,1.7090603113174438,-0.5059841275215149,0.013080342672765255,-2.080888271331787,0.23939378559589386,0.5404712557792664,0.7491393685340881,1.261878490447998,1.536607027053833,-1.7821253538131714,1.6525211334228516,-1.16055166721344,-3.2791547775268555,0.8343843221664429,1.1317089796066284,-2.8466737270355225,-0.21935731172561646,2.462841272354126,-0.4147188067436218,-1.2336194515228271,-0.07944536954164505,-0.9855149984359741,0.5723429918289185,-2.692244291305542,-2.560680389404297,-0.019065603613853455,-1.0662990808486938,0.8808252215385437,0.9893499612808228,-0.7971854209899902,0.47619199752807617,-0.751830518245697,0.591475784778595,1.9548968076705933,-0.8426662683486938,1.3437460660934448,-3.0532352924346924,0.7795142531394958,-1.3326046466827393,-0.5521978735923767,0.941922664642334,1.4428941011428833,-0.012347372248768806,-0.43542349338531494,1.709900975227356,-2.7650845050811768,-0.25564172863960266,-3.8272671699523926,-0.532196044921875,1.1063458919525146,0.09979404509067535,-2.9246180057525635,2.538709878921509,-1.5771077871322632,0.003997310064733028,1.6442047357559204,-1.4736498594284058,1.3469915390014648,-0.01703382097184658,1.237966775894165,1.2411683797836304,0.30601766705513,1.1469684839248657,1.6401646137237549,-0.9107643365859985,0.9264845848083496,-1.0068084001541138,-0.7257199883460999,-0.29282402992248535,-0.1831423044204712,0.8279139995574951,0.1550459861755371,0.07695119082927704,0.45869651436805725,-3.059049367904663,2.507469892501831,-1.6470372676849365,0.7646343111991882,-2.5589122772216797,-0.3940381109714508,2.5291295051574707,-2.320472240447998,-2.2919304370880127,1.4736268520355225,-0.36633750796318054,1.0454164743423462,0.21912957727909088,-0.3334690034389496,2.563089609146118,-0.8595276474952698,-0.447128027677536,0.09897882491350174,1.5985735654830933,0.7193430662155151,2.1320981979370117,-1.8318599462509155,3.655761957168579,1.193311095237732,-0.0974508747458458,-0.3765442669391632,0.8544666767120361,2.688824415206909,1.766197919845581,-0.2599485516548157,-0.7517076730728149,-0.04103400558233261,-0.235404834151268,-0.1368166208267212,-0.7485544085502625,-3.2285449504852295,2.2740352153778076,0.04871606081724167,-1.2966680526733398,1.4241472482681274,0.04253726452589035,-3.833414077758789,-0.3279876410961151,4.1158952713012695,-1.724528193473816,1.3028723001480103,0.7527152895927429,0.8820280432701111,0.03610572963953018,0.34878355264663696,-0.7073728442192078,1.020027756690979,1.1891334056854248,0.18880778551101685,-1.8694427013397217,-0.011294875293970108,-1.579057216644287,-1.8069252967834473,1.360733151435852,2.475382089614868,2.0455729961395264,1.2319715023040771,0.35715416073799133,-0.07112788408994675,-0.2915869355201721,0.037611596286296844,0.2586251497268677,-1.1007816791534424,-0.33908402919769287,-0.012842760421335697,-3.947967290878296,-2.2866241931915283,1.111785650253296,-1.2402642965316772,1.1324472427368164,0.2581344246864319,2.7673068046569824,-1.246813178062439,2.2364652156829834,3.146146059036255,2.920060873031616,2.586369276046753,-0.6019875407218933,-1.3397762775421143,3.5467987060546875,-0.710017204284668,1.1800954341888428,-0.17971165478229523,1.1810095310211182,-0.35300445556640625,-0.7519956231117249,1.3852810859680176,-0.46424007415771484,-3.1361663341522217,-0.4142966568470001,1.017745018005371,1.4502840042114258,1.1757102012634277,0.892132043838501,0.8987621068954468,1.2243140935897827,-0.4967845678329468,-0.8089909553527832,-0.4615898132324219,-0.5646995306015015,1.0648243427276611,-0.46888771653175354,-0.16097590327262878,-1.0374889373779297,-1.0186702013015747,-2.043109655380249,2.2824461460113525,1.32554030418396,-0.0639524981379509,-0.4052506685256958,-0.7198715806007385,0.37808549404144287,0.13062258064746857,0.8265053629875183,-1.1664631366729736,1.967665195465088,0.7230460047721863,-0.9610463380813599,0.4873485863208771,1.4839973449707031,-0.5237417221069336,-0.915826141834259,0.5752052068710327,-0.5154206156730652,-0.190808966755867,2.2574808597564697,-2.065433979034424,-0.39522528648376465,1.4238812923431396,-0.20232167840003967,1.0613815784454346,-1.9610531330108643,-2.649789571762085,-0.7732868194580078,1.2406328916549683,-0.28972378373146057,1.7973932027816772,-1.3563506603240967,-1.7369672060012817,0.49767810106277466,-0.8068631291389465,0.335094690322876,0.0914648026227951,0.5637146830558777,0.32225197553634644,2.3298630714416504,-1.1050113439559937,0.7353701591491699,1.142569899559021,-0.21232441067695618,1.152985692024231,-1.137872576713562,1.4565224647521973,0.20900028944015503,0.0538855642080307,2.372175693511963,0.2037818282842636,1.8018264770507812,0.19017095863819122,-0.8036980032920837,-5.42903470993042,0.15594862401485443,0.32040151953697205,0.5918830037117004,3.3980724811553955,-1.1210108995437622,-1.635395884513855,-2.381035089492798,-1.2170581817626953,-0.017972398549318314,-1.1367188692092896,-0.4826740622520447,-0.27253106236457825,-0.23634743690490723,-0.6782662272453308,-0.4081052243709564,-0.292911559343338,0.26086968183517456,0.0915512964129448,2.405242681503296,-1.043157696723938,-2.3258752822875977,2.911792755126953,0.12676864862442017,2.043034076690674,-1.9293636083602905,0.6425170302391052,-0.09628531336784363,-0.7185760736465454,0.35306984186172485,-1.310665488243103,-0.6301841735839844,-0.24280326068401337,0.5241432189941406,-1.7278962135314941,-0.17418311536312103,-0.9452515840530396,0.698676347732544,0.6801844835281372,0.5724127888679504,-0.2579730153083801,0.6440716981887817,-0.4784511923789978,0.20552800595760345,0.8362004160881042,-0.4420761466026306,0.28068265318870544,-4.102509498596191,4.562832832336426,1.0218892097473145,-0.3382885158061981,-1.4967914819717407,1.827286720275879,0.9076182246208191,-0.30985593795776367,2.339491844177246,0.06249166652560234,-1.8062180280685425,0.6028039455413818,-2.016399383544922,1.1318347454071045,0.68880695104599,0.04690491780638695,0.9667277932167053,-0.9851406812667847,-0.7882976531982422,-0.7463729977607727,1.3512334823608398,0.12027687579393387,0.9716649055480957,-0.2840555012226105,-1.406982660293579,2.1156680583953857,-3.0723636150360107,0.16160231828689575,-1.6374236345291138,1.1703640222549438,-0.8087539076805115,0.8938343524932861,1.2525235414505005,-0.5143684148788452,0.4371570348739624,-2.6494619846343994,-0.7021368145942688,0.5324304103851318,-0.07903379201889038,-1.2598636150360107,0.023312371224164963,2.0173964500427246,-0.7702916860580444,0.8615300059318542,-2.1404354572296143,1.3882994651794434,-0.9538848996162415,-0.11140477657318115,1.7958343029022217,1.1237235069274902,2.187408924102783,0.42948248982429504,1.7277060747146606,-0.5541331768035889,0.7834709882736206,-0.6353644728660583,1.0315109491348267,-0.47142165899276733,1.1363147497177124]},"inputHidden":{"rows":20,"columns":20,"weights":[-0.5561532378196716,3.3786191940307617,0.09109663218259811,1.5527764558792114,1.5108023881912231,0.9659055471420288,0.16054654121398926,-2.559147596359253,0.7834148406982422,2.945374011993408,-2.385688066482544,-1.2078982591629028,0.1606704443693161,-2.7688841819763184,0.03995790705084801,1.5336190462112427,-0.15687264502048492,-1.4727473258972168,-0.8849135637283325,1.8680474758148193,-0.6827168464660645,1.6612544059753418,-0.19111031293869019,-0.35510143637657166,4.2470550537109375,2.9486284255981445,4.224237442016602,-1.89149010181427,-5.43781042098999,2.039616584777832,-0.9318462610244751,-3.4231488704681396,-0.31943821907043457,-2.84311842918396,-1.6440073251724243,1.9512192010879517,4.678798675537109,0.11493334919214249,2.8387300968170166,5.299168109893799,1.6690655946731567,-1.510450005531311,1.0854175090789795,1.066019058227539,-2.1120951175689697,-4.419732570648193,-1.4497623443603516,-1.1771609783172607,1.9742175340652466,0.35003772377967834,-0.637380063533783,2.385039806365967,-0.09444019198417664,-0.19274656474590302,2.259211540222168,-0.9760100841522217,1.9563343524932861,0.5974361300468445,-2.2408838272094727,1.9651662111282349,-1.1273802518844604,1.1283657550811768,-0.10633254051208496,0.4791032373905182,-1.570898175239563,-0.02932318113744259,-0.3959272801876068,2.716536521911621,-1.618973970413208,2.2169206142425537,-1.6242767572402954,-2.332130193710327,2.6705756187438965,-1.1394104957580566,0.13613255321979523,0.22924724221229553,-0.3797861933708191,-2.433847188949585,1.5923919677734375,-2.3637430667877197,-1.094983458518982,-2.542973041534424,0.7155975103378296,-3.4084975719451904,1.3103662729263306,1.3208353519439697,-0.17101459205150604,-0.29604971408843994,3.639178991317749,1.2398502826690674,-1.7630058526992798,1.2077959775924683,0.00772164948284626,-0.2019573301076889,0.8080575466156006,-0.43002569675445557,0.370544970035553,0.5754172801971436,-0.27395936846733093,1.9107567071914673,2.4510884284973145,-0.9423110485076904,-1.0697002410888672,0.7258870005607605,2.2860898971557617,2.1553714275360107,-2.6670384407043457,-2.716655969619751,0.319904625415802,-1.0495394468307495,1.1254488229751587,-1.759985327720642,-0.4459312856197357,1.290064811706543,1.0672622919082642,-3.1658716201782227,1.225782871246338,-1.5662389993667603,-0.204583540558815,-0.9936026334762573,1.7413071393966675,0.2525634467601776,-0.24429188668727875,5.936397552490234,2.0312864780426025,-0.9983693957328796,-0.2705245018005371,1.2497369050979614,-3.7812600135803223,0.9395833611488342,2.4582462310791016,0.41693562269210815,0.10776939243078232,-3.571007490158081,1.5502269268035889,-2.226374387741089,0.08309917151927948,-4.368013858795166,2.6042280197143555,-0.39624467492103577,-4.264702320098877,1.8427059650421143,-2.332843780517578,-2.542081832885742,1.1126141548156738,0.1924857348203659,-0.7474830150604248,-1.5827851295471191,-0.23277992010116577,-0.5734156966209412,-1.4616371393203735,3.3726227283477783,-2.728635787963867,5.185401916503906,-0.9740608334541321,3.674574851989746,1.9802902936935425,-0.5733687281608582,2.8516480922698975,-1.1722142696380615,-1.327556848526001,-0.6703193783760071,1.1509195566177368,-0.4012652337551117,1.507786750793457,0.18455874919891357,0.42082396149635315,1.9889081716537476,0.012260598130524158,-1.0102981328964233,-0.6151025891304016,3.214337110519409,0.8346613645553589,-0.8998334407806396,-0.8994572162628174,-1.4354205131530762,-0.5799317955970764,2.5055699348449707,0.8803285360336304,2.029505491256714,-2.8784446716308594,0.5247352123260498,2.101038932800293,-2.5609383583068848,0.13313736021518707,-1.6207451820373535,1.3864247798919678,1.3831321001052856,0.47533315420150757,1.1448100805282593,-2.1167938709259033,0.8089812397956848,-0.24126459658145905,-0.3085031509399414,-0.4192439317703247,-0.952831506729126,-0.6089576482772827,2.1949338912963867,1.1400904655456543,-2.5530476570129395,0.09839385747909546,-0.5149521827697754,0.9807592034339905,2.4861021041870117,-1.529213547706604,-1.272404432296753,-1.6087549924850464,2.1738619804382324,-0.37768682837486267,-0.5960724353790283,2.1948602199554443,-0.2530529201030731,2.287832498550415,0.9372166991233826,1.0392740964889526,0.40583422780036926,-0.888958752155304,-1.893537163734436,0.1553920954465866,-2.165494680404663,0.16292615234851837,4.739001750946045,-0.5121241807937622,0.8685495257377625,0.5964130163192749,1.3113001585006714,-1.856026530265808,1.083235502243042,-1.4967913627624512,3.036163806915283,0.443522185087204,0.8669116497039795,2.655242681503296,-2.3551650047302246,-2.964240312576294,3.1060068607330322,0.5537642240524292,-0.4434715211391449,-0.8381268978118896,-1.947503685951233,-2.394162178039551,0.8619936108589172,-2.3676419258117676,-2.800260066986084,-2.391169309616089,-1.3044912815093994,-2.1812498569488525,0.015863977372646332,3.9419829845428467,-2.2475438117980957,1.708616018295288,2.798527717590332,-2.7696218490600586,-0.8102753162384033,-2.765415906906128,0.2914232909679413,0.8352147340774536,0.2391042560338974,-0.15331269800662994,-4.402576923370361,-0.27435818314552307,-2.4523801803588867,-0.33690470457077026,2.298215866088867,-0.4037489593029022,-0.6836910843849182,-0.4084472358226776,-0.2577259838581085,0.5795885920524597,-0.7967398762702942,1.6763715744018555,-0.5369292497634888,-0.7337656617164612,-1.338027834892273,-0.2528696358203888,-1.5753451585769653,-1.1872375011444092,-2.9589600563049316,-1.3050293922424316,0.6828997135162354,-1.9486322402954102,-1.0776997804641724,2.3229806423187256,1.671805500984192,4.167774200439453,-2.3281400203704834,-2.0354936122894287,-0.7501333355903625,-2.441891670227051,3.5896503925323486,0.9000304937362671,0.7108134627342224,-4.774792194366455,-0.19382698833942413,3.957864999771118,-3.0975959300994873,2.657322883605957,-3.6784095764160156,0.15669117867946625,0.49706897139549255,-1.7002623081207275,-0.7432114481925964,1.7265642881393433,-1.5529522895812988,-1.4245494604110718,-3.321604013442993,0.57583087682724,-1.9295140504837036,-0.800976037979126,2.7515294551849365,-3.5968499183654785,-0.43300291895866394,-2.2645156383514404,1.760128140449524,-1.364060878753662,-0.6747273802757263,1.4100046157836914,1.9586747884750366,-1.3944686651229858,2.245033025741577,1.6266039609909058,0.4625130593776703,-0.6247832775115967,-0.9626307487487793,1.9629889726638794,-3.4688448905944824,0.8912299275398254,2.7626442909240723,1.483554720878601,0.7790067791938782,1.2392938137054443,-1.3785446882247925,1.2424423694610596,1.7796156406402588,-1.5957010984420776,2.0435848236083984,1.3953276872634888,-3.369239330291748,0.9465388059616089,2.5271189212799072,3.4188830852508545,-5.648813724517822,-2.027008533477783,4.195775985717773,1.443749189376831,-0.6692235469818115,-0.9680412411689758,0.5015479922294617,-0.6697981357574463,3.080348014831543,5.246603012084961,-5.664974212646484,1.8988921642303467,-4.559218406677246,-1.0671533346176147,-0.5554640889167786,1.0636420249938965,-2.6200754642486572,-3.3384790420532227,-0.630279541015625,-1.363241195678711,1.3901035785675049,-0.4455760717391968,-0.681021511554718,1.6293132305145264,1.7854136228561401,0.9613075256347656,1.948066234588623,-2.147531270980835,-0.7928860187530518,0.13515609502792358,0.2242819368839264,-2.1033847332000732,0.32012122869491577,0.3144882321357727,0.7112700343132019,1.3204519748687744,-0.6981807351112366,-0.3140830993652344,1.6973204612731934,1.4980041980743408,-1.1174286603927612,1.3898630142211914,-0.11796677857637405,-3.0456721782684326,0.6840920448303223,-5.398616313934326,1.4098070859909058,-3.429013967514038,-1.3408666849136353,0.4005873501300812,0.9108167886734009,1.7703572511672974,3.556260347366333,1.8748154640197754,1.2637253999710083,2.686436891555786,-3.1671833992004395,1.1304361820220947,-2.055281162261963]},"inputBias":{"rows":20,"columns":1,"weights":[-1.5529519319534302,-2.5067434310913086,0.3465116024017334,-2.1189725399017334,-1.4039485454559326,-1.732561707496643,0.22840212285518646,-0.8673635125160217,-1.0371767282485962,-4.272414684295654,-0.13575249910354614,-0.593652606010437,0.952463686466217,3.7691454887390137,-0.06165570020675659,0.8253592252731323,-0.06104106456041336,-1.8030545711517334,0.2380722314119339,-1.4183340072631836]},"forgetMatrix":{"rows":20,"columns":31,"weights":[0.24985356628894806,-0.8402326107025146,1.0713893175125122,-1.9474353790283203,0.3552452623844147,2.048165798187256,-1.7563101053237915,-0.9201666116714478,1.7445309162139893,-0.38986530900001526,-1.5123474597930908,-2.3430235385894775,-1.7106852531433105,1.2156471014022827,1.9051165580749512,-0.6298204660415649,-1.7888344526290894,0.3536877930164337,1.275749921798706,1.534598469734192,-1.666719675064087,1.149158239364624,1.306950330734253,0.9960353970527649,0.8535476922988892,0.5774835348129272,0.5052672028541565,-3.2228150367736816,-1.3866338729858398,0.9669834971427917,0.9246128797531128,-0.4623502790927887,2.406874895095825,1.4699561595916748,3.419140577316284,0.055013492703437805,1.6707278490066528,0.7448227405548096,0.8474940657615662,1.4090282917022705,-1.5712271928787231,2.518476724624634,-0.3276735246181488,0.6472370028495789,-1.3768789768218994,-1.6655819416046143,0.20883271098136902,-0.9893985986709595,-1.8455843925476074,0.9411603808403015,-0.0035910354927182198,-3.0780863761901855,0.6923589110374451,2.161151885986328,2.9983129501342773,-2.101853370666504,-0.5094545483589172,1.0453135967254639,-0.16464576125144958,2.2082152366638184,-0.9076406955718994,-0.26108527183532715,-4.84442138671875,-0.9415659308433533,0.62608402967453,-0.4387247860431671,2.5132527351379395,1.2432947158813477,-0.8015400171279907,-0.8354805707931519,1.7846585512161255,0.7660994529724121,-2.101961135864258,-2.936800003051758,-0.6373311281204224,1.1571484804153442,0.4116590917110443,-0.7787847518920898,-1.9306844472885132,2.6277151107788086,0.41880518198013306,-1.4823744297027588,-1.785554051399231,1.807905673980713,0.5368258357048035,1.1530160903930664,2.3047242164611816,0.7308904528617859,1.8941116333007812,2.611443042755127,1.9316163063049316,0.4378633499145508,3.2778208255767822,-0.9839256405830383,0.2869894504547119,-0.536033034324646,-0.22307978570461273,4.336075782775879,-2.726351499557495,-0.8515264391899109,-0.8126853704452515,-0.43626007437705994,-2.2910916805267334,0.28804996609687805,0.3520139157772064,1.0814435482025146,2.3977527618408203,1.3573306798934937,-0.2316834032535553,-0.5000495910644531,0.4406556785106659,4.157513618469238,0.5398683547973633,-0.9667389988899231,0.334646999835968,-1.0376169681549072,1.188212275505066,2.726595878601074,3.8442046642303467,1.3112555742263794,-0.9540428519248962,0.2521536946296692,1.1658860445022583,1.4654791355133057,1.8233643770217896,2.5306601524353027,1.1673951148986816,-1.1708486080169678,-0.03325771540403366,-0.8056484460830688,-2.847026824951172,1.9310154914855957,1.713770866394043,-0.20727767050266266,-0.5548383593559265,0.2467317134141922,0.27493932843208313,-1.1099623441696167,-0.19278809428215027,-0.3382001519203186,1.5398067235946655,1.8678241968154907,3.272146463394165,1.8006081581115723,-1.9303128719329834,-1.4547061920166016,-1.409072756767273,-0.3278374671936035,0.5947420001029968,1.0198637247085571,0.4590899646282196,-0.7535615563392639,1.0084952116012573,-1.5133740901947021,-3.431978464126587,0.6849465370178223,1.332748293876648,0.9044420123100281,-0.5869017243385315,1.3867913484573364,1.4003199338912964,-1.1571364402770996,1.547991156578064,-1.187497854232788,-0.14747130870819092,-2.9262936115264893,2.298506736755371,1.127756953239441,-2.2451331615448,1.466418743133545,-1.6580272912979126,0.6692262887954712,1.2433885335922241,1.391839623451233,0.31241077184677124,-3.704320192337036,-2.4674057960510254,-0.5062393546104431,0.525035560131073,0.68699049949646,0.8086662888526917,0.11310968548059464,0.6314657926559448,4.240197658538818,-1.263980746269226,0.4465203285217285,2.245414972305298,0.9153527021408081,-3.1619770526885986,3.0223405361175537,-0.7110123634338379,-0.9047491550445557,1.7023321390151978,-0.9671425223350525,-2.9269838333129883,-1.528181552886963,0.4660971760749817,0.48970380425453186,-0.011142621748149395,0.1545100212097168,-0.6537214517593384,2.753345012664795,-1.832729697227478,0.19788585603237152,-1.473892331123352,-2.9107227325439453,1.7675316333770752,0.9208394289016724,2.5957882404327393,-3.7539069652557373,-1.6632091999053955,-0.26781684160232544,-0.5844347476959229,-1.103953242301941,-0.6440831422805786,-1.176324725151062,0.9860398769378662,0.3099552392959595,-2.4317893981933594,1.2370398044586182,-0.7901405692100525,-0.6696701049804688,0.5330765843391418,0.3235763609409332,1.1449060440063477,-0.37568703293800354,-2.07527756690979,-1.2836499214172363,2.4889209270477295,-0.8506044745445251,-1.2678223848342896,1.4250116348266602,-0.377795934677124,-0.651607096195221,1.7283000946044922,-0.33308830857276917,0.17954133450984955,0.8012934923171997,-1.1197065114974976,-1.0960307121276855,1.2952513694763184,-1.0123363733291626,-1.506648302078247,0.8202401995658875,3.7614595890045166,0.8686061501502991,-0.4480723440647125,-0.537452757358551,1.3700698614120483,0.9610546827316284,-2.1798200607299805,2.4767911434173584,-0.6530279517173767,1.8446228504180908,0.5488752126693726,3.702881336212158,-1.253965973854065,-0.7406734228134155,-0.5076578259468079,4.853973865509033,0.8243682384490967,-1.711431860923767,3.0214288234710693,2.077272891998291,1.9109632968902588,-0.043418098241090775,0.9942163228988647,1.1177071332931519,0.8437986969947815,-0.384550541639328,0.21501757204532623,-0.44831350445747375,-1.104196548461914,1.2784409523010254,-2.1378893852233887,0.5169442296028137,-2.2090539932250977,-3.452533483505249,-1.8346338272094727,-0.5278919339179993,-0.07224870473146439,1.7782132625579834,-1.2652194499969482,-0.405154824256897,0.4098605811595917,0.10979577153921127,-0.9225609302520752,-1.048556923866272,1.32710599899292,-1.822179913520813,1.6056115627288818,-0.12772834300994873,-0.4284727871417999,0.0786067545413971,-1.5103914737701416,-2.155641794204712,1.5866464376449585,-0.43424275517463684,-1.253146767616272,0.5564406514167786,-0.9420633912086487,0.8451648354530334,1.0117558240890503,-2.0510287284851074,-1.8568023443222046,0.5288980007171631,0.8109612464904785,1.463483214378357,-1.3566027879714966,-1.0488678216934204,-2.2805655002593994,-1.549574375152588,0.45988836884498596,1.4450018405914307,0.8808885216712952,-2.096324920654297,-0.6775413155555725,-3.5246810913085938,-1.4472261667251587,1.1890133619308472,-0.04514182731509209,-3.3613619804382324,1.0860785245895386,2.5174994468688965,-2.6137194633483887,-0.70155930519104,-0.13669785857200623,0.7564987540245056,2.812810182571411,2.014460563659668,-0.3077763617038727,-0.14071530103683472,-1.1369762420654297,1.7837884426116943,1.180761694908142,-0.897470235824585,-1.1352465152740479,-1.1737574338912964,-0.6353956460952759,2.3499999046325684,0.7686866521835327,1.6739758253097534,1.9705829620361328,-1.0794144868850708,-1.8507107496261597,1.451508641242981,0.009782522916793823,1.3710877895355225,-1.0497239828109741,-0.07574978470802307,0.952984631061554,-1.308379888534546,2.177432060241699,1.7315839529037476,-0.9528828859329224,3.0036942958831787,-0.4266417324542999,2.2333621978759766,-2.0730233192443848,0.36628490686416626,-0.47712287306785583,-0.44843125343322754,-0.08306356519460678,2.4185845851898193,-2.406329393386841,-0.9967465400695801,0.07826600968837738,-3.7232606410980225,-0.778022825717926,0.004592807963490486,-3.1894919872283936,-0.5081983208656311,-2.5419256687164307,0.18583111464977264,-3.3448119163513184,0.26037415862083435,-1.1599738597869873,-1.2704235315322876,0.4509219527244568,-1.443031907081604,-0.22284728288650513,1.674635410308838,0.5419051051139832,-2.3612313270568848,1.1734856367111206,1.2543858289718628,-0.9644959568977356,0.8476960062980652,0.011549700982868671,-0.9032714366912842,-1.3943283557891846,0.7447159886360168,1.7052475214004517,1.2266939878463745,-0.8612202405929565,-0.6130781173706055,-1.3167723417282104,0.5597617030143738,0.09938419610261917,-0.014783418737351894,-1.249297857284546,1.0386351346969604,1.9796843528747559,-0.175545796751976,0.33358317613601685,-2.256725549697876,2.1546075344085693,2.8185641765594482,1.3670704364776611,1.7657424211502075,-0.5251492261886597,-1.3264305591583252,0.09036542475223541,2.3884804248809814,1.6435796022415161,1.062566876411438,1.9626823663711548,0.36700695753097534,0.09096448868513107,0.7485693693161011,-2.392688512802124,-1.9751566648483276,-2.27101731300354,1.183928370475769,0.5841520428657532,1.0716642141342163,-2.701427936553955,0.595095694065094,0.9645442962646484,0.3181496262550354,0.8037758469581604,-0.8864488005638123,-1.7535499334335327,1.329114317893982,-1.9731475114822388,-0.5984541773796082,2.0017731189727783,0.021717051044106483,1.3624296188354492,-1.3907442092895508,-2.014294385910034,1.620828628540039,1.2632105350494385,-1.6706528663635254,0.99686199426651,-2.1852400302886963,-0.36557963490486145,0.7858350276947021,-1.1813721656799316,0.04450181871652603,-2.6735055446624756,0.4404630661010742,-0.30380430817604065,0.7858056426048279,-0.2662418484687805,0.7612716555595398,-1.3296009302139282,0.5494860410690308,2.0357017517089844,1.0921684503555298,1.9961837530136108,0.2941059172153473,0.923602283000946,1.2974088191986084,0.36536791920661926,1.586741328239441,1.4825078248977661,0.976007342338562,0.5293993353843689,-0.14715687930583954,-2.381897449493408,-0.9046632051467896,0.22320708632469177,1.5595332384109497,-1.9164808988571167,2.078632354736328,-1.7761130332946777,-0.13798360526561737,-0.5093625783920288,-1.2124711275100708,1.8371630907058716,1.1548635959625244,-1.4158909320831299,-0.752705454826355,0.2738471031188965,0.08007518947124481,2.065824508666992,0.21464525163173676,-0.38093698024749756,0.02052750438451767,-0.44686219096183777,-1.0232362747192383,0.25873956084251404,-2.18904972076416,2.086101770401001,-1.6932353973388672,1.295885443687439,-1.9534986019134521,-3.3734521865844727,2.052499294281006,0.0772954449057579,-2.3959362506866455,1.6253854036331177,-0.036000803112983704,-2.2330245971679688,0.40832188725471497,0.09916474670171738,-1.8793456554412842,-0.8691453337669373,0.52208411693573,-0.7193197011947632,2.2962324619293213,1.8879973888397217,0.8536813259124756,-1.0092576742172241,-1.8411668539047241,2.7358949184417725,-0.8820922374725342,-0.8703547716140747,-1.3409329652786255,-0.04098782688379288,-0.206257626414299,-0.3527374565601349,-1.70579993724823,-0.8207195997238159,2.5726077556610107,0.4397332966327667,-3.8541324138641357,-2.053011655807495,-0.4854237735271454,-1.4979060888290405,-0.8350834846496582,1.2603857517242432,2.085789203643799,-0.45964139699935913,-1.1089110374450684,4.18894624710083,-1.1698256731033325,-0.3934277892112732,-2.9508163928985596,0.41173020005226135,1.1274775266647339,-0.6329955458641052,-2.8084404468536377,2.2854549884796143,0.3423723578453064,0.7162087559700012,-0.0828833356499672,-0.7408857941627502,-0.3051251173019409,0.4060893654823303,-1.240290880203247,-1.6361242532730103,0.36563143134117126,-0.8899815678596497,0.9654553532600403,0.31870168447494507,0.20270732045173645,-0.5262839198112488,-0.6341825723648071,-1.1502150297164917,1.4643043279647827,1.116370439529419,-1.0186948776245117,0.2561126947402954,-1.9233239889144897,-2.445160388946533,0.8997315168380737,1.1316239833831787,-0.5607278347015381,-0.7036234140396118,0.0032537253573536873,-1.3204426765441895,2.3778629302978516,-0.9810761213302612,1.2860461473464966,0.5977131128311157,-0.40645384788513184,-0.39694130420684814,2.7022147178649902,-0.44372978806495667,-1.7655683755874634,-0.1899482160806656,0.7758452296257019,-1.7092468738555908,-1.0982141494750977,-1.2750344276428223,1.5613079071044922,0.6745096445083618,2.5947163105010986,0.670218288898468,-3.3581740856170654,1.6605026721954346,0.6857739090919495,-2.0359151363372803,0.11800484359264374,-1.4339865446090698,-3.5896549224853516,0.5739518404006958,-1.3281519412994385,-0.06076759099960327,-1.3006157875061035,0.02965703047811985,2.101231098175049,0.7904711365699768,3.395848512649536,-0.06880597770214081,-0.12453873455524445,-3.206839084625244,0.9939298033714294,-0.5655303001403809,-0.7092834711074829,-1.449479579925537,1.1571500301361084,1.172960877418518,-3.2690646648406982,-3.4454290866851807,-0.18213756382465363,1.5819140672683716,-0.641792356967926]},"forgetHidden":{"rows":20,"columns":20,"weights":[-1.0284559726715088,-0.9086177945137024,-4.414501190185547,-0.9386997818946838,-1.871848464012146,3.819814920425415,-3.9299044609069824,1.2153878211975098,3.533088207244873,-0.985134482383728,3.268416166305542,-0.36962616443634033,1.116163730621338,3.1468632221221924,2.975679636001587,3.3788647651672363,2.01527738571167,0.4640556275844574,1.5261393785476685,-1.1899553537368774,3.1674365997314453,-2.379685401916504,-1.0260337591171265,0.7599978446960449,-0.7435778379440308,2.3544716835021973,0.6875346899032593,-0.20105496048927307,0.7976918816566467,-1.3609585762023926,3.388094425201416,0.4945210814476013,0.12503433227539062,-2.6964704990386963,-1.0264770984649658,2.8512585163116455,1.0729358196258545,-0.9450852870941162,-2.203476667404175,0.29309678077697754,0.15478071570396423,2.1040711402893066,-0.7503278255462646,2.6616992950439453,0.047696057707071304,-0.6351704001426697,0.35739442706108093,-1.700698733329773,-2.437148332595825,0.10228385776281357,3.3561770915985107,-1.2191998958587646,0.6243779063224792,-0.6091139912605286,0.21199367940425873,-1.805622935295105,-2.0974280834198,-2.1642374992370605,0.9814472794532776,-1.50814688205719,-3.8558130264282227,-1.497778296470642,-0.8021661043167114,-0.7521350383758545,-1.458430528640747,-1.350226640701294,-0.6268439888954163,0.9776393175125122,3.674377202987671,1.7230279445648193,-0.8643718361854553,-0.9533423185348511,0.8115265965461731,-5.56468391418457,-1.200466275215149,1.2515058517456055,-1.6225751638412476,1.6229026317596436,0.390110582113266,0.4963639974594116,0.6613067388534546,-2.496499538421631,0.1306590437889099,-0.7789067029953003,1.1388320922851562,-1.597469687461853,-0.14939914643764496,3.4196197986602783,-0.45848599076271057,-1.7054270505905151,0.587547242641449,0.3332081735134125,0.6149278879165649,-0.7369611263275146,0.20805241167545319,-1.990963101387024,0.6602978110313416,0.834832489490509,-2.1966352462768555,0.31850188970565796,1.0403562784194946,0.9891511797904968,1.3197803497314453,-0.025177551433444023,1.5001721382141113,-0.9762565493583679,-0.8470747470855713,-0.3390902876853943,0.1050063893198967,0.2910480499267578,0.2510075867176056,-0.021420307457447052,-2.16068434715271,0.11211057752370834,0.7669772505760193,-2.3222551345825195,-1.1480194330215454,-1.4850739240646362,-0.21168765425682068,1.0528675317764282,0.5310134887695312,-2.684954881668091,1.0894821882247925,-2.7428138256073,0.9794945120811462,0.5881009101867676,-0.8769310116767883,-2.5195424556732178,-0.3290109634399414,-2.154970169067383,0.06009823828935623,5.679947853088379,3.813178777694702,-3.373255491256714,-1.3671799898147583,0.9390340447425842,-1.8240083456039429,0.10687971115112305,-1.0871598720550537,-3.3948681354522705,-4.474827766418457,-2.301452875137329,-1.4692202806472778,-0.8550031185150146,-0.3011588454246521,0.07030945271253586,1.081575870513916,-1.5070054531097412,2.0136165618896484,0.45686906576156616,-2.1076407432556152,1.444117784500122,-1.1812078952789307,0.13268287479877472,-0.22524194419384003,-0.18404968082904816,-0.9494293928146362,3.332087755203247,0.4102528691291809,-1.0167405605316162,0.4870263636112213,-1.3428819179534912,1.3617289066314697,0.6709579825401306,-0.641165018081665,-0.932845413684845,-0.7309858798980713,-2.333942413330078,-0.8383216857910156,0.7681310176849365,0.1647176444530487,-0.9000722765922546,-1.4774479866027832,-1.4949159622192383,0.15252481400966644,-0.2038719207048416,0.6175878643989563,-0.36033323407173157,0.4373328387737274,1.9312463998794556,-0.800819993019104,-0.35794031620025635,2.584113597869873,2.5564956665039062,-1.2003967761993408,0.5608602166175842,1.1813501119613647,0.08697375655174255,-1.996535301208496,0.6746352910995483,-0.8237134218215942,-0.5218425393104553,0.6985945105552673,1.9073373079299927,-0.1159302219748497,0.6317812204360962,-1.3865360021591187,-0.9733477234840393,0.38032323122024536,0.5616194605827332,0.7082341313362122,3.6021249294281006,0.06895409524440765,2.357893705368042,-3.728083372116089,-0.42427724599838257,1.9124655723571777,0.1752127856016159,-0.00969929900020361,0.8786810636520386,-0.2710893452167511,1.8213727474212646,-0.5274989604949951,-1.0516555309295654,0.796500563621521,-0.325876921415329,0.1382662057876587,1.047921895980835,0.7290172576904297,0.9597732424736023,0.10765473544597626,-0.7061368227005005,0.04240728169679642,-2.303380250930786,-0.1797153800725937,1.4117730855941772,-1.6301831007003784,1.2565183639526367,1.4986008405685425,-2.0041744709014893,0.6835154294967651,2.077233076095581,-0.42877396941185,1.521228313446045,-1.5244611501693726,-0.3526352047920227,-0.8136159181594849,1.8669533729553223,-1.8846524953842163,0.9219061136245728,-0.7085170149803162,-2.5181057453155518,-1.2784672975540161,0.8546476364135742,-0.7971584796905518,0.9707908034324646,0.49615949392318726,1.9102874994277954,0.43397730588912964,0.011285586282610893,2.0031163692474365,1.3442901372909546,0.018281729891896248,2.894005537033081,0.034672461450099945,-0.28646600246429443,-1.0520806312561035,-1.19162118434906,4.0109333992004395,-1.6798886060714722,2.7845888137817383,-1.4562190771102905,1.6584084033966064,1.4546531438827515,0.1591850221157074,-0.014835716225206852,-1.3487708568572998,-0.635593593120575,-0.4886017441749573,0.670315682888031,2.7145416736602783,-1.8020038604736328,0.5010677576065063,-2.253998041152954,0.19196750223636627,2.9783778190612793,3.8234620094299316,-2.6546480655670166,0.20216374099254608,5.699949264526367,0.10276701301336288,-0.26671600341796875,-3.515166997909546,0.08400166034698486,-2.6596779823303223,-1.0886082649230957,-2.6476497650146484,1.3443858623504639,-1.0840922594070435,-0.8590208888053894,2.708268404006958,-0.886524498462677,1.521803617477417,1.2088367938995361,3.440002918243408,2.6648318767547607,3.023277521133423,-2.0819246768951416,-1.6777445077896118,0.74988853931427,2.2784764766693115,-0.8639943599700928,-1.0429408550262451,-1.534936785697937,1.9377472400665283,2.355729341506958,-0.8391861915588379,0.28036075830459595,0.8488323092460632,-3.6020944118499756,0.9626970887184143,0.6501452922821045,1.4381998777389526,1.5615450143814087,-0.8328843712806702,1.769658088684082,-2.26467227935791,0.6135317087173462,-0.2532093822956085,0.9961986541748047,1.0062884092330933,-1.442229986190796,-2.9791040420532227,-2.2411041259765625,3.0891215801239014,-0.06470774859189987,2.02961802482605,-0.21919193863868713,-1.0537160634994507,0.6285474300384521,3.195467233657837,3.0208706855773926,2.888657331466675,-1.3076975345611572,-0.14862211048603058,1.947750210762024,-2.376283645629883,-1.0641944408416748,2.0154483318328857,-1.9695918560028076,3.6262075901031494,-1.3376191854476929,-1.3743699789047241,2.668498992919922,-1.0789705514907837,-1.215200662612915,-1.287523627281189,2.4921624660491943,-3.9207255840301514,2.627270221710205,1.9012850522994995,-2.713562250137329,0.5323092937469482,3.7926747798919678,2.370120048522949,2.3887014389038086,1.2340965270996094,-2.9152019023895264,1.4075084924697876,0.2792260944843292,1.2329908609390259,0.33104488253593445,1.4469692707061768,-0.3941377103328705,3.2264225482940674,-0.1855897754430771,2.350393056869507,4.433107852935791,-2.1497886180877686,4.385381698608398,-6.618480682373047,0.011167943477630615,-1.9276795387268066,-1.2163453102111816,-4.13057804107666,-2.4336578845977783,-0.442349910736084,0.7398940324783325,2.683347702026367,3.381253719329834,-0.7528736591339111,0.32183822989463806,-1.1072285175323486,-0.048914339393377304,-0.4010479152202606,1.5256497859954834,0.5496782064437866,0.8823984861373901,-1.8183907270431519,2.782644748687744,1.2606563568115234,-1.4635281562805176,0.27185574173927307,1.3634406328201294,1.9486585855484009,0.5490176677703857,1.7321642637252808,-4.8373332023620605,2.8795788288116455,-1.4200681447982788]},"forgetBias":{"rows":20,"columns":1,"weights":[0,0,0,0,0,0,0,0,0,0,0,0,0,0,0,0,0,0,0,0]},"outputMatrix":{"rows":20,"columns":31,"weights":[-3.2694647312164307,-1.8296509981155396,2.4131510257720947,-1.4833242893218994,-0.23367179930210114,0.6594265699386597,0.6603104472160339,0.4247739017009735,-0.01077517680823803,1.681848406791687,0.28436535596847534,0.3802691102027893,-1.576145052909851,-0.23743022978305817,0.6207197904586792,-1.198322057723999,0.08119282871484756,3.033507823944092,0.4088842272758484,0.537013053894043,-1.666957974433899,0.29169368743896484,0.9425882697105408,1.681118130683899,0.2217080295085907,0.8430951833724976,0.4521244168281555,0.6202463507652283,2.9893932342529297,0.3106513023376465,3.2671172618865967,-0.642977237701416,-0.4944821894168854,-1.6001486778259277,0.918148934841156,0.7657141089439392,1.0324679613113403,2.0114147663116455,-1.4324530363082886,-0.2551807463169098,2.3072822093963623,-1.405770182609558,0.44930556416511536,-0.5018945336341858,1.4951900243759155,1.7624157667160034,-0.15114551782608032,0.13117505609989166,1.3010605573654175,-1.3027089834213257,-2.885300397872925,1.2098047733306885,1.2683284282684326,-0.21315918862819672,-0.8418636918067932,0.4012352228164673,0.23314730823040009,-0.7302238941192627,-0.7056235074996948,0.6047545671463013,-1.3749033212661743,1.3851646184921265,-1.498789668083191,-1.7525967359542847,4.605976104736328,-3.2595136165618896,0.5620693564414978,-0.914974570274353,-0.8468834161758423,3.3578522205352783,2.519757032394409,-1.026909351348877,-0.6343784928321838,0.5286566615104675,-1.2228015661239624,-2.7515077590942383,0.481442391872406,0.10975868254899979,-3.28918719291687,1.6101596355438232,2.16786789894104,1.8045326471328735,0.9905338287353516,0.22758205235004425,1.0408289432525635,2.9125280380249023,0.7066901922225952,-0.0688825398683548,2.277024745941162,2.0318970680236816,-1.3614940643310547,-1.1183441877365112,-0.8244674205780029,-0.5471982955932617,-1.474125623703003,0.06647378951311111,-2.6838653087615967,2.7025632858276367,1.1910464763641357,1.8223291635513306,0.5556737184524536,-0.31528255343437195,0.21973100304603577,0.06506823748350143,3.579213857650757,-0.6497254371643066,0.5221922993659973,0.29680389165878296,-0.05803510546684265,-0.46729758381843567,0.9117211699485779,1.6222434043884277,1.392484426498413,1.1461389064788818,0.3027556538581848,-1.17729914188385,-1.0287234783172607,1.7982821464538574,0.6407133936882019,2.096930742263794,1.9247040748596191,1.2533531188964844,-2.4508256912231445,1.2729898691177368,1.2249135971069336,-1.7251981496810913,1.9749691486358643,-1.2175861597061157,0.009254692122340202,0.21492253243923187,-2.0960147380828857,2.1242990493774414,2.387112617492676,-1.779996633529663,-0.5023762583732605,-0.1895141452550888,0.21097826957702637,1.067399501800537,1.0051813125610352,0.10789947956800461,0.13850057125091553,1.0819991827011108,0.034953247755765915,0.8232625126838684,-2.1741738319396973,-1.6766607761383057,-0.6867465972900391,0.9744730591773987,1.6091018915176392,1.9548648595809937,0.27353784441947937,0.7306728363037109,1.0944567918777466,-0.2119138240814209,-2.509507656097412,0.9286532402038574,1.4826397895812988,-1.2202622890472412,0.7093181610107422,1.7171210050582886,-0.10207286477088928,-2.3450372219085693,-0.7463951110839844,3.0548171997070312,-2.993443250656128,0.963485062122345,-0.4445098638534546,1.8140313625335693,-1.5317078828811646,-1.3041274547576904,1.1615484952926636,1.1442281007766724,-1.1666619777679443,0.06927020847797394,1.07491135597229,2.084765672683716,2.5111536979675293,0.20525366067886353,-0.9974552989006042,1.2492902278900146,0.3606061339378357,-0.903776228427887,0.5443226099014282,0.37565717101097107,2.1027472019195557,-1.1023609638214111,-1.4507033824920654,0.8919692039489746,0.5783222913742065,-0.5619756579399109,0.08555462211370468,2.1494569778442383,-1.156661868095398,-0.17991051077842712,-1.3003467321395874,-0.11299028247594833,-2.0156166553497314,-0.20700949430465698,-0.07986079901456833,1.210069179534912,2.0268149375915527,-0.9977765083312988,-0.07023203372955322,0.2634229063987732,-0.9704701900482178,-0.38287436962127686,1.1865798234939575,0.28587910532951355,2.2771189212799072,0.12322362512350082,-1.8181182146072388,-2.2046597003936768,0.26717880368232727,1.976456880569458,0.9497666358947754,-1.2660399675369263,1.818771243095398,0.2735990881919861,0.13416604697704315,-1.6736923456192017,2.6262896060943604,0.6593257188796997,-1.046627402305603,-1.460411787033081,1.9101648330688477,1.6226811408996582,-1.8755155801773071,1.0830696821212769,-0.0638713464140892,1.2617394924163818,-1.2017855644226074,-0.3028380870819092,1.0846092700958252,3.773261785507202,-1.2021584510803223,0.8923851251602173,1.5487760305404663,-1.8075159788131714,0.8397865891456604,0.0038565576542168856,-0.582359790802002,-0.8895570635795593,0.022200053557753563,0.2975926697254181,1.4168989658355713,-0.930723249912262,1.0701537132263184,-0.5362837314605713,1.1551607847213745,0.8189637064933777,-0.9501466155052185,-0.30852290987968445,-0.5086653828620911,1.0547962188720703,1.7213119268417358,0.8254942893981934,-0.6330389380455017,0.6424474120140076,-0.7419903874397278,4.34522819519043,-1.3735190629959106,-0.696118175983429,2.865320920944214,0.3216819763183594,2.587831497192383,1.4474023580551147,-0.3428463041782379,0.25653448700904846,0.17592638731002808,0.029992621392011642,-1.1281059980392456,0.40389615297317505,0.09645295143127441,-1.7800488471984863,-1.3227077722549438,-0.7408267855644226,0.8321430087089539,-0.46071356534957886,-1.613018274307251,1.8699952363967896,1.3568203449249268,0.4880407154560089,0.05969040095806122,1.8888792991638184,-1.009866714477539,1.6053844690322876,0.3542630076408386,-0.1368723064661026,-0.7846835255622864,2.516047954559326,-0.24780265986919403,1.9698060750961304,0.30879250168800354,-0.6924771070480347,-0.5435172319412231,0.6136054992675781,-1.1490451097488403,1.826817274093628,-1.8520398139953613,-2.3056368827819824,2.310891628265381,-2.63973069190979,-0.598291277885437,0.7422270178794861,1.9902955293655396,1.4524341821670532,1.0123858451843262,-0.38736778497695923,0.020165111869573593,-2.106276750564575,0.5743498206138611,-1.1498359441757202,1.0856777429580688,-2.8580214977264404,1.0826215744018555,1.2146698236465454,0.217248797416687,-0.6643184423446655,1.014479160308838,0.02900409884750843,-0.4298725426197052,0.2164788693189621,-0.7999061942100525,-1.6133822202682495,0.09453519433736801,-0.0873551294207573,-3.2809016704559326,3.30899715423584,1.7302305698394775,0.9494568705558777,0.36864691972732544,0.42466238141059875,-0.7246768474578857,1.5292786359786987,2.8274810314178467,2.8445162773132324,-0.35050228238105774,-0.22135990858078003,-0.35729148983955383,-1.3032927513122559,0.7502346634864807,0.5052210688591003,-1.370818018913269,0.4233752191066742,1.1872951984405518,-2.078162431716919,-0.27689409255981445,1.0438647270202637,1.018561601638794,-1.1454588174819946,0.528770387172699,0.8573718667030334,0.37172001600265503,-2.3280696868896484,0.36161547899246216,0.0731341764330864,-0.27662351727485657,-4.4132890701293945,-0.3995535671710968,0.006315905600786209,-1.853177547454834,1.0190016031265259,-0.6612686514854431,-1.2058769464492798,1.634886384010315,-0.08244195580482483,0.514273464679718,1.456626057624817,0.9297649264335632,-1.744910478591919,-1.2936335802078247,-0.06725414842367172,1.6198776960372925,1.6895403861999512,-1.1730873584747314,-0.08113054186105728,0.37298816442489624,-1.246793270111084,-1.1949045658111572,0.5369900465011597,1.8033989667892456,-2.879464626312256,0.4920315444469452,-0.5926083326339722,0.8998904824256897,0.3151693046092987,0.12857085466384888,2.087783098220825,1.4581072330474854,-1.3572945594787598,0.13504302501678467,2.0892913341522217,0.8634910583496094,0.5944869518280029,0.5623720288276672,0.3987024128437042,1.6361024379730225,0.5679818391799927,-1.1888235807418823,-0.021768489852547646,-0.869331419467926,1.0297142267227173,-0.9000645279884338,-1.0996968746185303,-1.2294557094573975,-0.04318394511938095,0.0521048940718174,2.019914150238037,-1.071803092956543,-1.1053966283798218,-3.111593246459961,0.6753323078155518,-1.1677937507629395,0.39782166481018066,-1.5351425409317017,0.5052891373634338,-0.16457003355026245,0.3717561662197113,-1.1475154161453247,0.9515302181243896,-0.08683449029922485,1.3626110553741455,0.1743718981742859,-0.801349401473999,0.5599877238273621,0.006118458230048418,0.8820281624794006,1.5117485523223877,1.4087163209915161,-1.5574994087219238,0.23404937982559204,-0.29171136021614075,1.535334587097168,2.5221667289733887,-1.6582634449005127,-0.2570129334926605,-0.2144210785627365,-1.9691616296768188,1.0243346691131592,3.1104681491851807,0.3010507822036743,0.003692479571327567,0.5776280164718628,0.24587418138980865,-1.5120959281921387,2.1787984371185303,1.1853578090667725,-1.6899014711380005,0.15104739367961884,-0.03565852716565132,1.2761285305023193,1.5566836595535278,-1.0244557857513428,0.23084169626235962,1.7537569999694824,-1.066275715827942,0.3353916108608246,0.06091310828924179,0.6999757885932922,-0.35562863945961,-0.5712651610374451,2.8929100036621094,1.441796064376831,1.7432396411895752,0.6419007182121277,1.3983228206634521,2.4054930210113525,-1.1453025341033936,0.3068515956401825,1.175857663154602,-3.413081407546997,-0.41747570037841797,0.44452908635139465,0.7771696448326111,-2.093858242034912,0.3664630949497223,-0.3504519462585449,0.8669400811195374,-0.10278386622667313,0.5426644682884216,0.03131365776062012,3.098937511444092,-0.6860163807868958,-0.27693918347358704,-0.20612046122550964,-1.6277707815170288,0.45609572529792786,-3.304880380630493,-0.5114702582359314,2.6009721755981445,0.5841330289840698,-2.269009828567505,1.3275971412658691,0.36016297340393066,1.2927087545394897,-1.6755599975585938,1.0069867372512817,2.0562849044799805,0.23031994700431824,3.507443904876709,-6.125984191894531,1.1850804090499878,-0.12271308153867722,0.22027097642421722,-0.8641124963760376,1.0990749597549438,-0.7061168551445007,-1.3610385656356812,-0.4408997595310211,1.2420480251312256,2.4050190448760986,-0.051602765917778015,0.2682962119579315,-1.5609239339828491,-0.9940057396888733,-1.7126379013061523,-0.33184051513671875,-1.2617822885513306,1.6435613632202148,-0.9304336905479431,-3.4416310787200928,-2.596660614013672,1.0665631294250488,-0.8174149394035339,-0.11265701800584793,0.41881895065307617,-0.8831170201301575,-1.9729379415512085,0.003629322163760662,0.734477162361145,0.9326382875442505,-0.2292223870754242,1.5216153860092163,-0.5991247296333313,-0.7360312938690186,-1.026506781578064,2.2566184997558594,0.5131457448005676,-1.613602638244629,-0.8928903341293335,2.3919191360473633,1.9488520622253418,-1.8462331295013428,-0.15548303723335266,-0.30186009407043457,0.43775999546051025,0.6899387240409851,-1.9293731451034546,-1.6609539985656738,2.4713399410247803,0.4239295721054077,-1.2760765552520752,-0.558422863483429,1.055295467376709,-1.19499933719635,0.509484052658081,-2.1479365825653076,2.437551259994507,-1.2024344205856323,0.7996969819068909,-0.6536275148391724,-0.5054054856300354,0.9305974841117859,0.6588342189788818,2.0070090293884277,0.7691732048988342,-1.227128505706787,2.043128252029419,0.06036025285720825,4.796483993530273,0.7646745443344116,-1.9167437553405762,2.5331873893737793,-1.6028019189834595,-0.6111013889312744,1.51979398727417,-1.4691828489303589,-0.7174882292747498,-0.12399392575025558,-0.36346596479415894,0.7486529350280762,0.3309462368488312,-2.8073220252990723,-1.0408905744552612,1.0518406629562378,2.0082101821899414,0.3034385144710541,-3.4017350673675537,1.5876431465148926,0.316739946603775,1.0171501636505127,-2.182582378387451,3.288905620574951,-0.2401781529188156,-0.7574759125709534,-0.021327996626496315,0.8769826889038086,-1.1482049226760864,-0.07218389213085175,0.42360591888427734,-2.1392273902893066,-0.40822628140449524,0.560628354549408,-2.328465700149536,1.6184641122817993,0.5191690325737,-2.619425058364868,-0.18242676556110382,-0.9913007020950317,-1.10160231590271,0.7895680069923401,1.0807697772979736,-1.4430214166641235,-3.712132692337036,0.305971622467041,0.8707013130187988,-0.3866780400276184,-0.02594272419810295,0.18448123335838318,-0.0507487878203392]},"outputHidden":{"rows":20,"columns":20,"weights":[0.8635844588279724,-0.2857532799243927,0.17791686952114105,2.1167945861816406,0.20787154138088226,-2.3711817264556885,0.1676655411720276,0.47159528732299805,-2.0803914070129395,-2.7019832134246826,-0.9400309324264526,-1.0185710191726685,-0.2595016360282898,1.5838371515274048,0.016417091712355614,2.5757906436920166,-1.657118320465088,0.08064896613359451,4.330630779266357,-1.3034372329711914,0.4589692950248718,0.032097093760967255,3.7534120082855225,1.2167149782180786,3.7067275047302246,-0.4695115089416504,3.164699077606201,0.1583649069070816,-5.8546576499938965,1.7783465385437012,-2.3465189933776855,0.055826105177402496,-0.8661069273948669,-2.0135715007781982,-2.044393539428711,0.6374459266662598,1.6851767301559448,-1.1903371810913086,3.2246716022491455,1.2712067365646362,3.722418785095215,-3.072397470474243,-0.19324836134910583,1.3380637168884277,-0.7882840037345886,3.781398057937622,-1.1696505546569824,-2.0685582160949707,1.2783761024475098,-1.0889649391174316,1.2635451555252075,-1.7209995985031128,-2.423029661178589,-0.7322836518287659,2.5582401752471924,-1.2619150876998901,-2.498647928237915,-1.438333511352539,-2.37461519241333,-1.6990629434585571,-0.6969597339630127,3.2852683067321777,0.6169646978378296,-0.16645707190036774,0.408725768327713,-0.6048505902290344,0.18855367600917816,-0.9377877116203308,0.399292916059494,-0.09681356698274612,-0.2964332699775696,0.5372690558433533,-0.401230126619339,-1.2062597274780273,0.29483065009117126,0.6515114903450012,0.6287911534309387,0.8431813716888428,0.9474949836730957,-0.5410791635513306,2.183953285217285,-0.01403933484107256,-2.330568313598633,-2.9381396770477295,-0.7512045502662659,0.48499783873558044,0.9436118006706238,0.933768630027771,-0.49063485860824585,1.030682921409607,-0.4868957996368408,-1.0501842498779297,-0.08427257835865021,-0.46519261598587036,0.5258015394210815,-1.0662569999694824,-0.7364975810050964,-0.2906991243362427,-3.692009210586548,-0.5542616844177246,1.938241720199585,-0.377431184053421,-1.5185796022415161,-0.38194555044174194,1.9166882038116455,-1.1380853652954102,-0.8728979229927063,0.3056885302066803,0.41291379928588867,-1.8728373050689697,0.609998881816864,-0.6395561695098877,-1.8111342191696167,0.1580113023519516,1.2301748991012573,-3.0031981468200684,0.12433473020792007,-0.25091561675071716,-0.7794507741928101,0.17142052948474884,0.03811636567115784,0.8358010053634644,2.639803886413574,-0.9842478632926941,-3.6296026706695557,-2.2231719493865967,-2.5628998279571533,1.5201783180236816,-2.4243900775909424,-1.6898388862609863,0.39342808723449707,1.5803263187408447,-5.182645797729492,0.06040458753705025,-0.3556581437587738,-0.982612133026123,3.237842559814453,-1.472892165184021,7.359426021575928,2.4176409244537354,-2.6611101627349854,-0.4345158040523529,-0.38186073303222656,-0.04196410998702049,0.563664436340332,0.7894978523254395,-0.058839838951826096,-2.0536692142486572,-0.9294525384902954,0.9539926648139954,1.7105556726455688,-1.0441757440567017,-4.656730651855469,-1.3010379076004028,2.629838705062866,1.9952744245529175,2.888423204421997,1.1018671989440918,1.976184606552124,0.5364348888397217,-1.410260796546936,1.2348915338516235,1.495308518409729,-1.388743281364441,-3.036350965499878,-0.6844624876976013,-0.1624511182308197,2.0485103130340576,-1.0886032581329346,-0.7197347283363342,-0.5996107459068298,1.1976841688156128,0.7764046788215637,1.507622241973877,2.354179620742798,-2.253385543823242,-2.6918368339538574,0.30546844005584717,-1.126423716545105,0.9916465282440186,-3.253427505493164,-1.3632287979125977,-1.0140966176986694,-2.19397234916687,0.27887600660324097,-2.856318473815918,1.2978264093399048,-3.5165679454803467,2.9938066005706787,0.14791931211948395,-1.9243351221084595,2.406912326812744,-1.3617452383041382,-1.2874058485031128,0.32270723581314087,-1.9645867347717285,1.6652647256851196,1.7704870700836182,0.05584497004747391,3.858053684234619,1.8749216794967651,-1.6745911836624146,0.7051088213920593,0.7183773517608643,-2.5982048511505127,-1.745517611503601,0.727135419845581,-2.5858774185180664,2.1879491806030273,-2.619871139526367,1.5838916301727295,-0.04298350587487221,0.15593016147613525,-0.5496535301208496,2.6163697242736816,2.012211322784424,0.019459029659628868,-3.500915050506592,1.6641411781311035,0.06745676696300507,-0.2533162832260132,-1.1912111043930054,1.9012117385864258,-1.2612690925598145,-0.07208283990621567,-2.6578149795532227,-2.3220906257629395,0.1957741677761078,2.7644786834716797,-1.4616931676864624,-1.100560188293457,0.472724586725235,-0.08234784752130508,3.342108726501465,2.546558380126953,1.5407295227050781,-4.269745826721191,2.0551795959472656,-2.70569109916687,-2.7591075897216797,0.2682190239429474,0.8931331634521484,-1.0654007196426392,-3.4449045658111572,-2.480114698410034,0.12789210677146912,1.4149069786071777,-0.2102964222431183,1.3816064596176147,-3.245251417160034,-3.0287609100341797,1.648908257484436,-1.3573907613754272,-0.49852147698402405,0.37142491340637207,-0.536607563495636,0.40033087134361267,0.20521733164787292,-0.8993880152702332,-0.5321789979934692,1.6011414527893066,-3.7608535289764404,0.66203373670578,0.4450591802597046,-1.5573614835739136,-0.37248843908309937,1.2715961933135986,-1.8239415884017944,2.1760904788970947,-0.5939471125602722,2.8805954456329346,2.5866565704345703,-0.4915043115615845,4.172958850860596,-0.03006785176694393,5.271841049194336,0.6156057715415955,-1.476810097694397,-0.13890106976032257,0.06479978561401367,-3.888838768005371,-2.121175527572632,-3.109593629837036,-3.6696794033050537,-1.190146565437317,1.2645317316055298,-1.5460890531539917,0.10251059383153915,2.4743564128875732,-4.680021286010742,0.6136111617088318,6.734958648681641,-0.2742983400821686,2.321298360824585,2.8161942958831787,3.642101764678955,3.716142416000366,0.268657922744751,-0.8503515720367432,-1.365979552268982,-1.0041158199310303,-0.6124900579452515,-1.016683578491211,-4.317257881164551,-3.4096808433532715,-2.3097145557403564,1.244748830795288,-3.2282979488372803,1.5002135038375854,-3.362454414367676,-2.7452244758605957,0.6213226914405823,-3.9168269634246826,-1.2397758960723877,-0.9257181286811829,-3.5417535305023193,0.9575941562652588,1.727536678314209,-2.921574115753174,2.181252956390381,1.8632256984710693,-2.4559805393218994,2.83187198638916,2.4877774715423584,1.1903226375579834,0.18029193580150604,-0.6124125719070435,2.5047833919525146,-2.0494160652160645,2.4554800987243652,-0.6377671360969543,-1.8301969766616821,-0.03356689587235451,0.40932223200798035,1.1489120721817017,0.30715295672416687,1.0874462127685547,-3.570061206817627,-4.071813583374023,-0.35518914461135864,-0.269576758146286,-1.2836496829986572,0.7978253960609436,1.6716210842132568,-3.8716208934783936,-0.04840615391731262,-0.6546322703361511,-0.47369086742401123,-2.609192132949829,1.0938080549240112,-1.1543337106704712,-0.3884028196334839,-0.37637317180633545,-0.2713307738304138,-1.4841479063034058,1.8248860836029053,0.8783946633338928,-0.6885910034179688,2.0923023223876953,-0.6407599449157715,0.8143107891082764,1.3082680702209473,-1.7335513830184937,1.3502641916275024,1.3021163940429688,1.420323133468628,-3.7069592475891113,0.6286088824272156,0.4049797058105469,-0.26791536808013916,1.9472992420196533,-5.357725143432617,0.5973337292671204,-1.8948668241500854,3.0700106620788574,2.3647258281707764,-2.134796380996704,-3.545314073562622,-2.2222912311553955,0.9245835542678833,2.686617612838745,0.48526111245155334,-0.023395013064146042,3.1825926303863525,1.2252181768417358,-1.743804931640625,1.7941622734069824,3.1614511013031006,-3.296290636062622,3.967823028564453,-0.6249988079071045,-4.4286065101623535,-1.531015396118164,2.6051347255706787,-1.9525595903396606,1.72645103931427,-2.083854913711548,-1.776631236076355,3.071707010269165,-1.1891899108886719]},"outputBias":{"rows":20,"columns":1,"weights":[-2.5838940143585205,-2.416818857192993,-0.712344229221344,-4.8370537757873535,-0.4844537675380707,-1.144734263420105,-0.9561545848846436,-0.4568060338497162,-5.311750888824463,-2.507636308670044,0.6442630290985107,-4.2772746086120605,0.463011771440506,4.279198169708252,1.1513859033584595,3.1943938732147217,0.04745926335453987,-0.1641867607831955,-0.509627103805542,-1.3406473398208618]},"cellActivationMatrix":{"rows":20,"columns":31,"weights":[-0.03913581371307373,-0.568694531917572,0.3604222536087036,-1.9766029119491577,1.2198359966278076,2.0965166091918945,-0.2685389816761017,0.12763412296772003,-0.04195263236761093,0.4325494170188904,-2.808833599090576,1.419913649559021,-1.4462907314300537,-0.051551736891269684,2.5339417457580566,-1.429706335067749,-1.9982857704162598,1.5336034297943115,2.1797704696655273,0.8197832703590393,-1.5857802629470825,-2.978515863418579,-1.613736867904663,2.0625717639923096,0.9102354049682617,-0.495866596698761,1.23556649684906,-2.314361333847046,0.664034903049469,-1.9342799186706543,0.4282601475715637,0.6866950392723083,2.9620025157928467,-0.40113645792007446,1.827325463294983,1.4926646947860718,0.604642391204834,1.4542521238327026,1.6859509944915771,-1.9597417116165161,-0.42228612303733826,0.8211734294891357,0.7039141654968262,-0.08336992561817169,0.8962159156799316,0.05837574601173401,0.02838771976530552,0.23607487976551056,0.34804216027259827,-1.0329670906066895,-0.33363887667655945,-1.7682335376739502,-0.3478129506111145,0.14515294134616852,-0.891602098941803,-0.22469381988048553,0.0076224310323596,2.016111135482788,0.5623279213905334,0.7452943325042725,-1.6729521751403809,0.2330123335123062,2.9947502613067627,0.13047705590724945,-0.14116206765174866,-0.5366285443305969,1.232556700706482,0.3898496627807617,1.251188039779663,-0.48946213722229004,-0.3542848825454712,-0.4743756055831909,-0.09400931745767593,-0.01973971165716648,0.9763259291648865,1.7600828409194946,0.0952276960015297,-0.9673969745635986,-0.411050021648407,-0.5225306153297424,-0.46456366777420044,-0.6153738498687744,-2.2339892387390137,-2.1014888286590576,0.8052560687065125,0.08405695110559464,-0.7560556530952454,-0.6316025257110596,-1.7964816093444824,0.8716047406196594,1.3021068572998047,-0.6801375150680542,-3.1357202529907227,-1.6078051328659058,-0.804165244102478,1.2374334335327148,-0.4434661269187927,0.9476136565208435,1.2614097595214844,0.791405975818634,0.35501623153686523,-1.0184721946716309,0.6821381449699402,-0.7588247656822205,0.8048447370529175,-1.2578905820846558,-0.15067815780639648,0.5203426480293274,-0.77901291847229,-2.355297327041626,2.1497793197631836,1.6907824277877808,0.5197113752365112,-1.093715786933899,-0.006415736861526966,1.0103540420532227,0.9518793225288391,-0.4510505199432373,-0.08061395585536957,2.0643739700317383,0.0836174413561821,0.09338627010583878,-1.446248173713684,1.8581926822662354,0.408917635679245,-0.7840651273727417,-0.16863124072551727,-1.5455225706100464,1.7278343439102173,0.9764105081558228,-0.7523723244667053,-1.6890640258789062,0.7536904215812683,0.0041791354306042194,-0.7572622299194336,-0.40073055028915405,1.9733549356460571,-0.9093701243400574,-1.259721279144287,-1.1073251962661743,-0.12730810046195984,-0.2188047170639038,2.201566696166992,0.04982966184616089,-1.5655665397644043,-0.6077809929847717,0.0783776342868805,-0.8917933106422424,-0.5890228152275085,-0.7432811260223389,-0.7263010740280151,-0.9217547178268433,0.06478951126337051,-1.217553734779358,0.006027215626090765,-1.6950846910476685,0.45672938227653503,0.4609137177467346,-0.24578501284122467,-0.6272242665290833,0.15397070348262787,0.3080063760280609,0.4207809567451477,-0.3376632332801819,0.7617530226707458,-0.9782662391662598,-2.099440813064575,1.128761649131775,0.417558491230011,-1.5587741136550903,1.3175897598266602,0.17927688360214233,-0.5541800856590271,0.20731911063194275,0.36759328842163086,-1.3814055919647217,2.1552484035491943,-1.3911641836166382,-0.25589773058891296,0.3892673850059509,0.8421273827552795,0.6257668733596802,-0.36488598585128784,-1.5579252243041992,1.1490226984024048,0.9116974472999573,1.41475248336792,-0.019761379808187485,0.24801428616046906,-1.0587118864059448,1.3473719358444214,0.661634087562561,-0.35278376936912537,-0.29536062479019165,1.1754685640335083,0.14321529865264893,-0.4339005947113037,-0.4668697714805603,-0.43012869358062744,-0.7632806301116943,-0.2269534319639206,-0.19207869470119476,0.3459911644458771,-0.23657168447971344,1.713893175125122,-0.18108341097831726,-1.4067877531051636,0.17417164146900177,-0.9057835340499878,-0.15820737183094025,1.0802499055862427,1.7731586694717407,-0.7976899743080139,-0.13308770954608917,-0.07107533514499664,0.34559255838394165,-0.8722370266914368,-0.2833888828754425,0.7646274566650391,0.4272502660751343,0.23608453571796417,-0.512200653553009,-1.5771292448043823,-1.257899284362793,-0.6605948805809021,1.2933510541915894,0.7445845603942871,0.2793079614639282,-0.5940523147583008,2.1164674758911133,0.33651939034461975,-0.9639913439750671,1.0104622840881348,2.0219101905822754,-2.7956104278564453,0.5660164952278137,-0.27002793550491333,0.12034963071346283,0.6455055475234985,-0.03864695504307747,-0.31009185314178467,-1.5020272731781006,-1.3637115955352783,0.19571182131767273,-0.6645071506500244,-0.4632170498371124,-0.17603042721748352,-0.27398616075515747,-0.11265423148870468,0.018514540046453476,0.7388649582862854,-0.8654444217681885,-0.33258360624313354,-0.8992219567298889,-0.003430301323533058,-2.940892219543457,1.3795958757400513,0.8601324558258057,1.246868371963501,-1.914116621017456,0.3851495683193207,1.562483549118042,-0.9908424019813538,-0.10290703922510147,-2.7191693782806396,-0.9552922248840332,-0.4897145926952362,-0.2823558747768402,0.5833825469017029,0.5040324926376343,1.1094716787338257,-0.39411839842796326,-0.04338431730866432,0.5700721144676208,-0.494745135307312,-2.5679237842559814,-0.31989216804504395,0.8319646120071411,0.8483772873878479,-0.00033399852691218257,-0.38110631704330444,1.7605807781219482,-0.7654289603233337,0.5186282992362976,1.731887698173523,0.7244892120361328,0.6677830815315247,0.8358128666877747,1.1904950141906738,-0.4337141215801239,1.2747060060501099,-0.6967911124229431,0.252490371465683,0.8282323479652405,-1.152695894241333,0.5198663473129272,0.2701123058795929,-0.3390503525733948,-0.8186407089233398,-0.5448549389839172,0.003817515214905143,0.11590298265218735,0.4943806529045105,0.336011677980423,0.22293579578399658,0.25509878993034363,0.8730803728103638,2.4314470291137695,-0.17453834414482117,-0.22318141162395477,-2.2286629676818848,-0.9280294179916382,1.385996699333191,-0.34824705123901367,-1.2109283208847046,0.06848478317260742,1.2362208366394043,-0.3764352798461914,-0.6866441965103149,2.8701934814453125,-1.0486445426940918,0.38916727900505066,-1.797070026397705,1.3417329788208008,0.24999192357063293,-1.0673564672470093,-1.8494458198547363,0.8993473052978516,-0.7479650378227234,-0.2859056293964386,0.7969779372215271,-1.128430962562561,0.37877315282821655,1.0906751155853271,-0.7206261157989502,-1.3571313619613647,0.8492545485496521,-0.3839263617992401,0.5495321750640869,-0.7280673980712891,1.366688847541809,1.0491039752960205,0.3660418689250946,-0.6311566233634949,2.7334742546081543,-3.0574638843536377,0.9471334218978882,0.7419270873069763,0.7690840363502502,-0.31351545453071594,-1.0395280122756958,2.6387007236480713,-2.6996190547943115,-0.505923330783844,-0.23431538045406342,0.36638423800468445,0.6649203896522522,-0.019455906003713608,-1.1673574447631836,-0.6930856704711914,-0.28975963592529297,0.7104413509368896,0.9450499415397644,2.118633508682251,-0.6291125416755676,-0.7371033430099487,-1.5922818183898926,-1.054650902748108,-0.9644373655319214,-1.4932522773742676,1.4969236850738525,-0.044721949845552444,0.40695124864578247,0.8561867475509644,-0.47286948561668396,0.9332042932510376,-0.1552082896232605,-0.46289026737213135,-0.08200906217098236,-1.5728155374526978,-1.1310200691223145,-0.7834843993186951,1.0960313081741333,-0.9128380417823792,1.7241519689559937,-0.8763914108276367,-2.8404555320739746,2.026073932647705,0.12534694373607635,-1.40819251537323,0.9483180642127991,-0.22518767416477203,1.7781022787094116,0.2467251569032669,-1.1802455186843872,-0.6698117256164551,0.44142720103263855,0.1751936674118042,-1.1257245540618896,-1.8080735206604004,-1.2289843559265137,0.17331615090370178,-0.7913892269134521,-0.6845515370368958,0.07612147927284241,-0.5185043811798096,1.0434296131134033,0.27094489336013794,-1.3609544038772583,0.1622205376625061,-0.4115266501903534,-1.6561392545700073,0.5251154899597168,0.4324187934398651,-0.12602190673351288,0.3572535216808319,0.07840541005134583,-0.1783142238855362,0.28697457909584045,0.0950145423412323,-0.6443496942520142,-0.3521939814090729,-0.7531647682189941,-0.3162318468093872,-0.36336493492126465,0.6333968043327332,-1.809744119644165,-1.2754757404327393,0.7322883009910583,-0.15023966133594513,0.34028875827789307,-0.7043038010597229,-0.5569553971290588,1.2789157629013062,-0.33506983518600464,-0.23239006102085114,-1.4781856536865234,1.1264665126800537,0.6692051291465759,0.07546720653772354,2.409642219543457,-0.5000348687171936,-0.49056923389434814,-0.0012470438377931714,1.8364630937576294,-0.023028256371617317,-1.4426798820495605,0.9891054630279541,0.6240634322166443,1.292189598083496,0.2875104248523712,-1.7559834718704224,-1.6661440134048462,-2.2315845489501953,0.9474655985832214,1.1191695928573608,-1.4437943696975708,-0.5634152293205261,1.2809522151947021,-1.2051784992218018,-0.04032621160149574,0.3251050114631653,-0.09565454721450806,0.7097870707511902,0.7846489548683167,-2.240302324295044,-1.8314297199249268,0.5854009985923767,-0.6046903133392334,-1.3728578090667725,0.7011702656745911,1.2751253843307495,-0.36763104796409607,-0.8453764915466309,1.4135897159576416,0.877493679523468,-0.7457259893417358,0.6509434580802917,0.768692672252655,-0.3131083846092224,-0.7983390092849731,0.3593149185180664,0.008863044902682304,-0.7889823913574219,-0.7147818803787231,1.479729175567627,-0.7521163821220398,0.0814363956451416,-0.1933080404996872,-1.5142836570739746,-0.8742960691452026,1.9491245746612549,0.5133024454116821,0.7431815266609192,-0.8476441502571106,1.1467750072479248,2.0593292713165283,-0.7793917655944824,0.6358159184455872,-2.7235145568847656,-0.7334321141242981,0.26692846417427063,-0.7798669338226318,0.29954928159713745,0.40584567189216614,-0.140634223818779,-2.154232978820801,1.7694565057754517,-1.1524136066436768,-1.4398679733276367,3.2534701824188232,-1.4907505512237549,-0.4345942437648773,1.5196990966796875,1.078890323638916,-0.02059171162545681,-0.35567429661750793,-0.4692312180995941,-1.6111133098602295,1.4761550426483154,-0.017281947657465935,-0.7086185216903687,0.42684289813041687,-0.09259461611509323,0.8077393770217896,-0.8810786008834839,-0.7355273962020874,1.427628993988037,1.7126960754394531,-0.055150050669908524,1.2661054134368896,-0.19839027523994446,-0.5578661561012268,-0.717392086982727,-2.400939464569092,-0.2479715794324875,-0.6932926774024963,0.5810341238975525,-1.019884467124939,2.9366722106933594,1.6241300106048584,-1.4075331687927246,1.7386267185211182,0.6826899647712708,-0.44674283266067505,2.175930976867676,0.9262203574180603,-1.8156037330627441,3.0557432174682617,-0.713022768497467,-0.43601834774017334,0.5120943188667297,-0.5762662291526794,-0.4105314612388611,-1.2356081008911133,-1.0955865383148193,1.1551460027694702,-1.0735282897949219,-0.3479549288749695,2.533500909805298,0.5418548583984375,0.22224098443984985,-1.153953194618225,1.4493181705474854,-1.0174261331558228,1.581890344619751,0.6515858173370361,-0.039114467799663544,-0.3083016574382782,-0.11282898485660553,-0.1486404985189438,-0.46267473697662354,0.5477035641670227,-0.763908863067627,1.9600659608840942,-1.056347370147705,-0.29187068343162537,0.22001418471336365,0.6775916218757629,-0.9534170627593994,-0.008515443652868271,0.5945913195610046,-0.7974539995193481,-1.6005284786224365,1.9924829006195068,0.6305129528045654,2.493582010269165,-1.1710920333862305,0.07692445069551468,1.8782989978790283,-0.46556156873703003,1.2029739618301392,-1.5641002655029297,0.9361817240715027,0.7523747086524963,-0.7536520957946777,0.3098202049732208,1.119765043258667,-0.825499951839447,-1.0859980583190918,0.43558382987976074,-0.7496562600135803,0.471932053565979,0.9431283473968506,-1.0778230428695679,0.014680576510727406,0.35941752791404724,-1.0379327535629272,3.367471218109131,0.03427891433238983,-2.0640180110931396,-1.3949633836746216,0.9783200025558472,1.4318435192108154,1.491459846496582,-0.6719462871551514,0.8510043025016785,1.2984453439712524,0.5240415334701538,-2.4198496341705322]},"cellActivationHidden":{"rows":20,"columns":20,"weights":[-1.5050426721572876,0.14335569739341736,0.04219195991754532,1.1122570037841797,-0.8882862329483032,0.9952238202095032,2.0928635597229004,0.8167788982391357,-0.9090510010719299,1.1608939170837402,0.35395488142967224,-2.2792158126831055,2.1324410438537598,0.8997564911842346,-0.9868341088294983,-1.6265555620193481,0.5364964604377747,-0.5238847732543945,-0.40005043148994446,-1.621195673942566,0.8601257801055908,-1.7190150022506714,-2.071777582168579,1.188795804977417,1.713318109512329,0.024949904531240463,-1.364365816116333,4.660206317901611,-1.4416248798370361,2.530674934387207,0.443455308675766,1.960976004600525,1.0000076293945312,-0.8964288830757141,2.1639769077301025,-0.5985216498374939,-0.9325953722000122,-0.12781547009944916,-0.8117491602897644,-2.101475238800049,0.9876850247383118,-2.541090250015259,-1.537054181098938,0.48053300380706787,-0.1762460172176361,-1.9839062690734863,-2.3183515071868896,1.2971861362457275,-0.3527001142501831,-1.1718519926071167,3.489767074584961,0.6686741709709167,1.374474048614502,2.0162458419799805,0.8707011938095093,1.3895018100738525,-0.26457980275154114,-1.740551471710205,-0.8766149878501892,-0.9849602580070496,0.9026381373405457,-3.017746925354004,-0.5564599633216858,-0.3180527985095978,1.0296958684921265,1.5051696300506592,-0.6742678880691528,-0.6758648157119751,-0.2953265309333801,-0.21679703891277313,-0.4738917648792267,-1.3105213642120361,1.499341368675232,0.46062368154525757,1.193428635597229,-0.16384993493556976,-2.362687110900879,-0.4958489239215851,1.132694125175476,-3.1100032329559326,0.052798688411712646,2.1977765560150146,0.5369491577148438,-3.3035199642181396,-1.4902530908584595,-1.4895111322402954,0.7669247388839722,-2.3099610805511475,0.440746933221817,-1.8159304857254028,-1.0235681533813477,3.6979360580444336,1.0234822034835815,0.6767889261245728,1.776098370552063,-0.6895094513893127,-0.7479053735733032,1.1632217168807983,-1.3670616149902344,-2.110092878341675,-1.0108150243759155,-1.7154136896133423,0.48255372047424316,-0.35657545924186707,-0.24029748141765594,-0.28486981987953186,-0.15730279684066772,-1.2034077644348145,0.8894079327583313,0.13772349059581757,0.03409161791205406,-0.8838633298873901,0.630059540271759,1.2728850841522217,1.3163385391235352,-0.8787480592727661,0.673629641532898,-0.10779163986444473,1.8458681106567383,-1.8885133266448975,1.4539141654968262,1.9927690029144287,-1.50308096408844,2.0051252841949463,0.942624032497406,1.2185527086257935,-1.5043200254440308,1.5748684406280518,1.3190324306488037,1.3655017614364624,2.450266122817993,-0.06867846846580505,-2.824310541152954,1.2026783227920532,1.603132963180542,3.1474123001098633,-0.0024323684629052877,-2.1449666023254395,0.7861781716346741,0.8430899381637573,-0.6258488297462463,0.4580663740634918,0.5834749341011047,-0.6964060664176941,-1.2892961502075195,0.3035033941268921,1.2123557329177856,-0.5082674622535706,1.2480885982513428,0.702914834022522,-1.610859751701355,0.8540146946907043,0.18160736560821533,0.043886225670576096,0.28123709559440613,-1.832621455192566,-0.5963274240493774,0.14951227605342865,-0.7688131928443909,-3.643772840499878,-0.7273552417755127,-2.4425060749053955,-1.2481616735458374,0.3127578794956207,-2.581921339035034,0.11385346204042435,0.752299427986145,-0.4889955222606659,2.0751006603240967,-0.5987695455551147,2.6906261444091797,0.5832022428512573,-0.4787590801715851,0.5438869595527649,1.9751436710357666,-0.06315016746520996,-1.3743613958358765,-0.7395538687705994,-0.39539575576782227,0.3991360366344452,0.01670900546014309,0.11255648732185364,0.20847244560718536,0.17960581183433533,-0.11405550688505173,0.5060515999794006,-0.5698000192642212,0.9102275967597961,-0.9738252758979797,0.21894694864749908,0.3972548246383667,0.48076871037483215,0.520664393901825,-0.030302466824650764,0.44013461470603943,0.7207170128822327,-0.888493537902832,-0.5336118936538696,-0.3814256489276886,-1.0991889238357544,-0.30789950489997864,-0.13600172102451324,-0.5224491953849792,-0.1213574931025505,-1.6244710683822632,0.056674666702747345,0.48235365748405457,-2.44433331489563,0.777834415435791,-0.7868821620941162,-0.9614127278327942,0.5513932108879089,-0.7667622566223145,-0.5769582390785217,-0.17216435074806213,0.5143870711326599,1.973724365234375,0.8276104927062988,0.8174474239349365,1.8865077495574951,-1.2573035955429077,0.8330822587013245,1.2814452648162842,0.4922024607658386,0.4033301770687103,-0.664638876914978,-0.23472203314304352,1.1181105375289917,-0.17247320711612701,-0.35446473956108093,-0.7228198647499084,-1.1267353296279907,-1.812156319618225,0.871109127998352,-0.07402924448251724,0.45506152510643005,-0.6370479464530945,-1.706907868385315,-0.1841879040002823,-0.7542178630828857,-0.6702953577041626,-0.285354882478714,0.8601186275482178,-0.23469969630241394,0.06040583550930023,-0.7943019866943359,0.9845414757728577,-0.5116424560546875,0.11668527871370316,-0.42068275809288025,-2.5367069244384766,-0.5707751512527466,-0.016156679019331932,-1.2056772708892822,0.08045840263366699,-0.3952323794364929,0.260868638753891,0.8589597344398499,-1.8299660682678223,0.12569543719291687,-0.20641416311264038,0.8282309770584106,0.33482399582862854,1.310939908027649,-2.3387680053710938,3.189723253250122,0.30562305450439453,-0.12336244434118271,-1.7353595495224,2.0474631786346436,-1.1607540845870972,-0.5616300106048584,-1.4610209465026855,-1.9215785264968872,-0.6861917972564697,-2.0120973587036133,1.0475385189056396,1.3383677005767822,0.3506416380405426,1.3982117176055908,-1.1410971879959106,-0.39477449655532837,-0.18478725850582123,1.1512408256530762,-0.29614749550819397,-1.1502389907836914,-0.32225510478019714,-2.0527091026306152,-1.100912094116211,-1.1262226104736328,0.41217613220214844,-0.826373279094696,0.08665453642606735,-0.15713535249233246,0.04545125365257263,-1.897845983505249,1.0927330255508423,0.27343881130218506,-1.046068787574768,1.3586461544036865,-1.120869517326355,-0.2532292604446411,3.853273391723633,